"","Dim 1","Dim 2","Dim 3","Dim 4","Dim 5"
"V1_0",0.053145950549946,0.00934213264941867,-0.14321313724198,-0.0462295113618067,0.0470927144067412
"V1_1",-0.620036089747658,-0.108991547575522,1.6708199344907,0.539344299221134,-0.549415001412318
"V2_0",0.0723758560684221,-0.0432789776006183,-0.164511887171752,-0.0664067101568836,0.0250607094534003
"V2_1",-0.844384987464338,0.504921405341214,1.91930535033776,0.774744951830394,-0.292374943623532
"V3_0",0.0717054475851242,-0.0170716029971806,-0.127668084287473,-0.0439905329841519,0.0458831487257462
"V3_1",-0.706810840483297,0.16827722954295,1.2584425451197,0.433620967987445,-0.452276751725768
"V4_0",0.0856596251811176,-0.0517901842952796,-0.136531036547541,-0.0531388347656737,0.0425747602710484
"V4_1",-0.844359162499826,0.510503245196327,1.34580593168298,0.523797085547215,-0.419665494100749
"V5_0",0.0861306882700288,-0.0775015791659947,-0.173248225828086,-0.0754243219128546,0.0217995836909453
"V5_1",-1.00485802981672,0.904185090269857,2.02122930132775,0.879950422316658,-0.254328476394351
"V6_0",0.09638287714965,-0.084503682160166,-0.141108988667632,-0.0633418494259012,0.0373135872942913
"V6_1",-0.950059789046523,0.832964867007219,1.39093145972341,0.624369658626744,-0.367805360472211
"V7_0",0.07250333497578,-0.0452020541327969,-0.0982286650316011,-0.0356384228545206,0.0348824888429523
"V7_1",-0.845872241384102,0.527357298215933,1.14600109203532,0.415781599969414,-0.406962369834457
"V8_0",0.0679197976762026,-0.0317455271093582,-0.127074158185612,-0.0476505535904182,0.0409244429436732
"V8_1",-0.792397639555717,0.370364482942555,1.48253184549866,0.555923125221521,-0.477451834342947
"V9_0",0.0679197976762079,-0.0317455271093626,-0.127074158185603,-0.0476505535904117,0.04092444294367
"V9_1",-0.792397639555647,0.370364482942519,1.48253184549866,0.555923125221532,-0.477451834342928
"V10_0",0.0679197976762118,-0.0317455271093683,-0.127074158185601,-0.0476505535904116,0.0409244429436843
"V10_1",-0.792397639555703,0.370364482942544,1.48253184549867,0.555923125221496,-0.477451834342936
"V11_0",0.0679197976762072,-0.0317455271093591,-0.127074158185612,-0.047650553590418,0.0409244429436869
"V11_1",-0.792397639555689,0.370364482942534,1.48253184549864,0.555923125221543,-0.477451834342995
"V12_0",0.0848866148722697,-0.0833911891381326,-0.0988247837579667,-0.0481621085795627,0.0327282385761411
"V12_1",-0.990343840176438,0.972897206611561,1.15295581050967,0.561891266761598,-0.381829450054987
"V13_0",0.0952703244412207,-0.112467867975727,-0.0258012773367208,-0.0218455048222647,-0.0182567345814965
"V13_1",-1.11148711848091,1.31212512638347,0.301014902261734,0.254864222926432,0.21299523678412
"V14_0",0.0660993462287401,-0.0204366456316696,-0.132647666427885,-0.0385207188036431,0.00737402370500357
"V14_1",-0.771159039335306,0.238427532369455,1.54755610832532,0.449408386042522,-0.0860302765585143
"V15_0",0.104895248439272,-0.0841256538761461,-0.0873401115028039,-0.0403322089738673,0.0437364461224471
"V15_1",-0.891609611733849,0.715068057947267,0.742390947773841,0.342823776277878,-0.371759792040784
"V16_0",0.0852949281309887,-0.0912908874664699,0.0208325767754637,-0.000174686282188745,0.0241180869146897
"V16_1",-0.995107494861534,1.06506035377548,-0.243046729047071,0.00203800662553365,-0.281377680671377
"V17_0",0.0786444916589833,-0.0958731230884695,0.0374799402043455,0.00605785268262909,0.102456709118266
"V17_1",-0.668478179101353,0.814921546251983,-0.318579491736934,-0.0514917478023578,-0.870882027505264
"V18_0",0.143155122423059,-0.158080774600615,0.0140504611303822,-0.00898368290267784,0.114002785418096
"V18_1",-0.763493986256311,0.843097464536618,-0.0749357926953801,0.0479129754809478,-0.608014855563167
"V19_0",0.108681814516962,-0.0937959716200911,-0.0342758269776233,-0.0136506561620394,0.027239600074839
"V19_1",-0.923795423394155,0.797265758770742,0.291344529309852,0.116030577377337,-0.231536600636182
"V20_0",0.0772749897745406,-0.0859721238616992,-0.0211512936189323,-0.0106128007355659,0.103225405643712
"V20_1",-0.656837413083603,0.730763052824462,0.179785995760917,0.0902088062523157,-0.877415947971565
"V21_0",0.13348605808526,-0.169951561634859,0.0854159090752697,0.0135334315892181,0.111904236539789
"V21_1",-0.788781252321957,1.00425922784232,-0.504730371808409,-0.0799702775726402,-0.661252306826014
"V22_0",0.139475679434479,-0.1531106357801,0.0508805979743245,0.00683814474340788,0.116207025333193
"V22_1",-0.743870290317222,0.816590057493867,-0.27136318919641,-0.0364701052981779,-0.619770801777033
"V23_0",0.0537825960168314,-0.0792336313126912,0.0299223763034672,0.00368222730284844,0.0827509407670831
"V23_1",-0.627463620196343,0.924392365314673,-0.349094390207287,-0.0429593185333211,-0.965427642282695
"V24_0",0.0654990075082785,-0.117427802156968,0.0817858630045993,0.0126390905137998,0.0800787655998164
"V24_1",-0.76415508759652,1.36999102516461,-0.954168401720322,-0.147456055994341,-0.934252265331193
"V25_0",0.055642809995518,-0.051001296363809,0.0101852076338794,0.00671488280051057,0.0897070386219511
"V25_1",-0.548479127098679,0.502727064157539,-0.10039704667682,-0.066189559033607,-0.884255094987804
"V26_0",0.144765377915256,-0.18577214454179,-0.00843065258427151,-0.0227977750930361,0.0824578154333468
"V26_1",-0.855431778590158,1.09774449047423,0.0498174925434202,0.134714125549757,-0.487250727560688
"V27_0",0.155704324216671,-0.142765855635989,-0.115208478727514,-0.0462658380855942,0.110738054976977
"V27_1",-0.754567109665406,0.691865300389789,0.558318012294873,0.224211369184037,-0.53665365104227
"V28_0",0.134030013334597,-0.158121336612153,-0.00314295309929783,-0.0177764574379502,0.100322536383444
"V28_1",-0.791995533340808,0.934353352708176,0.0185719955867434,0.105042703042421,-0.592814987720351
"V29_0",0.156295810513762,-0.193711984960311,0.0850749022735954,0.0209120991682485,0.0825920780526825
"V29_1",-0.83357765607341,1.033130586455,-0.453732812125858,-0.111531195564,-0.440491082947643
"V30_0",0.0834912266956129,-0.078163047404309,-0.00571936563906856,-0.00171729173704743,0.118540108151104
"V30_1",-0.621545798734004,0.581880464009859,0.0425774997575011,0.0127842829313548,-0.882465249569328
"V31_0",0.121636864319666,-0.136829956621561,0.0790313495764278,0.0193030971785684,0.112867092659964
"V31_1",-0.718763289161661,0.808540652763771,-0.467003429315253,-0.114063756055177,-0.666941911172512
"V32_0",0.122499281803585,-0.136115288719315,0.0795239644228458,0.0237762622500076,0.108482267494567
"V32_1",-0.723859392475729,0.804317615159588,-0.469914335225911,-0.140496095113687,-0.64103158064972
"V33_0",0.0739363559294128,-0.117969693931271,0.116229974263945,0.0281173657092592,0.0714201252697197
"V33_1",-0.72880122273279,1.16284412589396,-1.14569546060174,-0.277156890562698,-0.703998377658674
"V34_0",0.0916553286013981,-0.142619717756519,0.141004959187177,0.0328599907568077,0.0858179852428653
"V34_1",-0.779070293111882,1.21226760093041,-1.198542153091,-0.279309921432869,-0.729452874564365
"V35_0",0.0959646571532776,-0.119650595003934,0.0181509609275135,-0.0052430893841282,-0.00649027258587687
"V35_1",-1.11958766678823,1.39592360837924,-0.211761210820972,0.0611693761481617,0.0757198468352333
"V36_0",0.149452460240119,-0.140804553109104,-0.12563213141146,-0.0550187717268357,0.0312641444230214
"V36_1",-0.986386237584783,0.929310050520087,0.829172067315632,0.363123893397114,-0.206343353191941
"V37_0",0.189415985711576,-0.185506077105844,-0.131269123759486,-0.0603380333586175,-0.00291871074766774
"V37_1",-1.01021859046172,0.989365744564499,0.700101993383941,0.321802844579301,0.0155664573209064
"V38_0",0.188276204679939,-0.191651560567552,-0.0630628696735569,-0.0388729082304935,0.0223350784491782
"V38_1",-1.00413975829301,1.02214165636028,0.336335304925633,0.207322177229297,-0.119120418395619
"V39_0",0.221077417642825,-0.237097907310991,-0.00153333628696611,-0.0178266085052857,0.11424136965575
"V39_1",-0.829040316160592,0.889117152416215,0.00575001107612286,0.0668497818948213,-0.428405136209062
"V40_0",0.0941459676359023,-0.081016961223249,-0.0426511804118817,-0.0143472226591925,0.0153232906873773
"V40_1",-0.928010252411037,0.798595760629168,0.420418778345691,0.141422623354897,-0.151043865347005
"V41_0",0.0707973944433547,-0.0888841700702656,-0.0387000644125365,-0.0176495951373174,0.0678857800705331
"V41_1",-0.697860030941639,0.876143962121189,0.381472063495002,0.173974580639272,-0.669159832123826
"V42_0",0.0795629611306516,-0.0656973410980223,-0.0606769543181524,-0.0193264625076696,0.014353800207609
"V42_1",-0.92823454652427,0.766468979476926,0.707897800378445,0.225475395922813,-0.167461002422105
"V43_0",0.178294930814876,-0.193888194615755,0.0775360290059013,0.0222067774635764,0.113005337110509
"V43_1",-0.789591836465881,0.85864771901263,-0.34337384274042,-0.0983443001958382,-0.500452207203682
"V44_0",0.137770137641057,-0.16728500395813,0.00186631707819158,-0.00649285704552533,0.100521516757588
"V44_1",-0.814096267878973,0.988502296116222,-0.0110282372802236,0.0383668825417403,-0.593990780840296
"V45_0",0.190710665883377,-0.191138429625233,0.0191007698209455,0.00195560251879709,0.133662589891371
"V45_1",-0.775556707925733,0.777296280475949,-0.0776764639385116,-0.00795278357644156,-0.543561198891577
"V46_0",0.0599609889070917,-0.102108310365718,0.0831027926886708,0.0158108797067183,0.082512890978345
"V46_1",-0.699544870582736,1.19126362093338,-0.969532581367826,-0.184460263245046,-0.962650394747358
"V47_0",0.0916553286013984,-0.142619717756519,0.141004959187177,0.0328599907568081,0.0858179852428666
"V47_1",-0.779070293111885,1.21226760093041,-1.198542153091,-0.279309921432869,-0.729452874564366
"V48_0",0.0457939410448309,-0.0647334529980317,0.126588533846916,0.0425021013285318,0.0745437446623223
"V48_1",-0.534262645523026,0.755223618310369,-1.47686622821402,-0.495857848832871,-0.869677021060427
"V49_0",0.0613786098989089,-0.105860089648407,0.0769939530776698,0.0130105232772392,0.0828729530969712
"V49_1",-0.716083782153937,1.23503437923142,-0.898262785906147,-0.151789438234457,-0.966851119464663
"V50_0",0.0990704853654968,-0.0868854243316884,-0.11976938432272,-0.0513160035795105,-0.0222250193660277
"V50_1",-0.976551927174183,0.856442039840927,1.18058393118109,0.505829178140889,0.219075190893702
"V51_0",0.140726647518519,-0.143671534610864,-0.199817609801669,-0.100658279040088,-0.00269273677494852
"V51_1",-1.04763170930453,1.06955475765866,1.4875310951902,0.749344966187324,0.0200459293246168
"V52_0",0.144360302201955,-0.156710650386821,-0.179398452254158,-0.0964445617137997,-0.0121828815158796
"V52_1",-1.07468224972566,1.16662373065744,1.3355218112254,0.717976181647175,0.0906947846182148
"V53_0",0.150240957814179,-0.139365907282636,-0.226066680979419,-0.110503810431046,0.00377724970957101
"V53_1",-0.991590321573583,0.919814988065396,1.49204009446416,0.729325148844905,-0.0249298480831686
"V54_0",0.150240957814179,-0.139365907282636,-0.226066680979419,-0.110503810431046,0.00377724970957101
"V54_1",-0.991590321573583,0.919814988065396,1.49204009446416,0.729325148844905,-0.0249298480831686
"V55_0",0.169488553225094,-0.170039173599111,-0.160604668498966,-0.0900394691346471,0.014720789157188
"V55_1",-1.00152326905737,1.00477693490384,0.9490275865848,0.532051408522914,-0.0869864813833834
"V56_0",0.138115476333864,-0.131110409705855,-0.234232784003155,-0.107019530392394,-0.00857845776329817
"V56_1",-1.02819299048543,0.976044161143585,1.74373294757904,0.796700948476714,0.0638618522378864
"V57_0",0.140726647518519,-0.143671534610864,-0.199817609801669,-0.100658279040088,-0.00269273677494852
"V57_1",-1.04763170930453,1.06955475765866,1.4875310951902,0.749344966187324,0.0200459293246168
"V58_0",0.152248686769042,-0.142609707642603,-0.223678591358097,-0.105127931088118,-0.000815442080888099
"V58_1",-1.00484133267568,0.941224070441181,1.47627870296344,0.693844345181582,0.00538191773386139
"V59_0",0.171436347086361,-0.169692919583059,-0.210839679285337,-0.109115884139009,0.00182685745292459
"V59_1",-1.01303296005577,1.00273088844535,1.24587083214063,0.644775679003233,-0.0107950667672816
"V60_0",0.125455909305502,-0.136797001594267,-0.139498871155006,-0.0798735229403781,-0.0065944653727339
"V60_1",-1.06637522909677,1.16277451355127,1.18574040481755,0.678924944993214,0.0560529556682383
"V61_0",0.18270784156759,-0.171173894168821,-0.203984309430126,-0.104924647069338,0.0214205093502951
"V61_1",-0.974441821693816,0.912927435567043,1.08791631696067,0.559598117703138,-0.114242716534907
"V62_0",0.161518213930277,-0.137290202966576,-0.247626578487576,-0.113006839823671,0.00797588928958131
"V62_1",-0.954425809588,0.81126029025704,1.46324796379022,0.667767689867148,-0.0471302548929802
"V63_0",0.0928562557189739,-0.100938930375027,-0.138935587156981,-0.0759280687968775,-0.0168248258598404
"V63_1",-1.08332298338803,1.17762085437532,1.62091518349811,0.885827469296904,0.196289635031471
"V64_0",0.179974271733655,-0.158023966533889,-0.240012694922306,-0.111584082078784,0.0152588951906166
"V64_1",-0.959862782579493,0.84279448818074,1.2800677062523,0.595115104420181,-0.0813807743499551
"V65_0",0.166867302519437,-0.161100260651471,-0.173890744686974,-0.0918740198174383,0.0115957656814227
"V65_1",-0.986034060342125,0.951956085667784,1.02753621860484,0.542891935284862,-0.0685204335720433
"V66_0",0.147604224013328,-0.132787702130989,-0.20173097065541,-0.0979632377078114,-0.000470571496544786
"V66_1",-0.974187878487965,0.876398834064528,1.33142440632571,0.646557368871556,0.00310577187719556
"V67_0",0.194858453175523,-0.169537183158381,-0.225878134294903,-0.107418579563924,0.0260324908160316
"V67_1",-0.944314042312151,0.821603272229077,1.0946401892753,0.520566962502095,-0.126157455493076
"V68_0",0.161447949722521,-0.133281494858283,-0.269814604938023,-0.117729271304026,0.00503409266966309
"V68_1",-0.954010611996716,0.787572469617127,1.59435902917922,0.695672966796519,-0.0297469112298274
"V69_0",0.149611951347695,-0.13450074667128,-0.244893062849226,-0.113000967858058,0.00303972480219945
"V69_1",-0.987438878894788,0.887704928030448,1.61629421480489,0.745806387863182,-0.0200621836945163
"V70_0",0.138115476333864,-0.131110409705855,-0.234232784003155,-0.107019530392394,-0.00857845776329817
"V70_1",-1.02819299048543,0.976044161143585,1.74373294757904,0.796700948476714,0.0638618522378864
"V71_0",0.183220988286651,-0.168058641954255,-0.232498528290588,-0.11163633701758,0.00606062589736243
"V71_1",-0.977178604195473,0.896312757089358,1.23999215088314,0.595393797427096,-0.0323233381192663
"V72_0",0.133414321817934,-0.129921223506908,-0.132140772174145,-0.0675319331835152,0.0178247556021167
"V72_1",-0.99319550686684,0.967191330551425,0.983714637296414,0.502737724810613,-0.132695402815757
"V73_0",0.194858453175523,-0.169537183158381,-0.225878134294903,-0.107418579563924,0.0260324908160316
"V73_1",-0.944314042312151,0.821603272229077,1.0946401892753,0.520566962502095,-0.126157455493076
"V74_0",0.0782713871907444,-0.0733694694949454,-0.00193600737751619,-0.0102711799442341,0.0369057037381089
"V74_1",-0.913166183892018,0.855977144107698,0.0225867527376886,0.119830432682731,-0.430566543611271
"V75_0",0.108360095211479,-0.142542119377762,0.00872141134788041,-0.00665087267779325,0.0782448741800127
"V75_1",-0.806680708796567,1.06114688870112,-0.0649260622564426,0.0495120521569054,-0.58248961889565
"V76_0",0.134393137376302,-0.168365705871615,-0.057187974628294,-0.0542506405566594,-0.0182407028265861
"V76_1",-1.14234166769857,1.43110849990872,0.486097784340499,0.461130444731605,0.155045974025981
"V77_0",0.216131382254721,-0.195370651290072,-0.119422970237808,-0.0562348117038194,-0.0195719191764138
"V77_1",-0.957153264270908,0.865212884284603,0.528873153910295,0.249039880402629,0.0866756420669753
"V78_0",0.0804737329624739,-0.0621491461447784,-0.106136196686664,-0.0457568398942002,0.0030431622798879
"V78_1",-0.938860217895528,0.725073371689083,1.23825562801108,0.533829798765669,-0.0355035599320255
"V79_0",0.199126855045783,-0.14549508600093,-0.146803638375639,-0.0527411548066138,0.0477176480652551
"V79_1",-0.881847500917038,0.644335380861261,0.650130398520688,0.233567971286432,-0.211321012860415
"V80_0",0.238807112197763,-0.1837493382953,-0.148326613369725,-0.0546222525961221,0.0225800004715562
"V80_1",-0.895526670741611,0.689060018607374,0.556224800136469,0.204833447235458,-0.0846750017683358
"V81_0",0.22000968691496,-0.210070925189899,-0.0698727065366445,-0.0396814478625135,-0.000329243451204741
"V81_1",-0.974328613480538,0.930314097269551,0.309436271805139,0.175732126248274,0.00145807814104958
"V82_0",0.251112619726455,-0.179612158634645,-0.176817252374802,-0.064855626246279,0.0302459639499425
"V82_1",-0.871508503756519,0.623359844673179,0.613659875889019,0.225087173442968,-0.104971286649801
"V83_0",0.220891141814778,-0.160789980455578,-0.231214037569766,-0.0867645592943332,0.00948603914432794
"V83_1",-0.898290643380095,0.653879253852684,0.940270419450384,0.352842541130289,-0.0385765591869335
"V84_0",0.115200380738517,-0.104684914452252,-0.102580725557992,-0.0398877835457663,0.00269738035717424
"V84_1",-0.979203236277399,0.889821772844142,0.871936167242929,0.339046160139013,-0.0229277330359811
"V85_0",0.188732662471441,-0.138736161905417,-0.255730986996056,-0.0957943545127774,0.00854411653544416
"V85_1",-0.914627518130832,0.672336784618558,1.23931170621166,0.464234179561921,-0.0414061032102293
"V86_0",0.216870692237028,-0.199702212898233,-0.115963377914407,-0.0580708383595162,0.0107232399536968
"V86_1",-0.960427351335411,0.884395514263602,0.513552102192375,0.257170855592143,-0.0474886340806574
"V87_0",0.168899789446649,-0.161230318767437,-0.128197278374601,-0.0581618570120972,0.00807362036703621
"V87_1",-0.998044210366563,0.952724610898489,0.757529372213554,0.343683700526029,-0.0477077567143049
"V88_0",0.268724608461045,-0.206109971692702,-0.0520497128049215,-0.0241861772890804,0.0630784696511184
"V88_1",-0.865890405041146,0.664132131009819,0.167715741260302,0.0779332379314814,-0.203252846653604
"V89_0",0.264911523046834,-0.241583515965804,0.0957712368669427,0.0261736077504678,-0.00262565679700981
"V89_1",-0.91939881528019,0.838436908351907,-0.332382527949977,-0.0908378151339765,0.00911257358962235
"V90_0",0.0687557796665092,-0.0485965927156733,0.0640273278282206,0.0235605563767613,0.00464166849559739
"V90_1",-0.802150762775941,0.566960248349523,-0.74698549132924,-0.274873157728882,-0.0541527991153028
"V91_0",0.261558266634284,-0.293046957706075,0.180116118952102,0.0437578828292619,0.0973150688909725
"V91_1",-0.842798859154915,0.94426241927513,-0.580374161067886,-0.140997622449844,-0.313570777537578
"V92_0",0.283354603868699,-0.263992158785066,0.109047789905207,0.0361539832077792,0.108294508913728
"V92_1",-0.793392890832358,0.739178044598185,-0.30533381173458,-0.101231152981782,-0.303224624958437
"V93_0",0.282638210407811,-0.269013124726532,0.155266609015072,0.0492989426862295,0.106946671771387
"V93_1",-0.791386989141871,0.75323674923429,-0.434746505242202,-0.138037039521443,-0.299450680959882
"V94_0",0.0655387516397542,-0.0840089510245057,0.0499992256993519,0.0117870320699259,0.0528234287419314
"V94_1",-0.646024837591863,0.828088231527271,-0.49284951046504,-0.116186458974985,-0.520688083313324
"V95_0",0.14008399151383,-0.129293704924104,0.0429354381765499,0.0132541496562727,0.0264321113275432
"V95_1",-0.924554343991279,0.853338452499085,-0.283373891965229,-0.0874773877314,-0.174451934761785
"V96_0",0.159186603587498,-0.17535220173927,-0.0780579623219801,-0.0563802132300301,-0.0117723427570323
"V96_1",-1.05063158367749,1.15732453147918,0.515182551325068,0.372109407318199,0.0776974621964134
"V97_0",0.14329519281791,-0.156332395168764,-0.0938595684393275,-0.0569753697727743,-0.0160409227526923
"V97_1",-1.06675310208889,1.1638078307008,0.698732342826105,0.424149974975097,0.119415758270042
"V98_0",0.149192255604291,-0.142620428605353,-0.117505297268476,-0.0632957967695671,-0.0156094117049325
"V98_1",-0.98466888698832,0.941294828795329,0.775534961971942,0.417752258679143,0.103022117252554
"V99_0",0.123428536672662,-0.145346336888088,0.0701975350871183,0.0108816557092549,-0.010658994450796
"V99_1",-1.04914256171763,1.23544386354875,-0.596679048240506,-0.0924940735286669,0.0906014528317662
"V100_0",0.11277408905668,-0.112937451213153,0.0392220832416798,0.00246846410610187,-0.0211388213717054
"V100_1",-0.958579756981783,0.959968335311797,-0.333387707554278,-0.0209819449018662,0.179679981659496
"V101_0",0.0856888882841882,-0.0858611669069689,-0.0539625332826095,-0.0320379607402336,-0.0185187732108085
"V101_1",-0.999703696648863,1.00171361391464,0.629562888297111,0.373776208636059,0.216052354126099
"V102_0",0.278401129813444,-0.294951718006664,0.173259895142849,0.0304573603664637,-0.0206436477502392
"V102_1",-0.966215685823131,1.02365596249372,-0.601313753731064,-0.105704956565962,0.071645601015536
"V103_0",0.103685691834537,-0.0935688543156248,0.0356425220949545,0.000790559051622406,0.0507592492026256
"V103_1",-0.881328380593561,0.795335261682811,-0.302961437807113,-0.00671975193879012,-0.431453618222318
"V104_0",0.248007216232549,-0.289206626898174,0.114647162004663,0.0061277403241998,0.0754022858046296
"V104_1",-0.860730926924728,1.0037171168819,-0.397893091663241,-0.0212668634781051,-0.261690286027832
"V105_0",0.190907698071529,-0.24402745090389,0.169966301774964,0.0275678000261842,0.0763153627728156
"V105_1",-0.845448377173914,1.08069299686008,-0.752707907860557,-0.12208597154453,-0.337968035136755
"V106_0",0.199415699202703,-0.214697467677874,0.115255200692124,0.00950977426965939,-0.00241335075804708
"V106_1",-0.966399157674638,1.04045695874662,-0.558544434123372,-0.0460858291529646,0.0116954690582285
"V107_0",0.0595557185055197,-0.10042053768893,0.0977176048690007,0.0202070191750522,0.053896068688379
"V107_1",-0.694816715897729,1.17157293970418,-1.14003872347167,-0.235748557042275,-0.62878746803109
"V108_0",0.142173670230478,-0.192455116446351,0.113342355857153,0.0154845620360907,0.0620192474790712
"V108_1",-0.840117142271007,1.13723477900116,-0.669750284610447,-0.0914996847587177,-0.366477371467239
"V109_0",0.345169936912403,-0.343857308398811,0.0691936812225211,-0.0056119639952603,-0.040399096797211
"V109_1",-0.966475823354729,0.962800463516671,-0.193742307423059,0.0157134991867287,0.113117471032191
"V110_0",0.152553213388934,-0.120162420246194,-0.180890504072277,-0.0802552805906179,0.048248296389593
"V110_1",-0.901450806389152,0.710050665091144,1.06889843315437,0.47423574894456,-0.285103569574868
"V111_0",0.101963331500083,-0.0990693719740365,-0.139498402170945,-0.0670853666294502,0.0223401323732145
"V111_1",-1.00506712478654,0.976540952315503,1.37505567854217,0.661270042490295,-0.220209876250257
"V112_0",0.137590860409565,-0.118783227237341,-0.0859669955845149,-0.0451119129286199,0.0559179394412839
"V112_1",-0.908099678703129,0.783969299766448,0.567382170857798,0.297738625328891,-0.369058400312474
"V113_0",0.101754933059866,-0.107941826634878,-0.0468143451497268,-0.0368394652805159,0.0205313879367446
"V113_1",-1.0030129115901,1.06399800540094,0.46145568790445,0.3631318720508,-0.20238082394791
"V114_0",0.124241666663327,-0.114624151425109,-0.0431692264200396,-0.0313061993054603,0.0468819922467165
"V114_1",-0.924910185160327,0.853313127275815,0.321370907793629,0.233057261496205,-0.349010386725556
"V115_0",0.152553213388934,-0.120162420246194,-0.180890504072277,-0.0802552805906179,0.048248296389593
"V115_1",-0.901450806389152,0.710050665091144,1.06889843315437,0.47423574894456,-0.285103569574868
"V116_0",0.113879784643717,-0.100428786699853,-0.183002575070606,-0.0827666221654383,0.0268401464224665
"V116_1",-0.967978169471596,0.853644686948752,1.55552188810015,0.703516288406225,-0.228141244590965
"V117_0",0.131951847857651,-0.12634963430026,-0.106928474797193,-0.0531758878498622,0.0281838722080021
"V117_1",-0.982308200718068,0.940602833124156,0.796023090156881,0.395864942882308,-0.209813270881794
"V118_0",0.139991105599788,-0.119817793532429,-0.138518036569739,-0.0659694139349176,0.0412436054866951
"V118_1",-0.923941296958602,0.790797437314029,0.914219041360275,0.435398131970456,-0.272207796212188
"V119_0",0.124296041812409,-0.112432094684991,-0.0800311940857864,-0.0454393872773248,0.0480346739434164
"V119_1",-0.92531497793682,0.836994482654935,0.595787778194188,0.338270994175641,-0.357591461578767
"V120_0",0.150889133470273,-0.125253985197533,-0.0724978615776124,-0.0408593873630879,0.0559821567796455
"V120_1",-0.891617606869793,0.740137185258152,0.428396454776801,0.241441834418247,-0.330803653697905
"V121_0",0.153604710426236,-0.165081906913057,0.017430489150932,-0.00907871122826901,0.0095713989510147
"V121_1",-1.01379108881316,1.08954058562618,-0.115041228396151,0.0599194941065756,-0.0631712330766971
"V122_0",0.0558586629697647,-0.0853794515323001,0.0400607339155514,0.00113690601723457,0.0698392929175809
"V122_1",-0.651684401313921,0.99609360121017,-0.467375229014767,-0.0132639035344035,-0.814791750705111
"V123_0",0.135879750310788,-0.174982761324605,0.0761130706471857,0.00611545283540514,0.10530157396973
"V123_1",-0.802925797291019,1.03398904419085,-0.44975905382428,-0.0361367667546668,-0.622236573457493
"V124_0",0.173905084588192,-0.215544906734224,0.0498873927980275,-0.0097951345020457,0.108914733400341
"V124_1",-0.842770794542778,1.04456377878893,-0.241761980482748,0.0474687287406829,-0.527817554170884
"V125_0",0.1581366130342,-0.151728451724227,0.0220558527607593,-0.00442997467301583,0.041526024229835
"V125_1",-0.93444362247482,0.896577214734069,-0.13033003904085,0.0261771230678207,-0.245381052267207
"V126_0",0.133979564979121,-0.136905826520899,-0.0767334134127675,-0.0509388587910124,0.0173985909783499
"V126_1",-0.997403428177897,1.01918781965558,0.571237633183936,0.379211504333093,-0.129522843949938
"V127_0",0.284671718016648,-0.289008306026233,-0.0259086514224307,-0.041613147014476,-0.0212526732117565
"V127_1",-0.987978315469541,1.00302882679693,0.0899182608190244,0.144422098462005,0.0737592776172726
"V128_0",0.28283293565725,-0.291133997496316,0.054892894952306,-0.011535435115644,-0.0337395670147653
"V128_1",-0.98159665904575,1.01040622660486,-0.190510635422709,0.0400347454013526,0.117096144345362
"V129_0",0.200473818594352,-0.208650821782063,0.105852655207677,0.0204573549654781,0.00107053117260277
"V129_1",-0.97152696703417,1.01115398248231,-0.512978252160282,-0.0991394894480863,-0.00518795875953679
"V130_0",0.158742435480935,-0.19490987291507,0.145646030404136,0.0293157775003198,0.0101362423922278
"V130_1",-1.04770007417417,1.28640516123946,-0.961263800667297,-0.193484131502111,-0.0668991997887034
"V131_0",0.18476077071503,-0.224063345017955,0.156658886495148,0.0307725337106607,0.119780373996459
"V131_1",-0.818226270309419,0.992280527936658,-0.693775068764228,-0.136278363575783,-0.53045594198432
"V132_0",0.156181124665898,-0.209933352367367,0.19047299040487,0.04636199685909,0.103323249706324
"V132_1",-0.832965998218124,1.11964454595929,-1.01585594882597,-0.24726398324848,-0.551057331767063
"V133_0",0.184086438112299,-0.201753733647664,0.11611004950406,0.0189602920374612,0.0367534156146788
"V133_1",-0.981794336598928,1.07601991278754,-0.619253597354986,-0.101121557533126,-0.19601821661162
"V134_0",0.243821851587602,-0.252887458183131,0.0466933825699062,-0.00499282918585283,-0.0232056682957191
"V134_1",-0.991542196456247,1.0284089966114,-0.189886422450952,0.0203041720224683,0.0943697177359244
"V135_0",0.232101468301853,-0.26555855311116,0.0913312099167901,-0.00784294692108755,-0.0417669991564041
"V135_1",-1.02787793105106,1.17604502092085,-0.404466786774356,0.0347330506505306,0.184968139121218
"V136_0",0.157845630260907,-0.183363311163452,0.0438324926949645,-0.00787483371511964,0.0213186012420183
"V136_1",-1.04178115972199,1.21019785367878,-0.289294451786766,0.0519739025197897,-0.140702768197321
"V137_0",0.168559320872459,-0.174582349477007,0.030066854481297,0.00356306585292677,-0.00203831292281722
"V137_1",-0.996032350609987,1.03162297418231,-0.177667776480392,-0.0210544800400218,0.0120445763621017
"V138_0",0.087718844984666,-0.0980533192920301,0.0193472142166498,-0.000398908522132674,0.0132486152773069
"V138_1",-1.0233865248211,1.14395539174035,-0.225717499194249,0.0046539327582143,-0.154567178235247
"V139_0",0.194342625854632,-0.220633860583263,0.0627120704660388,9.21151398557164e-05,-0.0101633053137702
"V139_1",-1.03649400455804,1.17671392311074,-0.334464375818873,-0.000491280745897109,0.0542042950067746
"V140_0",0.275141258018548,-0.232569498504395,0.0762680552633259,0.0289390396934177,0.068683195177464
"V140_1",-0.886566275837543,0.749390606291938,-0.245752622515161,-0.0932480167899016,-0.221312517794051
"V141_0",0.188748928972599,-0.12557569291671,-0.0344520961688477,-0.00710161552120923,-0.00202204599059372
"V141_1",-0.83588811402151,0.556120925774004,0.152573568747754,0.0314500115939267,0.00895477510120096
"V142_0",0.111730414938271,-0.0719339746968887,-0.0180114024729265,0.00258235552677934,0.0129601258891094
"V142_1",-0.831770866762681,0.535508478299059,0.13408488507623,-0.0192242022549131,-0.0964809371744808
"V143_0",0.268752375317853,-0.281331266222605,-0.0265736265816356,-0.035333951834767,-0.0100856411536936
"V143_1",-1.00782140744195,1.05499224833477,0.0996510996811337,0.132502319380376,0.0378211543263509
"V144_0",0.137314006026522,-0.159819201599433,0.106004164935415,0.0244102069171874,0.00735942697297783
"V144_1",-1.02222648930855,1.18976516746245,-0.789142116741424,-0.181720429272395,-0.0547868452432795
"V145_0",0.235879702373902,-0.238606329913719,0.111070432050824,0.0266304256727245,0.0295735101687141
"V145_1",-0.959244122987203,0.970332408315792,-0.451686423673352,-0.108297064402413,-0.120265608019437
"V146_0",0.267083688271482,-0.29944228205148,0.177309417132235,0.0307240540031014,-0.0113249803000899
"V146_1",-1.00156383101806,1.12290855769305,-0.664910314245883,-0.11521520251163,0.0424686761253369
"V147_0",0.161348468641695,-0.205243464741276,0.153461528640837,0.0268543001772875,0.000398481034128857
"V147_1",-1.06489989303519,1.35460686729242,-1.01284608902953,-0.177238381170097,-0.00262997482525054
"V148_0",0.196733652524288,-0.257486780802451,0.164722202944312,0.0269192595889462,0.0771722526190825
"V148_1",-0.871249032607562,1.14029860069657,-0.729484041610527,-0.119213863893904,-0.341762833027365
"V149_0",0.20782851177138,-0.261362888744718,0.215165106836101,0.0470550260587935,0.0700509532667551
"V149_1",-0.845169281203613,1.06287574756185,-0.875004767800145,-0.191357105972427,-0.284873876618138
"V150_0",0.226837576383691,-0.244516343583548,0.220072492411265,0.0578572053625867,0.07788046720063
"V150_1",-0.787259823919867,0.848615545378197,-0.76378100307439,-0.200798536258389,-0.270291033225716
"V151_0",0.165406824918388,-0.231242053817152,0.144305317164184,0.0179551935598766,0.0442858914693596
"V151_1",-0.882169732898067,1.23329095369147,-0.76962835820898,-0.0957610323193417,-0.236191421169918
"V152_0",0.1896540859624,-0.220259440840349,0.148000973801566,0.0234223124138786,-0.0105167701437539
"V152_1",-1.01148845846613,1.17471701781519,-0.789338526941685,-0.124918999540686,0.0560894407666876
"V153_0",0.105882272065276,-0.145218694075084,-0.038069275951231,-0.0428752651403232,-0.0326640220792473
"V153_1",-1.23529317409488,1.69421809754265,0.444141552764362,0.500211426637103,0.381080257591218
"V154_0",0.172771734266794,-0.202627604094842,0.143090866182195,0.0307983693740455,0.0175577361046596
"V154_1",-1.02092388430378,1.1973449332877,-0.845536936531152,-0.181990364482996,-0.103750258800261
"V155_0",0.321312194384239,-0.323389567774677,0.117086098272191,0.0185663143589862,-0.0334587152890788
"V155_1",-0.963936583152715,0.97016870332403,-0.351258294816574,-0.0556989430769586,0.100376145867236
"V156_0",0.241829923597942,-0.294350101171191,0.10985713321902,-0.00642198354495357,-0.0489986719510687
"V156_1",-1.07096109021946,1.30355044804385,-0.486510161398518,0.0284402128419373,0.216994118640447
"V157_0",0.288526132719143,-0.31040437224518,0.0565774316021767,-0.0199287925512414,-0.0172558976244043
"V157_1",-1.00135540178997,1.07728576249798,-0.196356968501672,0.0691646329719554,0.059888115284697
"V158_0",0.252968617256356,-0.291982513285937,0.115334916268443,-0.00111343605112155,-0.0191663973827445
"V158_1",-1.02873904350918,1.18739555402948,-0.469028659491668,0.00452797327456099,0.0779433493564942
"V159_0",0.124335574350554,-0.115071046518141,0.0328289059970781,0.00955144064110802,0.0413474380425038
"V159_1",-0.92560927572079,0.856640012968381,-0.244392966867136,-0.0711051692171373,-0.307808705427528
"V160_0",0.207414503247392,-0.200243317246419,0.146308528333771,0.045318143681272,0.0557723093338427
"V160_1",-0.918549942952737,0.886791833519856,-0.647937768335269,-0.200694636302776,-0.246991655621303
"V161_0",0.155829748640591,-0.132497431198033,-0.0332401656463808,-0.014687072312541,-0.00768109304944341
"V161_1",-0.92081215105804,0.782939366170195,0.196419160637705,0.0867872454831972,0.0453882771103474
"V162_0",0.128460053767309,-0.155243299993782,0.00930610816022926,-0.0121213642717209,0.0132369691946052
"V162_1",-1.09191045702213,1.31956804994714,-0.0791019193619487,0.103031596309627,-0.112514238154144
"V163_0",0.124431879161998,-0.168639698818305,0.052318829767318,0.00225734395826806,0.094910163667641
"V163_1",-0.821250402469189,1.11302201220082,-0.345304276464299,-0.014898470124569,-0.62640708020643
"V164_0",0.20065169912537,-0.198984906861369,0.00187934731697974,-0.0141389195809161,0.0247836151469214
"V164_1",-0.972389003453715,0.964311471712789,-0.00910760622844013,0.0685193795075162,-0.120105211865849
"V165_0",0.118018327363967,-0.116685865087985,0.158079788741542,0.0484934120471629,0.0280692681130131
"V165_1",-0.878580881487313,0.868661440099441,-1.17681620507592,-0.361006511906657,-0.208960107063542
"V166_0",0.10452175610814,-0.130434688308965,0.126216897816464,0.0293569828414935,0.0228589533592322
"V166_1",-1.03028588163738,1.28571335618837,-1.24413799276229,-0.289375973723293,-0.225323968826718
"V167_0",0.101566391420079,-0.144677625239592,0.159764634700186,0.0416898885599847,0.0983075801194562
"V167_1",-0.756105358349478,1.0770445434503,-1.18935894721249,-0.310358059279886,-0.731845318667063
"V168_0",0.108225085000013,-0.137523053802019,0.169519392763975,0.0476968526116834,0.100133611583186
"V168_1",-0.714285561000084,0.907652155093325,-1.11882799224224,-0.31479922723711,-0.660881836449031
"V169_0",0.118807161833956,-0.14067605429445,0.190792717225419,0.0567657114928372,0.102460518016956
"V169_1",-0.70204231992792,0.831267593558114,-1.12741151087748,-0.335433749730402,-0.605448515554741
"V170_0",0.141662936082501,-0.154700971652324,0.174617127850381,0.0475736929755256,0.033635006111679
"V170_1",-0.934975378144508,1.02102641290534,-1.15247304381252,-0.313986373638469,-0.221991040337082
"V171_0",0.0916553286013984,-0.142619717756519,0.141004959187177,0.0328599907568081,0.0858179852428666
"V171_1",-0.779070293111885,1.21226760093041,-1.198542153091,-0.279309921432869,-0.729452874564366
"V172_0",0.332954972067876,-0.316860073722152,0.126082207178203,0.025535961512626,-0.0211619055377491
"V172_1",-0.932273921790053,0.887208206422026,-0.353030180098969,-0.071500692235353,0.0592533355056975
"V173_0",0.22788684130738,-0.261530084631788,0.143458207025535,0.0144296756128886,-0.0369755829593185
"V173_1",-1.00921315436125,1.1582046605122,-0.635314916827368,-0.0639028491427925,0.163749010248411
"V174_0",0.160183720185119,-0.172347370881945,0.158621633048327,0.0413493014717925,0.0167771675483404
"V174_1",-0.946540164730248,1.01841628248422,-0.937309649831023,-0.244336781424229,-0.0991378082401938
"V175_0",0.158742435480935,-0.19490987291507,0.145646030404136,0.0293157775003198,0.0101362423922278
"V175_1",-1.04770007417417,1.28640516123946,-0.961263800667297,-0.193484131502111,-0.0668991997887034
"V176_0",0.175054224069136,-0.214973900662602,0.169318062156856,0.0316377178928307,-0.0317130192857039
"V176_1",-1.0344113240449,1.27030032209719,-1.00051582183597,-0.186950151184909,0.187395113960977
"V177_0",0.0573449189207376,0.000536370469479032,-0.166337627885951,-0.0583629223357944,0.0489282228171781
"V177_1",-0.669024054075272,-0.00625765547725586,1.94060565866943,0.680900760584269,-0.570829266200412
"V178_0",0.0679197976762035,-0.0317455271093611,-0.1270741581856,-0.0476505535904142,0.0409244429436806
"V178_1",-0.792397639555708,0.370364482942547,1.48253184549867,0.555923125221499,-0.477451834342941
"V179_0",0.150240957814179,-0.139365907282636,-0.226066680979419,-0.110503810431046,0.00377724970957101
"V179_1",-0.991590321573583,0.919814988065396,1.49204009446416,0.729325148844905,-0.0249298480831686
"V180_0",0.161518213930277,-0.137290202966576,-0.247626578487576,-0.113006839823671,0.00797588928958131
"V180_1",-0.954425809588,0.81126029025704,1.46324796379022,0.667767689867148,-0.0471302548929802
"V181_0",0.179339037152165,-0.154496151572016,-0.193465746653592,-0.0891494298221944,-0.0282076262589121
"V181_1",-0.956474864811548,0.823979475050751,1.03181731548582,0.47546362571837,0.150440673380864
"V182_0",0.124897320481984,-0.102626438927059,-0.184730754603652,-0.0823210599575615,0.031984192889632
"V182_1",-0.929791163588101,0.763996823123663,1.37521783982719,0.612834557461848,-0.23810454706726
"V183_0",0.0816045083028746,-0.0765354201708145,-0.0342422762625998,-0.0205697120911716,-0.00764780867035682
"V183_1",-0.95205259686687,0.892913235326169,0.399493223063664,0.239979974397002,0.0892244344874962
"V184_0",0.0774708454063992,-0.0571266310972271,-0.156462028702267,-0.065304380425726,0.0386455752813911
"V184_1",-0.903826529741324,0.666477362800982,1.82539033485978,0.761884438300137,-0.450865044949563
"V185_0",0.114802159168971,-0.105618968937789,-0.150911333336067,-0.0691415949689524,0.0389350731757835
"V185_1",-0.975818352936251,0.897761235971205,1.28274633335657,0.587703557236095,-0.330948121994159
"V186_0",0.087149703194476,-0.0843666373592154,-0.148372908115467,-0.0678277523855035,0.0188924379903857
"V186_1",-1.01674653726889,0.984277435857513,1.73101726134712,0.791323777830874,-0.2204117765545
"V187_0",0.0963828771496466,-0.084503682160156,-0.141108988667593,-0.0633418494259034,0.0373135872942868
"V187_1",-0.950059789046516,0.832964867007252,1.39093145972342,0.624369658626762,-0.367805360472255
"V188_0",0.10892394149258,-0.117605538377201,-0.146099215499824,-0.0801912021501655,-0.0116355266545475
"V188_1",-1.07367885185543,1.15925459257527,1.44012083849826,0.790456135480203,0.114693048451968
"V189_0",0.156798274973115,-0.157609038163322,-0.221748312910967,-0.11097572050773,-0.00609381452064039
"V189_1",-1.03486861482256,1.04021965187793,1.46353886521238,0.732439755351018,0.0402191758362264
"V190_0",0.127723543882302,-0.111060865926055,-0.11287562835875,-0.0534846823471992,0.00799246170269133
"V190_1",-0.950830826679363,0.82678644633841,0.840296344448475,0.398163746362483,-0.0594994371200355
"V191_0",0.114327240687215,-0.114040127817304,-0.0520870811788448,-0.0363951530891728,0.0277783325963414
"V191_1",-0.971781545841331,0.969341086447081,0.442740190020181,0.309358801257969,-0.236115827068902
"V192_0",0.111621209537327,-0.138182369750436,0.0245990708821765,-0.00474477256032443,0.00360313699734003
"V192_1",-1.10026620829651,1.36208335896858,-0.242476555838596,0.0467699009517692,-0.0355166361166374
"V193_0",0.089650031204544,-0.0889836008680845,-0.174198881828659,-0.0815270829103574,-0.000729675548137518
"V193_1",-1.04591703071968,1.03814201012765,2.03232028800103,0.951149300620836,0.00851288139493796
"V194_0",0.0765748244390101,-0.0520847397803751,-0.187636377815818,-0.0785401211308838,0.0268962178638832
"V194_1",-0.89337295178845,0.60765529743771,2.18909107451788,0.916301413193644,-0.313789208411971
"V195_0",0.0856547392817825,-0.0517539309932166,-0.180941494160703,-0.0742094698922312,0.0454333639775452
"V195_1",-0.844311001491856,0.51014589121885,1.78356615672693,0.731493346080565,-0.447843159207231
"V196_0",0.0924758149961204,-0.0759860330231112,-0.123009532863165,-0.0585487464250347,0.0355776644270187
"V196_1",-0.911547319247473,0.749005182656382,1.21252253822263,0.577123357618199,-0.350694120780612
"V197_0",0.0647606883866039,-0.0257281875714264,-0.108700382941655,-0.0412206504896341,0.043010886111928
"V197_1",-0.755541364510379,0.300162188333308,1.26817113431931,0.480907589045731,-0.501793671305827
"V198_0",0.0765748244390101,-0.0520847397803751,-0.187636377815818,-0.0785401211308838,0.0268962178638832
"V198_1",-0.89337295178845,0.60765529743771,2.18909107451788,0.916301413193644,-0.313789208411971
"V199_0",0.0765748244390101,-0.0520847397803751,-0.187636377815818,-0.0785401211308838,0.0268962178638832
"V199_1",-0.89337295178845,0.60765529743771,2.18909107451788,0.916301413193644,-0.313789208411971
"V200_0",0.0765748244390101,-0.0520847397803751,-0.187636377815818,-0.0785401211308838,0.0268962178638832
"V200_1",-0.89337295178845,0.60765529743771,2.18909107451788,0.916301413193644,-0.313789208411971
"V201_0",0.0810353678923613,-0.0749952207030455,-0.0809838916078919,-0.0434374784787093,0.0310171146069767
"V201_1",-0.945412625410881,0.87494424153553,0.944812068758739,0.506770582251609,-0.361866337081394
"V202_0",0.100310977667539,-0.0968748177578309,-0.0529017828421363,-0.026349772602069,0.0174905681744245
"V202_1",-0.988779637008596,0.954908917898618,0.521460430872486,0.259733472791823,-0.172407029147898
"V203_0",0.108290158394107,-0.133357700579441,-0.078607452280267,-0.0425102764356843,0.0658931432668434
"V203_1",-0.806160068045017,0.992773993202508,0.585188811419765,0.316465391243428,-0.490537844319834
"V204_0",0.150240957814179,-0.139365907282636,-0.226066680979419,-0.110503810431046,0.00377724970957101
"V204_1",-0.991590321573583,0.919814988065396,1.49204009446416,0.729325148844905,-0.0249298480831686
"V205_0",0.147604224013328,-0.132787702130989,-0.20173097065541,-0.0979632377078114,-0.000470571496544786
"V205_1",-0.974187878487965,0.876398834064528,1.33142440632571,0.646557368871556,0.00310577187719556
"V206_0",0.164628062578091,-0.158011977839425,-0.0691682939965043,-0.0427455333867091,0.0129654516061913
"V206_1",-0.972802187961447,0.93370714177842,0.408721737252071,0.252587242739645,-0.076614032218403
"V207_0",0.114327240687215,-0.114040127817304,-0.0520870811788448,-0.0363951530891728,0.0277783325963414
"V207_1",-0.971781545841331,0.969341086447081,0.442740190020181,0.309358801257969,-0.236115827068902
"V208_0",0.119697536099377,-0.163609911249201,0.049060503796933,-0.0100729882907617,-0.0280605361761171
"V208_1",-1.17987571297957,1.61272626802784,-0.483596394569767,0.0992908845803646,0.276596713736011
"V209_0",0.10392891407481,-0.118155571248361,0.0430555019837663,0.00412824776911064,0.00354594313551236
"V209_1",-1.02444215302313,1.16467634516241,-0.424404233839983,-0.040692728009805,-0.0349528680500504
"V210_0",0.0765748244390101,-0.0520847397803751,-0.187636377815818,-0.0785401211308838,0.0268962178638832
"V210_1",-0.89337295178845,0.60765529743771,2.18909107451788,0.916301413193644,-0.313789208411971
"V211_0",0.0717054475852854,-0.0170716029971094,-0.127668084287532,-0.0439905329842308,0.0458831487258059
"V211_1",-0.706810840483527,0.168277229542935,1.25844254511996,0.433620967987417,-0.452276751725801
"V212_0",0.083073397630448,-0.0774482163138855,-0.102741217835642,-0.0456956801624766,0.0296964754801097
"V212_1",-0.969189639021893,0.903562523661997,1.19864754141582,0.533116268562227,-0.34645888060128
"V213_0",0.0774608491566974,-0.0685038795032183,0.000917787040811388,-0.00174570378132547,0.033272306091771
"V213_1",-0.903709906828136,0.799211927537547,-0.0107075154761325,0.0203665441154641,-0.388176904403995
"V214_0",0.0598314107020437,-0.077409603419559,0.0780793775910788,0.0201803378314616,0.106602533474192
"V214_1",-0.58976676263443,0.763037519421367,-0.769639579112062,-0.198920472910122,-1.05079640138846
"V215_0",0.0688347761650188,-0.09706350809949,0.0597726848315081,0.0142994749006548,0.0843942745658917
"V215_1",-0.678514222198042,0.956768865552115,-0.589187893339153,-0.140951966877883,-0.831886420720933
"V216_0",0.14122414024195,-0.160156757584594,0.106751482629128,0.0316236995479442,0.10999938559873
"V216_1",-0.753195414623732,0.8541693737845,-0.569341240688681,-0.168659730922369,-0.586663389859896
"V217_0",0.10355867983416,-0.130031368465208,-0.126915880702679,-0.0730588264522455,-0.019986756898593
"V217_1",-1.2081845980652,1.51703263209409,1.48068527486459,0.852352975276198,0.233178830483585
"V218_0",0.153551152219817,-0.160985059311395,-0.0911266850915497,-0.0609946618818306,0.00595203443390382
"V218_1",-1.01343760465079,1.0625013914552,0.601436121604228,0.402564768420082,-0.0392834272637653
"V219_0",0.295426057399401,-0.24758765390625,0.021605718535521,-0.00677209146988236,0.0490581749613297
"V219_1",-0.886278172198204,0.742762961718749,-0.0648171556065631,0.0203162744096471,-0.147174524883989
"V220_0",0.118528504959893,-0.161725485224957,0.049547308072889,-0.00498667487193279,-0.0236474421471302
"V220_1",-1.16835240603323,1.59415121150314,-0.488394893861334,0.0491543665947659,0.233096215450284
"V221_0",0.13103034395222,-0.105690184286992,-0.0377223454352492,-0.0261012307481101,0.0558191627767241
"V221_1",-0.864800270084653,0.697555216294145,0.248967479872645,0.172268122937527,-0.368406474326379
"V222_0",0.0802068948469413,-0.0819269424188942,0.070763612601835,0.0201992236094725,0.00986367579522525
"V222_1",-0.935747106547648,0.955814328220433,-0.825575480354741,-0.235657608777179,-0.115076217610962
"V223_0",0.319563728220854,-0.284332364022771,0.124942907687595,0.0279532637648595,0.0346850640667805
"V223_1",-0.894778439018393,0.796130619263758,-0.349840141525267,-0.0782691385416068,-0.0971181793869856
"V224_0",0.106563059650482,-0.131735488832366,0.105238614963777,0.0236101971038836,0.00720348068113283
"V224_1",-1.05040730226904,1.29853553277618,-1.0373520617858,-0.232729085738281,-0.0710057381425953
"V225_0",0.07741880062085,-0.059224742548483,-0.121179859650766,-0.0517769005097985,0.0375422942288354
"V225_1",-0.903219340576585,0.690955329732301,1.41376502925894,0.604063839280982,-0.437993432669746
"V226_0",0.0420334283285312,-0.0512888574100058,0.0488489835595625,0.0146644287678482,0.0937931433827015
"V226_1",-0.490389997166197,0.598370003116735,-0.569904808194895,-0.171085002291562,-1.09425333946485
"V227_0",0.164466910890906,-0.171770393699341,0.0253763361511109,-0.013221988581069,0.00214046666526361
"V227_1",-0.971849927991717,1.01500687185974,-0.149951077256564,0.0781299325244985,-0.0126482121129216
"V228_0",0.133440527639944,-0.154426707397714,0.138797146279579,0.0336318526957858,0.0358388075510917
"V228_1",-0.993390594652919,1.14962104396076,-1.03326764452576,-0.250370458957517,-0.266800011769239
"V229_0",0.0951631430365597,-0.0911765374233168,0.0415725940493125,0.00838836860941489,0.00453291961551563
"V229_1",-0.938036695646088,0.898740154601265,-0.409786998486081,-0.0826853477213754,-0.0446816362100822
"V230_0",0.120271543902927,-0.117489871275002,0.163798504155404,0.0531191505322127,0.0211085545549453
"V230_1",-0.895354826832903,0.874646819491683,-1.21938886426801,-0.395442565073139,-0.157141461686815
"V231_0",0.092223866298686,-0.0843882430025899,0.026628233533527,0.00262389886270891,0.027284443649401
"V231_1",-0.909063824944192,0.831826966739814,-0.262478301973337,-0.0258641459324167,-0.268946658829809
"V232_0",0.0846811935526224,-0.0921368944466761,-0.00746478469419833,-0.0183482915356162,0.0309453333459062
"V232_1",-0.987947258113928,1.07493043521122,0.0870891547656467,0.214063401248855,-0.361028889035573
"V233_0",0.103251948594396,-0.145698653604634,0.0574690310713832,0.000699515735698375,-0.00236771866269125
"V233_1",-1.20460606693462,1.69981762538739,-0.670472029166137,-0.00816101691648101,0.0276233843980644
"V234_0",0.156092759583586,-0.184326063096062,0.133728770453336,0.0316249076746199,-0.00729744776559971
"V234_1",-1.03021221325167,1.21655201643401,-0.882609884992015,-0.208724390652491,0.0481631552529584
"V235_0",0.110128765296427,-0.143663719979751,0.0993787020973609,0.0171141288917447,0.018844797649463
"V235_1",-1.08555497220764,1.41611381122897,-0.979590063531128,-0.168696413361483,-0.185755862544706
"V236_0",0.125258754518225,-0.183168767411867,0.175754977795696,0.0415070527943509,0.0877084190464943
"V236_1",-0.826707779820288,1.20891386491832,-1.15998285345159,-0.273946548442716,-0.578875565706863
"V237_0",0.161674505293972,-0.219683742000607,0.161519730481644,0.0365841052507534,0.0915901182506755
"V237_1",-0.862264028234519,1.17164662400324,-0.861438562568766,-0.195115228004018,-0.48848063067027
"V238_0",0.135991748899278,-0.185913826658348,0.195626489764621,0.0507416714843567,0.100611392747035
"V238_1",-0.803587607132101,1.09858170298115,-1.15597471224549,-0.299837149680289,-0.594521866232478
"V239_0",0.0877113605038155,-0.129034032119001,0.112302547488228,0.0257021557584238,0.0947085863297217
"V239_1",-0.745546564282432,1.09678927301151,-0.954571653649941,-0.218468323946602,-0.805022983802634
"V240_0",0.0569164708934151,-0.0916652256187508,0.0609287242396816,0.00987972798110813,0.0894697666059456
"V240_1",-0.664025493756509,1.06942763221876,-0.710835116129618,-0.115263493112928,-1.04381394373603
"V241_0",0.212287281955726,-0.246951739931085,0.138800575012031,0.0217541912612329,-0.00697869537349378
"V241_1",-1.02877682793929,1.19676612428141,-0.672648940442921,-0.10542415765059,0.0338198314253929
"V242_0",0.256028694747419,-0.299942953854702,0.112759947638291,-0.00468104409334332,-0.0445919130178466
"V242_1",-1.0411833586395,1.21976801234245,-0.458557120395715,0.0190362459795963,0.181340446272576
"V243_0",0.13823407906053,-0.160457354001029,0.0510208203978554,-0.00281639071188763,0.0199116452138168
"V243_1",-1.02907592189505,1.19451585756321,-0.379821662961812,0.0209664641884969,-0.148231136591747
"V244_0",0.174035098937476,-0.204206623684206,0.108738508263138,0.0117377125539559,0.0179211728859253
"V244_1",-1.02838922099418,1.20667550358849,-0.642545730645818,-0.069359210546103,-0.105897839780468
"V245_0",0.170533150466727,-0.226853258147536,0.135657986234664,0.0161210289030551,-0.0174684797436182
"V245_1",-1.1255187930804,1.49723150377374,-0.89534270914878,-0.106398790760164,0.11529196630788
"V246_0",0.127890843015546,-0.1686162041346,0.148101086898605,0.0316656304769023,0.00409167027002835
"V246_1",-1.08707216563214,1.4332377351441,-1.25885923863814,-0.269157859053669,-0.0347791972952409
"V247_0",0.105166517041284,-0.126654753372197,0.0727046779797903,0.0123900537416687,0.00984564172192162
"V247_1",-1.03664138226408,1.24845399752594,-0.716660397229362,-0.122130529739306,-0.0970498969732273
"V248_0",0.0755418837030087,-0.121855317763197,0.104934534994285,0.0219569805379639,0.0904191142536476
"V248_1",-0.744627139358229,1.20114527509437,-1.03435470208652,-0.216433093874215,-0.891274126214526
"V249_0",0.0916553286013984,-0.142619717756519,0.141004959187177,0.0328599907568081,0.0858179852428666
"V249_1",-0.779070293111885,1.21226760093041,-1.198542153091,-0.279309921432869,-0.729452874564366
"V250_0",0.101566391420079,-0.144677625239592,0.159764634700186,0.0416898885599847,0.0983075801194562
"V250_1",-0.756105358349478,1.0770445434503,-1.18935894721249,-0.310358059279886,-0.731845318667063
"V251_0",0.246352346088402,-0.268495519595288,0.127899786452898,0.0228362529515305,-0.0101185730249005
"V251_1",-1.00183287409283,1.0918817796875,-0.520125798241783,-0.0928674286695572,0.0411488636345953
"V252_0",0.241829923597942,-0.294350101171191,0.10985713321902,-0.00642198354495357,-0.0489986719510687
"V252_1",-1.07096109021946,1.30355044804385,-0.486510161398518,0.0284402128419373,0.216994118640447
"V253_0",0.134477282473876,-0.145365525815189,0.00951157142731723,-0.0151815148662257,0.0295628708277158
"V253_1",-1.00110865841663,1.08216558106863,-0.0708083650700281,0.113017944004125,-0.220079149495218
"V254_0",0.143022849373517,-0.174516412085209,0.0811579027975616,0.0097335966241205,0.0135991558548522
"V254_1",-1.06472565644729,1.29917773441211,-0.60417549860407,-0.0724612193128971,-0.101238160252789
"V255_0",0.248290889559931,-0.284043341594575,0.167699151015783,0.0242840238769421,-0.00676832157486449
"V255_1",-1.00971628421039,1.15510958915127,-0.681976547464186,-0.0987550304328978,0.0275245077377822
"V256_0",0.0916553286013984,-0.142619717756519,0.141004959187177,0.0328599907568081,0.0858179852428666
"V256_1",-0.779070293111885,1.21226760093041,-1.198542153091,-0.279309921432869,-0.729452874564366
"V257_0",0.120975650814441,-0.148542168430526,0.123126513955905,0.0266348560982915,0.028436710725404
"V257_1",-1.02829303192275,1.26260843165947,-1.04657536862519,-0.226396276835478,-0.241712041165934
"V258_0",0.13480400187212,-0.176852951667687,0.0630441492519672,-0.00248148252050933,-0.026623349193481
"V258_1",-1.14583401591302,1.50325008917534,-0.535875268641721,0.0210926014243291,0.226298468144588
"V259_0",0.23421692171993,-0.278706934270098,0.163910220413005,0.0220759059096821,-0.0117851384345863
"V259_1",-1.03724636761683,1.23427356605329,-0.725888118971879,-0.097764726171449,0.0521913273531682
"V260_0",0.0755306131509671,-0.119542836022571,0.0794323548967025,0.01293188374045,0.0888743611018058
"V260_1",-0.744516043916675,1.17835081222249,-0.782976069696066,-0.127471425441579,-0.8760472737178
"V261_0",0.13516546811678,-0.169780653842392,-0.00700203297644488,-0.0219610479666711,-0.0125654145126603
"V261_1",-1.14890647899263,1.44313555766034,0.059517280299782,0.186668907716704,0.106806023357613
"V262_0",0.1222181626694,-0.150922559911331,0.103002359524116,0.0148814191422631,-0.000253925604146
"V262_1",-1.0388543826899,1.28284175924631,-0.875520055954987,-0.126492062709236,0.00215836763524132
"V263_0",0.21755978205223,-0.206711419452791,-0.0453169765272728,-0.0310388301635087,0.0109903199986052
"V263_1",-0.963479034802735,0.915436286148072,0.200689467477923,0.137457676438395,-0.04867141713668
"V264_0",0.316300917941462,-0.254664172711407,-0.0337254995626144,-0.020657262307383,0.0282737419120411
"V264_1",-0.885642570236093,0.71305968359194,0.09443139877532,0.0578403344606723,-0.079166477353715
"V265_0",0.331351868627387,-0.296925218637967,-0.0300098374804806,-0.0262832485991579,0.00480131756197317
"V265_1",-0.927785232156684,0.831390612186307,0.0840275449453454,0.0735930960776421,-0.0134436891735249
"V266_0",0.30422018426255,-0.267466578418799,0.018984599325219,-0.00377231499203381,0.0303520297880887
"V266_1",-0.912660552787651,0.802399735256397,-0.056953797975657,0.0113169449761015,-0.0910560893642662
"V267_0",0.36769221104977,-0.319831425536804,-0.0106365195706365,-0.016698541822501,0.125345257879459
"V267_1",-0.796666457274502,0.692968088663076,0.0230457924030457,0.0361801739487521,-0.271581392072162
"V268_0",0.220180042452686,-0.179145440270908,-0.0461380225518238,-0.0165218208218612,0.0157314215111661
"V268_1",-0.895398839307589,0.728524790435026,0.187627958377417,0.0671887380089019,-0.0639744474787421
"V269_0",0.119526447961466,-0.125337657355726,-0.00677992871111479,-0.00743545508073795,0.00296461842969456
"V269_1",-1.01597480767246,1.06537008752367,0.0576293940444763,0.0632013681862728,-0.0251992566524038
"V270_0",0.172829842004655,-0.141637690708546,-0.115287395337993,-0.0414895405705041,0.0166607455983407
"V270_1",-0.92175915735816,0.755401017112245,0.614866108469295,0.221277549709355,-0.0888573098578169
"V271_0",0.185696438328999,-0.205559326047,0.00141995285028922,-0.0104379215038969,0.107599900304433
"V271_1",-0.82236994117128,0.910334158208142,-0.00628836262270885,0.0462250809458294,-0.476513844205348
"V272_0",0.288322272044667,-0.265829727850558,0.0294594985237843,-0.00166135512012269,0.00845374526741168
"V272_1",-0.929038432143928,0.856562456407354,-0.0949250507988605,0.00535325538706197,-0.0272398458616599
"V273_0",0.25964212681297,-0.224266934873661,0.0136213187729108,-0.00135642138512616,0.0631675625585171
"V273_1",-0.901110910703836,0.778338185737999,-0.0472739886824552,0.00470758010132017,-0.219228599467795
"V274_0",0.0450071757637128,-0.0619790145542667,0.120880259502641,0.0414799276271401,0.0762234529476667
"V274_1",-0.525083717243315,0.723088503133111,-1.41026969419748,-0.483932488983301,-0.889273617722778
"V275_0",0.132492576603527,-0.178349427100055,0.202050754049801,0.0543957004245503,0.100110314280366
"V275_1",-0.782910679929933,1.05388297831851,-1.19393627393064,-0.321429138872343,-0.591560948020347
"V276_0",0.0547530688896866,-0.0656029245430666,0.144595516948819,0.0512158007978732,0.0865079275050899
"V276_1",-0.539708821912625,0.64665739906737,-1.42529866706693,-0.504841465007607,-0.852720999693029
"V277_0",0.0597313500829295,-0.0801326429004968,0.155247877803664,0.0518759727639129,0.0819691926532792
"V277_1",-0.588780450817448,0.789878908590611,-1.53030050977898,-0.511348874387142,-0.807982041868038
"V278_0",0.0739363559294134,-0.117969693931271,0.116229974263945,0.0281173657092592,0.0714201252697204
"V278_1",-0.728801222732789,1.16284412589396,-1.14569546060174,-0.277156890562697,-0.703998377658672
"V279_0",0.0884925859075516,-0.134378228404849,0.145158447402661,0.0374175479654655,0.0789088354459472
"V279_1",-0.752186980214187,1.14221494144122,-1.23384680292262,-0.318049157706457,-0.670725101290551
"V280_0",0.29458417650474,-0.278960520325669,-0.0246033865313253,-0.0316311615162974,0.0139364299880001
"V280_1",-0.949215679848607,0.898872787716045,0.079277578823159,0.101922631552514,-0.0449062744057783
"V281_0",0.359951120307803,-0.355433020760005,0.149882044418633,0.0379035271016254,0.08454630877926
"V281_1",-0.829452581578849,0.819041308707838,-0.345380363225545,-0.0873429102776585,-0.194824102839164
"V282_0",0.264450580101758,-0.291895194487373,0.166706401676424,0.0262225064164797,-0.0252088667256148
"V282_1",-0.991689675381591,1.09460697932765,-0.625149006286592,-0.098334399061799,0.0945332502210556
"V283_0",0.307049735759521,-0.295206412763186,0.0683362708746986,0.00313046032875502,0.145966646248464
"V283_1",-0.804177879370174,0.773159652475012,-0.178975947528973,-0.00819882467054879,-0.382293597317407
"V284_0",0.250085526381264,-0.252899536323677,0.176142977389989,0.0421214568632395,0.0185584672139224
"V284_1",-0.937820723929739,0.948373261213789,-0.660536165212459,-0.157955463237148,-0.0695942520522091
"V285_0",0.301285224455673,-0.334457748480637,0.227774499952714,0.0506735515603895,0.04684742333287
"V285_1",-0.843598628475884,0.936481695745782,-0.6377685998676,-0.141885944369091,-0.131172785332036
"V286_0",0.118807161833956,-0.14067605429445,0.190792717225419,0.0567657114928372,0.102460518016956
"V286_1",-0.70204231992792,0.831267593558114,-1.12741151087748,-0.335433749730402,-0.605448515554741
"V287_0",0.259772012443401,-0.220473886576507,0.00751606952642848,0.00189467855278565,0.0369217717234384
"V287_1",-0.901561690244747,0.765174076941993,-0.0260851824740749,-0.00657564909496175,-0.12814026656958
"V288_0",0.207870833000338,-0.21853199428307,0.18381011249053,0.0605458907896365,0.122168360236349
"V288_1",-0.779515623751268,0.819494978561514,-0.689287921839488,-0.227047090461137,-0.458131350886307
"V289_0",0.168248414623955,-0.161391100178886,0.159034430226185,0.048482895757719,0.0468023614624359
"V289_1",-0.897324877994425,0.86075253428739,-0.848183627872986,-0.258575444041168,-0.249612594466325
"V290_0",0.147173024807178,-0.189872198609353,0.21764013331141,0.0599998065804141,0.102982122424517
"V290_1",-0.784922798971615,1.01265172591655,-1.16074737766085,-0.319998968428875,-0.549237986264092
"V291_0",0.121703145000348,-0.174625617928751,0.180606853272836,0.0453627508020069,0.0978190169941209
"V291_1",-0.803240757002297,1.15252907832976,-1.19200523160072,-0.299394155293246,-0.645605512161198
"V292_0",0.0868721055099442,-0.106310879530471,0.10200709926886,0.0247321525505569,0.00956619184118286
"V292_1",-1.01350789761602,1.24029359452216,-1.19008282480337,-0.288541779756498,-0.111605571480467
"V293_0",0.15230096385376,-0.167109959703355,0.0256306313442077,-0.0113133181259508,0.0336573087763378
"V293_1",-1.00518636143482,1.10292573404214,-0.169162166871771,0.0746678996312755,-0.22213823792383
"V294_0",0.0891726714026929,-0.0698150595031791,-0.0861402462891316,-0.0450228143845604,0.0266901056710244
"V294_1",-0.878987760969401,0.688177015102765,0.84909671342144,0.443796313219239,-0.263088184471526
"V295_0",0.143062868304554,-0.127721510599999,-0.0982528723671144,-0.0463748758416582,0.0207570930778387
"V295_1",-0.944214930810053,0.842961969959994,0.648468957622955,0.306074180554944,-0.136996814313736
"V296_0",0.0810528496349729,-0.0560351780179723,0.037135977638754,0.0107930422961775,0.0451997252217899
"V296_1",-0.798949517830447,0.552346754748583,-0.366054636724861,-0.106388559776606,-0.445540148614786
"V297_0",0.202032949641761,-0.220199576225374,0.154792852195129,0.0367581376766498,0.0131656832175173
"V297_1",-0.979082755956228,1.06712102324604,-0.750149976022548,-0.178135590279149,-0.0638029263618149
"V298_0",0.120929116499612,-0.146464861634202,0.101828602809917,0.0190219732885818,0.0237956177160377
"V298_1",-1.0278974902467,1.24495132389072,-0.865543123884297,-0.161686772952945,-0.202262750586321
"V299_0",0.168569636430756,-0.214008705778324,0.194563268766161,0.0488855093503958,0.110007919810831
"V299_1",-0.816914391933664,1.03711911261803,-0.942883533251397,-0.23690669915961,-0.533115303698643
"V300_0",0.22459433216983,-0.26201295381687,0.161928658360716,0.0360708556787756,0.100495046351529
"V300_1",-0.842228745636863,0.982548576813263,-0.607232468852686,-0.135265708795409,-0.376856423818236
"V301_0",0.214610353839846,-0.241266635269121,0.207031426496095,0.0603596142858764,0.124232326032286
"V301_1",-0.804788826899423,0.904749882259202,-0.776367849360355,-0.226348553572036,-0.465871222621073
"V302_0",0.119629725084808,-0.116126166302059,0.108955844228434,0.0296285103879672,0.0533757735996638
"V302_1",-0.890576842298015,0.864494793581995,-0.811115729256117,-0.220567799554867,-0.397352981241942
"V303_0",0.157845630260907,-0.183363311163452,0.0438324926949645,-0.00787483371511964,0.0213186012420183
"V303_1",-1.04178115972199,1.21019785367878,-0.289294451786766,0.0519739025197897,-0.140702768197321
"V304_0",0.231928450763484,-0.259097909583346,0.0324478960903143,-0.0241318011103487,-0.00587948945029344
"V304_1",-1.027111710524,1.14743359958339,-0.143697825542821,0.106869404917259,0.0260377389941566
"V305_0",0.239656447941734,-0.287349568174722,0.0954763966482356,-0.0101074638899103,-0.030969921158646
"V305_1",-1.06133569802768,1.27254808763091,-0.422824042299329,0.0447616257981742,0.137152507988289
"V306_0",0.157845630260907,-0.183363311163452,0.0438324926949645,-0.00787483371511964,0.0213186012420183
"V306_1",-1.04178115972199,1.21019785367878,-0.289294451786766,0.0519739025197897,-0.140702768197321
"V307_0",0.14424850166597,-0.176048296761459,0.0478309883984769,-0.00875808536551864,0.0139517437769757
"V307_1",-1.07384995684666,1.31058176477975,-0.356075135855328,0.0651990799433054,-0.103862981450819
"V308_0",0.222593953701481,-0.276290385710381,0.134351929551739,0.00865440060062751,-0.0383495135164153
"V308_1",-1.07872454486102,1.33894571536569,-0.651090120135352,-0.0419405567568872,0.185847642425705
"V309_0",0.166383201947649,-0.18841803495808,0.155333652372045,0.0352247854442037,0.0106338845288273
"V309_1",-0.983173466054292,1.11337929747956,-0.917880673107536,-0.208146459443022,-0.0628365903976161
"V310_0",0.155929748171867,-0.153407172145135,0.0687791028937126,0.00866909235372318,0.0481418208621278
"V310_1",-0.921403057379215,0.906496926312158,-0.406421971644665,-0.0512264548174554,-0.284474396003482
"V311_0",0.153881108041993,-0.180637798799311,0.115052325543828,0.0165756388410388,0.0165443755293585
"V311_1",-1.01561531307715,1.19220947207545,-0.759345348589265,-0.109399216350856,-0.109192878493766
"V312_0",0.165537379348714,-0.181627074435194,0.11696362064214,0.0255354054087296,0.0430263938118218
"V312_1",-0.978175423424219,1.07325089438978,-0.691148667430826,-0.150891031960675,-0.254246872524402
"V313_0",0.247491971735357,-0.258365215475891,0.186560885289574,0.0508980623014071,0.111251852374073
"V313_1",-0.797474131147263,0.832510138755648,-0.601140630377517,-0.164004867415645,-0.358478190983124
"V314_0",0.187469124011616,-0.135601636021496,-0.287353551354504,-0.114148322302253,-0.00764742300997575
"V314_1",-0.908504216363986,0.657146389950328,1.3925595181026,0.55318033115707,0.0370605884329595
"V315_0",0.160224067823533,-0.135617450238892,-0.216869009549938,-0.0972042112430116,-0.00970983947254693
"V315_1",-0.946778582593601,0.801375842320727,1.28149869279509,0.574388520981432,0.0573763241559592
"V316_0",0.202784186350129,-0.148971195611493,-0.261379183317364,-0.106401215497232,0.00145692232798466
"V316_1",-0.898044253836288,0.659729580565183,1.15753638326261,0.471205382916315,-0.00645208459536082
"V317_0",0.225847010119917,-0.175510577750604,-0.275461255490496,-0.115867262789067,-0.00951500665167194
"V317_1",-0.918444507820997,0.713743016185791,1.12020910566135,0.471193535342206,0.038694360383466
"V318_0",0.289729371769818,-0.200266592647655,-0.293508618032706,-0.115274910850198,0.00820128657045567
"V318_1",-0.869188115309453,0.600799777942965,0.880525854098119,0.345824732550594,-0.0246038597113672
"V319_0",0.226123037006762,-0.215172804154075,-0.205013686086517,-0.0976281502659268,-0.0304178019153009
"V319_1",-1.00140202102995,0.952908132682331,0.907917752668862,0.432353236891962,0.134707408482047
"V320_0",0.114218878114459,-0.0995208474080192,-0.210425813644043,-0.0969023363584599,-0.00727774212055814
"V320_1",-0.970860463972902,0.845927202968164,1.78861941597437,0.823669859046909,0.0618608080247443
"V321_0",0.128450455855694,-0.105108946653195,-0.205675471056407,-0.0847304719094452,-0.0198521738130543
"V321_1",-0.956242282481278,0.782477713973782,1.53113961786436,0.630771290881425,0.147788405052738
"V322_0",0.230461193012205,-0.192769115246694,-0.227920442526349,-0.0978132346638921,-0.0135362008475432
"V322_1",-0.937208851582967,0.783927735336554,0.926876466273819,0.397773820966495,0.055047216780009
"V323_0",0.179420451695878,-0.144315028471896,-0.284061586931663,-0.114931668845096,-0.00643157252025068
"V323_1",-0.95690907571135,0.769680151850111,1.5149951303022,0.612968900507176,0.0343017201080036
"V324_0",0.246655980768811,-0.165911103282074,-0.269449635598197,-0.11026196722753,0.0204298014686131
"V324_1",-0.856041345021166,0.575809123155433,0.935148735311391,0.382673886260251,-0.0709034286263634
"V325_0",0.119813226411557,-0.129772992556284,-0.0048450842386522,-0.0189785137874955,-0.0313424941258689
"V325_1",-1.01841242449823,1.10307043672841,0.0411832160285442,0.161317367193712,0.266411200069885
"V326_0",0.113262789444319,-0.126900138850381,-0.0959627127928152,-0.0496063886876603,-0.0337196634631365
"V326_1",-1.11644749595114,1.25087279723946,0.945918168957749,0.488977259921223,0.332379539850917
"V327_0",0.140822945935325,-0.139642826349327,-0.176588867767156,-0.0822991160889021,-0.020392608782393
"V327_1",-1.04834859751853,1.03956326282277,1.31460601559994,0.612671197550716,0.151811643157815
"V328_0",0.282067292365937,-0.222806430661812,-0.210652240425062,-0.0854673410757721,-0.0238312046606208
"V328_1",-0.908883497623574,0.717931832132506,0.678768330258534,0.275394765688599,0.0767894372397781
"V329_0",0.121155630601155,-0.11936205399703,-0.0869951530600612,-0.0438577858564874,-0.0284349528254139
"V329_1",-1.02982286010982,1.01457745897476,0.73945880101052,0.372791179780142,0.241697099016018
"V330_0",0.151194398956353,-0.108926825486408,-0.247437428000605,-0.105556120366292,-0.00387812210228808
"V330_1",-0.893421448378448,0.643658514237867,1.46213025636721,0.62374071125536,0.0229161760589749
"V331_0",0.137455961598539,-0.0999984390229945,-0.243305833762242,-0.101630836989295,-0.00502749838909307
"V331_1",-0.907209346550357,0.659989697551764,1.6058185028308,0.670763524129344,0.0331814893680142
"V332_0",0.242273205041538,-0.185706949699968,-0.27818089766557,-0.116021468676441,0.00179708986363471
"V332_1",-0.908524518905768,0.69640106137488,1.04317836624589,0.435080507536653,-0.00673908698863018
"V333_0",0.243087496503667,-0.183537823465114,-0.274662405223278,-0.109042466198337,-0.0174242251020048
"V333_1",-0.91157811188875,0.688266837994179,1.02998401958729,0.408909248243763,0.0653408441325181
"V334_0",0.269836437083424,-0.243415042894991,-0.029009622069901,-0.0225977867736765,-0.0344045676398822
"V334_1",-0.936491163995413,0.84479338416497,0.100680453066127,0.0784276129204065,0.119404087691356
"V335_0",0.140329751523958,-0.0836408727418686,-0.0944103799834731,-0.0286295489037768,0.00531136793555857
"V335_1",-0.829221259005208,0.494241520747405,0.557879518084159,0.169174607158681,-0.031385355982846
"V336_0",0.152070198508996,-0.182435662003047,-0.0684485055379966,-0.046400789485799,-0.0229650419580472
"V336_1",-1.13207814445586,1.35813215046713,0.509561096782866,0.345428099505394,0.170961979021018
"V337_0",0.168363615884703,-0.162599874506304,-0.0780558212681686,-0.0363550429790493,-0.0233680528449193
"V337_1",-0.994875912045973,0.960817440264522,0.46123894385736,0.21482525396711,0.138083948629069
"V338_0",0.228841329877128,-0.20350454479895,-0.047759021710891,-0.0311371507941844,-0.0131136174666664
"V338_1",-0.930621408166988,0.827585148849062,0.19422002162429,0.126624413229683,0.0533287110311103
"V339_0",0.238132186477609,-0.219281437205319,-0.10748678869376,-0.048267719331997,-0.0383685850256378
"V339_1",-0.968404225008945,0.891744511301632,0.437112940687958,0.196288725283454,0.156032245770927
"V340_0",0.137876562586195,-0.103275662149297,-0.104775850527437,-0.0348978809599794,-0.0171606002400583
"V340_1",-0.909985313068887,0.68161937018536,0.691520613481082,0.230326014335864,0.113259961584385
"V341_0",0.0917492911273909,-0.104513724920795,-0.018967834755805,-0.0148639713828194,-0.0168236801871155
"V341_1",-1.07040839648623,1.2193267907426,0.221291405484392,0.173412999466226,0.196276268849681
"V342_0",0.175654751595667,-0.176505009675807,-0.156484011709805,-0.0725383073351838,-0.0345358415566993
"V342_1",-1.03795989579258,1.04298414808431,0.924678251012482,0.428635452435176,0.204075427380496
"V343_0",0.280378874020636,-0.252668955916507,-0.240387611185499,-0.104987121542365,-0.0284563803542829
"V343_1",-0.973079621601031,0.876909905827877,0.834286415290851,0.364367068882327,0.0987603788766291
"V344_0",0.25770271790762,-0.23492191637817,-0.172748988840619,-0.0807844855476274,-0.0314869778374739
"V344_1",-0.966385192153573,0.880957186418136,0.647808708152323,0.302941820803603,0.118076166890527
"V345_0",0.172131098700368,-0.171788217861418,-0.0924546804229722,-0.0451529030653117,-0.0204633848150507
"V345_1",-1.01713831050217,1.01511219645383,0.54632311159029,0.266812609022296,0.120920001179845
"V346_0",0.156009617082324,-0.15151971996285,0.138158816901009,0.0396743637325099,-0.00623976549754539
"V346_1",-0.921875010031914,0.895343799780476,-0.816393008960509,-0.234439422055741,0.0368713415764043
"V347_0",0.164529261922162,-0.178263378627642,0.111452366249707,0.0170901463177676,-0.0218507338580224
"V347_1",-0.972218365903688,1.05337451007243,-0.658582164202816,-0.100987228241354,0.129117972797405
"V348_0",0.178299373322206,-0.184049339853088,0.119064027054861,0.0247951651429933,0.00845071924873673
"V348_1",-0.950929991051769,0.981596479216472,-0.635008144292593,-0.132240880762631,-0.0450705026599291
"V349_0",0.139136530770009,-0.146935085922875,-0.0469809557772654,-0.0315798568146844,-0.056403362549155
"V349_1",-1.03579417351007,1.09385008409252,0.349747115230754,0.235094489620429,0.419891698977042
"V350_0",0.324873149783195,-0.285187048501324,0.063812440307266,0.0131484281053126,-0.0408759184328446
"V350_1",-0.909644819392945,0.798523735803707,-0.178674832860345,-0.0368155986948753,0.114452571611965
"V351_0",0.207351748000911,-0.26082480738823,0.065071352214334,-0.0204175797039159,-0.0556158630410195
"V351_1",-1.10587598933819,1.3910656394039,-0.347047211809781,0.108893758420885,0.296617936218771
"V352_0",0.342046925720063,-0.328478146664104,-0.0189286023621125,-0.0348523760707763,-0.0396381153804962
"V352_1",-0.957731392016175,0.919738810659491,0.0530000866139147,0.0975866529981737,0.110986723065389
"V353_0",0.256028694747419,-0.299942953854702,0.112759947638291,-0.00468104409334332,-0.0445919130178466
"V353_1",-1.0411833586395,1.21976801234245,-0.458557120395715,0.0190362459795963,0.181340446272576
"V354_0",0.218507871717377,-0.260600260005857,0.0888146106108651,-0.00950606347937471,-0.0461486494376932
"V354_1",-1.05892276293806,1.26290895233608,-0.4304092668065,0.0460678460923544,0.223643454967283
"V355_0",0.142256388420295,-0.176232166805692,0.140303872937301,0.0304091068895392,-0.0253263422684352
"V355_1",-1.0590197804622,1.31195057510904,-1.04448438742213,-0.226378906844348,0.188540547998351
"V356_0",0.0694985928902963,-0.0276026264611013,-0.135467687191996,-0.0409404888176921,0.0057638119091367
"V356_1",-0.810816917053458,0.322030642046181,1.58045635057328,0.477639036206408,-0.0672444722732613
"V357_0",0.305427111587001,-0.251427456134978,-0.170059982274241,-0.0741595792754317,-0.0344122308970691
"V357_1",-0.916281334761002,0.754282368404933,0.510179946822723,0.222478737826295,0.103236692691207
"V358_0",0.361304077452625,-0.341441378819093,0.0297081785686138,-0.0138463455349093,-0.0275817029381203
"V358_1",-0.946272583804495,0.89425123024048,-0.0778071343463696,0.0362642383057147,0.0722377934093627
"V359_0",0.162430290104501,-0.199010468573126,0.0935853312341798,0.00612489916000714,-0.0316579065849536
"V359_1",-1.07203991468971,1.31346909258263,-0.617663186145586,-0.0404243344560472,0.208942183460694
"V360_0",0.291470998490957,-0.321950217053792,0.110477565380794,2.86348711267376e-05,-0.0332767108979033
"V360_1",-1.01157581829215,1.11735663565728,-0.383422138674519,-9.93798468514663e-05,0.115489761351547
"V361_0",0.099746724396764,-0.110450079133946,0.0884972082358972,0.0224332839006757,-0.00661182845272665
"V361_1",-0.983217711910959,1.08872220860603,-0.872329624039558,-0.221128084163803,0.0651737376054486
"V362_0",0.286014968818029,-0.313785938880453,0.151438107453634,0.0134220074304309,-0.040906052325114
"V362_1",-0.992640185897867,1.08902178787922,-0.525579314103788,-0.0465822610820838,0.141968063951866
"V363_0",0.213879424636998,-0.245505073692379,0.0605020446932101,-0.0173104402669872,-0.0480534303874723
"V363_1",-1.03649259631776,1.18975535712461,-0.293202216590172,0.0838890566784765,0.232874316493135
"V364_0",0.18037027243361,-0.199972728836529,-0.0306543930067026,-0.0309683266116016,-0.0721584184728141
"V364_1",-1.0658243371077,1.18165703403404,0.181139595039606,0.182994657250373,0.426390654612084
"V365_0",0.167634044504706,-0.165508385783887,0.0158999571493327,-0.00454302514280143,-0.0603055787041529
"V365_1",-0.990564808436899,0.978004097813878,-0.0939542922460568,0.0268451485710994,0.356351146888176
"V366_0",0.0945480356118362,-0.0908364339547768,0.0830932110209849,0.0272130337360476,-0.0212528640425647
"V366_1",-0.9319734938881,0.895387706125657,-0.819061651492565,-0.268242761112469,0.209492516990995
"V367_0",0.0935011346587925,-0.114474868917375,0.0437056929135994,-0.00101750421864806,-0.0504573285556749
"V367_1",-1.09084657101924,1.33554013736938,-0.50989975065866,0.0118708825508939,0.588668833149541
"V368_0",0.111547082406592,-0.105110578382477,0.0303412702044353,0.00778163295125501,-0.049956068381623
"V368_1",-0.948150200456028,0.893439916251059,-0.257900796737699,-0.0661438800856676,0.424626581243796
"V369_0",0.191686296450318,-0.226450436826088,0.13757927009949,0.017193406065483,-0.0657790438869236
"V369_1",-1.0223269144017,1.20773566307247,-0.733756107197282,-0.091698165682576,0.350821567396926
"V370_0",0.221911129170709,-0.239456536740092,0.170578779669395,0.03710446999135,-0.0402045014209155
"V370_1",-0.982749286327427,1.06045037699184,-0.755420309964463,-0.164319795675978,0.178048506292626
"V371_0",0.176283802100618,-0.235723076902394,0.193101097339026,0.0417761886690186,0.0621686537916922
"V371_1",-0.854298425564535,1.14235029575775,-0.935797625566047,-0.202453837396013,-0.301278860682816
"V372_0",0.208200177520299,-0.258045569348092,0.173435317648111,0.0295267042395852,0.0592219319069202
"V372_1",-0.846680721915881,1.04938531534891,-0.705303625102319,-0.120075263907647,-0.240835856421475
"V373_0",0.344915591493845,-0.341852634342417,0.0367334279318309,-0.0206733704129108,-0.0360754886898585
"V373_1",-0.965763656182766,0.957187376158768,-0.102853598209127,0.0578854371561502,0.101011368331604
"V374_0",0.185277731187395,-0.228629196624645,0.0453653038557326,-0.02319144800714,-0.0527517305882101
"V374_1",-1.09482295701642,1.35099070732745,-0.268067704602056,0.137040374587646,0.311714771657605
"V375_0",0.272848539419874,-0.310054380648448,0.109443751685091,-0.00364151659003488,-0.0374640974195467
"V375_1",-1.02318202282453,1.16270392743168,-0.41041406881909,0.0136556872126308,0.1404903653233
"V376_0",0.256028694747419,-0.299942953854702,0.112759947638291,-0.00468104409334332,-0.0445919130178466
"V376_1",-1.0411833586395,1.21976801234245,-0.458557120395715,0.0190362459795963,0.181340446272576
"V377_0",0.225180938962576,-0.280803147986013,0.0954836942997797,-0.0111496837037754,-0.049549255046215
"V377_1",-1.09126147343402,1.36081525562453,-0.462728672375855,0.0540330825644501,0.240123312916273
"V378_0",0.203156973026778,-0.257640492606503,0.154394182467764,0.0172619979176293,-0.0563554586454978
"V378_1",-1.08350385614281,1.37408262723468,-0.823435639828073,-0.092063988894023,0.300562446109322
"V379_0",0.186767947624698,-0.242108813634733,0.133630445463762,0.0112145940627712,-0.0549670027735852
"V379_1",-1.10362878141867,1.43064298965978,-0.789634450467683,-0.0662680558254665,0.324805016389367
"V380_0",0.115396343482726,-0.176359829402426,0.021167077619241,-0.0246645920855315,-0.0582760320292627
"V380_1",-1.34629067396513,2.0575313430283,-0.246949238891144,0.287753574331201,0.679887040341399
"V381_0",0.141169877140395,-0.170182532820374,0.102376567292578,0.0117921446311901,-0.0529370936580266
"V381_1",-1.05093130760072,1.26691441099612,-0.762136667622527,-0.0877859655877483,0.394087252787531
"V382_0",0.291339424138644,-0.322273745618344,0.13845272573802,0.0165406166813147,-0.0495136479806735
"V382_1",-1.01111917789294,1.11847947008719,-0.480512401090776,-0.0574056696586804,0.17184148416822
"V383_0",0.135192965149652,-0.177291106912451,0.0644400729823126,-4.53109845143278e-05,-0.0421280751040299
"V383_1",-1.14914020377204,1.50697440875583,-0.547740620349658,0.000385143368371606,0.358088638384254
"V384_0",0.215467177047048,-0.261654787467073,0.174557475843195,0.0264049369648302,-0.045329594949575
"V384_1",-1.04418708876646,1.26801935464812,-0.845932382932408,-0.127962386829562,0.219674190909479
"V385_0",0.238426930490295,-0.288502278355775,0.151983738314592,0.0142959082148392,-0.0518708215126896
"V385_1",-1.05589069217131,1.27765294700414,-0.673070841107479,-0.0633104506657164,0.229713638127625
"V386_0",0.207351748000911,-0.26082480738823,0.065071352214334,-0.0204175797039159,-0.0556158630410195
"V386_1",-1.10587598933819,1.3910656394039,-0.347047211809781,0.108893758420885,0.296617936218771
"V387_0",0.0897742675210333,-0.0980955253162462,-0.0466699043526713,-0.0248207051965187,0.0106406781022813
"V387_1",-1.04736645441205,1.14444779535621,0.544482217447832,0.289574893959385,-0.124141244526615
"V388_0",0.0792592531612033,-0.131149064877823,0.0899394101801798,0.0150710650684465,0.0838859934836304
"V388_1",-0.781269781160432,1.2927550680814,-0.886545614633201,-0.148557641388972,-0.8268762214815
"V389_0",0.0535640390622736,-0.0836102561060985,0.065503349689557,0.0135151003883267,0.099002616099422
"V389_1",-0.624913789059858,0.975452987904482,-0.764205746378165,-0.157676171197144,-1.15503052115992
"V390_0",0.0780117733743325,-0.128659229887829,0.11968041336307,0.027986407650593,0.0787284794737199
"V390_1",-0.76897319468985,1.26821240889431,-1.17970693172169,-0.275866018270131,-0.776037869098097
"V391_0",0.0463712628360297,-0.0640365253702029,0.0647462568862404,0.018313874440175,0.0950850580795692
"V391_1",-0.540998066420346,0.747092795985702,-0.755372997006137,-0.213661868468708,-1.10932567759497
"V392_0",0.200331756495161,-0.197625455017812,0.0334905397288377,0.00238498878440057,-0.00499687277426839
"V392_1",-0.970838512245781,0.957723358932475,-0.162300307916675,-0.0115580225705567,0.0242156142137621
"V393_0",0.144019253266784,-0.135350328200128,-0.0527782929753087,-0.0339037154150082,0.0298890376033882
"V393_1",-0.950527071560772,0.893312166120841,0.348336733637037,0.223764521739054,-0.197267648182362
"V394_0",0.145487643482221,-0.179406179309952,0.0744344459923505,0.0053311637190581,0.00113361914400206
"V394_1",-1.08307467925653,1.33557933486298,-0.554123097943054,-0.0396875521307657,-0.00843916473868198
"V395_0",0.255943709658476,-0.268864697426033,0.170489737662895,0.0346169022223256,-0.0159831780848987
"V395_1",-0.959788911219284,1.00824261534762,-0.639336516235855,-0.129813383333721,0.0599369178183701
"V396_0",0.108225085000013,-0.137523053802019,0.169519392763975,0.0476968526116834,0.100133611583186
"V396_1",-0.714285561000084,0.907652155093325,-1.11882799224224,-0.31479922723711,-0.660881836449031
"V397_0",0.153263716599062,-0.179052510062601,0.145208526062464,0.0362427858947322,0.0249703709188174
"V397_1",-1.01154052955381,1.18174656641317,-0.958376272012264,-0.239202386905232,-0.164804448064195
"V398_0",0.0983564436113988,-0.136313128584166,0.163980115277095,0.0463154690105623,0.0912953086837768
"V398_1",-0.732209080218191,1.01477551279324,-1.22074085817393,-0.34479293596752,-0.679642853534782
"V399_0",0.211133807698107,-0.238336988580341,0.104206263243609,0.0146867749270466,0.00850279149368777
"V399_1",-1.02318691422929,1.15501771388934,-0.504999583411339,-0.0711743708003027,-0.0412058357001792
"V400_0",0.128518964617105,-0.166199964827878,0.0810365040057911,0.00324643060396776,-0.0268563149672572
"V400_1",-1.09241119924539,1.41269970103696,-0.688810284049225,-0.0275946601337258,0.228278677221686
"V401_0",0.10053667744612,-0.0707947646945685,-0.0168133820591453,-0.00750415976244544,0.0189521901660018
"V401_1",-0.854561758292019,0.601755499903831,0.142913747502736,0.0637853579807862,-0.161093616411015
"V402_0",0.193612568691881,-0.175675351373084,-0.0433014577534265,-0.0255299541557068,0.00175753307248859
"V402_1",-0.938276294429883,0.851349779731098,0.209845526035836,0.12372208552381,-0.00851727565898302
"V403_0",0.106994386769733,-0.130547605441735,0.0527780999915034,0.000964955393136758,-0.0126010967041389
"V403_1",-1.05465895530166,1.2868263964971,-0.520241271344818,-0.00951170316091936,0.124210810369369
"V404_0",0.152100047519481,-0.132671149294106,0.0172929649383835,0.00572623828546626,-0.0130274849264773
"V404_1",-0.898773008069659,0.783965882192443,-0.10218570190863,-0.0338368625959371,0.076980592747366
"V405_0",0.0542212215387634,-0.0163777829122854,0.109328117070168,0.0463935774960839,0.0295546926932638
"V405_1",-0.632580917952239,0.191074133976664,-1.27549469915196,-0.541258404120979,-0.344804748088077
"V406_0",0.277728510439248,-0.273098537893331,0.0463371869245432,-0.000775970285013375,-0.0615598120493591
"V406_1",-0.963881300936214,0.94781257268862,-0.160817295796944,0.00269307334210522,0.213648759465423
"V407_0",0.226114370074171,-0.256451895713233,0.130828137354309,0.00859327446596299,-0.0528413290701822
"V407_1",-1.0013636388999,1.1357155381586,-0.579381751140511,-0.0380559297778362,0.23401160016795
"V408_0",0.117797669762577,-0.15273017333935,0.015330364400579,-0.0170817801396813,-0.0293974414555751
"V408_1",-1.16114845908826,1.50548313720216,-0.151113591948564,0.168377547091144,0.289774780062098
"V409_0",0.264607112862227,-0.293367740581218,0.178679410636858,0.0294573090569364,-0.0632175564462097
"V409_1",-0.992276673233353,1.10012902717957,-0.670047789888216,-0.110464908963512,0.237065836673286
"V410_0",0.136320944822089,-0.18989140421992,0.11136504584956,0.0103618155357094,-0.0468727104208701
"V410_1",-1.15872803098775,1.61407693586932,-0.946602889721259,-0.0880754320535301,0.398418038577396
"V411_0",0.138156360317821,-0.143449311696567,0.186518528042558,0.0536312550361793,-0.019854120523352
"V411_1",-0.911831978097622,0.946765457197342,-1.23102228508089,-0.353966283238784,0.131037195454123
"V412_0",0.173421577168835,-0.23020539825956,0.0812761909367166,-0.00803037299402385,-0.0572712094681036
"V412_1",-1.14458240931431,1.5193556285131,-0.53642286018233,0.0530004617605574,0.377989982489484
"V413_0",0.175293276912075,-0.161459802956919,0.0240835815070523,-0.00128637079134833,-0.0572897663472599
"V413_1",-0.934897476864402,0.861118949103569,-0.128445768037613,0.00686064422052426,0.30554542051872
"V414_0",0.19892730497505,-0.237956746973648,0.0879360455857648,-5.13122418025049e-05,-0.0854514647616947
"V414_1",-1.0609456265336,1.26910265052612,-0.468992243124079,0.000273665289613304,0.455741145395705
"V415_0",0.180948836816738,-0.225764993513065,0.126303038195008,0.0129617324657789,-0.0757906065594816
"V415_1",-1.06924312664436,1.33406587075902,-0.746336134788683,-0.0765920554796024,0.447853584215118
"V416_0",0.115007180227451,-0.135461854315162,-0.0438823763068249,-0.0286745179738962,-0.0226813431013881
"V416_1",-1.13364220509916,1.33526684967802,0.432554852167274,0.282648820028406,0.223573239142254
"V417_0",0.0920999338366825,-0.121635468049991,0.119168854256717,0.0279741521379121,-0.00206744669117554
"V417_1",-1.07449922809463,1.41908046058322,-1.39030329966169,-0.326365108275641,0.0241202113970483
"V418_0",0.089264730852196,-0.105593421470106,0.0213807084598062,-0.00633616079972266,0.024903379245183
"V418_1",-1.04142185994229,1.23192325048457,-0.249441598697739,0.0739218759967642,-0.290539424527136
"V419_0",0.098773134065267,-0.110103221506604,0.0676619675193765,0.011537271199773,0.0317650241764393
"V419_1",-0.97362089292906,1.08530318342224,-0.666953679833854,-0.113724530397762,-0.313112381167759
"V420_0",0.137205556199868,-0.180799823259289,0.11210396760521,0.0229666100664489,0.10906099977731
"V420_1",-0.810760104817404,1.06836259198671,-0.66243253584897,-0.135711786756289,-0.644451362320468
"V421_0",0.0896056409506346,-0.133766167486659,0.0922504977763072,0.0169488644090586,0.0897933017242371
"V421_1",-0.761647948080394,1.1370124236366,-0.784129231098611,-0.144065347476998,-0.763243064656015
"V422_0",0.1245495869253,-0.176334190138595,0.121182860655579,0.0226868048352234,0.0984715841914424
"V422_1",-0.822027273706979,1.16380565491473,-0.799806880326821,-0.149732911912475,-0.64991245566352
"V423_0",0.105609196155588,-0.118587994635516,-0.029120296119299,-0.027909037931893,0.0211480401709851
"V423_1",-1.04100493353366,1.16893880426437,0.287042918890233,0.275103373900088,-0.208459253113997
"V424_0",0.178772155139851,-0.207999080340175,0.0199034975288259,-0.0224272639097228,0.0105201024764837
"V424_1",-1.05638091673548,1.2290854747374,-0.117611576306699,0.132524741284725,-0.0621642419064942
"V425_0",0.170059611990943,-0.194456833604339,0.161934948217518,0.0380421943081635,-0.0192042302421894
"V425_1",-1.00489770721921,1.149063107662,-0.956888330376243,-0.224794784548239,0.11347954234021
"V426_0",0.100550178884077,-0.107106431313431,-0.0099736299239106,-0.018701676467369,0.0213036626970402
"V426_1",-0.991137477571617,1.05576339437525,0.0983114949642617,0.184345096606923,-0.209993246585111
"V427_0",0.162475071926662,-0.207087774720325,0.144637758888378,0.0228431521999431,-0.013758426497707
"V427_1",-1.07233547471597,1.36677931315415,-0.954609208663294,-0.150764804519624,0.0908056148848666
"V428_0",0.134843055371831,-0.161925709567662,0.157536168755449,0.0374333225564401,0.00448423992311449
"V428_1",-1.00383163443474,1.20544694900371,-1.17276925629056,-0.278670290142388,-0.0333826749831855
"V429_0",0.106205257192776,-0.0967771709189475,-0.0185218602622141,-0.0224891192162579,0.039405449792823
"V429_1",-0.902744686138594,0.822605952811053,0.15743581222882,0.191157513338192,-0.334946323238995
"V430_0",0.0965336191382477,-0.129095864099257,0.0631979348840977,0.00445491570446977,-0.00102681465717039
"V430_1",-1.12622555661289,1.50611841449134,-0.737309240314474,-0.0519740165521471,0.0119795043336545
"V431_0",0.136614612963205,-0.145480485932465,0.109204776323823,0.0300017620536693,0.108360874672208
"V431_1",-0.728611269137095,0.775895924973148,-0.582425473727055,-0.16000939761957,-0.577924664918445
"V432_0",0.121423763825732,-0.138716876115406,0.0139559851538317,-0.0159443263283672,0.0221831102432518
"V432_1",-1.03210199251872,1.17909344698095,-0.118625873807569,0.135526773791122,-0.18855643706764
"V433_0",0.225892703531096,-0.279803213526347,0.0699057791731261,-0.0199517155925061,-0.0405323873547711
"V433_1",-1.09471079403531,1.35596941939691,-0.338774160608227,0.0966890832559909,0.196426184873122
"V434_0",0.164782300465959,-0.205497612744888,0.117012328124111,0.0126872952371402,-0.0466236685935523
"V434_1",-1.08756318307533,1.35628424411626,-0.772281365619134,-0.0837361485651253,0.307716212717445
"V435_0",0.105100363384757,-0.122665412043196,0.0463935819977956,-0.00230323334672382,-0.0534345760941666
"V435_1",-1.03598929622118,1.20913049014008,-0.457308165406842,0.0227033001319917,0.526712250071071
"V436_0",0.13296589558434,-0.169303762724775,-0.0180522655765038,-0.0393016930599273,-0.0385806670473535
"V436_1",-1.13021011246689,1.43908198316059,0.153444257400282,0.334064391009382,0.327935669902504
"V437_0",0.147593982537013,-0.1566976535324,0.0965210311709789,0.0147241328813602,-0.0501146335258724
"V437_1",-0.974120284744284,1.03420451331384,-0.637038805728461,-0.0971792770169777,0.330756581270758
"V438_0",0.231148212487512,-0.221198724594618,0.0533987870374613,0.00311609550249504,-0.0386799773528934
"V438_1",-0.940002730782549,0.899541480018114,-0.217155067285676,-0.0126721217101467,0.157298574568433
"V439_0",0.139462669963128,-0.119845773852674,-0.0811262008894196,-0.0401024737807987,-0.0345968849391288
"V439_1",-0.920453621756645,0.790982107427648,0.53543292587017,0.264676326953272,0.228339440598251
"V440_0",0.105055417463485,-0.0422155282209975,-0.126681302053536,-0.0342189780357925,-0.00629324283293258
"V440_1",-0.78207921889483,0.314271154534092,0.943071915287437,0.254741280933122,0.0468496966451647
"V441_0",0.085370778395396,-0.0837490962570702,-0.0270571473654077,-0.0117283787229706,-0.00245209457559169
"V441_1",-0.995992414612954,0.977072789665818,0.31566671926309,0.136831085101323,0.0286077700485694
"V442_0",0.163917704387809,-0.16786768765302,0.0432276427655581,0.00653042715710124,0.00745490947165202
"V442_1",-0.968604616837053,0.99194542704057,-0.255436070887389,-0.0385888877465074,-0.0440517377870346
"V443_0",0.205516855094731,-0.23342035193927,0.160228417749427,0.0322498911166089,-0.00236200633626845
"V443_1",-0.995966297766774,1.13119093632108,-0.776491562939532,-0.156287933872797,0.0114466460911472
"V444_0",0.201038304190508,-0.238118100827725,0.179067078805455,0.0425608243373293,0.0624932263302748
"V444_1",-0.817555770374733,0.968346943366082,-0.728206120475517,-0.173080685638473,-0.254139120409784
"V445_0",0.14238342678931,-0.174617120852104,0.0798684972441168,0.00188419397876843,-0.0253507584207139
"V445_1",-1.05996551054264,1.29992745523233,-0.594576590595093,-0.0140267773974985,0.188722312687537
"V446_0",0.109779397763085,-0.139972149477724,0.178863604199965,0.0503879312959558,0.0304392288027699
"V446_1",-0.72454402523636,0.923816186552979,-1.18049978771977,-0.332560346553308,-0.200898910098282
"V447_0",0.166211923727986,-0.18746721802469,0.125891960163091,0.0219869848955505,-0.0217351295980678
"V447_1",-0.982161367483556,1.10776083378226,-0.743907037327355,-0.129923092564617,0.128434856715855
"V448_0",0.300649388822436,-0.264934226095625,0.0822544288733565,0.0164219982953039,-0.0696419458921794
"V448_1",-0.901948166467308,0.794802678286876,-0.246763286620069,-0.0492659948859118,0.208925837676538
"V449_0",0.161787556898985,-0.201409751064908,0.103610806990534,0.00491297229489022,-0.063198133468081
"V449_1",-1.0677978755333,1.32930435702839,-0.683831326137526,-0.0324256171462755,0.417107680889334
"V450_0",0.144386747801187,-0.173791019540744,0.0201883048148279,-0.0204557327845848,-0.0381282016158665
"V450_1",-1.07487912251995,1.29377758991443,-0.150290713621496,0.152281566285242,0.283843278695895
"V451_0",0.144653589052001,-0.146683648113054,0.0213573449600431,-0.0140205535639256,-0.0393704280076089
"V451_1",-0.954713687743207,0.968112077546156,-0.140958476736284,0.0925356535219093,0.259844824850219
"V452_0",0.227517192515548,-0.256288679749853,0.141055476675757,0.0174593141481987,-0.0612328502688276
"V452_1",-1.00757613828314,1.13499272460649,-0.624674253849783,-0.0773198197991654,0.271174051190522
"V453_0",0.172668673453236,-0.209722757657958,0.181202008760974,0.0379750459724935,-0.0561935982080688
"V453_1",-1.0203148885873,1.23927084070612,-1.07073914267848,-0.224397998928371,0.332053080320407
"V454_0",0.195639396156955,-0.202320668557298,0.0948633537595892,0.0106720816133594,-0.0306029557761616
"V454_1",-0.948098612145243,0.980477086085365,-0.459722406681085,-0.0517185493570493,0.148306631838322
"V455_0",0.0836729334682662,-0.089149508139399,-0.00888117088039382,-0.0199696144071259,-0.0279963969706436
"V455_1",-0.976184223796438,1.04007759495966,0.103613660271262,0.232978834749802,0.326624631324175
"V456_0",0.261190544428286,-0.285081811610272,0.174088512375028,0.0272994372575656,-0.0650796494428693
"V456_1",-0.979464541606073,1.06905679353852,-0.652831921406353,-0.102372889715871,0.24404868541076
"V457_0",0.11182299078511,-0.149023431229598,0.106485431376583,0.0156247500518259,-0.0277606554661004
"V457_1",-1.1022551948818,1.46894525069175,-1.04964210928346,-0.154015393367998,0.273640746737275
"V458_0",0.169451576414886,-0.201172642205675,0.176444518549799,0.0385325226666076,-0.0246222374968168
"V458_1",-1.00130476972433,1.18874743121535,-1.04262670052154,-0.22769217939359,0.145495039753918
"V459_0",0.227565099546273,-0.250072310202584,0.0872745382428599,0.00271967401613512,-0.0420060725066792
"V459_1",-1.00778829799064,1.10746308804001,-0.386501526504094,-0.0120442706428841,0.186026892529579
"V460_0",0.155803605229685,-0.206833574132477,0.0406863168862088,-0.0193509406880059,-0.0749536467124191
"V460_1",-1.15987128337654,1.53976105187511,-0.302887025708443,0.144057002899599,0.55798825885912
"V461_0",0.186577737711296,-0.208872883359733,0.122998681720533,0.0228929678209697,-0.0279679384528041
"V461_1",-0.99508126779358,1.11398871125191,-0.655992969176175,-0.122095828378505,0.149162338414955
"V462_0",0.15729492889536,-0.160714033507532,-0.103109450699793,-0.0490788756484241,-0.0214212942412664
"V462_1",-1.03814653070938,1.06071262114971,0.680522374618633,0.323920579279599,0.141380541992358
"V463_0",0.15794671356982,-0.165482567837596,-0.112401222928516,-0.0586511801340375,-0.0393097343854043
"V463_1",-1.04244830956081,1.09218494772813,0.741848071328208,0.387097788884648,0.259444246943669
"V464_0",0.228716010486243,-0.198637721176962,-0.127812546479149,-0.0634919432830549,-0.0239641765252045
"V464_1",-0.930111775977389,0.80779339945298,0.519771022348538,0.25820056935109,0.0974543178691648
"V465_0",0.306442116167762,-0.30073360363246,-0.0694502019188954,-0.0436504899602249,-0.0425977637436249
"V465_1",-0.987424596540567,0.969030500593482,0.223783983960885,0.140651578760725,0.13725946095168
"V466_0",0.0946380912774541,-0.0797963944371311,-0.081254108716762,-0.0323604838246897,-0.00342937274917578
"V466_1",-0.93286118544919,0.78656445945172,0.80093335735094,0.318981911986228,0.0338038170990183
"V467_0",0.19691129546253,-0.172534651514741,-0.163824415542922,-0.0722368264417694,-0.0538016234341628
"V467_1",-0.954262431856874,0.836129465032973,0.793918321477238,0.350070774294729,0.260730944334789
"V468_0",0.223786626896099,-0.176367177163724,-0.22667145519453,-0.0955514961437098,-0.016965552392958
"V468_1",-0.910065616044137,0.717226520465813,0.921797251124422,0.388576084317753,0.0689932463980292
"V469_0",0.198655224598679,-0.19796474854014,0.0794156557661982,0.011616408709269,-0.0642371858241674
"V469_1",-0.962713780747445,0.959367627540682,-0.384860485636191,-0.056294903744919,0.311303285147888
"V470_0",0.177491116569196,-0.149051223291539,-0.177047471241197,-0.0734175150616311,-0.0171194300650312
"V470_1",-0.946619288369043,0.794939857554874,0.94425317995305,0.391560080328699,0.0913036270134995
"V471_0",0.0654708864465354,-0.0448845709488588,0.0647008802897667,0.0202580075857563,-0.0336104957279439
"V471_1",-0.763827008542912,0.523653327736686,-0.754843603380611,-0.236343421833824,0.392122450159345
"V472_0",0.257347605778527,-0.317915400287494,0.169846925702273,0.0285901441054306,0.0454083536266366
"V472_1",-0.893147572996065,1.1033534480566,-0.589468742143182,-0.0992246177776707,-0.15759369788068
"V473_0",0.179907894394845,-0.195669511551784,0.154978971600794,0.0357035740475389,-0.0245557458908196
"V473_1",-0.959508770105838,1.04357072827618,-0.826554515204232,-0.190419061586874,0.130963978084371
"V474_0",0.0975722250678432,-0.126823806979675,0.0131959311641678,-0.0184770608985267,-0.0352642257586057
"V474_1",-1.1383426257915,1.47961108142954,-0.153952530248624,0.215565710482812,0.411415967183734
"V475_0",0.187350427557547,-0.170035356691875,0.0573770770894596,0.00816148232264041,-0.0340664474448343
"V475_1",-0.907928995086575,0.824017497814471,-0.27805814281815,-0.0395517989481803,0.165091245309581
"V476_0",0.165098511282226,-0.205942011441675,0.084820535082195,0.00219965334993944,-0.0319112135771204
"V476_1",-1.08965017446269,1.35921727551505,-0.559815531542488,-0.0145177121096003,0.210614009608994
"V477_0",0.0960786214197117,-0.161482778457387,-0.0325288244527058,0.0243449429326155,-0.0636033726405917
"V477_1",-0.947060696851443,1.59175881622282,0.320641269605242,-0.239971580335782,0.626947530314405
"V478_0",0.149989390728973,-0.141832910087986,-0.112697214164693,-0.0532074382614782,-0.0317186380465381
"V478_1",-0.98992997881122,0.936097206580711,0.743801613486974,0.351169092525756,0.209343011107151
"V479_0",0.32432463633312,-0.323593113229221,0.0619123059793674,0.000578700666597462,-0.0572814871100617
"V479_1",-0.97297390899936,0.970779339687665,-0.185736917938102,-0.00173610199979232,0.171844461330185
"V480_0",0.185277731187395,-0.228629196624645,0.0453653038557326,-0.02319144800714,-0.0527517305882101
"V480_1",-1.09482295701642,1.35099070732745,-0.268067704602056,0.137040374587646,0.311714771657605
"V481_0",0.259134908518546,-0.259761968038442,0.0420751218263289,-0.0065337670556588,-0.0288146579198996
"V481_1",-0.971755906944547,0.974107380144158,-0.157781706848733,0.0245016264587204,0.108054967199623
"V482_0",0.191262566914703,-0.248340798209508,0.0809375931286026,-0.0100386328168755,-0.0672445199840041
"V482_1",-1.13018789540507,1.46746835305618,-0.478267595759924,0.0593191939179008,0.397353981723661
"V483_0",0.240505428378679,-0.292694677408148,0.145871702005128,0.0135609631212694,-0.0493796943830409
"V483_1",-1.06509546853415,1.29621928566465,-0.646003251736995,-0.0600556938227643,0.218681503696324
"V484_0",0.201414871599292,-0.249929757275147,0.153417984247439,0.0245224116429614,-0.0548305933872017
"V484_1",-1.07421264852956,1.33295870546745,-0.818229249319673,-0.130786195429128,0.292429831398409
"V485_0",0.0817634973415525,-0.0702563469868472,-0.0704757438199216,-0.0314159836405516,-0.0363031597421781
"V485_1",-0.95390746898478,0.819657381513218,0.822217011232419,0.366519809139769,0.423536863658744
"V486_0",0.134723680894561,-0.132983749031942,-0.0473664545248511,-0.0238122198290769,-0.0135820736582944
"V486_1",-1.00294295777062,0.989990131682237,0.352616939240559,0.177268747616461,0.101110992789525
"V487_0",0.241354657530751,-0.25433814261755,0.0889833528403056,0.00502507922804531,-0.0414817439663561
"V487_1",-0.981508940625055,1.0343084466447,-0.36186563488391,-0.0204353221940511,0.168692425463181
"V488_0",0.0868082456126326,-0.0975011504577788,0.0410382776789604,0.000627237318736944,-0.0236506325348217
"V488_1",-1.01276286548071,1.13751342200742,-0.478779906254538,-0.00731776871859747,0.275924046239586
"V489_0",0.0987960015049539,-0.128202638744668,0.00705889605335993,-0.0166075421070437,-0.0275654247036927
"V489_1",-1.15262001755779,1.49569745202113,-0.0823537872891989,0.19375465791551,0.321596621543081
