"","Dim 1","Dim 2","Dim 3","Dim 4","Dim 5"
"V1_0",0.0672895184677618,-0.0477441846820567,-0.126679762057409,-0.060764374614247,0.0250934579726036
"V1_1",-0.80747422161478,0.572930216183384,1.52015714468831,0.729172495370622,-0.301121495671675
"V2_0",0.082782557576611,-0.0913426262171436,-0.166445687604821,-0.0961892005526593,0.0107986692975067
"V2_1",-0.993390690917137,1.09611151460635,1.99734825125769,1.15427040663228,-0.129584031569834
"V3_0",0.0672895184676693,-0.0477441846818931,-0.126679762057305,-0.0607643746141731,0.0250934579726713
"V3_1",-0.807474221614104,0.572930216183342,1.52015714468861,0.729172495370688,-0.30112149567151
"V4_0",0.0672895184678795,-0.0477441846819377,-0.126679762057442,-0.0607643746142289,0.0250934579726294
"V4_1",-0.807474221614245,0.572930216183226,1.52015714468889,0.729172495370727,-0.301121495671549
"V5_0",0.0672895184677985,-0.0477441846819065,-0.126679762057449,-0.0607643746142448,0.02509345797265
"V5_1",-0.807474221614177,0.572930216183189,1.52015714468884,0.72917249537076,-0.301121495671657
"V6_0",0.0672895184678174,-0.0477441846819241,-0.126679762057371,-0.0607643746142036,0.0250934579726464
"V6_1",-0.807474221614352,0.572930216183279,1.52015714468887,0.729172495370709,-0.301121495671544
"V7_0",0.0882428705624236,-0.115124248732466,-0.0289665415955255,-0.031145631568997,0.00298507538051379
"V7_1",-1.05891444674877,1.3814909847896,0.347598499146716,0.373747578827131,-0.0358209045661015
"V8_0",0.077144308450148,-0.0431930325556492,-0.0830066824894873,-0.0316714099746248,0.00468926304870122
"V8_1",-0.782463699994313,0.438100758778731,0.841924922393414,0.321238586885543,-0.0475625252082514
"V9_0",0.076728506175964,-0.0395530558530415,-0.135848604989049,-0.0544060462002679,0.0106787323289086
"V9_1",-0.778246276927515,0.401180995080687,1.37789299346027,0.551832754316998,-0.108312856479217
"V10_0",0.0726794398725044,-0.0659966000480236,-0.121377286848319,-0.0650028583622846,0.0181978082327226
"V10_1",-0.872153278469986,0.791959200576188,1.45652744217979,0.780034300347451,-0.218373698792568
"V11_0",0.0968127760420033,-0.119572938090814,-0.00894017838359401,-0.0206211367219234,0.0108428562916501
"V11_1",-0.981958156997416,1.21281122920677,0.0906789521764737,0.209157243893767,-0.109977542386719
"V12_0",0.0828225292668642,-0.100613073806128,-0.0655671221992968,-0.032937142292393,0.0916348527670939
"V12_1",-0.634972724379274,0.77136689918027,0.50268127019457,0.252518090908374,-0.70253387121434
"V13_0",0.0769551321148896,-0.119311994187017,0.0354050002417751,0.00764535155146895,0.0772136313291588
"V13_1",-0.673357406005294,1.0439799491364,-0.309793752115528,-0.0668968260753574,-0.675619274130117
"V14_0",0.0927297032394993,-0.113110159349886,0.0451477432123678,0.0239913908169302,0.0995327805388851
"V14_1",-0.630561982028601,0.769149083579194,-0.307004653844085,-0.163141457555099,-0.676822907664383
"V15_0",0.0857883590433282,-0.121477711521552,0.0603760430832684,0.0215511951406367,0.0871994282792039
"V15_1",-0.657710752665528,0.931329121665312,-0.462882996971717,-0.165225829411465,-0.668528950140453
"V16_0",0.0960152620227132,-0.121405975477477,0.00940976413612682,0.000554240668126163,0.0965273703816812
"V16_1",-0.652903781754448,0.825560633246837,-0.0639863961256776,-0.00376883654326087,-0.656386118595431
"V17_0",0.0574283244003879,-0.11563208820443,0.0740373533435866,0.0201662193293609,0.066971104254506
"V17_1",-0.689139892804651,1.38758505845317,-0.888448240123046,-0.241994631952333,-0.803653251054073
"V18_0",0.160595982294274,-0.217148642601927,-0.0258630329551431,-0.0331613583178822,0.0791204299429398
"V18_1",-0.802979911471368,1.08574321300963,0.129315164775735,0.165806791589421,-0.395602149714706
"V19_0",0.175020547731432,-0.15950457983052,-0.144186767725307,-0.084864749124139,0.0238879984906115
"V19_1",-0.875102738657147,0.797522899152587,0.720933838626555,0.4243237456207,-0.119439992453066
"V20_0",0.127197984960012,-0.179518669331478,0.0201917362822576,-0.00571513158244606,0.0751943881001491
"V20_1",-0.774751362938259,1.09343189501901,-0.122986030082834,0.0348103469112773,-0.458002182064543
"V21_0",0.130277833667527,-0.161948276410306,0.07276569153234,0.031151523922906,0.0866468848943565
"V21_1",-0.716528085171386,0.89071552025666,-0.400211303427863,-0.17133338157599,-0.476557866918974
"V22_0",0.0574859264644937,-0.0154004559185623,-0.0795104039364771,-0.022775527023661,0.0224725239627217
"V22_1",-0.689831117573944,0.184805471022758,0.95412484723775,0.273306324283944,-0.269670287552657
"V23_0",0.121808954376487,-0.105903949245177,-0.0432696545923782,-0.0217477662766985,0.0353396272649232
"V23_1",-0.828300889760143,0.720146854867243,0.294233651228192,0.147884810681555,-0.240309465401498
"V24_0",0.114158750277154,-0.153944920564044,0.0961962904116703,0.0374170841236438,0.0940930783537548
"V24_1",-0.69533056986993,0.937664516162804,-0.585922859780188,-0.227904057844019,-0.573112386336503
"V25_0",0.0774487443322686,-0.0911653013813404,0.0106792461474499,0.0102689752243339,0.092917382071426
"V25_1",-0.593773706547398,0.698933977256969,-0.0818742204637732,-0.0787288100532448,-0.712366595880943
"V26_0",0.0668043322981444,-0.11833659645842,0.10448366857027,0.0366477640277491,0.0610154993880257
"V26_1",-0.677586799024037,1.20027119264967,-1.05976292406988,-0.371713035138603,-0.618871493792839
"V27_0",0.0574283244003868,-0.115632088204427,0.0740373533435859,0.0201662193293572,0.0669711042545032
"V27_1",-0.68913989280465,1.38758505845316,-0.888448240123046,-0.241994631952333,-0.803653251054073
"V28_0",0.0827172312082437,-0.142927733861556,0.128827726751691,0.0439433984317257,0.0691497801960939
"V28_1",-0.72377577307214,1.25061767128862,-1.12724260907728,-0.38450473627758,-0.605060576715827
"V29_0",0.104101259135171,-0.165216027438392,0.00444254369910457,-0.0150272788490373,0.0601655202183752
"V29_1",-0.798109653369682,1.26665621036101,-0.0340595016931146,0.11520913784266,-0.461268988340883
"V30_0",0.173837129826216,-0.163874658494945,-0.0736374721934913,-0.0418196214174795,0.0412645309801743
"V30_1",-0.869185649131111,0.819373292474705,0.36818736096745,0.209098107087397,-0.20632265490088
"V31_0",0.185481609212749,-0.204971968170055,0.0074412202441912,-0.0137540881145811,0.0227152442006729
"V31_1",-0.927408046063738,1.02485984085029,-0.0372061012209638,0.0687704405729056,-0.113576221003377
"V32_0",0.202301834464114,-0.220555149797172,-0.010894732847632,-0.0266940554607307,0.0235890937846598
"V32_1",-0.924808386121665,1.0082521133585,0.0498044930177476,0.12202996782049,-0.107835857301297
"V33_0",0.163791242816031,-0.200434392282818,0.071693800586544,0.0292748802939984,0.0932238949018924
"V33_1",-0.748759967158998,0.916271507578594,-0.327743088395625,-0.133828024201137,-0.426166376694368
"V34_0",0.097126074402259,-0.0784316721708926,-0.121630398115007,-0.0536736057538796,0.0221342752285635
"V34_1",-0.849853151019769,0.686277131495312,1.0642659835063,0.469644050346444,-0.193674908249931
"V35_0",0.0843532280209397,-0.0694344786553213,-0.0968389818925393,-0.0443009503376505,0.0146055464622408
"V35_1",-0.85558274135526,0.704263997789692,0.982223959195768,0.449338210567599,-0.148141971259878
"V36_0",0.155925741773687,-0.169895078862016,-0.0110373826044936,-0.00278565112448918,0.103995291973085
"V36_1",-0.712803390965423,0.776663217654932,0.0504566061919752,0.0127344051405191,-0.475407049019823
"V37_0",0.148294873817889,-0.183446243929524,0.0427424313865652,0.016478992064123,0.0880612419967039
"V37_1",-0.741474369089444,0.917231219647619,-0.213712156932827,-0.0823949603206153,-0.440306209983519
"V38_0",0.157583217786979,-0.180884209451857,0.0202574796753283,0.00654748203518102,0.106573108718974
"V38_1",-0.720380424169037,0.826899243208482,-0.0926056213729276,-0.0299313464465404,-0.487191354143877
"V39_0",0.0532673236560992,-0.10275938615197,0.0741134531685078,0.0234366678757547,0.0682402399412589
"V39_1",-0.639207883873185,1.23311263382364,-0.889361438022085,-0.28124001450905,-0.818882879295101
"V40_0",0.0827172312082442,-0.142927733861556,0.128827726751689,0.0439433984317238,0.0691497801960948
"V40_1",-0.723775773072137,1.25061767128862,-1.12724260907728,-0.384504736277583,-0.605060576715829
"V41_0",0.0668043322981446,-0.118336596458419,0.10448366857027,0.0366477640277495,0.0610154993880261
"V41_1",-0.677586799024037,1.20027119264967,-1.05976292406988,-0.371713035138602,-0.618871493792836
"V42_0",0.0574283244003875,-0.11563208820443,0.0740373533435872,0.0201662193293609,0.0669711042545059
"V42_1",-0.689139892804649,1.38758505845316,-0.888448240123047,-0.241994631952332,-0.803653251054071
"V43_0",0.143481286732472,-0.159512383193503,-0.205554409201545,-0.134203309857254,-0.00196575550559548
"V43_1",-0.975672749780809,1.08468420571582,1.39776998257051,0.912582507029328,0.0133671374380491
"V44_0",0.103122202803508,-0.124687168387339,-0.184016106741661,-0.117604174505182,-0.00841840620557
"V44_1",-1.04595377129273,1.26468413650015,1.86644908266541,1.19284234140971,0.0853866915136387
"V45_0",0.140426253733655,-0.187567005068981,-0.121207025220415,-0.0991460160126739,-0.0138675947996549
"V45_1",-1.07660127862469,1.43801370552885,0.929253860023179,0.760119456097167,0.106318226797354
"V46_0",0.163171743294538,-0.191441167328021,-0.187565946982153,-0.130468400819959,-0.00509590458306679
"V46_1",-0.993864254612188,1.16605074645249,1.14244713161857,0.794671168630659,0.0310386915514068
"V47_0",0.143481286732472,-0.159512383193503,-0.205554409201545,-0.134203309857254,-0.00196575550559548
"V47_1",-0.975672749780809,1.08468420571582,1.39776998257051,0.912582507029328,0.0133671374380491
"V48_0",0.174045301903486,-0.194049755630202,-0.184830256654987,-0.125883426416734,0.00747484097226727
"V48_1",-0.957249160469175,1.06727365596611,1.01656641160243,0.692358845292034,-0.0411116253474699
"V49_0",0.129640180777769,-0.145199194004299,-0.216893179079409,-0.137511832229717,-0.00602093483286164
"V49_1",-0.993908052629561,1.11319382069962,1.66284770627547,1.05425738042783,0.0461605003852725
"V50_0",0.133911151527433,-0.161182372409303,-0.180546841776444,-0.122356651735684,-0.00642262920574203
"V50_1",-1.02665216171032,1.23573152180466,1.38419245361941,0.938067663306913,0.0492401572440223
"V51_0",0.133911151527433,-0.161182372409303,-0.180546841776444,-0.122356651735684,-0.00642262920574203
"V51_1",-1.02665216171032,1.23573152180466,1.38419245361941,0.938067663306913,0.0492401572440223
"V52_0",0.163171743294538,-0.191441167328021,-0.187565946982153,-0.130468400819959,-0.00509590458306679
"V52_1",-0.993864254612188,1.16605074645249,1.14244713161857,0.794671168630659,0.0310386915514068
"V53_0",0.13524591787296,-0.169387364962422,-0.152365951873569,-0.11114050525806,-0.012516835864183
"V53_1",-1.03688537035936,1.2986364647119,1.16813896436403,0.852077206978462,0.0959624082920694
"V54_0",0.163733311689774,-0.195254112099658,-0.159385510389534,-0.113807314074229,0.0027440218411035
"V54_1",-0.997284716655897,1.18927504642519,0.970802654190796,0.693190003906669,-0.0167135875776302
"V55_0",0.112042743214151,-0.13820031937876,-0.0171559747074485,-0.0390354873039499,-0.0077188456148036
"V55_1",-0.980374003123817,1.20925279456415,0.150114778690175,0.341560513909562,0.0675398991295314
"V56_0",0.162415908395801,-0.186104295307739,-0.204310820030167,-0.134331615680231,-0.00487073513736369
"V56_1",-0.989260532956246,1.13354434414714,1.24443863109284,0.818201659143224,0.029667204927579
"V57_0",0.0871126899236941,-0.109115455634158,-0.119937221058009,-0.0887726330947276,-0.0129559411133886
"V57_1",-1.04535227908433,1.30938546760989,1.43924665269611,1.06527159713673,0.155471293360663
"V58_0",0.148837526126354,-0.17644794911935,-0.199335999684977,-0.133880503066095,-0.00916468729635935
"V58_1",-1.0120951776592,1.19984605401158,1.35548479785784,0.910387420849446,0.0623198736152435
"V59_0",0.148837526126354,-0.17644794911935,-0.199335999684977,-0.133880503066095,-0.00916468729635935
"V59_1",-1.0120951776592,1.19984605401158,1.35548479785784,0.910387420849446,0.0623198736152435
"V60_0",0.148837526126354,-0.17644794911935,-0.199335999684977,-0.133880503066095,-0.00916468729635935
"V60_1",-1.0120951776592,1.19984605401158,1.35548479785784,0.910387420849446,0.0623198736152435
"V61_0",0.173278014960829,-0.188632021912643,-0.201828839900699,-0.129805174835494,0.00770342207623858
"V61_1",-0.95302908228456,1.03747612051953,1.11005861945384,0.713928461595218,-0.0423688214193123
"V62_0",0.129640180777769,-0.145199194004299,-0.216893179079409,-0.137511832229717,-0.00602093483286164
"V62_1",-0.993908052629561,1.11319382069962,1.66284770627547,1.05425738042783,0.0461605003852725
"V63_0",0.129640180777769,-0.145199194004299,-0.216893179079409,-0.137511832229717,-0.00602093483286164
"V63_1",-0.993908052629561,1.11319382069962,1.66284770627547,1.05425738042783,0.0461605003852725
"V64_0",0.140778906575551,-0.145620199630795,-0.239249851967888,-0.144117909443002,-0.00428926369648526
"V64_1",-0.957296564713749,0.990217357489408,1.62689899338164,0.980001784212412,0.0291669931360997
"V65_0",0.159334849275941,-0.178793823891518,-0.196816812985124,-0.129414888015845,0.00315770709078629
"V65_1",-0.97049408195346,1.08901692733925,1.19879331545485,0.788254317914693,-0.0192333068256982
"V66_0",0.147428288351362,-0.176611603462897,-0.15691309528102,-0.112738541743856,-0.0114944708262727
"V66_1",-1.00251236078926,1.2009589035477,1.06700904791093,0.766622083858223,0.0781624016186544
"V67_0",0.159334849275941,-0.178793823891518,-0.196816812985124,-0.129414888015845,0.00315770709078629
"V67_1",-0.97049408195346,1.08901692733925,1.19879331545485,0.788254317914693,-0.0192333068256982
"V68_0",0.0697802015057604,-0.11462865103422,-0.00969405645832237,-0.0168961299603831,0.0608346711967013
"V68_1",-0.707770615272712,1.16266203191852,0.0983254297915556,0.171375032455314,-0.617037379280827
"V69_0",0.105127739157086,-0.140365226001391,-0.0752732740229317,-0.0741866269462389,-0.0152708553247847
"V69_1",-1.06629564002187,1.42370443515696,0.763486065089736,0.752464359026138,0.15489010400853
"V70_0",0.150403311621774,-0.145333330043239,-0.152201958139484,-0.0880287243242318,-0.00570860851787484
"V70_1",-0.916092898059898,0.885212101172459,0.927048290485947,0.536174957247593,0.0347706155179652
"V71_0",0.0852154474278559,-0.101508900028087,-0.085134957246576,-0.0585886191842075,0.000515572709060485
"V71_1",-1.02258536913427,1.21810680033705,1.02161948695891,0.703063430210491,-0.00618687250872596
"V72_0",0.161645303674475,-0.153508770019532,-0.134509462018304,-0.0799142534965666,0.0124989886152356
"V72_1",-0.889049170209613,0.844298235107426,0.739802041100675,0.439528394231116,-0.0687444373837958
"V73_0",0.230976546796215,-0.174990340696618,-0.248789729346356,-0.123757148164762,0.0244019934019835
"V73_1",-0.828798197327597,0.627906516617278,0.892716087654572,0.444069766944145,-0.0875600939718232
"V74_0",0.208499423470229,-0.185921357322879,-0.151278033233257,-0.0838015419805178,0.00445502533508839
"V74_1",-0.875697578574963,0.780869700756092,0.635367739579677,0.351966476318175,-0.0187111064073713
"V75_0",0.256376402481028,-0.223312428111546,-0.154526349172494,-0.0857532386419137,0.0202861252579402
"V75_1",-0.854588008270094,0.744374760371821,0.515087830574981,0.285844128806379,-0.0676204175264672
"V76_0",0.150929720808492,-0.145099211870098,-0.1918412183686,-0.111679311816816,-0.00407779432440019
"V76_1",-0.919299208560816,0.883786108663327,1.16848742097238,0.680228535611514,0.0248374745213467
"V77_0",0.107078134169001,-0.106069271805177,-0.138076477769185,-0.0749517660957541,0.00645166419039128
"V77_1",-0.93693367397876,0.928106128295304,1.20816918048037,0.655827953337848,-0.0564520616659236
"V78_0",0.148594184362624,-0.132941535408869,-0.238100072829774,-0.125315915862055,0.0111151996879427
"V78_1",-0.905073668390529,0.809734806581292,1.45024589814499,0.763287851159792,-0.0677016708265599
"V79_0",0.219377599215984,-0.224024681579634,-0.163246840925984,-0.108662016937592,-0.00648273808114643
"V79_1",-0.921385916707134,0.940903662634463,0.685636731889133,0.456380471137884,0.027227499940815
"V80_0",0.140112266918779,-0.152771268323865,-0.0760083805289416,-0.0492986468911205,-0.00202804361320506
"V80_1",-0.952763415047699,1.03884462460228,0.516856987596803,0.335230798859619,0.0137906965697943
"V81_0",0.23445557596704,-0.236972325146384,-0.0996994879502535,-0.0689612330425827,0.00424937469700962
"V81_1",-0.908515356872281,0.918267759942239,0.386335515807232,0.267224778040008,-0.016466326950912
"V82_0",0.268458140574831,-0.268707818516793,0.0710650495258503,0.00928780339289548,-0.0311500165975844
"V82_1",-0.894860468582769,0.895692728389311,-0.236883498419501,-0.030959344642985,0.103833388658615
"V83_0",0.184988922144374,-0.23811529623397,0.129407919101905,0.0403143986077817,0.083047207893128
"V83_1",-0.776953473006369,1.00008424418267,-0.543513260228,-0.169320474152683,-0.348798273151138
"V84_0",0.231339921278641,-0.265109972564892,0.146149479569585,0.053243018701841,0.0775245754184495
"V84_1",-0.771133070928803,0.883699908549639,-0.487164931898616,-0.177476729006137,-0.258415251394832
"V85_0",0.0852608600617779,-0.114436523926715,0.0149597166959609,-0.0132500337226213,-0.00815828444035657
"V85_1",-1.02313032074134,1.37323828712059,-0.179516600351531,0.159000404671456,0.097899413284279
"V86_0",0.214243282829121,-0.247188535787408,0.127558020383622,0.0464277011238238,0.0716344491150821
"V86_1",-0.768755308975083,0.886970628413642,-0.45770819078829,-0.16659351579725,-0.257041258589412
"V87_0",0.0736293997980132,-0.133084597459785,0.0493445297321683,0.00497897848921178,0.0565401067624926
"V87_1",-0.746812483665562,1.34985805994924,-0.50049451585485,-0.0505010675334336,-0.573478225733853
"V88_0",0.155395179375406,-0.202887207937424,0.0467685842747569,0.0054929036398111,0.0602273890264841
"V88_1",-0.776975896877029,1.01443603968712,-0.233842921373784,-0.0274645181990553,-0.301136945132421
"V89_0",0.119121922938025,-0.155450070376397,-0.0536760020133821,-0.0608545247764623,-0.0135619739095065
"V89_1",-1.04231682570772,1.36018811579347,0.469665017617094,0.532477091794045,0.118667271708182
"V90_0",0.133596282750076,-0.161717247583457,-0.0774011451013518,-0.066315429473697,-0.0177774296087975
"V90_1",-1.02423816775058,1.23983223147317,0.593408779110364,0.508418292631677,0.136293627000781
"V91_0",0.12732989161997,-0.114559000788972,-0.0461180675408004,-0.0403301201251942,-0.0172594108574392
"V91_1",-0.865843263015795,0.779001205365012,0.313602859277443,0.27424481685132,0.117363993830586
"V92_0",0.189968635674146,-0.216782771067971,0.0357347861186296,-0.0136589782781868,-0.0141146899414746
"V92_1",-0.949843178370732,1.08391385533986,-0.178673930593148,0.0682948913909338,0.0705734497073731
"V93_0",0.144703655299412,-0.171448061815841,-0.0616508175682355,-0.0570764232172082,-0.0101480903316725
"V93_1",-0.983984856036,1.16584682034772,0.419225559464001,0.388119677877016,0.0690070142553732
"V94_0",0.247967390016751,-0.299878015965122,0.160315845320964,0.0278659874569014,-0.0409331959270724
"V94_1",-0.960873636314911,1.16202731186485,-0.621223900618735,-0.107980701395493,0.158616134217405
"V95_0",0.0860946451367035,-0.119945980291686,0.028921172145365,-0.0090916238269699,0.00346438448298999
"V95_1",-1.03313574164044,1.43935176350023,-0.34705406574438,0.109099485923639,-0.04157261379588
"V96_0",0.262822955639331,-0.310244488595331,0.137939168167545,0.0152388023519303,-0.0164478287050329
"V96_1",-0.943070605529365,1.11323022378325,-0.494958191660015,-0.0546804084392793,0.0590186794710003
"V97_0",0.187716268981004,-0.2291191838941,0.150230253128094,0.0310082513702162,-0.0205772418667426
"V97_1",-0.93858134490502,1.1455959194705,-0.751151265640471,-0.155041256851081,0.102886209333713
"V98_0",0.214042291408069,-0.235640479360325,0.125127115635242,0.021082569360605,-0.013028574198709
"V98_1",-0.898977623913891,0.989690013313364,-0.525533885668017,-0.0885467913145411,0.0547200116345777
"V99_0",0.0856324099207172,-0.14466180176837,0.0877676281361902,0.0166926518082856,0.025409082707506
"V99_1",-0.749283586806275,1.26579076547324,-0.767966746191663,-0.146060703322499,-0.222329473690677
"V100_0",0.0922510868385294,-0.162875784069714,0.0548371139554626,-0.00144328753929299,0.0498492080510968
"V100_1",-0.807197009837132,1.42516311061,-0.479824747110298,0.0126287659688137,-0.436180570447097
"V101_0",0.287773449235824,-0.340742657837467,0.119267903984253,0.00401789786590742,-0.0390602573292379
"V101_1",-0.959244830786081,1.13580885945822,-0.39755967994751,-0.0133929928863581,0.130200857764126
"V102_0",0.133004480275964,-0.131212880052111,-0.176855313253173,-0.101473215392212,0.0194650381288066
"V102_1",-0.904430465876554,0.892247584354357,1.20261613012158,0.690017864667044,-0.132362259275885
"V103_0",0.0975597780302112,-0.114400945099673,-0.132529717018472,-0.0846099250061732,0.00807452963737859
"V103_1",-0.989534891449285,1.16035244315383,1.34422998690165,0.858186382205471,-0.0818988006076973
"V104_0",0.143774708719448,-0.139108910775698,-0.115851882918762,-0.0731090599968666,0.0303882509130284
"V104_1",-0.875718680382095,0.847299729270162,0.705643286868821,0.445300638162733,-0.185092073742991
"V105_0",0.0958068673144495,-0.11829767968793,-0.0319853160129847,-0.0391939252665058,0.00504192797489469
"V105_1",-0.97175536847513,1.19987646540615,0.324422490988845,0.397538384845988,-0.0511395551739318
"V106_0",0.130980415198623,-0.134722360612799,-0.0746825028101733,-0.0541355201508585,0.025442123792322
"V106_1",-0.89066682335064,0.916112052167031,0.507841019109179,0.368121537025838,-0.17300644178779
"V107_0",0.109328307012024,-0.11830919431969,-0.172761083896811,-0.103205661785286,0.0125605713935555
"V107_1",-0.956622686355206,1.03520545029728,1.5116594840971,0.903049540621248,-0.109904999693611
"V108_0",0.091228199829798,-0.0887595415290005,-0.190197989446163,-0.107166740004592,0.0153097778906179
"V108_1",-0.925314598273666,0.900275349794147,1.92915103581108,1.08697693433229,-0.15528489003341
"V109_0",0.133749199955602,-0.13647126866033,-0.160356688338218,-0.0976668125151799,0.0192431799984815
"V109_1",-0.909494559698091,0.928004626890247,1.09042548069988,0.664134325103223,-0.130853623989674
"V110_0",0.137829306042949,-0.115695268973161,-0.180311815518915,-0.0968515342841257,0.0395211203845659
"V110_1",-0.839505773170691,0.704689365563801,1.09826287634248,0.589913890639675,-0.240719551433265
"V111_0",0.0942569566434255,-0.109752963450479,-0.0845055084568211,-0.0582964594129177,0.0164449827748283
"V111_1",-0.956034845954744,1.11320862928343,0.857127300062043,0.591292659759594,-0.16679911100183
"V112_0",0.144043004864372,-0.144462763629826,-0.0578617382850177,-0.0456010755816659,0.0264842623239997
"V112_1",-0.877352847810268,0.879909560290757,0.352430587736017,0.277752005815601,-0.161313234155271
"V113_0",0.0947532687226089,-0.110853660348387,0.00328835020304435,-0.0107396177720449,0.00413598984609545
"V113_1",-0.961068868472175,1.1243728406765,-0.0333532663451636,0.108930408830741,-0.0419507541532538
"V114_0",0.0961862469273222,-0.124034022206535,0.0321607877390155,-0.00611317176283499,0.00559096895825604
"V114_1",-0.97560336169141,1.25805936809486,-0.326202275638585,0.0620050278801838,-0.0567083994337397
"V115_0",0.103506624807149,-0.146271754405938,0.0460673672338554,0.00908543071326603,0.0840515998197232
"V115_1",-0.703845048688615,0.994647929960377,-0.313258097190217,-0.061780928850209,-0.571550878774118
"V116_0",0.113700455434351,-0.17895709189565,0.104344101874134,0.0311813527612128,0.0776327497503425
"V116_1",-0.773163096953589,1.21690822489042,-0.709539892744113,-0.212033198776248,-0.527902698302329
"V117_0",0.206570544290473,-0.22633890908883,0.00921859600151809,-0.00545005193035286,0.107511155518833
"V117_1",-0.741223717748168,0.812157262024626,-0.0330784915348589,0.0195560686912662,-0.385775322744049
"V118_0",0.0882976589993244,-0.118406027447492,-0.0689428391796841,-0.0668339802740484,-0.0132917086718337
"V118_1",-1.05957190799189,1.42087232936991,0.827314070156209,0.80200776328858,0.159500504062004
"V119_0",0.126198747326687,-0.150417727960323,-0.0523269178878661,-0.0539294333932864,0.00248859810477793
"V119_1",-0.967523729504599,1.15320258102914,0.401173037140306,0.413458989348529,-0.0190792521366308
"V120_0",0.160235266465102,-0.19652970551601,0.0234291317942232,-0.0223850990830069,-0.00776647305739492
"V120_1",-0.975978441196534,1.19704456996115,-0.142704711837541,0.136345603505588,0.0473048813495873
"V121_0",0.268983557687333,-0.318868130368189,0.0770422751574341,-0.0140384250567566,-0.0433519298975784
"V121_1",-0.96517629523102,1.14417387955644,-0.276445810859028,0.0503731722624795,0.155556924926605
"V122_0",0.0828798172136501,-0.106955606396928,0.010580190348596,-0.00821294355129885,0.00929416066248226
"V122_1",-0.994557806563801,1.28346727676313,-0.126962284183151,0.0985553226155863,-0.111529927949787
"V123_0",0.172743954071629,-0.204517912577258,0.114405235751646,0.0255985607952981,-0.00817343166096862
"V123_1",-0.95009174739396,1.12484851917492,-0.629228796634055,-0.14079208437414,0.0449538741353274
"V124_0",0.116022843455825,-0.158166628475771,0.0648087764913485,0.00260942099905182,-0.000742109686342901
"V124_1",-1.01519988023846,1.383957999163,-0.567076794299299,-0.0228324337417037,0.0064934597555004
"V125_0",0.165723529752233,-0.191833849657697,0.13566342690705,0.0455384945762588,0.024160821406225
"V125_1",-0.911479413637279,1.05508617311733,-0.746148847988775,-0.250461720169423,-0.132884517734237
"V126_0",0.122762528421301,-0.177567137508103,0.136150836589018,0.0464599717228861,0.0740121170954832
"V126_1",-0.747735400384291,1.08154529209481,-0.829282368314926,-0.282983464130306,-0.450801076854307
"V127_0",0.207109055212476,-0.271453699319412,0.161948249603966,0.0517224562197716,0.0795436381546244
"V127_1",-0.802547588948345,1.05188308486272,-0.627549467215367,-0.200424517851615,-0.30823159784917
"V128_0",0.0921674276033955,-0.138476284501167,0.0632467955037211,0.000605839501842297,-0.01536730093172
"V128_1",-1.10600913124075,1.661715414014,-0.758961546044654,-0.00727007402210786,0.18440761118064
"V129_0",0.105430273218006,-0.119770545646034,-0.00483224182130907,-0.0226257248954628,0.00742582190671932
"V129_1",-0.922514890657551,1.0479922744028,0.0422821159364542,0.197975092835299,-0.064975941683794
"V130_0",0.188050082895324,-0.209307683505885,0.0496946496843762,-0.000202268590238968,-0.0136001695872868
"V130_1",-0.940250414476617,1.04653841752942,-0.248473248421881,0.00101134295119501,0.0680008479364338
"V131_0",0.197266405902349,-0.246922382731747,0.074748806287937,-0.0147452434804719,-0.034589046990452
"V131_1",-0.986332029511745,1.23461191365874,-0.373744031439685,0.0737262174023595,0.17294523495226
"V132_0",0.146899281765237,-0.190924828068911,0.0591488140626571,-0.00248365449410076,0.00173064853260847
"V132_1",-0.998915116003612,1.2982888308686,-0.402211935626069,0.0168888505598852,-0.0117684100217376
"V133_0",0.198387774560947,-0.20589129952015,0.0635763356546722,0.0124989072214081,-0.00620285072879718
"V133_1",-0.906915540850045,0.941217369234971,-0.290634677278502,-0.0571378615835801,0.0283558890459302
"V134_0",0.107900523763174,-0.156535502353901,0.0382782710594574,-0.00552650616616285,-0.00862586908382962
"V134_1",-1.09441959816934,1.58771723816099,-0.38825103503164,0.0560545625425089,0.0874909578502718
"V135_0",0.18500565350986,-0.245245076105611,0.0990050982886639,0.00730837580771969,-0.0184682145056782
"V135_1",-1.01753109430423,1.34884791858086,-0.544528040587651,-0.0401960669424582,0.10157517978123
"V136_0",0.304459965850061,-0.308323435030829,0.0994639404782934,0.0274624282793208,0.00610091110250468
"V136_1",-0.882933900965177,0.894137961589406,-0.288445427387051,-0.0796410420100301,-0.0176926421972636
"V137_0",0.20320892718599,-0.134203993616533,-0.0731539964492219,-0.0230215907218814,0.0132171764100239
"V137_1",-0.787434592845713,0.520040475264065,0.283471736240735,0.0892086640472906,-0.0512165585888425
"V138_0",0.0712864998911739,-0.0585669630783551,-0.0541583387921478,-0.024892981154383,0.0110407043928885
"V138_1",-0.855437998694087,0.702803556940261,0.649900065505774,0.298715773852595,-0.132488452714663
"V139_0",0.127092136759885,-0.109974073794323,-0.0342002148239416,-0.014059934714341,0.00900753236451634
"V139_1",-0.86422652996722,0.747823701801398,0.232561460802803,0.0956075560575188,-0.0612512200787113
"V140_0",0.188086210219238,-0.213458457643287,0.0621647228399548,0.00846087211319345,0.0017146995286546
"V140_1",-0.940431051096191,1.06729228821643,-0.310823614199773,-0.042304360565967,-0.00857349764327299
"V141_0",0.143086211772399,-0.18057342481284,0.0893812934140614,0.0206197383793898,0.00173320835752168
"V141_1",-0.972986240052317,1.22789928872731,-0.607792795215617,-0.14021422097985,-0.0117858168311473
"V142_0",0.207663486429931,-0.247826768673104,0.1196921718214,0.0312369234565388,0.00602307927064636
"V142_1",-0.949318795108258,1.13292237107705,-0.547164214040688,-0.142797364372749,-0.0275340766658119
"V143_0",0.264629269837958,-0.315544414893977,0.183174728329023,0.0434813327830158,-0.0165597087757366
"V143_1",-0.949552085889145,1.13224760638427,-0.657274025180611,-0.156021252927292,0.0594201314894077
"V144_0",0.112661879598116,-0.151812476248277,0.11998237902942,0.0357293848708582,0.0111747055738015
"V144_1",-0.985791446483515,1.32835916717243,-1.04984581650743,-0.31263211762001,-0.097778673770763
"V145_0",0.235710287790434,-0.324126046366919,0.145979116277385,0.0207639372334143,0.0557276496939288
"V145_1",-0.845783973836264,1.16304051931659,-0.523807417230617,-0.0745058924257805,-0.19996391948998
"V146_0",0.191008953464231,-0.263456757524504,0.190685332999617,0.0537716507249121,0.050126179111754
"V146_1",-0.802237604549769,1.10651838160292,-0.800878398598392,-0.22584093304463,-0.210529952269367
"V147_0",0.0926286816069719,-0.143126812861617,0.0916954333878179,0.0180010707146638,-0.0059531879597947
"V147_1",-1.11154417928366,1.7175217543394,-1.10034520065381,-0.216012848575965,0.0714382555175365
"V148_0",0.216951286179559,-0.275876507597553,0.233407323561376,0.0800965986014272,0.0602804148917411
"V148_1",-0.778472262173711,0.989909821379456,-0.837520396308468,-0.287405442040415,-0.2163003122586
"V149_0",0.145736302228012,-0.217330761150995,0.140432337347138,0.0339376601977467,0.0577601744569553
"V149_1",-0.801549662254065,1.19531918633047,-0.772377855409259,-0.186657131087607,-0.317680959513254
"V150_0",0.124605956932261,-0.158351604406278,0.148595892742779,0.0477765418305134,0.000414981855231731
"V150_1",-0.955312336480666,1.2140289671148,-1.13923517769464,-0.366286820700603,-0.0031815275567763
"V151_0",0.188804787096258,-0.223780746413437,0.0985540032431304,0.0175920026866799,0.00400036584193907
"V151_1",-0.944023935481289,1.11890373206719,-0.492770016215652,-0.0879600134333995,-0.0200018292096953
"V152_0",0.317208235377784,-0.345370136904122,0.107923737683734,0.00721305225352421,-0.0311850698076809
"V152_1",-0.919903882595574,1.00157339702195,-0.312978839282827,-0.0209178515352202,0.0904367024422744
"V153_0",0.237950462588218,-0.307429919051518,0.135367165062464,0.00441537062794574,-0.0446598570110851
"V153_1",-0.999391942870517,1.29120566001638,-0.568542093262349,-0.0185445566373722,0.187571399446557
"V154_0",0.256110434435083,-0.321815093329333,0.107631978047966,-0.00355654118339783,-0.0319224667493852
"V154_1",-0.992427933435947,1.24703348665116,-0.41707391493587,0.0137815970856665,0.123699558653868
"V155_0",0.222594523289278,-0.29452029175189,0.115441085602445,-0.00312738356671095,-0.0354198465349517
"V155_1",-1.01757496360813,1.34637847658007,-0.527730677039747,0.0142966105906786,0.161919298445493
"V156_0",0.10665009861143,-0.118948392206916,-0.0220161208866964,-0.019452845544792,0.0235499734268451
"V156_1",-0.933188362850009,1.04079843181051,0.192641057758593,0.17021239851693,-0.206062267484894
"V157_0",0.0925191961501524,-0.104084525070492,0.0189320265598129,-0.00103380016728146,0.0111300530715278
"V157_1",-0.938408989522974,1.05571446857213,-0.19202484082096,0.0104856874109977,-0.112890538296925
"V158_0",0.173550327069287,-0.209288156775586,0.122138281191641,0.0371677254576899,0.0119474671329884
"V158_1",-0.954526798881078,1.15108486226572,-0.671760546554026,-0.204422490017295,-0.0657110692314363
"V159_0",0.118575506804055,-0.0838557448106219,-0.0657402329461161,-0.0277631430576418,0.0115658384617435
"V159_1",-0.806313446267574,0.570219064712229,0.44703358403359,0.188789372791964,-0.0786477015398557
"V160_0",0.0651571148744896,-0.0424630765316959,-0.0359495690239853,-0.0125281044289272,0.00708052505712033
"V160_1",-0.781885378493877,0.509556918380351,0.431394828287823,0.150337253147126,-0.0849663006854441
"V161_0",0.0920962524708777,-0.129337295751999,-0.00708339045904012,-0.0228365075826329,-0.00296952856211346
"V161_1",-1.10515502965053,1.55204754902398,0.0850006855084818,0.274038090991595,0.0356343427453616
"V162_0",0.143773513606746,-0.20565281455848,0.0707082917572464,0.0171037255983423,0.0790200221751268
"V162_1",-0.790754324837103,1.13109048007164,-0.388895604664855,-0.0940704907908826,-0.434610121963197
"V163_0",0.198317567309405,-0.208746169077356,-0.000716838715379856,-0.0202548136890987,0.0179881156345482
"V163_1",-0.906594593414422,0.954268201496485,0.00327697698459374,0.0925934340073083,-0.0822313857579347
"V164_0",0.141927124692123,-0.15181863634002,0.155473227985221,0.0577250920840788,0.017830628824757
"V164_1",-0.864465214033838,0.924713512252848,-0.946973297728167,-0.35159828814848,-0.108604739205338
"V165_0",0.09713206254019,-0.131213106387152,0.118350991201668,0.0360693813508328,0.00920505936909609
"V165_1",-0.985196634336214,1.33087579335539,-1.20041719647407,-0.365846582272732,-0.0933656021722601
"V166_0",0.0983585278176128,-0.136634007087376,0.150202507102109,0.0609852110800236,0.080780407612083
"V166_1",-0.668837989159767,0.929111248194155,-1.02137704829434,-0.414699435344161,-0.549306771762164
"V167_0",0.11187073398008,-0.148664969863833,0.165037505583614,0.0679828352771904,0.081671095830342
"V167_1",-0.681394470605943,0.905504816443344,-1.00522844310019,-0.414077269415614,-0.497451220057537
"V168_0",0.0778333462539674,-0.0979289185673303,0.0854128048665856,0.0270032140390863,0.0153120234623056
"V168_1",-0.934000155047608,1.17514702280796,-1.02495365839903,-0.324038568469035,-0.183744281547667
"V169_0",0.0983585278176128,-0.136634007087376,0.150202507102109,0.0609852110800236,0.080780407612083
"V169_1",-0.668837989159767,0.929111248194155,-1.02137704829434,-0.414699435344161,-0.549306771762164
"V170_0",0.117375510366025,-0.168221322921803,0.173500774042451,0.0676333816238453,0.078885275894577
"V170_1",-0.714923563138515,1.02462078506916,-1.05677744189493,-0.411948778981603,-0.480483044085151
"V171_0",0.0827172312082442,-0.142927733861556,0.128827726751689,0.0439433984317238,0.0691497801960948
"V171_1",-0.723775773072137,1.25061767128862,-1.12724260907728,-0.384504736277583,-0.605060576715829
"V172_0",0.279780650013353,-0.280187175822715,0.167663324714669,0.0593118310195076,0.00701945875718148
"V172_1",-0.868792544778306,0.870054914396853,-0.520638745166604,-0.184178843692155,-0.0217972666670373
"V173_0",0.211885494939667,-0.265971232208049,0.154063582831544,0.023986114129842,-0.0362596536445282
"V173_1",-0.968619405438477,1.21586849009394,-0.704290664372774,-0.109650807450706,0.1657584166607
"V174_0",0.104650410727164,-0.151769827768156,0.0910999188800011,0.0197145499911942,-0.0018559162134669
"V174_1",-1.06145416594695,1.53937968164844,-0.924013462925726,-0.199961864196399,0.0188242930223072
"V175_0",0.147965867906619,-0.199934758987768,0.148674943178173,0.0394927202484049,-0.00573189729602645
"V175_1",-1.00616790176501,1.35955636111682,-1.01098961361158,-0.268550497689153,0.03897690161298
"V176_0",0.1764877756532,-0.226317792988013,0.170200861160916,0.0446913581780756,-0.0239240693326048
"V176_1",-0.970682766092598,1.24474786143407,-0.936104736385038,-0.245802469979416,0.131582381329326
"V177_0",0.0751137394193713,-0.071065245533047,-0.156047916170572,-0.0838519693737588,0.0241596806158468
"V177_1",-0.901364873032455,0.852782946396564,1.87257499404687,1.00622363248511,-0.289916167390161
"V178_0",0.0820794824923302,-0.0934461863693809,-0.128122927106284,-0.07695586344998,0.00681975871911448
"V178_1",-0.984953789907961,1.12135423643257,1.53747512527541,0.923470361399759,-0.0818371046293736
"V179_0",0.0927319512833905,-0.0999494905943467,-0.138375613892682,-0.0796183039373888,0.0215738418543096
"V179_1",-0.940566934445818,1.0137734045998,1.40352408376863,0.807557082793515,-0.218820395950855
"V180_0",0.143481286732472,-0.159512383193503,-0.205554409201545,-0.134203309857254,-0.00196575550559548
"V180_1",-0.975672749780809,1.08468420571582,1.39776998257051,0.912582507029328,0.0133671374380491
"V181_0",0.129640180777769,-0.145199194004299,-0.216893179079409,-0.137511832229717,-0.00602093483286164
"V181_1",-0.993908052629561,1.11319382069962,1.66284770627547,1.05425738042783,0.0461605003852725
"V182_0",0.119120882666452,-0.111385414040708,-0.17733214398686,-0.0965743208672421,0.00391416839015365
"V182_1",-0.913260100442798,0.853954840978759,1.3595464372326,0.740403126648857,-0.0300086243245113
"V183_0",0.120049138736795,-0.122492008667259,-0.172350497648884,-0.101504849341876,0.0148806247943447
"V183_1",-0.920376730315431,0.93910539978232,1.32135381530811,0.778203844954382,-0.114084790089976
"V184_0",0.110346559053534,-0.0978175479901256,-0.0176105258083413,-0.0156263079583605,0.00243321083947217
"V184_1",-0.845990286077096,0.749934534590962,0.135014031197283,0.119801694347431,-0.0186546164359533
"V185_0",0.0751137394193713,-0.071065245533047,-0.156047916170572,-0.0838519693737588,0.0241596806158468
"V185_1",-0.901364873032455,0.852782946396564,1.87257499404687,1.00622363248511,-0.289916167390161
"V186_0",0.0973685809819986,-0.114452235901812,-0.102776795982561,-0.0690394359312078,0.0140896767050742
"V186_1",-0.98759560710313,1.16087267843266,1.04245035925169,0.70025713587368,-0.14290957800861
"V187_0",0.083742853003121,-0.0988290023830934,-0.141566529096604,-0.0845274484859367,0.00968024528362316
"V187_1",-1.00491423603745,1.18594802859712,1.69879834915925,1.01432938183124,-0.116162943403478
"V188_0",0.0672895184678547,-0.0477441846819382,-0.126679762057407,-0.0607643746142244,0.0250934579726343
"V188_1",-0.807474221614256,0.572930216183258,1.52015714468889,0.729172495370693,-0.301121495671612
"V189_0",0.143481286732472,-0.159512383193503,-0.205554409201545,-0.134203309857254,-0.00196575550559548
"V189_1",-0.975672749780809,1.08468420571582,1.39776998257051,0.912582507029328,0.0133671374380491
"V190_0",0.116681930715221,-0.137253460474962,-0.17225136071671,-0.118314469456574,-0.0117084646482211
"V190_1",-1.02096689375819,1.20096777915591,1.50719940627121,1.03525160774502,0.102449065671935
"V191_0",0.14464544392633,-0.128271320272168,-0.221687320132264,-0.123365167254938,0.0146539001698394
"V191_1",-0.881022249369468,0.78128895074866,1.35027731353288,0.751406018734622,-0.089255573761749
"V192_0",0.101623708757475,-0.100701754997542,-0.0928483106104396,-0.0611520942984376,0.016693414202094
"V192_1",-0.889207451627905,0.881140356228494,0.812422717841347,0.535080825111329,-0.146067374268322
"V193_0",0.123854249513133,-0.143909999386349,-0.0257833461307384,-0.0340427940081643,-0.00216879212009462
"V193_1",-0.94954924626735,1.10330999529534,0.197672320335662,0.260994754062593,0.0166274062540588
"V194_0",0.0745911688293603,-0.0675170885927742,-0.182271377999815,-0.0993560362065907,0.0168641935266883
"V194_1",-0.895094025952322,0.810205063113289,2.18725653599778,1.19227243447909,-0.20237032232026
"V195_0",0.0751137394193713,-0.071065245533047,-0.156047916170572,-0.0838519693737588,0.0241596806158468
"V195_1",-0.901364873032455,0.852782946396564,1.87257499404687,1.00622363248511,-0.289916167390161
"V196_0",0.0777382223505381,-0.0868262991633906,-0.0799018924824452,-0.0543433398425506,0.0157102277398425
"V196_1",-0.932858668206458,1.04191558996069,0.958822709789343,0.652120078110608,-0.18852273287811
"V197_0",0.0804859041355961,-0.0942455760345825,-0.0942093234316423,-0.0585794476925875,0.0179344421274972
"V197_1",-0.965830849627153,1.13094691241499,1.13051188117971,0.702953372311051,-0.215213305529966
"V198_0",0.0745911688293603,-0.0675170885927742,-0.182271377999815,-0.0993560362065907,0.0168641935266883
"V198_1",-0.895094025952322,0.810205063113289,2.18725653599778,1.19227243447909,-0.20237032232026
"V199_0",0.0745911688293603,-0.0675170885927742,-0.182271377999815,-0.0993560362065907,0.0168641935266883
"V199_1",-0.895094025952322,0.810205063113289,2.18725653599778,1.19227243447909,-0.20237032232026
"V200_0",0.0927319512833905,-0.0999494905943467,-0.138375613892682,-0.0796183039373888,0.0215738418543096
"V200_1",-0.940566934445818,1.0137734045998,1.40352408376863,0.807557082793515,-0.218820395950855
"V201_0",0.077159757170458,-0.0931711725361706,0.016274006169614,-0.00866030757556018,0.0113733952619481
"V201_1",-0.925917086045496,1.11805407043405,-0.195288074035368,0.103923690906722,-0.136480743143377
"V202_0",0.0934992981185537,-0.110231577497069,0.00803667379636568,-0.0127640157017763,0.0137624582581033
"V202_1",-0.948350023773903,1.11806314318455,-0.0815148342202809,0.129463587832303,-0.139590648046476
"V203_0",0.113770180245536,-0.107596502439292,-0.0335890609594878,-0.0160211892459809,0.0296265688997641
"V203_1",-0.872238048549111,0.82490651870124,0.257516134022741,0.12282911755252,-0.227137028231525
"V204_0",0.143481286732472,-0.159512383193503,-0.205554409201545,-0.134203309857254,-0.00196575550559548
"V204_1",-0.975672749780809,1.08468420571582,1.39776998257051,0.912582507029328,0.0133671374380491
"V205_0",0.116681930715221,-0.137253460474962,-0.17225136071671,-0.118314469456574,-0.0117084646482211
"V205_1",-1.02096689375819,1.20096777915591,1.50719940627121,1.03525160774502,0.102449065671935
"V206_0",0.1732116635924,-0.150146780156722,-0.185678066496166,-0.103112845554014,0.0065143500045015
"V206_1",-0.866058317962001,0.750733900783612,0.928390332480829,0.515564227770071,-0.0325717500225075
"V207_0",0.0781459482833322,-0.089158598666997,-0.0511352613169822,-0.0439890404066381,0.00785737665142371
"V207_1",-0.937751379399985,1.06990318400396,0.613623135803786,0.527868484879657,-0.0942885198170844
"V208_0",0.0992565552041372,-0.126920692660203,0.0345668151425891,-0.00519414446006853,-0.0112586329359687
"V208_1",-1.00674505992768,1.28733845412492,-0.350606267874832,0.0526834652378381,0.114194705493397
"V209_0",0.0771790653226606,-0.0860523047620706,-0.0149781855066217,-0.0230163431553615,0.00459389905156675
"V209_1",-0.926148783871928,1.03262765714485,0.17973822607946,0.276196117864338,-0.055126788618801
"V210_0",0.0745911688293603,-0.0675170885927742,-0.182271377999815,-0.0993560362065907,0.0168641935266883
"V210_1",-0.895094025952322,0.810205063113289,2.18725653599778,1.19227243447909,-0.20237032232026
"V211_0",0.0672895184678547,-0.0477441846819382,-0.126679762057407,-0.0607643746142244,0.0250934579726343
"V211_1",-0.807474221614256,0.572930216183258,1.52015714468889,0.729172495370693,-0.301121495671612
"V212_0",0.0672895184678547,-0.0477441846819382,-0.126679762057407,-0.0607643746142244,0.0250934579726343
"V212_1",-0.807474221614256,0.572930216183258,1.52015714468889,0.729172495370693,-0.301121495671612
"V213_0",0.071243867745538,-0.0594729152135258,-0.100484896087387,-0.0485591606079574,0.0201436462297453
"V213_1",-0.854926412946455,0.71367498256231,1.20581875304865,0.582709927295489,-0.241723754756944
"V214_0",0.0677478714533008,-0.0576108808146482,0.013372815165534,0.00691138895216883,0.0130313568800672
"V214_1",-0.812974457439609,0.691330569775778,-0.160473781986407,-0.082936667426026,-0.156376282560807
"V215_0",0.0767254132274051,-0.115284214605517,0.0269293443850505,-0.000278778081625395,0.0649990364453856
"V215_1",-0.671347365739794,1.00873687779828,-0.235631763369192,0.00243930821422238,-0.568741568897124
"V216_0",0.0851688126721703,-0.122230544477153,0.133523945906305,0.0553403128941527,0.0792542119819941
"V216_1",-0.652960897153306,0.93710084099151,-1.02368358528167,-0.424275732188504,-0.607615625195289
"V217_0",0.0915752814937336,-0.132545912032514,0.0419076770688749,0.0142982940509232,0.0807351210716417
"V217_1",-0.702077158118624,1.01618532558261,-0.321292190861375,-0.109620254390411,-0.618969261549253
"V218_0",0.105127739157086,-0.140365226001391,-0.0752732740229317,-0.0741866269462389,-0.0152708553247847
"V218_1",-1.06629564002187,1.42370443515696,0.763486065089736,0.752464359026138,0.15489010400853
"V219_0",0.103926605190991,-0.107881929502819,-0.0805878104908946,-0.0576426823088165,0.0133208497723259
"V219_1",-0.909357795421172,0.943966883149666,0.705143341795328,0.504373470202145,-0.116557435507852
"V220_0",0.244242427654908,-0.237255594090049,0.0217165573471998,-0.00850992560135356,0.00235852714450386
"V220_1",-0.876399299232316,0.851328896440766,-0.0779241175399516,0.0305356153930924,-0.00846295034204319
"V221_0",0.0789380635836855,-0.0910623859648099,-0.034905259333107,-0.0325725876381071,0.0135939978570848
"V221_1",-0.947256763004226,1.09274863157772,0.418863111997284,0.390871051657285,-0.163127974285018
"V222_0",0.106602659133883,-0.0973061381822405,-0.0194431454832397,-0.0191502462943545,0.029440991218621
"V222_1",-0.817287053359772,0.746013726063843,0.149064115371504,0.146818554923384,-0.225714266009428
"V223_0",0.108023603197911,-0.133522856528752,0.0739108342403867,0.0183900287416505,0.0026857675594971
"V223_1",-0.945206527981717,1.16832499462658,-0.646719799603384,-0.160912751489442,-0.0235004661455995
"V224_0",0.2904243253168,-0.312084706495679,0.12017928815579,0.0164478789752662,-0.00534927795282933
"V224_1",-0.901843957562695,0.969105141223423,-0.373188315852191,-0.0510749926074055,0.0166109157482594
"V225_0",0.120290157868269,-0.141447757314422,0.110317870892437,0.0383745008887414,0.0164158986858544
"V225_1",-0.922224543656726,1.08443280607724,-0.845770343508682,-0.294204506813684,-0.125855223258217
"V226_0",0.176584000994218,-0.217915492981177,0.0695306887516028,-0.00238474744152601,-0.0138542654953452
"V226_1",-0.971212005468201,1.19853521139647,-0.382418788133815,0.0131161109283929,0.0761984602243987
"V227_0",0.160300818637914,-0.17145517970566,0.14345781486875,0.0529470279181926,0.0213011229465648
"V227_1",-0.881654502508526,0.943003488381127,-0.789017981778126,-0.291208653550059,-0.117156176206107
"V228_0",0.098531773818962,-0.122599119249803,0.00097028260748752,-0.0204528304583378,-0.0107892780113273
"V228_1",-0.999393705878042,1.24350535239086,-0.00984143787594498,0.207450137505998,0.109434105543462
"V229_0",0.124058629653996,-0.157979829918485,0.145563619448296,0.0471475232597695,0.00179233194751747
"V229_1",-0.951116160680638,1.21117869604172,-1.1159877491036,-0.361464344991566,-0.0137412115976339
"V230_0",0.0710904296788356,-0.0677291341622036,0.00827675797451992,-0.0011477417430408,0.00583908628195028
"V230_1",-0.853085156146028,0.812749609946442,-0.0993210956942387,0.0137729009164898,-0.0700690353834033
"V231_0",0.120090174141442,-0.170230465593976,0.0917520672033687,0.0151633554054979,-0.00583334462188586
"V231_1",-1.05078902373761,1.48951657394729,-0.802830588029476,-0.132679359798107,0.0510417654415013
"V232_0",0.127875911574363,-0.169927909038621,0.158371684742526,0.0503567619140674,-0.00398827233001686
"V232_1",-0.980381988736785,1.30278063596276,-1.21418291635937,-0.38606850800785,0.0305767545301293
"V233_0",0.101742932402789,-0.144871213896511,0.098171728345042,0.0243542789139243,0.00572021941028026
"V233_1",-1.03196402865686,1.46940802666461,-0.995741816071141,-0.247021971841233,-0.0580193683042713
"V234_0",0.0982632074795903,-0.163995422524646,0.130634594628395,0.0437125906561104,0.0720167360679264
"V234_1",-0.753351257343525,1.25729823935562,-1.00153189215102,-0.335129861696847,-0.552128309854102
"V235_0",0.132531086638396,-0.21037007601407,0.162566367268461,0.0509422654067965,0.0669313191099289
"V235_1",-0.807234800433865,1.28134500844934,-0.990176964271533,-0.310284707477761,-0.407672580033203
"V236_0",0.089122068271254,-0.13356132899607,0.0850895877963789,0.0183513637883122,0.00593388715442541
"V236_1",-1.06946481925505,1.60273594795284,-1.02107505355655,-0.220216365459746,-0.0712066458531047
"V237_0",0.114308011361335,-0.186089676809756,0.165771538848202,0.0568872899368653,0.0678180306478371
"V237_1",-0.777294477257079,1.26540980230634,-1.12724646416778,-0.386833571570685,-0.461162608405292
"V238_0",0.0966817121228289,-0.158366643948658,0.122516468358457,0.0417352981655812,0.0737433464894664
"V238_1",-0.741226459608355,1.21414427027305,-0.939292924081505,-0.319970619269456,-0.565365656419242
"V239_0",0.0679605976725879,-0.12266786742019,0.0750987997869503,0.0229235345366937,0.0710136260666323
"V239_1",-0.689314633536248,1.24420265526193,-0.761716397839068,-0.232510136015036,-0.720281064390128
"V240_0",0.10067569339209,-0.13384716102226,0.0432076220490166,-0.00030717230563532,-0.00205730919483608
"V240_1",-1.02113917583406,1.35759263322578,-0.438248737925739,0.00311560481430118,0.020866993261909
"V241_0",0.163795843990844,-0.212490115130219,0.0971883377083047,0.0133578478543501,-0.00326125266393506
"V241_1",-0.997665595216959,1.29425797397497,-0.591965329677856,-0.0813614369310416,0.0198639934985136
"V242_0",0.183465971723423,-0.242450364808206,0.0959874969717569,-0.000156080917740659,-0.0216093693131212
"V242_1",-1.00906284447883,1.33347700644513,-0.527931233344663,0.000858445047573607,0.118851531222166
"V243_0",0.12873207431644,-0.167278133895749,0.0638063389992983,0.00414949895438593,0.00354944643340676
"V243_1",-0.98694590309271,1.28246569320074,-0.489181932327954,-0.0318128253169588,-0.0272124226561184
"V244_0",0.116022843455825,-0.158166628475771,0.0648087764913485,0.00260942099905182,-0.000742109686342901
"V244_1",-1.01519988023846,1.383957999163,-0.567076794299299,-0.0228324337417037,0.0064934597555004
"V245_0",0.174433992419498,-0.248389076641404,0.146779169593669,0.020424910547823,-0.0375570795464244
"V245_1",-1.06246159019149,1.51291528499764,-0.894018578434169,-0.12440627333674,0.228756757237312
"V246_0",0.118923312906445,-0.171208022080376,0.146990323368612,0.0417163884280352,-0.00585806322432871
"V246_1",-1.0405789879314,1.49807019320329,-1.28616532947536,-0.365018398745308,0.0512580532128761
"V247_0",0.0952299385608645,-0.125645748284638,0.0907206780294998,0.0252220181629101,0.011856888536818
"V247_1",-0.965903662545912,1.27440687545847,-0.920166877156355,-0.255823327080945,-0.120262726587726
"V248_0",0.0675693341985639,-0.122063767626002,0.095200890990137,0.0313221257716259,0.0732114551881779
"V248_1",-0.685346104014004,1.23807535734944,-0.965609037185675,-0.317695847112205,-0.742573331194376
"V249_0",0.100956311413088,-0.173690688755481,0.151140902181436,0.050151885588068,0.0671410200150964
"V249_1",-0.773998387500343,1.33162861379202,-1.15874691672434,-0.384497789508521,-0.514747820115739
"V250_0",0.102559933209234,-0.148939379337581,0.148344934037615,0.0578245524533257,0.0806358479133824
"V250_1",-0.697407545822792,1.01278777949555,-1.00874555145578,-0.393206956682615,-0.548323765811
"V251_0",0.209670120246278,-0.249257738698816,0.105101839800691,0.0181240526182331,-0.0140304649373668
"V251_1",-0.9584919782687,1.13946394833744,-0.480465553374587,-0.0828528119690654,0.0641392682851055
"V252_0",0.254061181112652,-0.319977615254006,0.135389587669233,0.0061584565722513,-0.0405921211249886
"V252_1",-0.984487076811525,1.23991325910927,-0.524634652218277,-0.0238640192174739,0.157294469359331
"V253_0",0.0824959109810504,-0.106995931563197,-0.0070062308686589,-0.021398509750283,0.00656352820886907
"V253_1",-0.989950931772604,1.28395117875836,0.0840747704239063,0.256782117003396,-0.0787623385064288
"V254_0",0.1516432084723,-0.204350302397022,0.074750658924926,0.00180989217897073,-0.00874408441940963
"V254_1",-1.03117381761164,1.38958205629975,-0.508304480689496,-0.0123072668170009,0.0594597740519856
"V255_0",0.233944426728342,-0.296448077380994,0.164908317564789,0.0297294080599547,-0.0270466588407252
"V255_1",-0.982566592259038,1.24508192500017,-0.692614933772115,-0.124863513851809,0.113595967131046
"V256_0",0.112319801910721,-0.152123724704854,0.139614096400479,0.0421111155261188,-0.00330867079916774
"V256_1",-0.982798266718807,1.33108259116747,-1.22162334350419,-0.36847226085354,0.0289508694927176
"V257_0",0.101742932402789,-0.144871213896511,0.098171728345042,0.0243542789139243,0.00572021941028026
"V257_1",-1.03196402865686,1.46940802666461,-0.995741816071141,-0.247021971841233,-0.0580193683042713
"V258_0",0.200110515968506,-0.262698963736047,0.148981186320326,0.0254463390868352,-0.0109190126266836
"V258_1",-1.00055257984253,1.31349481868023,-0.744905931601631,-0.127231695434176,0.0545950631334182
"V259_0",0.0651952617832497,-0.113995333120411,0.0860088501272418,0.0272839916126378,0.0616816257820784
"V259_1",-0.661266226658674,1.15623837879274,-0.872375479862026,-0.276737629213898,-0.625627918646795
"V260_0",0.101742932402789,-0.144871213896511,0.098171728345042,0.0243542789139243,0.00572021941028026
"V260_1",-1.03196402865686,1.46940802666461,-0.995741816071141,-0.247021971841233,-0.0580193683042713
"V261_0",0.124594778333974,-0.173245671590206,0.0122879687344337,-0.0224820159026493,-0.0158113908389647
"V261_1",-1.09020431042227,1.5158996264143,-0.107519726426295,0.196717639148181,0.138349669840941
"V262_0",0.140871582188983,-0.149087288345061,0.173448209619112,0.0669202329928926,0.00361930712533937
"V262_1",-0.858036000605625,0.908077119919914,-1.05645727677095,-0.407605055502164,-0.0220448706725217
"V263_0",0.199793648991686,-0.20746851188296,-0.0394729517421264,-0.0354505591668535,0.00651614262040882
"V263_1",-0.913342395390562,0.948427482893531,0.180447779392578,0.162059699048473,-0.0297880805504402
"V264_0",0.308962785725501,-0.306415210806378,-0.0527809141251191,-0.0507216518906413,0.00113912910629441
"V264_1",-0.895992078603951,0.888604111338497,0.153064650962845,0.14709279048286,-0.00330347440825382
"V265_0",0.366001420799399,-0.34774165729608,-0.0670969979739191,-0.0595853090798365,0.0159774087943179
"V265_1",-0.87522078886813,0.831556137012365,0.160449342981111,0.142486608669174,-0.0382068471168471
"V266_0",0.231196802964475,-0.240396863075173,0.0682362583026089,0.0147196752550598,0.0117535820808893
"V266_1",-0.895887611487341,0.931537844416293,-0.264415500922609,-0.0570387416133568,-0.0455451305634465
"V267_0",0.338195924540114,-0.32713716755626,-0.029878037471979,-0.0249127151660308,0.115956956612017
"V267_1",-0.760940830215256,0.736058627001584,0.0672255843119527,0.0560536091235694,-0.260903152377038
"V268_0",0.178283419818027,-0.169081366521154,-0.0849934461278649,-0.047770564081861,0.0187604044372801
"V268_1",-0.891417099090137,0.845406832605771,0.424967230639325,0.238852820409305,-0.0938020221864005
"V269_0",0.121165952077132,-0.122565109863389,-0.0974238333082895,-0.0550270182049794,0.00834302718881295
"V269_1",-0.928938965924675,0.939665842285982,0.746916055363553,0.421873806238175,-0.063963208447566
"V270_0",0.173173404083773,-0.151732310274096,-0.0975265489124184,-0.0498061090413702,0.0166643567909986
"V270_1",-0.865867020418866,0.758661551370481,0.487632744562093,0.249030545206851,-0.0833217839549929
"V271_0",0.284478627907016,-0.29737240400501,-0.000893783756331785,-0.0112515266301773,0.103970263028248
"V271_1",-0.772156275747615,0.807153668013597,0.00242598448147196,0.0305398579961955,-0.282204999648103
"V272_0",0.236928505367503,-0.278017232640093,0.0587844620336593,0.007456200716821,0.069729211851242
"V272_1",-0.789761684558342,0.926724108800309,-0.195948206778864,-0.0248540023894032,-0.232430706170807
"V273_0",0.281254735789988,-0.280799272737218,-0.0410918558284607,-0.0230794699956306,0.101198358519818
"V273_1",-0.763405711429968,0.762169454572449,0.111535037248679,0.062644275702426,-0.274681258839507
"V274_0",0.0756652540688838,-0.11935042539331,0.118382336791785,0.0462494457456451,0.0689618626810332
"V274_1",-0.662070973102733,1.04431622219146,-1.03584544692812,-0.404682650274394,-0.60341629845904
"V275_0",0.0983585278176128,-0.136634007087376,0.150202507102109,0.0609852110800236,0.080780407612083
"V275_1",-0.668837989159767,0.929111248194155,-1.02137704829434,-0.414699435344161,-0.549306771762164
"V276_0",0.0991595422755953,-0.139225455187342,0.155056201471541,0.0618003964878141,0.0737290485638935
"V276_1",-0.674284887474048,0.946733095273924,-1.05438217000648,-0.420242696117136,-0.501357530234476
"V277_0",0.0798082905033067,-0.132938479988986,0.131835509512874,0.0486349871516879,0.0653492714355037
"V277_1",-0.698322541903934,1.16321169990363,-1.15356070823765,-0.425556137577269,-0.571806125060657
"V278_0",0.0668043322981446,-0.118336596458419,0.10448366857027,0.0366477640277495,0.0610154993880261
"V278_1",-0.677586799024037,1.20027119264967,-1.05976292406988,-0.371713035138602,-0.618871493792836
"V279_0",0.0874272445916581,-0.0988883783761,0.101464917392054,0.0377534962160823,0.0114834616768436
"V279_1",-0.886762052286818,1.00301069495759,-1.0291441621194,-0.382928318763121,-0.116475111293699
"V280_0",0.223898924221617,-0.248130759205945,0.0392743218077528,-0.0136303320116259,-0.0177926114425552
"V280_1",-0.940375481730792,1.04214918866497,-0.164952151592561,0.0572473944488289,0.074728968058732
"V281_0",0.315902785716157,-0.314448365321491,0.145290087839107,0.0559152314171412,0.072143811414483
"V281_1",-0.755419704973418,0.751941743160088,-0.347432818745691,-0.133710335997512,-0.172517809904199
"V282_0",0.268749881738446,-0.326425755772847,0.160866678996468,0.0206552489563853,-0.0403165393469713
"V282_1",-0.964337810943837,1.17129241777316,-0.577227495222621,-0.0741158933140885,0.144665229421485
"V283_0",0.242130372727715,-0.266856657964314,0.135616309922725,0.049250442419926,0.104262597883971
"V283_1",-0.751878525838696,0.828660148415503,-0.421124330812673,-0.152935584356612,-0.323762803955489
"V284_0",0.23051040635995,-0.249594487477919,0.157309314218314,0.050438177069521,0.0145505377393296
"V284_1",-0.893227824644806,0.967178638976936,-0.609573592595967,-0.195447936144394,-0.0563833337399021
"V285_0",0.274631572460558,-0.329527510357874,0.211046018816537,0.0651903139243539,0.053764785382027
"V285_1",-0.796431560135618,0.955629780037835,-0.612033454567956,-0.189051910380626,-0.155917877607879
"V286_0",0.122776793203967,-0.152869740616037,0.185696775729685,0.079481098901916,0.0831469838860378
"V286_1",-0.675272362621816,0.840783573388204,-1.02133226651327,-0.437146043960538,-0.457308411373208
"V287_0",0.0996172942851768,-0.128220554105977,0.0437267138447439,-0.000229161903926621,-0.0125323090016764
"V287_1",-1.01040398489251,1.30052276307491,-0.443513811853832,0.00232435645411265,0.127113419874146
"V288_0",0.0941184733585477,-0.106329794680709,-0.0171930947999914,-0.0196728705002737,0.00662607814666203
"V288_1",-0.954630229779555,1.07848791747577,0.174387104399913,0.199539115074205,-0.0672073640590004
"V289_0",0.194840176120375,-0.191965241537907,-0.0297815006690641,-0.027932377705607,0.0194967421271606
"V289_1",-0.890697947978857,0.877555389887574,0.136144003058579,0.127690869511347,-0.0891279640098769
"V290_0",0.205371953563919,-0.227399078753046,0.175460497216945,0.0798451867567092,0.0906836892796423
"V290_1",-0.736922892199946,0.815961400231517,-0.629593548837273,-0.286503317185839,-0.32539441447401
"V291_0",0.142686979446994,-0.176373262742171,0.160584126331319,0.0660409632421045,0.0866098665512062
"V291_1",-0.713434897234971,0.881866313710857,-0.802920631656593,-0.330204816210522,-0.433049332756031
"V292_0",0.161882164043416,-0.206574986701834,0.180484249998078,0.0751762793394743,0.0895862019149128
"V292_1",-0.74003274991276,0.944342796351238,-0.825070857134071,-0.343662991266168,-0.409536923039601
"V293_0",0.124555775830376,-0.156201778382439,0.116894500700815,0.0312228675942061,0.00964733402016488
"V293_1",-0.954927614699547,1.1975469675987,-0.896191172039578,-0.239375318222246,-0.0739628941545971
"V294_0",0.0680755425162209,-0.0660037716052617,0.0675672134030596,0.0269395814357208,0.0140094547653427
"V294_1",-0.816906510194651,0.792045259263142,-0.810806560836716,-0.32327497722865,-0.168113457184112
"V295_0",0.0659098580423167,-0.0501435834801855,-0.058726541434529,-0.034512215261504,0.0138979684827096
"V295_1",-0.7909182965078,0.601723001762225,0.704718497214347,0.414146583138048,-0.166775621792515
"V296_0",0.110501702694411,-0.133093640736667,-0.00806082318471917,-0.0244062636537953,0.00299515515117352
"V296_1",-0.966889898576094,1.16456935644584,0.0705322028662929,0.21355480697071,-0.0262076075727682
"V297_0",0.0998928003095548,-0.131596019660028,0.00130637601925602,-0.0238267180740944,0.000385669695958941
"V297_1",-1.01319840313977,1.33475962798029,-0.0132503853381683,0.241670997608672,-0.00391179263044069
"V298_0",0.138383239709065,-0.163465243832376,0.0031821401931568,-0.023960902345223,0.0153043383135519
"V298_1",-0.941006030021644,1.11156365806016,-0.0216385533134662,0.162934135947516,-0.104069500532153
"V299_0",0.106734993176628,-0.115915583401527,-0.128625271845393,-0.0786131888149956,0.0160896271824104
"V299_1",-0.933931190295495,1.01426135476337,1.12547112864719,0.687865402131211,-0.140784237846091
"V300_0",0.101963620613827,-0.134986120468291,-0.0424841259710724,-0.0439234121905856,0.0040001050290171
"V300_1",-1.03420243765453,1.36914493617838,0.430910420563734,0.44550889507594,-0.040572493865745
"V301_0",0.12640357892081,-0.124854908030394,-0.0547145084154345,-0.0380776476893938,0.0294098957060102
"V301_1",-0.859544336661511,0.849013374606683,0.372058657224954,0.258928004287878,-0.199987290800869
"V302_0",0.0783383773121713,-0.0661273337605949,0.0198752252878513,0.00814231305455021,0.0219890288402626
"V302_1",-0.794574969880594,0.670720099571748,-0.201591570776777,-0.0825863181247233,-0.223031578236949
"V303_0",0.174721302616015,-0.209066734544532,0.109328440320637,0.0238272613640626,-0.00591075940811758
"V303_1",-0.960967164388081,1.14986703999493,-0.601306421763503,-0.131049937502344,0.0325091767446466
"V304_0",0.125740321258025,-0.160179560201737,0.0710831284488332,0.00892371277342708,0.0113451801911756
"V304_1",-0.96400912964486,1.22804329487999,-0.544970651441054,-0.0684151312629408,-0.0869797147990127
"V305_0",0.136263778306426,-0.190193104045013,0.103247776005877,0.0304001074495221,0.085495395843897
"V305_1",-0.749450780685345,1.04606207224757,-0.567862768032326,-0.167200590972372,-0.470224677141433
"V306_0",0.221622441149332,-0.278235859022916,0.161152567862276,0.0535731985197592,0.079758412302607
"V306_1",-0.795233465300547,0.998375729435171,-0.578253331741106,-0.192233241747371,-0.286191950027001
"V307_0",0.0856990146656926,-0.12091344049788,0.070925608684251,0.0133761713002221,-0.0035608175839607
"V307_1",-1.02838817598831,1.45096128597456,-0.851107304211011,-0.160514055602665,0.0427298110075285
"V308_0",0.199588016287427,-0.249406881846474,0.177998864088659,0.0695158593199864,0.0862642943450958
"V308_1",-0.773403563113779,0.966451667155085,-0.689745598343552,-0.269373954864947,-0.334274140587246
"V309_0",0.130203573004796,-0.200246086636258,0.124362120263496,0.0365985938609977,0.066440963716031
"V309_1",-0.793058126483756,1.21968070951175,-0.757478368877658,-0.22291870806244,-0.404685869906734
"V310_0",0.0679605976725879,-0.12266786742019,0.0750987997869503,0.0229235345366937,0.0710136260666323
"V310_1",-0.689314633536248,1.24420265526193,-0.761716397839068,-0.232510136015036,-0.720281064390128
"V311_0",0.132546064028593,-0.175059319681227,0.0320575965050531,-0.0140774834818375,-0.00180673106837721
"V311_1",-1.01618649088588,1.34212145088941,-0.24577490653874,0.107927373360754,0.0138516048575587
"V312_0",0.26568854642725,-0.307042908456637,0.058147702795259,-0.0168564124955966,-0.0246857104391231
"V312_1",-0.953353019533074,1.10174220093264,-0.208647639441812,0.0604847742489056,0.0885781374580298
"V313_0",0.188027171090478,-0.251622568978437,0.0502940404367562,-0.0281026873235252,-0.0326013639020957
"V313_1",-1.03414944099763,1.3839241293814,-0.276617222402158,0.154564780279389,0.179307501461526
"V314_0",0.146899281765237,-0.190924828068911,0.0591488140626571,-0.00248365449410076,0.00173064853260847
"V314_1",-0.998915116003612,1.2982888308686,-0.402211935626069,0.0168888505598852,-0.0117684100217376
"V315_0",0.133742566291441,-0.181338566133091,0.0602332799957029,-0.00394991976112827,-0.00259674466277815
"V315_1",-1.02535967490105,1.3902623403537,-0.461788479967056,0.03028271816865,0.0199083757479659
"V316_0",0.189843171263644,-0.262308796195543,0.131035212580518,0.0122125317176827,-0.0286698143913807
"V316_1",-1.04413744195004,1.44269837907548,-0.720693669192847,-0.0671689244472547,0.157683979152594
"V317_0",0.151069841567521,-0.180367682023023,0.127630929696474,0.0334659115736763,0.00185030749448873
"V317_1",-0.920152671365809,1.09860315414023,-0.777388389969433,-0.203837825039665,-0.0112700547391585
"V318_0",0.0984228881294653,-0.12991107893808,0.00510928200976454,-0.0240967619066974,0.000511241067958195
"V318_1",-0.998289293884575,1.31766951494339,-0.0518227175276113,0.244410013625074,-0.00518544511786162
"V319_0",0.0989528188686313,-0.133509209919766,0.0317020883718136,-0.00837432793537491,0.00790948149640056
"V319_1",-1.00366430566755,1.35416484347191,-0.321549753485538,0.0849396119159458,-0.0802247408920626
"V320_0",0.0861272404388736,-0.0957370232002229,0.110915633320407,0.0454588750788679,0.0116710548417533
"V320_1",-0.873576295880003,0.97104694960226,-1.12500142367841,-0.461082875799946,-0.118377841966355
"V321_0",0.143778909847896,-0.187516103130793,0.120939202739329,0.0265695524770634,-0.000490920156496943
"V321_1",-0.977696586965692,1.27510950128939,-0.822386578627437,-0.180672956844031,0.00333825706417945
"V322_0",0.169791176609125,-0.201585320000439,0.0881638588545035,0.0156983536955369,0.0201294397498288
"V322_1",-0.933851471350188,1.10871926000242,-0.484901223699769,-0.086340945325453,-0.110711918624058
"V323_0",0.244680245423174,-0.275690786371839,0.184909525128726,0.0731599980351112,0.0896114333283709
"V323_1",-0.759796551577224,0.856092441891501,-0.574192735926045,-0.227181046530082,-0.278267082440731
"V324_0",0.148961820980995,-0.137602474083915,-0.240059654024861,-0.13670942110038,-0.00455112036944175
"V324_1",-0.907312909611518,0.838124160329302,1.46218152906052,0.832684655793222,0.0277204604320544
"V325_0",0.101735666504562,-0.120803403433762,-0.164575185796195,-0.104852199417041,-0.0109842346730144
"V325_1",-1.03189033168913,1.22529166339958,1.66926259878998,1.06350087980141,0.111411523112003
"V326_0",0.148961820980995,-0.137602474083915,-0.240059654024861,-0.13670942110038,-0.00455112036944175
"V326_1",-0.907312909611518,0.838124160329302,1.46218152906052,0.832684655793222,0.0277204604320544
"V327_0",0.242288947826253,-0.253341457313257,-0.17985307530721,-0.121721741708038,-0.0257369916272038
"V327_1",-0.938869672826731,0.981698147088871,0.696930666815438,0.471671749118648,0.0997308425554148
"V328_0",0.243101207676669,-0.21191499201559,-0.252152474861157,-0.144564617443279,-0.0119269423765124
"V328_1",-0.872304333428047,0.760400853702999,0.904782409795918,0.51873186259059,0.0427966755863093
"V329_0",0.316571980142146,-0.275420260858171,-0.227528781135844,-0.132138496544588,-0.00329963716725503
"V329_1",-0.859266803242966,0.747569279472178,0.617578120225861,0.358661633478169,0.00895615802540649
"V330_0",0.181665095052952,-0.207507144934701,-0.176884480221749,-0.121227732463161,-0.017655183042374
"V330_1",-0.999158022791234,1.14128929714085,0.972864641219619,0.666752528547387,0.097103506733057
"V331_0",0.109366387306854,-0.115152182131512,-0.19507904552011,-0.118516493293517,-0.0048622487128685
"V331_1",-0.956955888934969,1.00758159365073,1.70694164830096,1.03701931631828,0.0425446762375995
"V332_0",0.146768421356515,-0.13368029799441,-0.179286443319063,-0.100514920046311,-0.00901834525993156
"V332_1",-0.89395311189877,0.81423454232959,1.09201742748884,0.612227240282075,0.0549299211286743
"V333_0",0.228172994979805,-0.204101305669406,-0.246751265462901,-0.143242470612454,-0.00872694277915364
"V333_1",-0.884170355546746,0.790892559468948,0.956161153668742,0.555064573623258,0.0338169032692205
"V334_0",0.150985409433042,-0.183121325222713,-0.139800927049573,-0.100813976430127,-0.0253938707683108
"V334_1",-1.02670078414468,1.24522501151445,0.950646303937099,0.685535039724867,0.172678321224513
"V335_0",0.210604444137177,-0.237398570421766,-0.142395490578375,-0.106858448943423,-0.00596134135643136
"V335_1",-0.962763173198525,1.08525060764236,0.650950814072571,0.488495766598505,0.0272518462008293
"V336_0",0.0939367998203787,-0.129111169484978,-0.0849406225084598,-0.0730309331178159,-0.0215516573035545
"V336_1",-1.12724159784454,1.54933403381973,1.01928747010152,0.876371197413791,0.258619887642654
"V337_0",0.146942133387378,-0.171731673389377,-0.112210215913057,-0.0909662867588595,-0.020487147660154
"V337_1",-0.99920650703417,1.16777537904777,0.763029468208784,0.618570749960245,0.139312604089047
"V338_0",0.206572169154993,-0.218238327778315,-0.0734832770723046,-0.061251270335263,-0.0305919207581352
"V338_1",-0.944329916137113,0.997660926986582,0.335923552330535,0.280005807246917,0.139848780608618
"V339_0",0.149680931025986,-0.138790979604316,-0.220336584612452,-0.129954135584968,-0.00708439051299301
"V339_1",-0.911692943521916,0.845363239408108,1.34205010627585,0.791538825835717,0.0431503785791393
"V340_0",0.137061544277302,-0.107758136088301,-0.216041972833431,-0.118820614400367,0.00100168808330756
"V340_1",-0.834829406052655,0.656345010719649,1.31589201634908,0.723725560438601,-0.00610119105287324
"V341_0",0.174498601528148,-0.1853620433403,-0.198613752932484,-0.126593092323895,-0.013436187168383
"V341_1",-0.959742308404815,1.01949123837165,1.09237564112866,0.696262007781421,0.0738990294261064
"V342_0",0.262571944544014,-0.234892413361404,-0.23357542030862,-0.138169810391432,-0.0105677768695997
"V342_1",-0.875239815146712,0.78297471120468,0.778584734362066,0.460566034638106,0.0352259228986656
"V343_0",0.266651029029173,-0.216741056409141,-0.194616101005257,-0.110921849726123,0.00727749582120893
"V343_1",-0.828021616459011,0.673038017270491,0.604334208384747,0.344441533360065,-0.022598539655333
"V344_0",0.245114977121654,-0.239697991163127,0.0698962458703254,0.011234377600229,-0.0254578606092546
"V344_1",-0.87953021202476,0.860092791820634,-0.250804176358226,-0.0403115902125866,0.0913487939508546
"V345_0",0.0842123032578652,-0.0724027117682342,-0.00591218917805447,-0.00262296435546851,-0.00255325721606786
"V345_1",-0.85415336161549,0.734370362220662,0.0599664902345524,0.0266043527483233,0.0258973231915454
"V346_0",0.128986824121157,-0.153678545616171,-0.0360645094759767,-0.0357071769118543,-0.0130411312098425
"V346_1",-0.98889898492887,1.17820218305731,0.276494572649155,0.273755022990883,0.0999820059421258
"V347_0",0.131340736076382,-0.156904960568712,-0.0840828105758913,-0.0658108603793339,-0.00911649651320221
"V347_1",-1.00694564325226,1.20293803102679,0.644634881081834,0.504549929574893,0.0698931399345505
"V348_0",0.291215538072602,-0.293328574891064,-0.0933297066513886,-0.0793183761632301,-0.0348768679394916
"V348_1",-0.904300881383342,0.910862416766988,0.289813299601681,0.246304431243715,0.108301853075263
"V349_0",0.236473362542525,-0.233171533298571,-0.157854679391972,-0.101456973355437,-0.0161392913534651
"V349_1",-0.916334279852284,0.903539691531961,0.611686882643892,0.393145771752319,0.0625397539946777
"V350_0",0.0951904907887879,-0.101638665273788,-0.0972897209489489,-0.0559072463022948,-0.00173017733900603
"V350_1",-0.965503549429135,1.03090646206271,0.986795741053624,0.567059212494705,0.017548941581347
"V351_0",0.114165969150499,-0.096603145920598,-0.090695166891015,-0.0450740703075492,-0.00624308665607609
"V351_1",-0.875272430153821,0.740624118724585,0.695329612831115,0.345567872357877,0.0478636643632501
"V352_0",0.148454954552804,-0.136660701777105,-0.108031664348582,-0.0649575828402691,-0.0282630951195861
"V352_1",-0.904225632276173,0.832387910824188,0.658011046486816,0.395650731845276,0.172147943001115
"V353_0",0.245751604137508,-0.262205037165842,-0.15680725173513,-0.10714784671492,-0.0278256714338249
"V353_1",-0.952287466032843,1.01604451901764,0.60762810047363,0.415197906020317,0.107824476806071
"V354_0",0.237358334121082,-0.245070550007767,-0.0799829164226201,-0.0653854935318494,-0.0360903961917128
"V354_1",-0.919763544719194,0.949648381280095,0.309933801137653,0.253368787435917,0.139850285242887
"V355_0",0.244498188140702,-0.26094142700331,-0.100868185436293,-0.0755361910989613,-0.030805955046248
"V355_1",-0.94743047904522,1.01114802963783,0.390864218565636,0.292702740508475,0.119373075804211
"V356_0",0.132365772076801,-0.171595624060529,0.0877751636758741,0.0091766487753853,-0.0349679365070045
"V356_1",-1.01480425258881,1.31556645113072,-0.672942921515035,-0.0703543072779539,0.268087513220368
"V357_0",0.14956487786522,-0.166350162827425,0.14198903937103,0.0434993076463175,-0.0258273618494924
"V357_1",-0.910986074269976,1.01322371903977,-0.864842330714458,-0.264950328391207,0.157312113083272
"V358_0",0.190270675773433,-0.197708028287356,0.136564072434171,0.038333471197751,-0.00972119905043019
"V358_1",-0.869808803535693,0.903808129313625,-0.624292902556212,-0.175238725475433,0.0444397670876812
"V359_0",0.0688909704674117,-0.0613304966428648,0.00432450315806589,-0.000210463861293636,0.00689512349604608
"V359_1",-0.826691645608941,0.735965959714377,-0.0518940378967906,0.00252556633552369,-0.082741481952553
"V360_0",0.20846808425537,-0.250437654881528,0.146330066547938,0.0270157443333408,-0.0265287764039994
"V360_1",-0.952996956595979,1.14485785088699,-0.668937447076287,-0.123500545523844,0.121274406418283
"V361_0",0.133682059899263,-0.12845849659488,-0.134050281606227,-0.0821036161025167,-0.0207694564698655
"V361_1",-0.909038007314991,0.873517776845185,0.911541914922342,0.558304589497113,0.141232303995085
"V362_0",0.310120551727663,-0.315950298337247,0.0601183177024176,-0.00845462532844597,-0.0351662685062256
"V362_1",-0.899349600010223,0.916255865178018,-0.174343121337011,0.0245184134524934,0.101982178668054
"V363_0",0.22105322501554,-0.288504525774443,0.1049685343988,-0.00819202351698988,-0.0477487427442776
"V363_1",-1.01052902864247,1.31887783211174,-0.479856157251658,0.0374492503633824,0.218279966830983
"V364_0",0.275160813210523,-0.295745224570104,0.0154750804344648,-0.0378743636201074,-0.0354928157104598
"V364_1",-0.917202710701745,0.985817415233679,-0.051583601448216,0.126247878733691,0.118309385701533
"V365_0",0.199894999321896,-0.258340619612637,0.14436766777795,0.0188877765554963,-0.0436150077048261
"V365_1",-0.999474996609479,1.29170309806319,-0.72183833888975,-0.0944388827774817,0.21807503852413
"V366_0",0.224382344704071,-0.29996531100911,0.130109997873928,0.000900103580938102,-0.0462670953899884
"V366_1",-1.02574786150432,1.3712699931845,-0.594788561709387,-0.00411475922714556,0.211506721782804
"V367_0",0.183404106688448,-0.238581349049715,0.137322734041281,0.0193957933090068,-0.0419551789702892
"V367_1",-1.00872258678647,1.31219741977343,-0.755275037227045,-0.106676863199537,0.23075348433659
"V368_0",0.0664903048951693,-0.0378831034330729,-0.101750384811364,-0.0483291981534275,-0.00443568261768515
"V368_1",-0.797883658742032,0.454597241196874,1.22100461773637,0.57995037784113,0.0532281914122218
"V369_0",0.089800901705219,-0.118760390084125,-0.0351476964765275,-0.0331321330071949,-0.00725829188243409
"V369_1",-1.07761082046263,1.4251246810095,0.421772357718329,0.397585596086339,0.0870995025892092
"V370_0",0.279041319424695,-0.244039746307524,-0.190839729234264,-0.114761126185257,-0.0257356446635926
"V370_1",-0.866496728739843,0.757807633270733,0.592607580253767,0.356363497101588,0.0799159492185242
"V371_0",0.224316486220717,-0.204626819535845,-0.0382966621426977,-0.0324008249828745,-0.0117459614159054
"V371_1",-0.869226384105278,0.7929289257014,0.148399565802954,0.125553196808639,0.0455156004866335
"V372_0",0.134309339906861,-0.180423417172857,0.0711461965733773,-0.00016984169751048,-0.0252260267437275
"V372_1",-1.02970493928593,1.38324619832523,-0.545454173729226,0.00130211968091342,0.193399538368577
"V373_0",0.21565449135607,-0.269290946363373,0.138099141738641,0.0183120709019561,-0.0430012741758314
"V373_1",-0.985849103342033,1.23104432623256,-0.631310362233789,-0.0837123241232276,0.196577253375229
"V374_0",0.234447823102244,-0.296768903246927,0.178595659040515,0.0331464881172564,-0.0438327830280126
"V374_1",-0.984680857029426,1.24642939363709,-0.750101767970162,-0.139215250092477,0.184097688717653
"V375_0",0.202710320036464,-0.268206808611967,0.131323110325369,0.0116920112465855,-0.0413107850594567
"V375_1",-1.01355160018232,1.34103404305983,-0.656615551626847,-0.0584600562329276,0.206553925297283
"V376_0",0.19348832644716,-0.217416658028257,-0.0327029272533647,-0.0497494606657249,-0.0450033507082713
"V376_1",-0.967441632235798,1.08708329014128,0.163514636266824,0.248747303328624,0.225016753541356
"V377_0",0.0752440151073874,-0.0769546831417667,0.0595442756361109,0.0206518093359718,-0.0231328462660002
"V377_1",-0.902928181288648,0.923456197701201,-0.714531307633331,-0.247821712031661,0.277594155192003
"V378_0",0.192285670654003,-0.184291056346352,0.0822410830575739,0.0215169831778918,-0.0351770287795529
"V378_1",-0.879020208704012,0.842473400440466,-0.375959236834623,-0.0983633516703624,0.160809274420813
"V379_0",0.0989230825147058,-0.146053839721431,-0.0376341899355438,-0.0487919708303626,-0.0227660460917197
"V379_1",-1.18707699017647,1.75264607665717,0.451610279226526,0.585503649964351,0.273192553100637
"V380_0",0.123989376904181,-0.143669083699698,0.0768989453724065,0.0110895698568693,-0.0411866349031536
"V380_1",-0.950585222932053,1.10146297503102,-0.589558581188449,-0.0850200355693315,0.315764200924177
"V381_0",0.133416813558904,-0.10445119617049,0.0283764732164091,0.0098885262716051,-0.0172810844145901
"V381_1",-0.81262968258605,0.636202740311166,-0.172838518681764,-0.0602301145634128,0.105257514161594
"V382_0",0.240566151335459,-0.28483563520548,0.199312217682969,0.0473699173689518,-0.0405758931094148
"V382_1",-0.932193836424902,1.10373808642123,-0.772334843521506,-0.183558429804689,0.157231585798982
"V383_0",0.150572959747957,-0.196739548049577,0.138209911459131,0.0362218689284664,0.0410856083622005
"V383_1",-0.752864798739787,0.983697740247885,-0.691049557295654,-0.181109344642332,-0.205428041811002
"V384_0",0.173301175566851,-0.237619687551913,0.174777620160404,0.0513459003090499,0.0464407313687776
"V384_1",-0.792233945448463,1.08626142880875,-0.79898340644756,-0.234724115698514,-0.212300486257269
"V385_0",0.170631287938734,-0.229016123641006,0.15343197167988,0.0390521864979359,0.0356005414687908
"V385_1",-0.780028744862782,1.04693085093031,-0.701403299108024,-0.178524281133421,-0.162745332428758
"V386_0",0.158876158175542,-0.190972523576434,0.0876961323736844,0.0126204867748152,-0.0213104895696234
"V386_1",-0.96770023616012,1.16319627996555,-0.534149169912441,-0.0768702376284199,0.129800254651343
"V387_0",0.0994549253413989,-0.12374121317056,0.0407896865112117,-8.49427468310342e-05,-0.0229552199137521
"V387_1",-1.00875709989133,1.25508944787282,-0.413723963185148,0.000861562146428964,0.232831516268057
"V388_0",0.321008362305608,-0.355299022644464,0.0719715299622498,-0.0171478415939124,-0.0387500396039065
"V388_1",-0.930924250686264,1.03036716566895,-0.208717436890525,0.0497287406223459,0.112375114851329
"V389_0",0.186988151758656,-0.247185886364886,0.0773653528578575,-0.0171105066791504,-0.0453892184274194
"V389_1",-1.02843483467261,1.35952237500688,-0.425509440718217,0.0941077867353271,0.249640701350807
"V390_0",0.254061181112652,-0.319977615254006,0.135389587669233,0.0061584565722513,-0.0405921211249886
"V390_1",-0.984487076811525,1.23991325910927,-0.524634652218277,-0.0238640192174739,0.157294469359331
"V391_0",0.237950462588218,-0.307429919051518,0.135367165062464,0.00441537062794574,-0.0446598570110851
"V391_1",-0.999391942870517,1.29120566001638,-0.568542093262349,-0.0185445566373722,0.187571399446557
"V392_0",0.224382344704071,-0.29996531100911,0.130109997873928,0.000900103580938102,-0.0462670953899884
"V392_1",-1.02574786150432,1.3712699931845,-0.594788561709387,-0.00411475922714556,0.211506721782804
"V393_0",0.20169407125517,-0.266201729318356,0.165594176112424,0.029353272747903,-0.0481456547415318
"V393_1",-1.00847035627585,1.33100864659178,-0.82797088056212,-0.146766363739515,0.240728273707659
"V394_0",0.109076493393544,-0.153495361011277,-0.0175947985792255,-0.0469737105035656,-0.0367650126330142
"V394_1",-1.10634729013452,1.55688151882867,0.17846152844643,0.476447635107594,0.372902270992001
"V395_0",0.203392285044199,-0.270230257272972,0.145842034579346,0.016756121997222,-0.0484884222738513
"V395_1",-1.016961425221,1.35115128636486,-0.729210172896729,-0.0837806099861102,0.242442111369256
"V396_0",0.17566154885642,-0.251042346453308,0.142470633784973,0.0160430860666086,-0.0513301336583297
"V396_1",-1.06993852485274,1.5290761102156,-0.867775678508471,-0.0977169787693432,0.312647177737099
"V397_0",0.240021970587098,-0.312195351588662,0.130048617468073,0.00255972360474665,-0.0422894384604792
"V397_1",-1.00809227646581,1.31122047667238,-0.546204193365907,-0.0107508391399358,0.177615641534013
"V398_0",0.113677346573577,-0.169892171820026,0.0525424669949338,-0.010526122476514,-0.0392091235940205
"V398_1",-1.15301308667486,1.72319202846027,-0.532930736662901,0.106764956547499,0.39769253931078
"V399_0",0.275638965118547,-0.312488452684099,0.161543705277293,0.0265599399379922,-0.0283764810161863
"V399_1",-0.918796550395158,1.04162817561366,-0.538479017590977,-0.0885331331266408,0.0945882700539542
"V400_0",0.237950462588218,-0.307429919051518,0.135367165062464,0.00441537062794574,-0.0446598570110851
"V400_1",-0.999391942870517,1.29120566001638,-0.568542093262349,-0.0185445566373722,0.187571399446557
"V401_0",0.192576333847418,-0.267038547802523,0.0859568526569803,-0.0174652550848189,-0.0482172477561505
"V401_1",-1.0591698361608,1.46871201291388,-0.472762689613392,0.0960589029665042,0.265194862658828
"V402_0",0.073376840282656,-0.0731419042310902,-0.0478252152133333,-0.0268496435626706,0.0215021933336984
"V402_1",-0.880522083391871,0.877702850773082,0.57390258256,0.322195722752047,-0.258026320004381
"V403_0",0.0534003723113652,-0.102421479569745,0.0609578798647503,0.0178469429623749,0.0704833457432151
"V403_1",-0.640804467736382,1.22905775483694,-0.731494558377004,-0.214163315548499,-0.845800148918582
"V404_0",0.0853314575860575,-0.152089195075219,0.116714923402865,0.0372616163591638,0.0712894155096521
"V404_1",-0.746650253878002,1.33078045690817,-1.02125557977506,-0.326039143142683,-0.623782385709456
"V405_0",0.0660371635214853,-0.115854646165493,0.0998350598784203,0.0358670230738093,0.0677689136877006
"V405_1",-0.669805515717921,1.17509712539286,-1.01261275019541,-0.363794091177209,-0.687370410260963
"V406_0",0.041825122476041,-0.0659842707226236,0.0524289935858627,0.0245638830092363,0.0782467439775903
"V406_1",-0.501901469712492,0.791811248671483,-0.629147923030352,-0.294766596110835,-0.938960927731083
"V407_0",0.149172799383641,-0.15406010039956,0.0159392868144601,-0.00623934843092819,-0.00231649749149652
"V407_1",-0.908597959882178,0.938366066070049,-0.0970847469608026,0.0380033040792902,0.0141095756300245
"V408_0",0.117632780534872,-0.127859332352604,-0.0222682796149125,-0.0296180113011301,0.0166676275259284
"V408_1",-0.901851317434019,0.980254881369965,0.170723477047663,0.227071419975331,-0.127785144365451
"V409_0",0.120049362910503,-0.159635596882704,0.0202146474126461,-0.0184498903253302,-0.0133604825127627
"V409_1",-1.0504319254669,1.39681147272366,-0.176878164860654,0.161436540346639,0.116904221986673
"V410_0",0.22577429225166,-0.270502891972805,0.149684345048744,0.0311982473749227,-0.00891372841485622
"V410_1",-0.948252027456971,1.13611214628578,-0.628674249204725,-0.131032638974675,0.037437659342396
"V411_0",0.104968904684907,-0.128291715260206,0.157141616443263,0.0689023798544738,0.0881741332629417
"V411_1",-0.63935605580807,0.781413174766711,-0.957135300154419,-0.419678131840886,-0.537060629874281
"V412_0",0.136936398853771,-0.164885509340565,0.12773705533611,0.0443017343259537,0.0186511335163901
"V412_1",-0.931167512205642,1.12122146351584,-0.868611976285547,-0.301251793416485,-0.126827707911453
"V413_0",0.0817551377842458,-0.11099945243513,0.124659150640292,0.0537235695507723,0.0759699941835909
"V413_1",-0.626789389679218,0.850995802002663,-0.955720154908906,-0.411880699889255,-0.582436622074197
"V414_0",0.172946889548855,-0.20557923646159,0.0652950391978292,0.00519049223645339,0.00914745135099697
"V414_1",-0.951207892518701,1.13068580053875,-0.35912271558806,-0.0285477073004936,-0.0503109824304835
"V415_0",0.170326629843531,-0.235192889688729,0.127183734769966,0.0127916143303982,-0.0468171086083233
"V415_1",-1.03744401813787,1.43253850992226,-0.774664566326156,-0.0779125600124254,0.285158752432515
"V416_0",0.0622141670816143,-0.0361436353972621,0.0298646324392559,0.0251206797694012,0.0164781906946282
"V416_1",-0.746570004979373,0.433723624767144,-0.358375589271071,-0.301448157232815,-0.197738288335538
"V417_0",0.163713628792565,-0.20522441659909,0.0344662031369781,-0.0164404925105499,-0.0213161322822979
"V417_1",-0.997164829918349,1.25000326473991,-0.209930510016139,0.100137545291531,0.129834623901269
"V418_0",0.110595958020804,-0.132925198005644,-0.0193910538401889,-0.0284955541802144,-0.0118465825631318
"V418_1",-0.967714632682035,1.16309548254938,0.169671721101652,0.249336099076876,0.103657597427404
"V419_0",0.104449974459412,-0.118060752880199,0.0582116839752256,0.0170097954989941,-0.00231166175145283
"V419_1",-0.913937276519854,1.03303158770174,-0.509352234783224,-0.148835710616198,0.0202270403252121
"V420_0",0.0314592925460949,-0.0337562336915645,0.093573484288163,0.0541476547837595,0.077100320335086
"V420_1",-0.377511510553138,0.405074804298775,-1.12288181145796,-0.649771857405114,-0.925203844021031
"V421_0",0.274895523580962,-0.295700612858567,0.10748574154826,0.0170702026056784,-0.0450134519168465
"V421_1",-0.91631841193654,0.985668709528558,-0.358285805160868,-0.0569006753522614,0.150044839722822
"V422_0",0.263987669488961,-0.309968349853894,0.134913766522712,0.0112145527774777,-0.0492610546339097
"V422_1",-0.947249872872154,1.11223937300515,-0.484102338699142,-0.0402404540838904,0.176760254862852
"V423_0",0.0681110024291744,-0.0531553501658217,-0.0741626822280525,-0.0418379199380178,0.00613972423505287
"V423_1",-0.817332029150093,0.63786420198986,0.889952186736629,0.502055039256213,-0.0736766908206344
"V424_0",0.0967512088426432,-0.143538142877659,0.0051415471211488,-0.0266654118511641,-0.0147451748911883
"V424_1",-1.16101450611172,1.72245771453191,-0.0616985654537862,0.319984942213969,0.176942098694259
"V425_0",0.242339184197755,-0.28681317258842,0.187897122520534,0.0436625918205486,-0.0355495868499932
"V425_1",-0.939064338766299,1.11140104378013,-0.728101349767071,-0.169192543304626,0.137754649043723
"V426_0",0.103498489495236,-0.144466802080322,0.0936266079461024,0.0144678855615999,-0.0312551760587034
"V426_1",-1.04977039345168,1.46530613538612,-0.949641309167611,-0.146745696410513,0.317016785738277
"V427_0",0.137277303045275,-0.137780122645742,0.187233395305119,0.0743108747503698,-0.0183417710560011
"V427_1",-0.836143573093946,0.839206201569518,-1.14042158958573,-0.452620782570434,0.11171806006837
"V428_0",0.128193114596184,-0.158752081168674,0.0864113528627261,0.0174590110311523,-0.0222241146464665
"V428_1",-0.982813878570741,1.21709928895983,-0.662487038614233,-0.133852417905501,0.170384878956243
"V429_0",0.104746870405416,-0.111924216993272,0.0407597744524046,0.00201870783100424,-0.0308784097437106
"V429_1",-0.916535116047387,0.97933689869113,-0.35664802645854,-0.0176636935212871,0.270186085257468
"V430_0",0.198513592042309,-0.25283567075814,0.120594446178215,0.00873407740968648,-0.0591283567425596
"V430_1",-0.992567960211543,1.2641783537907,-0.602972230891076,-0.0436703870484323,0.295641783712798
"V431_0",0.207519589156672,-0.248919799245812,0.115330976114125,0.0072006681445288,-0.0486072332928463
"V431_1",-0.948660979001929,1.13791908226657,-0.527227319378858,-0.0329173400892745,0.222204495053011
"V432_0",0.119406060447325,-0.157607368499005,0.0414938936779292,-0.00623739408339991,-0.00895645061690533
"V432_1",-1.0448030289141,1.3790644743663,-0.36307156968188,0.0545771982297493,0.0783689428979216
"V433_0",0.107204365930713,-0.134928292189563,0.137162781419651,0.0464546948551974,0.0095613818721629
"V433_1",-0.938038201893739,1.18062255665868,-1.20017433742195,-0.406478579982977,-0.0836620913814254
"V434_0",0.0796288143000691,-0.100193131773103,-3.26409795212973e-05,-0.0168232215070352,0.0140344397267308
"V434_1",-0.955545771600829,1.20231758127723,0.000391691754255581,0.201878658084423,-0.16841327672077
"V435_0",0.0904491098284625,-0.100248094200918,-0.0644240192492432,-0.049924738169044,0.0111429997633834
"V435_1",-0.917412399688691,1.0168020983236,0.653443623813752,0.50637948714316,-0.113021854742888
"V436_0",0.0835831635777524,-0.11192186230469,0.0261622249904983,-0.0046180075007682,0.00908462798384187
"V436_1",-1.00299796293303,1.34306234765628,-0.31394669988598,0.0554160900092186,-0.109015535806102
"V437_0",0.0957045088843658,-0.15676157465113,0.121320814104411,0.0409981864568407,0.0744606115787906
"V437_1",-0.733734568113471,1.201838738992,-0.930126241467149,-0.314319429502446,-0.570864688770727
"V438_0",0.0951765847763909,-0.151110375686215,0.0896514801231255,0.0261838459820711,0.0704287495762267
"V438_1",-0.72968714995233,1.15851288026098,-0.687328014277296,-0.200742819195879,-0.539953746751071
"V439_0",0.112582278658077,-0.177133506909732,0.114125274161899,0.0337157405581437,0.0683852676332093
"V439_1",-0.765559494874924,1.20450784698618,-0.77605186430091,-0.229267035795377,-0.465019819905824
"V440_0",0.099244276377991,-0.12879442454126,-0.0124643191159765,-0.0281112202179134,0.0048640327795899
"V440_1",-1.00662051754819,1.3063434489185,0.126423808176334,0.285128090781694,-0.0493351896215547
"V441_0",0.144724816915545,-0.179805891440626,0.00828379407997578,-0.0268764902768767,0.00122746287295063
"V441_1",-0.984128755025709,1.22268006179625,-0.0563297997438354,0.182760133882761,-0.0083467475360643
"V442_0",0.173532303398753,-0.207975015788739,0.120694681902644,0.0251997030067791,-0.0237371898648557
"V442_1",-0.954427668693142,1.14386258683806,-0.663820750464542,-0.138598366537285,0.130554544256706
"V443_0",0.0824959109810504,-0.106995931563197,-0.0070062308686589,-0.021398509750283,0.00656352820886907
"V443_1",-0.989950931772604,1.28395117875836,0.0840747704239063,0.256782117003396,-0.0787623385064288
"V444_0",0.106518865462503,-0.155103342829535,0.0649647817862505,0.0036475637146045,-0.00916454461221708
"V444_1",-1.08040563540539,1.57319104869957,-0.658928500974827,-0.0369967176767029,0.0929546667810591
"V445_0",0.186628584456115,-0.254732926221768,0.152049937845147,0.0240762231376467,-0.0358909275204475
"V445_1",-1.02645721450863,1.40103109421972,-0.836274658148305,-0.132419227257057,0.197400101362461
"V446_0",0.113746536128133,-0.15452075246323,0.117596236549831,0.032693456427254,0.00135696274559836
"V446_1",-0.995282191121166,1.35205658405327,-1.02896706981102,-0.286067743738473,-0.0118734240239856
"V447_0",0.0880300376340872,-0.0977347020926708,-0.0214410970937455,-0.0266829302681352,0.0185911225512722
"V447_1",-0.892876096002885,0.991309121225661,0.21747398480799,0.270641149862514,-0.188567100162904
"V448_0",0.102508821124571,-0.143209418910179,0.0384009740420053,-0.00872955471428598,-0.00414501721097755
"V448_1",-1.03973232854922,1.45255267751753,-0.389495593854625,0.0885426263877578,0.0420423174256296
"V449_0",0.145565146487634,-0.217674484117408,0.151981650868895,0.0479975692011448,0.0638356361125204
"V449_1",-0.800608305681988,1.19720966264575,-0.835899079778924,-0.263986630606297,-0.351095998618862
"V450_0",0.119782347600661,-0.165836654464314,0.0335135874613068,-0.015357175973797,-0.0060217703666728
"V450_1",-1.04809554150578,1.45107072656275,-0.293243890286435,0.134375289770723,0.0526904907083871
"V451_0",0.203553920394839,-0.262168243164011,0.0714134082129102,-0.0109342092207347,-0.038229089121293
"V451_1",-1.01776960197419,1.31084121582006,-0.357067041064551,0.0546710461036737,0.191145445606465
"V452_0",0.218807640683153,-0.281411237821152,0.137094527347007,0.0136072290764817,-0.0523675108212775
"V452_1",-1.00026350026584,1.2864513728967,-0.626717839300604,-0.0622044757782018,0.239394335182983
"V453_0",0.0859963156603836,-0.0816798211829938,0.0134855738843609,-0.00119487323182681,-0.00837248733381641
"V453_1",-0.872248344555319,0.828466757713223,-0.136782249398518,0.0121194284942436,0.0849209429572808
"V454_0",0.121564961869022,-0.132363868192282,0.0157735477558653,-0.0155136120831696,-0.0425415725061662
"V454_1",-0.931998040995834,1.01478965614083,-0.120930532794968,0.118937692637634,0.326152055880608
"V455_0",0.177711329895176,-0.215273072388403,-0.00989321416547259,-0.0443419108300132,-0.0377148599401941
"V455_1",-0.977412314423467,1.18400189813621,0.0544126779100985,0.243880509565073,0.207431729671068
"V456_0",0.183680360594415,-0.209683243375735,0.169053693234092,0.0463351732839192,-0.0396884415584984
"V456_1",-0.918401802972076,1.04841621687868,-0.845268466170461,-0.231675866419596,0.198442207792492
"V457_0",0.166055110739862,-0.206849191597996,0.021620358478028,-0.0262958489160637,-0.0477645281306641
"V457_1",-1.01142658359734,1.25989962155143,-0.131687638002534,0.160165625216025,0.290929398614045
"V458_0",0.130183396528561,-0.0841093948849122,-0.0982054545870655,-0.0494362339645198,-0.018646109416554
"V458_1",-0.792935233401236,0.512302677935374,0.598160496121216,0.301111606874803,0.113571757355374
"V459_0",0.0819496130408968,-0.0642401791385237,-0.0331802898318554,-0.0144593504838916,-0.00349154407085355
"V459_1",-0.83120321798624,0.651578959833597,0.336542939723104,0.146659126336615,0.0354142327186578
"V460_0",0.0881820751210468,-0.0906200252410362,0.0114706160900364,-0.00398143662490392,-0.00216336484962631
"V460_1",-0.894418190513474,0.919145970301938,-0.116344820341797,0.0403831429097401,0.0219427006176382
"V461_0",0.0808900980710861,-0.0710196105610632,0.000208223293775132,-0.00151756094831185,0.0168139830066373
"V461_1",-0.820456709006731,0.720341764262213,-0.00211197912257589,0.015392403904306,-0.17054182763875
"V462_0",0.134724846464196,-0.147856810760309,0.0601517639045943,0.0130129585524268,-0.0142755056945509
"V462_1",-0.916128955956531,1.0054263131701,-0.409031994551242,-0.0884881181565019,0.0970734387229463
"V463_0",0.162019250062141,-0.235211740620569,0.140816131812042,0.0297193988596239,0.0382098271235798
"V463_1",-0.810096250310706,1.17605870310285,-0.704080659060211,-0.14859699429812,-0.191049135617898
"V464_0",0.166399828804465,-0.223486999208594,0.218156612142999,0.0781820672470726,0.050302092336176
"V464_1",-0.760684931677552,1.021654853525,-0.997287369796568,-0.357403735986617,-0.229952422108233
"V465_0",0.113292072030949,-0.150086286389164,0.182984844732459,0.0738990591847396,0.0460031379118929
"V465_1",-0.690051711461233,0.914161926188548,-1.11454405427952,-0.450112451397959,-0.280200930917893
"V466_0",0.0916325454310873,-0.104998297270631,0.0969884748612734,0.0351488415128611,-0.0167652378254676
"V466_1",-0.929415817943885,1.06498272945926,-0.983740245021488,-0.356509678201877,0.170047412229743
"V467_0",0.12225016694576,-0.199640588996684,0.0896028662851913,0.0124359725472987,0.0338554253579988
"V467_1",-0.831301135231169,1.35755600517746,-0.609299490739302,-0.0845646133216312,-0.230216892434392
"V468_0",0.114023406924174,-0.109620050336355,-0.0102229154148111,-0.0233002539377239,-0.0305663860422187
"V468_1",-0.874179453085335,0.840420385912055,0.0783756848468854,0.178635280189217,0.234342292990343
"V469_0",0.293311286702308,-0.312782283115371,0.135189180118853,0.0275735087771603,-0.0558971286342934
"V469_1",-0.910808732391377,0.971271300200363,-0.41979798036907,-0.0856230009396031,0.173575294180174
"V470_0",0.153361860027039,-0.178765794693048,0.0876998602468323,0.0068306798606084,-0.0420491195126629
"V470_1",-0.934113147437418,1.08884620403947,-0.534171876048888,-0.0416050500600692,0.256117364304402
"V471_0",0.0846845371816647,-0.10395316204046,-0.000355586680437227,-0.0147256856850878,-0.0153161670910824
"V471_1",-1.01621444617998,1.24743794448552,0.00426704016524705,0.176708228221053,0.183794005092989
"V472_0",0.168150432756039,-0.223774356940534,0.0871594458928224,-0.00256177943019141,-0.0417121917011139
"V472_1",-1.02418899951406,1.36298926500144,-0.530880261347191,0.0156035656202569,0.254065167634058
"V473_0",0.210929613304113,-0.256770892971719,0.151546248773377,0.0249826690445329,-0.0485064230217994
"V473_1",-0.964249660818803,1.17380979644215,-0.69278285153544,-0.114206487060722,0.221743648099655
"V474_0",0.10464265879635,-0.125117760013575,0.142976054348758,0.0481673631446115,-0.0202195804769673
"V474_1",-0.915623264468065,1.09478040011878,-1.25104047555163,-0.421464427515351,0.176921329173464
"V475_0",0.147470688061337,-0.134630716161483,0.135691555411363,0.0516991372120758,-0.000948727110095206
"V475_1",-0.811088784337352,0.740468938888153,-0.746303554762497,-0.284345254666417,0.00521799910552359
"V476_0",0.231208751980519,-0.286105834639145,0.167453818837639,0.029315870672375,-0.0506830029681569
"V476_1",-0.971076758318181,1.20164450548441,-0.703306039118085,-0.123126656823975,0.212868612466259
"V477_0",0.117893632900538,-0.165556829502682,0.118809550791311,0.0247337065605022,-0.0281732852121194
"V477_1",-1.03156928787971,1.44862225814847,-1.03958356942398,-0.216419932404394,0.246516245606045
"V478_0",0.146919152176554,-0.197550925992341,0.16372452331733,0.0420826031492535,-0.0343176851635155
"V478_1",-0.999050234800566,1.34334629674792,-1.11332675855784,-0.286161701414924,0.233360259111906
"V479_0",0.200812044501634,-0.25675992029879,0.0879593167655159,-0.00288688273399448,-0.0431390681029741
"V479_1",-1.00406022250817,1.28379960149395,-0.43979658382758,0.0144344136699723,0.215695340514871
"V480_0",0.0833445656792322,-0.10275369840747,-0.0144908755294379,-0.0311794261865978,-0.0325098655138878
"V480_1",-1.00013478815079,1.23304438088964,0.173890506353255,0.374153114239174,0.390118386166653
"V481_0",0.1431842491077,-0.205652620599229,0.0578428635365097,-0.0184741261842798,-0.0545986286143233
"V481_1",-1.0977459098257,1.57667009126076,-0.443461953779907,0.141634967412812,0.418589486043145
"V482_0",0.0926257239427304,-0.170525310446883,0.107187360473288,0.0210652590782178,0.026267166023375
"V482_1",-0.810475084498891,1.49209646641022,-0.937889404141269,-0.184321016934406,-0.229837702704532
"V483_0",0.144248829802872,-0.163262477186416,-0.0898444972720447,-0.0689453428940515,-0.028901982226286
"V483_1",-0.980892042659531,1.11018484486763,0.610942581449903,0.46882833167955,0.196533479138745
"V484_0",0.172740788158786,-0.181373196301376,-0.148907236052174,-0.0986181525163591,-0.0274579868166356
"V484_1",-0.950074334873324,0.997552579657569,0.818989798286956,0.542399838839976,0.151018927491496
"V485_0",0.24937272273717,-0.231486691299529,-0.197793787378227,-0.118589073570148,-0.0167474865610503
"V485_1",-0.894808005115727,0.830628715839487,0.709730648827756,0.425525499281118,0.0600939223661218
"V486_0",0.258745371532486,-0.265695217619356,-0.075802634050665,-0.0648407524816873,-0.0438021303786337
"V486_1",-0.928439274322451,0.953376957340041,0.27199768688768,0.232663876551936,0.157172350182156
"V487_0",0.0784984279694753,-0.0802173356188841,-0.0906535021206177,-0.0488084799168257,6.09043419202942e-05
"V487_1",-0.941981135633704,0.962608027426609,1.08784202544741,0.585701759001909,-0.00073085210304359
"V488_0",0.105675001019582,-0.101160101622923,-0.139268665804517,-0.0746830874138308,-0.00803793550313883
"V488_1",-0.924656258921346,0.885150889200579,1.21860082578953,0.653477014871019,0.0703319356524649
"V489_0",0.177801875647561,-0.167032474693918,-0.114391997157471,-0.0687094990772434,-0.0144060338748468
