"","Dim 1","Dim 2","Dim 3","Dim 4","Dim 5"
"V1_0",0.0773174382708036,-0.0691457089070135,-0.142525891863123,-0.0271572938301418,0.0415044337677165
"V1_1",-0.927809259250326,0.829748506884804,1.71031070235681,0.325887525961584,-0.498053205212632
"V2_0",0.077317438270713,-0.0691457089071621,-0.142525891863098,-0.027157293830166,0.0415044337677041
"V2_1",-0.927809259249869,0.829748506884265,1.71031070235705,0.325887525961519,-0.498053205212742
"V3_0",0.0958869532813544,-0.0911596083734057,-0.147221829235907,-0.0343582278208692,0.0401680155590956
"V3_1",-0.972567668997679,0.924618884930087,1.49324998225009,0.34849059646919,-0.407418443528141
"V4_0",0.0773174382708249,-0.0691457089070709,-0.142525891863095,-0.0271572938301359,0.041504433767719
"V4_1",-0.927809259249746,0.829748506884631,1.71031070235716,0.325887525961689,-0.498053205212648
"V5_0",0.0773174382708077,-0.0691457089070499,-0.142525891863084,-0.0271572938301358,0.0415044337677182
"V5_1",-0.9278092592498,0.82974850688467,1.71031070235718,0.325887525961629,-0.498053205212624
"V6_0",0.0773174382708156,-0.0691457089070615,-0.142525891863103,-0.0271572938301434,0.0415044337677187
"V6_1",-0.927809259249672,0.829748506884632,1.71031070235721,0.32588752596165,-0.498053205212718
"V7_0",0.0773174382708087,-0.0691457089070645,-0.142525891863094,-0.0271572938301405,0.0415044337677207
"V7_1",-0.927809259249745,0.829748506884669,1.71031070235716,0.325887525961653,-0.498053205212681
"V8_0",0.127861335994768,-0.129141998234256,-0.14691932652569,-0.0402795187292224,0.0305881466952844
"V8_1",-0.980270242626541,0.990088653129278,1.12638150336363,0.308809643590701,-0.234509124663833
"V9_0",0.20360750435701,-0.180327715948807,-0.0879916008550453,-0.0331218612370521,0.0529511466657645
"V9_1",-0.930777162774911,0.824355272908829,0.402247318194495,0.151414222797939,-0.242062384757809
"V10_0",0.216788441114147,-0.245904589826845,-0.0365266041836554,-0.0246835476683565,0.0965261864924557
"V10_1",-0.840055209317318,0.952880285579021,0.141540591211668,0.0956487472148812,-0.374038972658274
"V11_0",0.300136534576086,-0.279126216994158,0.0637908880098707,0.00511644530598072,0.0813587726166582
"V11_1",-0.814656308135102,0.757628303269871,-0.173146696026815,-0.0138874944019508,-0.220830954245216
"V12_0",0.135651921801765,-0.123071538789662,0.012572862333451,-0.00222426364092443,0.0270075928953584
"V12_1",-0.922433068252004,0.836886463769694,-0.0854954638674398,0.0151249927582817,-0.183651631688425
"V13_0",0.226182728979325,-0.235064996655669,0.0343843610180013,-0.00124972013442721,0.0915970284705547
"V13_1",-0.811596851043459,0.843468517411521,-0.123379177770473,0.0044842898941188,-0.328671690394347
"V14_0",0.108183366210573,-0.0600522798301039,-0.0648683922878659,-0.00153617749214836,0.0290413496011232
"V14_1",-0.829405807614396,0.460400812030801,0.497324340873646,0.0117773607731417,-0.222650346941938
"V15_0",0.109417691915825,-0.10792083202102,-0.119232179181783,-0.0311399126660897,0.04512480867059
"V15_1",-0.957404804263467,0.944307280183923,1.04328156784061,0.272474235828274,-0.394842075867665
"V16_0",0.100189670399942,-0.105127031015329,-0.08513278531671,-0.0251756772286999,0.0155882951329121
"V16_1",-1.01620951405657,1.0662884574412,0.86348967964092,0.255353297605376,-0.158109850633819
"V17_0",0.172071799377696,-0.190771766434984,0.0110384958554391,2.33603382275294e-05,0.0879482168864952
"V17_1",-0.786613940012321,0.87209950370278,-0.050461695339155,-0.000106790117615463,-0.40204899148112
"V18_0",0.139591994888802,-0.125927744129979,-0.0822776900952746,-0.0220005062267964,0.0157459343501856
"V18_1",-0.949225565243849,0.856308660083852,0.559488292647875,0.14960344234221,-0.107072353581263
"V19_0",0.107222526805674,-0.133984663830795,0.0270029337698672,0.00721279506065144,0.0774120212070999
"V19_1",-0.729113182278577,0.911095714049395,-0.183619949635094,-0.0490470064124316,-0.526401744208281
"V20_0",0.0996746802660484,-0.115581198302659,0.184948149397178,0.0291787512468097,0.069139663278121
"V20_1",-0.677787825809121,0.785952148458071,-1.2576474159008,-0.198415508478307,-0.470149710291226
"V21_0",0.193811603553693,-0.215810915906798,-0.189973956855262,-0.0853038083833731,0.0208423690829477
"V21_1",-1.06596381954532,1.1869600374874,1.04485676270394,0.469170946108554,-0.114633029956213
"V22_0",0.177473764399911,-0.200558822408585,-0.186183189063323,-0.0856859184087454,0.0165481653248767
"V22_1",-1.08097656498128,1.22158555467048,1.13402487884024,0.521905139398726,-0.100793370615159
"V23_0",0.189465166879151,-0.204849471291766,-0.185640864024321,-0.080653942132086,0.0329037702913344
"V23_1",-1.04205841783532,1.1266720921047,1.02102475213375,0.443596681726475,-0.180970736602327
"V24_0",0.220373116220625,-0.227130185969439,-0.188419137301194,-0.0787171610004532,0.041360214768309
"V24_1",-1.00741995986571,1.03830942157457,0.861344627662585,0.359849878859211,-0.18907526751226
"V25_0",0.156751303084533,-0.16980383230181,-0.201694285300426,-0.0827700601321996,0.0150155103902627
"V25_1",-1.06590886097482,1.15466605965231,1.3715211400429,0.562836408898957,-0.102105470653785
"V26_0",0.204531950213623,-0.210961793994764,-0.20893803224443,-0.0822496291853605,0.0301777988577023
"V26_1",-1.02265975106811,1.05480896997382,1.04469016122215,0.411248145926802,-0.150888994288512
"V27_0",0.203123935667234,-0.211234654670316,-0.184535650801102,-0.0792123612940363,0.0366182224994441
"V27_1",-1.01561967833617,1.05617327335158,0.922678254005511,0.39606180647018,-0.183091112497222
"V28_0",0.214275275981042,-0.240810117798946,0.108118914819119,-0.0164515460181549,0.0697774864254644
"V28_1",-0.830316694426539,0.933139206470915,-0.418960794924088,0.0637497408203478,-0.270387759898675
"V29_0",0.184550227856391,-0.178077184626964,-0.134189400280588,-0.0529084705480728,-0.0143534730603927
"V29_1",-1.01502625321014,0.979424515448297,0.738041701543223,0.290996588014394,0.0789441018321641
"V30_0",0.265671934502756,-0.227884292343875,-0.209327055925463,-0.0661912766220303,0.0163991225780992
"V30_1",-0.953293412039302,0.817702460763316,0.751114730085484,0.237509874937868,-0.058843910427298
"V31_0",0.247676835703358,-0.225959543326961,-0.17634814657143,-0.0651307971708351,0.0272632295097038
"V31_1",-0.959747738350515,0.875593230391979,0.683349067964295,0.252381839036986,-0.105645014350106
"V32_0",0.330538663635544,-0.294011763295178,-0.143354621513616,-0.067113478422716,0.0102637486131916
"V32_1",-0.958562124543078,0.852634113556017,0.415728402389487,0.194629087425876,-0.0297648709782545
"V33_0",0.187387296407428,-0.181365684321449,-0.179733249516402,-0.0686310517251898,-0.0172555229973341
"V33_1",-1.03063013024085,0.997511263767968,0.988532872340208,0.377470784488544,0.0949053764853414
"V34_0",0.265295786385655,-0.262596539407565,-0.143633939614903,-0.0732938833366389,-0.0283567337869573
"V34_1",-1.02802117224442,1.01756159020431,0.556581516007748,0.284013797929476,0.10988234342446
"V35_0",0.224752282948723,-0.22708459231419,-0.108978433271962,-0.0570371458465461,-0.0151621986794476
"V35_1",-1.02743900776559,1.0381009934363,0.498187123528971,0.260741238155642,0.0693129082489043
"V36_0",0.247747369861684,-0.254920935191024,0.195102248839157,0.0142909415628457,0.0552546981501305
"V36_1",-0.825824566205616,0.849736450636746,-0.650340829463851,-0.0476364718761509,-0.184182327167103
"V37_0",0.304107131382161,-0.279259582413473,0.199372159429528,0.00728232900665732,0.00667300739412176
"V37_1",-0.825433642323008,0.757990295122285,-0.541153004165861,-0.0197663215894983,-0.0181124486411877
"V38_0",0.207425288439281,-0.215240243151965,-0.0326277882298615,-0.0605971449223991,-0.0255970956188622
"V38_1",-1.03712644219641,1.07620121575983,0.163138941149317,0.302985724611998,0.127985478094312
"V39_0",0.0778749075219583,-0.0637993120221923,0.0139134061322502,-0.00740783306417771,-0.000266389150183272
"V39_1",-0.934498890263502,0.765591744266307,-0.166960873587009,0.08889399677013,0.00319666980219684
"V40_0",0.298857105949208,-0.288566630080407,0.0201613997708213,-0.056028390562332,-0.0249295832954696
"V40_1",-0.996190353164028,0.961888766934689,-0.0672046659027378,0.18676130187444,0.0830986109848988
"V41_0",0.110017858335535,-0.106915171714703,-0.0525580111321475,-0.01947970235093,0.00681787262268958
"V41_1",-0.962656260435928,0.93550775250365,0.45988259740629,0.170447395570638,-0.0596563854485338
"V42_0",0.0882754873438102,-0.104278191564273,0.0462951259186384,-0.0132519684953443,0.00252439910365136
"V42_1",-1.05930584812572,1.25133829877128,-0.55554151102366,0.159023621944132,-0.0302927892438163
"V43_0",0.304416279174519,-0.299733506049271,0.24145761640676,-0.00366647437343294,0.0432217876708299
"V43_1",-0.826272757759408,0.813562373562306,-0.655384958818349,0.00995185901360373,-0.117316280820824
"V44_0",0.29586759109548,-0.307605718179843,0.250802529366348,-0.0149528795081403,0.00910884296773175
"V44_1",-0.858016014176891,0.892056582721545,-0.72732733516241,0.0433633505736071,-0.0264156446064221
"V45_0",0.220473706120879,-0.22911718882463,0.0584726365718149,-0.0483486221158187,0.00431807976479955
"V45_1",-1.00787979940973,1.04739286319831,-0.267303481471154,0.221022272529457,-0.0197397932105122
"V46_0",0.317797236637439,-0.302433829744805,0.168719331797787,-0.0400094102132365,-0.0543955270586267
"V46_1",-0.986844050610994,0.939136629207552,-0.523917925056285,0.124239747504261,0.16891242612942
"V47_0",0.24055018145553,-0.199967415457126,0.110515971137591,-0.00700403946135843,-0.0213677271920394
"V47_1",-0.932131953140178,0.774873734896364,-0.428249388158164,0.0271406529127641,0.0827999428691527
"V48_0",0.115461169003207,-0.148895677733208,0.0828930249550208,-0.0229530339625979,-0.0185284525846568
"V48_1",-1.17110614274682,1.51022758843683,-0.840772110258069,0.232809344477779,0.187931447644376
"V49_0",0.394684830978702,-0.341710869036396,0.0810450563990404,-0.0315425948234008,-0.0245843326499277
"V49_1",-0.943811552340373,0.817134686826164,-0.193803395736836,0.0754279441429148,0.0587886215541749
"V50_0",0.237878730825217,-0.173523660727283,-0.0359844443831111,-0.0249593055112443,-0.0393926104880669
"V50_1",-0.921780081947714,0.672404185318219,0.139439721984556,0.0967173088560717,0.152646365641259
"V51_0",0.236232463581638,-0.234488268062628,0.072451502621917,-0.0227920471772964,-0.00549599271477971
"V51_1",-0.992176347042881,0.984850725863036,-0.304296311012052,0.0957265981446447,0.0230831694020749
"V52_0",0.22740717708392,-0.243478631195799,0.11836432843284,0.00663484950985211,0.0796797222952471
"V52_1",-0.815990458948182,0.873658617820219,-0.424719060847249,-0.0238074011824104,-0.285909591765298
"V53_0",0.268126504745153,-0.281999416970651,0.20728252275604,-0.00834743436004191,0.057837882261446
"V53_1",-0.832603356840211,0.875682400066758,-0.64366678118981,0.0259209803811827,-0.179601844917122
"V54_0",0.288403799596824,-0.292571247197452,0.278473524800426,0.00744288755621842,0.0283072836773727
"V54_1",-0.83637101883079,0.848456616872613,-0.807573221921237,-0.0215843739130335,-0.0820911226643808
"V55_0",0.256389004189855,-0.251638795495493,0.120732576896594,-0.0312109980875993,-0.0197903638508811
"V55_1",-0.993507391235688,0.975100332545036,-0.467838735474301,0.120942617589447,0.0766876599221643
"V56_0",0.364854862053418,-0.308071460522164,0.213015537815566,-0.0223469645911268,-0.0429750543371845
"V56_1",-0.928721467045063,0.784181899510963,-0.542221368985076,0.0568831825955955,0.109391047403742
"V57_0",0.24168550158526,-0.249040817782424,0.169568155376619,-0.0407679748783388,-0.0369988564696869
"V57_1",-1.01507910665809,1.04597143468618,-0.7121862525818,0.171225494489023,0.155395197172685
"V58_0",0.0845912681371132,-0.0914735249865692,-0.164562385054962,-0.0412411062246215,0.0365447963744493
"V58_1",-1.01509521764536,1.09768229983883,1.97474862065954,0.494893274695458,-0.438537556493392
"V59_0",0.122333471977184,-0.142438792244106,-0.154263423605406,-0.0509437301726243,0.0368929654658622
"V59_1",-1.07041787980036,1.24633943213593,1.3498049565473,0.445757639010463,-0.322813447826294
"V60_0",0.113321322324774,-0.143663469070467,-0.149590802312296,-0.0609596053496143,0.00866499454944285
"V60_1",-1.14940198357985,1.45715804342902,1.517278137739,0.618304568546088,-0.0878878018586345
"V61_0",0.123711038346982,-0.146896147255491,-0.148556718893362,-0.0558619375307762,0.0239733767924522
"V61_1",-1.08247158553609,1.28534128848555,1.29987129031692,0.488791953394292,-0.209767046933957
"V62_0",0.0789220613957709,-0.0743766191783069,-0.0683075644367377,-0.0233800610895021,0.0167982046740462
"V62_1",-0.947064736749252,0.892519430139683,0.819690773240852,0.280560733074024,-0.201578456088556
"V63_0",0.1907438942294,-0.206782250752868,-0.18510293854105,-0.0843424217694035,0.0199585257576162
"V63_1",-1.0490914182617,1.13730237914077,1.01806616197577,0.463883319731719,-0.109771891666889
"V64_0",0.214386708024312,-0.193828285707267,-0.2251634289952,-0.0728047620983454,0.00140950388090596
"V64_1",-0.980053522396857,0.886072163233218,1.02931853254949,0.332821769592436,-0.00644344631271296
"V65_0",0.229234237348639,-0.214662012393302,-0.00645296071187456,-0.0362867334867152,0.00580764035247421
"V65_1",-0.962783796864286,0.901580452051868,0.0271024349898725,0.152404280644204,-0.0243920894803915
"V66_0",0.0842353339303953,-0.0887568217736195,-0.192202194574797,-0.0512423366900728,0.0315470118619795
"V66_1",-1.01082400716474,1.06508186128343,2.30642633489756,0.614908040280873,-0.378564142343754
"V67_0",0.11300794924663,-0.119484223949058,-0.176794909065162,-0.0483463476201907,0.0488854140964662
"V67_1",-0.988819555908013,1.04548695955426,1.54695545432017,0.423030541676668,-0.427747373344079
"V68_0",0.0845912681371132,-0.0914735249865692,-0.164562385054962,-0.0412411062246215,0.0365447963744493
"V68_1",-1.01509521764536,1.09768229983883,1.97474862065954,0.494893274695458,-0.438537556493392
"V69_0",0.0978050234256795,-0.107907718857794,-0.128504476550247,-0.0386827923954138,0.0448133975322922
"V69_1",-0.992022380460464,1.0944925769862,1.30340254786679,0.392354037153482,-0.454535889256107
"V70_0",0.0842353339303953,-0.0887568217736195,-0.192202194574797,-0.0512423366900728,0.0315470118619795
"V70_1",-1.01082400716474,1.06508186128343,2.30642633489756,0.614908040280873,-0.378564142343754
"V71_0",0.0842353339303953,-0.0887568217736195,-0.192202194574797,-0.0512423366900728,0.0315470118619795
"V71_1",-1.01082400716474,1.06508186128343,2.30642633489756,0.614908040280873,-0.378564142343754
"V72_0",0.0931703626623367,-0.116586809722277,-0.15041014767234,-0.048607617294964,0.0229996659267782
"V72_1",-1.11804435194804,1.39904171666732,1.80492177206808,0.583291407539568,-0.275995991121339
"V73_0",0.243330711271895,-0.190982693026975,0.098918613160958,-0.00233175286432347,0.0446783952992096
"V73_1",-0.873127846328562,0.685290839685027,-0.35494325898932,0.00836687792492534,-0.160316594897164
"V74_0",0.140774881994609,-0.141110586215172,-0.0380535034341772,-0.017884351452813,0.0417102716543475
"V74_1",-0.957269197563342,0.959551986263167,0.258763823352405,0.121613589879129,-0.283629847249563
"V75_0",0.1907438942294,-0.206782250752868,-0.18510293854105,-0.0843424217694035,0.0199585257576162
"V75_1",-1.0490914182617,1.13730237914077,1.01806616197577,0.463883319731719,-0.109771891666889
"V76_0",0.193582790286347,-0.174226231526236,-0.169934442569759,-0.0603118198016169,0.00593089736964507
"V76_1",-0.967913951431733,0.871131157631178,0.849672212848792,0.301559099008084,-0.0296544868482253
"V77_0",0.106875365177305,-0.0987524202844458,0.0579140823396227,-0.00467663018055638,-0.000104323530468011
"V77_1",-0.935159445301419,0.864083677488901,-0.506748220471699,0.0409205140798683,0.000912830891594888
"V78_0",0.207287031287383,-0.216857635178829,0.107621540087812,-0.033430382530123,-0.0327686375262699
"V78_1",-1.03643515643692,1.08428817589414,-0.538107700439059,0.167151912650615,0.16384318763135
"V79_0",0.0842353339303953,-0.0887568217736195,-0.192202194574797,-0.0512423366900728,0.0315470118619795
"V79_1",-1.01082400716474,1.06508186128343,2.30642633489756,0.614908040280873,-0.378564142343754
"V80_0",0.103129928322789,-0.119392595829369,-0.149402168884096,-0.0434077759516779,0.0382943339322429
"V80_1",-1.04603213013114,1.21098204341217,1.51536485582441,0.440278870367019,-0.388413958455606
"V81_0",0.0773174382708137,-0.0691457089070563,-0.142525891863097,-0.0271572938301373,0.0415044337677208
"V81_1",-0.927809259249763,0.829748506884675,1.71031070235716,0.325887525961648,-0.49805320521265
"V82_0",0.0818367943511195,-0.0791167143854473,-0.112755996320674,-0.023512482888982,0.0308512757917519
"V82_1",-0.982041532213432,0.949400572625367,1.35307195584808,0.282149794667784,-0.370215309501022
"V83_0",0.0889791725168769,-0.106957577015653,-0.114906053473734,-0.0324363428512692,0.0290036175208107
"V83_1",-1.06775007020252,1.28349092418784,1.3788726416848,0.38923611421523,-0.348043410249729
"V84_0",0.0889791725168769,-0.106957577015653,-0.114906053473734,-0.0324363428512692,0.0290036175208107
"V84_1",-1.06775007020252,1.28349092418784,1.3788726416848,0.38923611421523,-0.348043410249729
"V85_0",0.165633407053228,-0.17531890766726,0.175562065646233,0.0242163377494256,0.0744283283323254
"V85_1",-0.757181289386183,0.80145786362176,-0.802569442954209,-0.110703258283088,-0.340243786662059
"V86_0",0.0921340255735102,-0.116941921357284,-0.0110896921655357,0.00321329451208856,0.0719056835047296
"V86_1",-0.706360862730245,0.896554730405845,0.0850209732691069,-0.0246352579260124,-0.551276906869595
"V87_0",0.194361174087667,-0.194469520945591,-0.082637825152934,-0.051453307627123,0.0407759541745094
"V87_1",-0.971805870438337,0.972347604727953,0.41318912576467,0.257266538135615,-0.203879770872547
"V88_0",0.348463883608632,-0.306476288713544,0.163316199816926,-0.0294722170052036,-0.029012487450971
"V88_1",-0.945830541223429,0.831864212222476,-0.443286828074514,0.0799960175855526,0.078748180224064
"V89_0",0.279853600060084,-0.252170686301042,0.188505287487767,-0.0157880326021533,0.0146577756210103
"V89_1",-0.932845333533616,0.840568954336805,-0.628350958292557,0.0526267753405109,-0.0488592520700345
"V90_0",0.326994250916269,-0.292200508973031,0.167431861700878,-0.0244520503421681,-0.0128261839305669
"V90_1",-0.948283327657179,0.847381476021789,-0.485552398932546,0.0709109459922876,0.0371959333986441
"V91_0",0.147914904013873,-0.156296262435836,0.0326793014110699,-0.0250243054757796,0.0176829908698623
"V91_1",-1.00582134729434,1.06281458456369,-0.222219249595275,0.170165277235302,-0.120244337915063
"V92_0",0.124101353976111,-0.149294952334247,-0.079404605142712,-0.0382201396705556,0.0166307649987891
"V92_1",-1.08588684729097,1.30633083292467,0.694790294998729,0.334426222117362,-0.145519193739404
"V93_0",0.137452270154561,-0.159928631837741,0.052304866111946,-0.0214780999950699,0.00802705128602369
"V93_1",-1.05380073785163,1.22611951075601,-0.40100397352492,0.164665433295536,-0.0615407265261818
"V94_0",0.199793364344265,-0.22778049938791,0.175799247631573,0.00250739741697662,0.0439612916641362
"V94_1",-0.839132130245913,0.956678097429223,-0.738356840052607,-0.0105310691513019,-0.184637424989372
"V95_0",0.228584164807461,-0.244672415035203,0.228928520945937,0.0168522771923189,0.0652236485679797
"V95_1",-0.820213767838538,0.877942195126317,-0.821449398688361,-0.0604699358077325,-0.234037797802751
"V96_0",0.152334770236185,-0.171391625721958,0.0649869258879077,-0.0260596360399616,0.0129141443511759
"V96_1",-1.03587643760606,1.16546305490931,-0.441911096037772,0.177205525071739,-0.0878161815879965
"V97_0",0.244464089135475,-0.253062568760327,0.144669194953003,-0.0336514615129058,-0.0438315756149544
"V97_1",-1.02674917436899,1.06286278879338,-0.607610618802611,0.141336138354204,0.184092617582808
"V98_0",0.168412153168205,-0.181560348653055,0.0800860030053124,-0.0309633017920349,0.00518161012527629
"V98_1",-1.02578311475179,1.10586757815952,-0.487796563759629,0.188594656369667,-0.0315607162175919
"V99_0",0.196095423985212,-0.196453669454358,0.198500581549844,-0.0146182615126034,-0.0266554183111866
"V99_1",-0.98047711992606,0.98226834727179,-0.992502907749222,0.0730913075630172,0.133277091555933
"V100_0",0.104635971843429,-0.124928715457274,0.0393345737822463,-0.0243897889387972,0.0067434183738641
"V100_1",-1.06130771441193,1.26713411392378,-0.398964962648498,0.247382144950657,-0.0683975292206215
"V101_0",0.120408436281082,-0.1164100995773,0.112110223449864,0.0042099112507048,0.0263366238888871
"V101_1",-0.923131344821631,0.89247743009263,-0.85951171311562,-0.0322759862554033,-0.201914116481468
"V102_0",0.0794572145197275,-0.0873894026587117,-0.013401463690399,-0.00826140145556021,0.0364518983135924
"V102_1",-0.953486574236731,1.04867283190454,0.160817564284789,0.0991368174667224,-0.437422779763109
"V103_0",0.0975867550168288,-0.139738533779776,0.153816219873725,0.014896985562452,0.0622678340480593
"V103_1",-0.748165121795688,1.07132875897828,-1.17925768569856,-0.114210222645465,-0.477386727701788
"V104_0",0.0475535325461793,-0.0775107851649327,0.0695625406625026,0.0122143528407309,0.0682669201913046
"V104_1",-0.570642390554152,0.930129421979192,-0.834750487950031,-0.146572234088771,-0.819203042295655
"V105_0",0.0873159447345971,-0.106503664025776,-0.0086754671348687,-0.0229629227716615,0.0202386936484142
"V105_1",-1.04779133681517,1.27804396830931,0.104105605618424,0.275555073259938,-0.242864323780971
"V106_0",0.219745153783816,-0.22089196606096,0.139149618965683,-0.0201821646988728,-0.0268848114066334
"V106_1",-1.0045492744403,1.0097918448501,-0.63611254384312,0.0922613243377044,0.122901995001753
"V107_0",0.27444211506313,-0.271774997912254,0.17771742533049,-0.0334373915505526,-0.0164120805314951
"V107_1",-0.984762883461818,0.9751926395675,-0.637691937950581,0.119981228504924,0.0588904066130118
"V108_0",0.26384746836415,-0.245656115771981,0.226912037456042,-0.0098823092414306,-0.00864197672884813
"V108_1",-0.946746798247831,0.881471944828873,-0.814213781459915,0.0354600508074862,0.0310094459093963
"V109_0",0.139075285150527,-0.138875669823326,0.163557261448805,0.00673847136658856,0.0168451647597491
"V109_1",-0.945711939023584,0.944354554798619,-1.11218937785188,-0.045821605292802,-0.114547120366294
"V110_0",0.162881835202269,-0.189403074489439,0.0699206530704376,-0.0329147432012399,-0.0355124237974319
"V110_1",-1.10759647937543,1.28794090652818,-0.475460440878975,0.223820253768431,0.241484481822537
"V111_0",0.196919200884892,-0.196077729609464,0.22567728059363,0.0197965996879203,0.0653258049443849
"V111_1",-0.763061903428954,0.759801202236672,-0.874499462300318,-0.0767118237906911,-0.253137494159491
"V112_0",0.128274571399033,-0.135013776459737,0.105612174389851,-0.00533307014233733,0.0213376999785273
"V112_1",-0.983438380725919,1.03510561952465,-0.809693336988862,0.0408868710912527,-0.163589033168709
"V113_0",0.221716748146177,-0.247889977247692,-0.0133682276235112,-0.0224217364012312,0.0418865424057693
"V113_1",-0.859152399066435,0.960573661834806,0.0518018820411055,0.0868842285547711,-0.162310351822356
"V114_0",0.361215709185489,-0.297359948744724,0.0333761857622224,-0.0227427099527014,0.0099813474817441
"V114_1",-0.919458168835789,0.756916233168389,-0.0849575637583841,0.0578905344250582,-0.0254070663171669
"V115_0",0.416596652780137,-0.353259858382618,-0.00928743497040107,-0.0514963693180357,-0.00677600717272042
"V115_1",-0.937342468755309,0.79483468136089,0.0208967286834024,0.11586683096558,0.0152460161386209
"V116_0",0.473203138560497,-0.42375178188849,-0.00533506200047183,-0.0442631704735571,0.0708346621750387
"V116_1",-0.845005604572317,0.756699610515162,0.00952689642941414,0.0790413758456379,-0.126490468169712
"V117_0",0.19617029010593,-0.204677157231222,-0.0750894948881517,-0.0194519983375381,0.0485844877553337
"V117_1",-0.823915218444907,0.859644060371132,0.315375878530237,0.08169839301766,-0.204054848572402
"V118_0",0.3079845914851,-0.294334899847288,0.00777165151966545,-0.0104411661847602,0.0582378126122779
"V118_1",-0.835958176888128,0.79890901387121,-0.0210944826962346,0.0283403082157777,-0.158074062804754
"V119_0",0.337620971618546,-0.334138958806943,0.0245395951466985,-0.0249153206435614,0.0478166139957248
"V119_1",-0.859398836847208,0.850535531508582,-0.0624644240097779,0.0634208161836109,-0.121715017443663
"V120_0",0.139789699714699,-0.14297185488666,0.226578754017415,0.0375838496316712,0.0787896355135267
"V120_1",-0.698948498573494,0.714859274433298,-1.13289377008708,-0.187919248158356,-0.393948177567633
"V121_0",0.142107372891619,-0.14753240949251,0.235325630813748,0.038606017912331,0.0827052732962788
"V121_1",-0.710536864458096,0.73766204746255,-1.17662815406874,-0.193030089561655,-0.413526366481394
"V122_0",0.37050323669223,-0.348267872387032,0.00287212688377519,-0.0362913409364238,0.0867408822453365
"V122_1",-0.833632282557516,0.783602712870821,-0.00646228548849417,0.0816555171069535,-0.195166985052007
"V123_0",0.380307243828207,-0.32295865655869,0.275022635874777,0.0207736745948071,0.0201062619426353
"V123_1",-0.8062513569158,0.684672351904422,-0.583047988054527,-0.0440401901409912,-0.0426252753183868
"V124_0",0.346428118481625,-0.32840938430312,0.279222604637916,0.00106300746083826,0.036031366350903
"V124_1",-0.828415065934321,0.785326788550939,-0.667706228481973,-0.00254197436287406,-0.0861619630130288
"V125_0",0.315433147776855,-0.285163473354707,0.329516536681734,0.0187215485855452,0.0183089742367089
"V125_1",-0.80292073979563,0.725870659448345,-0.83876936609896,-0.0476548509450242,-0.0466046616934408
"V126_0",0.181382438614174,-0.177913311264875,-0.0572846424180899,-0.0397747979997298,-0.00759725580066155
"V126_1",-0.997603412377955,0.978523211956813,0.315065533299495,0.218761388998514,0.0417849069036385
"V127_0",0.296749077205654,-0.243368435120934,0.0288021019703004,-0.022242208359822,0.00801422676254468
"V127_1",-0.921483976585979,0.755723035375533,-0.0894381061183012,0.0690679101699735,-0.0248862831047439
"V128_0",0.249853225515875,-0.22562917530164,0.2335110811476,0.0389913502056429,0.0686135125702578
"V128_1",-0.77586001607561,0.700637965410355,-0.725113357247813,-0.121078403270154,-0.213063012718169
"V129_0",0.274418581029855,-0.254810637750224,0.245974344987573,0.0276880629680151,0.059480514346545
"V129_1",-0.795813884986578,0.738950849475651,-0.71332560046396,-0.0802953826072437,-0.172493491604981
"V130_0",0.170069928749466,-0.189160092278562,0.23268392449716,0.0202685709065097,0.0567189388297728
"V130_1",-0.777462531426132,0.864731850416284,-1.06369794055845,-0.0926563241440443,-0.259286577507533
"V131_0",0.0713636939378047,-0.0900210559368506,0.132616056706603,0.0233846024222636,0.0579320269696163
"V131_1",-0.624432321955792,0.787684239447443,-1.16039049618278,-0.204615271194806,-0.506905235984143
"V132_0",0.163010691734956,-0.168332598648112,-0.178717453543486,-0.059010826219141,0.0482233573815707
"V132_1",-0.992883304203823,1.02529855540214,1.08855176249214,0.359429577880222,-0.293724085869567
"V133_0",0.115945681210314,-0.129273233365814,-0.0369086991301227,-0.0348533099988345,0.028912529909576
"V133_1",-1.01452471059025,1.13114079195088,0.322951117388574,0.304966462489802,-0.25298463670879
"V134_0",0.123276368365996,-0.117388279400519,-0.144909987963284,-0.0435301164117812,0.0513869017160734
"V134_1",-0.945118824139304,0.899976808737312,1.11097657438518,0.333730892490322,-0.393966246489896
"V135_0",0.156143391002248,-0.151707766718187,-0.0644540080539351,-0.0364145381830199,0.0511919568524963
"V135_1",-0.951055199740965,0.924038215465321,0.392583503601241,0.221797641660212,-0.311805555374296
"V136_0",0.14736606950724,-0.154003011190441,-0.17514796915013,-0.0597739784818501,0.0435896420861379
"V136_1",-1.00208927264923,1.047220476095,1.19100619022088,0.406463053676581,-0.296409566185737
"V137_0",0.163010691734956,-0.168332598648112,-0.178717453543486,-0.059010826219141,0.0482233573815707
"V137_1",-0.992883304203823,1.02529855540214,1.08855176249214,0.359429577880222,-0.293724085869567
"V138_0",0.172781781381929,-0.168588992803957,-0.114042717638392,-0.0422020899151387,0.0606526115510857
"V138_1",-0.95029979760061,0.927239460421762,0.627234947011156,0.232111494533263,-0.333589363530972
"V139_0",0.189315609843473,-0.211963047607972,0.167483781378985,0.0109140447182784,0.0904328283557522
"V139_1",-0.795125561342587,0.890244799953484,-0.703431881791736,-0.0458389878167694,-0.379817879094159
"V140_0",0.103221631780914,-0.12885912566322,0.100075791694405,0.0192023225156374,0.0867421236602575
"V140_1",-0.701907096110217,0.876242054509898,-0.680515383521951,-0.130575793106334,-0.589846440889751
"V141_0",0.149723182555525,-0.160104517200502,-0.0312570156867094,-0.0441248892510587,0.0201061600417396
"V141_1",-1.01811764137757,1.08871071696341,0.212547706669624,0.300049246907199,-0.136721888283829
"V142_0",0.236015008877879,-0.228513566628324,0.068021619170175,-0.0360717125834029,-0.0230916253191473
"V142_1",-0.991263037287093,0.959756979838962,-0.285690800514735,0.151501192850292,0.0969848263404185
"V143_0",0.299095214649435,-0.29191214861445,0.149610344493561,-0.0427418128876419,-0.0461172344564496
"V143_1",-0.996984048831449,0.973040495381498,-0.498701148311871,0.142472709625473,0.153724114854832
"V144_0",0.244681958314234,-0.260133067882843,0.14819315983703,-0.0421656171430132,-0.0248379126978993
"V144_1",-1.02766422491978,1.09255888510794,-0.622411271315526,0.177095592000655,0.104319233331177
"V145_0",0.163010691734956,-0.168332598648112,-0.178717453543486,-0.059010826219141,0.0482233573815707
"V145_1",-0.992883304203823,1.02529855540214,1.08855176249214,0.359429577880222,-0.293724085869567
"V146_0",0.101624986830595,-0.116099253339908,-0.0354873444211808,-0.0359244630986165,0.0247465888867952
"V146_1",-1.03076772356746,1.17757814101907,0.359943064843405,0.364376697143111,-0.25100111585178
"V147_0",0.139097609017947,-0.110962346631775,0.00902164943608282,-0.00608578263508661,0.0640534995009376
"V147_1",-0.847230891291134,0.675861565848085,-0.0549500465652313,0.0370679487773458,-0.390144042414802
"V148_0",0.152334770236185,-0.171391625721958,0.0649869258879077,-0.0260596360399616,0.0129141443511759
"V148_1",-1.03587643760606,1.16546305490931,-0.441911096037772,0.177205525071739,-0.0878161815879965
"V149_0",0.138711532581422,-0.161882018828149,0.0367806027786548,-0.0305054906389248,0.00882988203874379
"V149_1",-1.06345508312424,1.24109547768248,-0.281984621303021,0.233875428231756,-0.0676957622970356
"V150_0",0.276065256935781,-0.262333949946177,0.20140337603151,0.0133589534425548,0.0781039665700645
"V150_1",-0.800589245113764,0.760768454843913,-0.58406979049138,-0.0387409649834088,-0.226501503053187
"V151_0",0.212780681625249,-0.18708537882455,-0.209946286778573,-0.0755864209915788,-0.00626291669827967
"V151_1",-0.97271168742971,0.855247446055085,0.959754453844904,0.345537924532932,0.0286304763349928
"V152_0",0.262373132925031,-0.256300579495567,-0.167419031260653,-0.0838533313551585,-0.016410680144415
"V152_1",-1.01669589008449,0.993164745545322,0.64874874613503,0.324931659001239,0.063591385559608
"V153_0",0.238795586170934,-0.225753305460855,-0.214008932800256,-0.0816970508541153,-0.0119912888062439
"V153_1",-1.00294146191792,0.948163882935591,0.898837517761077,0.343127613587284,0.0503634129862244
"V154_0",0.369784133338992,-0.310142428201607,-0.190844162835371,-0.0857732663355248,-0.00815962198887496
"V154_1",-0.941268703044705,0.78945345360409,0.485785141762762,0.218331950672245,0.0207699468807727
"V155_0",0.168233767339546,-0.168133720136588,-0.142660586390829,-0.0675397518465677,-0.0139602639569554
"V155_1",-1.02469658288633,1.02408720446831,0.86893266256232,0.411378488520003,0.0850306986469102
"V156_0",0.285706404402627,-0.240610681602146,-0.214678825546908,-0.0854949449777228,-0.0107173436609426
"V156_1",-0.95235468134209,0.802035605340486,0.71559608515636,0.284983149925743,0.0357244788698086
"V157_0",0.25684269472784,-0.247660218644893,-0.158863439121119,-0.0768470434560811,0.0055154201359429
"V157_1",-0.995265442070379,0.959683347248961,0.615595826594335,0.297782293392314,-0.0213722530267786
"V158_0",0.109874388576989,-0.126491186258387,0.00225754631771944,-0.030396770398258,-0.0252251159580374
"V158_1",-1.11444022699517,1.28298203204936,-0.0228979697940113,0.30831009975376,0.255854747574379
"V159_0",0.219523027910661,-0.20174949864361,-0.162596575719406,-0.080279096305199,-0.021694328635112
"V159_1",-1.00353384187731,0.922283422370788,0.743298631860142,0.366990154538052,0.0991740737605123
"V160_0",0.241846535971628,-0.229090146385095,-0.0228367107525454,-0.054030916406005,-0.055491554781297
"V160_1",-1.01575545108084,0.962178614817398,0.0959141851606905,0.226929848905221,0.233064530081447
"V161_0",0.242338067619068,-0.203022251418713,-0.212060833828448,-0.0801902799740346,0.00438484951886728
"V161_1",-0.939060012023887,0.786711224247511,0.821735731085235,0.310737334899384,-0.0169912918856107
"V162_0",0.346721450569432,-0.28422194419351,-0.214284122435255,-0.0876772218066302,-0.0235204154624429
"V162_1",-0.941101080117029,0.771459562810956,0.581628332324264,0.237981030617996,0.0638411276837735
"V163_0",0.291966985784256,-0.230371503769656,-0.178802588743232,-0.0651176265319363,0.01230889302382
"V163_1",-0.906634324277427,0.71536414328472,0.555229091360563,0.202207366599171,-0.0382223520213359
"V164_0",0.322209472945074,-0.2684600441258,0.0504906409373666,-0.0321128727553541,-0.0443936039008285
"V164_1",-0.934407471540715,0.778534127964819,-0.146422858718363,0.093127330990527,0.128741451312403
"V165_0",0.152466940093151,-0.154107119545239,-0.0877441685315385,-0.0568313755187361,-0.0134647979412702
"V165_1",-1.03677519263343,1.04792841290763,0.596660346014462,0.386453353527406,0.091560626000637
"V166_0",0.246181908543,-0.239493880505062,-0.0782708171252606,-0.0662247206510957,-0.0556815368528365
"V166_1",-1.0339640158806,1.00587429812126,0.328737431926095,0.278143826734602,0.233862454781913
"V167_0",0.12320286827281,-0.13633454862164,-0.0354205195652473,-0.0369079408962148,-0.018636959366775
"V167_1",-1.07802509738709,1.19292730043935,0.309929546195914,0.32294448284188,0.163073394459282
"V168_0",0.230419004353504,-0.237854124441394,-0.0861186502622682,-0.0698240117927716,-0.0519219815674776
"V168_1",-1.05334401990173,1.08733314030351,0.393685258341798,0.319195482481241,0.237357630022755
"V169_0",0.370879941709407,-0.306084466798747,-0.091563705490095,-0.0623988051573444,-0.0452301459994227
"V169_1",-0.944058033442128,0.7791240973059,0.233071250338423,0.158833322218695,0.115131280725803
"V170_0",0.183471831177328,-0.168969058912802,-0.133450022098072,-0.047559127529991,-0.0346895325130761
"V170_1",-1.0090950714753,0.929329824020412,0.733975121539395,0.26157520141495,0.190792428821918
"V171_0",0.280931369674902,-0.265170843069253,-0.136212702391572,-0.0706614330473731,-0.0553623056131163
"V171_1",-1.00804785589229,0.951495378072027,0.488763226228583,0.253549847993516,0.198652978964712
"V172_0",0.318300578498176,-0.296108703527256,0.00561749922250493,-0.0573407797120507,-0.0663626136951646
"V172_1",-0.988407059546966,0.919495447795162,-0.0174438133751469,0.178058210684789,0.206073379369195
"V173_0",0.32515092071058,-0.253803608068394,0.301760406003578,0.010112976689735,-0.0161775763479329
"V173_1",-0.882552499071575,0.688895507614212,-0.81906395915257,-0.0274495081578521,0.0439105643729606
"V174_0",0.304757206000982,-0.2719296153964,0.284034310212731,-0.0050789739760863,-0.0492601398259099
"V174_1",-0.946351323897785,0.844413016230924,-0.882001279081637,0.0157715507678469,0.152965697354141
"V175_0",0.384002417752213,-0.347375064870687,-0.106653583056955,-0.0108231678806896,-0.0770737014739832
"V175_1",-0.864005439942478,0.781593895959045,0.239970561878149,0.0243521277315514,0.173415828316462
"V176_0",0.357145263107129,-0.321321964404349,0.149748813734783,-0.042926760055729,-0.0712851843749208
"V176_1",-0.969394285576494,0.872159617668948,-0.406461065851555,0.116515491579836,0.193488357589071
"V177_0",0.24168550158526,-0.249040817782424,0.169568155376619,-0.0407679748783388,-0.0369988564696869
"V177_1",-1.01507910665809,1.04597143468618,-0.7121862525818,0.171225494489023,0.155395197172685
"V178_0",0.277407613057253,-0.275018357705094,0.205241874136134,-0.0359977167106688,-0.04444509095577
"V178_1",-0.995403788028965,0.986830577647691,-0.736456136606129,0.12916827760887,0.159479444017763
"V179_0",0.247509041905629,-0.239735086281625,-0.181726216518019,-0.0855143987979678,-0.052471505714712
"V179_1",-1.03953797600364,1.00688736238282,0.763250109375681,0.359160474951465,0.22038032400179
"V180_0",0.34701160009213,-0.282378907472512,-0.174188989683637,-0.0822340450119656,-0.0405695169335475
"V180_1",-0.941888628821494,0.766457034568246,0.472798686284159,0.223206693603907,0.1101172602482
"V181_0",0.45416791830441,-0.359853095913175,0.0999570979824371,-0.0279453875978008,-0.0212584145957176
"V181_1",-0.90833583660882,0.71970619182635,-0.199914195964874,0.0558907751956017,0.0425168291914353
"V182_0",0.209417035474188,-0.226207004818778,0.196302033936242,-0.0307108262563528,-0.0487707819771859
"V182_1",-1.04708517737094,1.13103502409389,-0.981510169681209,0.153554131281764,0.243853909885929
"V183_0",0.279261751086441,-0.275849468933608,0.238370195071157,-0.0251359201926039,-0.0628634635249199
"V183_1",-1.00205687154546,0.989812800291184,-0.855328347020035,0.0901935959852259,0.225568898530595
"V184_0",0.158348399745336,-0.174680190709726,0.0841418484954802,-0.0319121735118193,-0.0398387799778649
"V184_1",-1.07676911826828,1.18782529682613,-0.572164569769265,0.217002779880371,0.270903703849481
"V185_0",0.317918863150037,-0.270350280265373,0.244791128226491,-0.016311606674104,-0.0292269465299043
"V185_1",-0.921964703135109,0.784015812769582,-0.709894271856824,0.0473036593549014,0.0847581449367225
"V186_0",0.339384281087034,-0.313177107291073,0.114276425850983,-0.0482456136635194,-0.0702452110424158
"V186_1",-0.984214415152397,0.908213611144112,-0.331401634967851,0.139912279624206,0.203711112023006
"V187_0",0.223329287233719,-0.209282626969428,0.0135378243529985,-0.0508662512749875,-0.0786629908992064
"V187_1",-1.020933884497,0.956720580431672,-0.0618871970422792,0.232531434399943,0.359602244110658
"V188_0",0.146623444749632,-0.149976237776376,-0.122592838705821,-0.0333468061288177,0.0347517060648816
"V188_1",-0.997039424297497,1.01983841687936,0.833631303199582,0.22675828167596,-0.236311601241195
"V189_0",0.108634673671777,-0.0832900700182621,-0.0824782222932975,-0.0230140741904957,-0.0107261086366358
"V189_1",-0.950553394628046,0.728788112659792,0.721684445066353,0.201373149166837,0.0938534505705632
"V190_0",0.084422417131476,-0.0919084394805413,-0.0887270445720488,-0.0238973822133802,0.0147063586623766
"V190_1",-1.01306900557771,1.10290127376649,1.06472453486459,0.286768586560562,-0.176476303948519
"V191_0",0.0828461695594027,-0.0921077645589428,-0.0263800036305381,-0.0100826277319609,0.0222050035922565
"V191_1",-0.994154034712832,1.10529317470731,0.316560043566458,0.12099153278353,-0.266460043107077
"V192_0",0.115368139315231,-0.133882295814335,0.185299533391338,0.030524565652506,0.0808278002367672
"V192_1",-0.702696848556404,0.815464892687315,-1.12864261247452,-0.1859223544289,-0.492314783260309
"V193_0",0.0395492056488183,-0.0546841081083247,0.0598338724016376,0.0210652947756649,0.0726723253361899
"V193_1",-0.474590467785819,0.656209297299897,-0.718006468819651,-0.252783537307978,-0.872067904034279
"V194_0",0.128843191740104,-0.133780698937592,-0.0461632197351508,-0.0339622723300078,0.0263913932231055
"V194_1",-0.987797803340798,1.02565202518821,0.35391801796949,0.260377421196726,-0.202334014710476
"V195_0",0.176065550486467,-0.15776727994736,0.0600086456501732,-0.0157482405608349,-0.0264142668230724
"V195_1",-0.968360527675571,0.867720039710481,-0.330047551075953,0.0866153230845918,0.145278467526898
"V196_0",0.193065174873589,-0.2126050937085,0.113540257856063,-0.0337895420597527,-0.0254142267070503
"V196_1",-1.06185846180474,1.16932801539675,-0.624471418208348,0.18584248132864,0.139778246888777
"V197_0",0.264870111193899,-0.268633347731982,0.245734291943397,0.00882572527784622,0.0460616708014086
"V197_1",-0.822491397917897,0.834177237694049,-0.76306964340318,-0.0274061995469962,-0.14303360933069
"V198_0",0.229549184748392,-0.220586091881941,0.179914879297249,-0.00286173022759787,0.0104558324660786
"V198_1",-0.964106575943246,0.926461585904152,-0.755642493048445,0.012019266955911,-0.04391449635753
"V199_0",0.0850798260539135,-0.130090945461166,0.124705689562882,0.0100728451577158,0.0502597769838071
"V199_1",-0.744448477971743,1.1382957727852,-1.09117478367522,-0.0881373951300135,-0.439773048608312
"V200_0",0.0938725705175081,-0.0992006148959282,0.1647136958663,0.0320049266037271,0.074556720904669
"V200_1",-0.638333479519055,0.67456418129231,-1.12005313189084,-0.217633500905344,-0.50698570215175
"V201_0",0.129931049725648,-0.138953353953737,0.0210778452784341,-0.0222081752975105,0.0253903105238762
"V201_1",-0.996138047896631,1.06530904697865,-0.161596813801328,0.170262677280914,-0.194659047349717
"V202_0",0.181925484374364,-0.114697436486153,0.23077384284278,0.0173097738722703,-0.0432824625040167
"V202_1",-0.831659357139951,0.524331138222415,-1.05496613870985,-0.0791303948446644,0.197862685732648
"V203_0",0.226057428482383,-0.193296994435224,0.121402861276413,-0.0111245666095807,-0.0429550715736059
"V203_1",-0.949441199626009,0.811847376627943,-0.509892017360934,0.0467231797602391,0.180411300609145
"V204_0",0.184930774902732,-0.190882747930514,0.173147864602888,-0.0252972111422353,-0.0377032437395567
"V204_1",-1.01711926196503,1.04985511361783,-0.952313255315883,0.139134661282294,0.207367840567562
"V205_0",0.114184854191155,-0.120520877757423,0.144925944570447,-0.00381226140617499,-0.00412136235796365
"V205_1",-0.999117474172608,1.05455768037745,-1.26810201499141,0.0333572873040312,0.0360619206321818
"V206_0",0.0645886016592044,-0.090198698618342,-0.0207069651772582,-0.00498760020204404,0.0569167213076715
"V206_1",-0.655112959686216,0.914872514557468,0.210027789655048,0.0505885163350182,-0.577298173263525
"V207_0",0.0834144592441914,-0.0964651095473304,0.0852704724625823,-0.00294596609570253,0.0145637408109039
"V207_1",-1.0009735109303,1.15758131456797,-1.02324566955099,0.0353515931484305,-0.174764889730846
"V208_0",0.0943394858639754,-0.0820636094215215,0.0347417448712124,-0.0107207267340116,-0.0115543366503222
"V208_1",-0.956871928048892,0.832359466989718,-0.352380555122297,0.108738799730689,0.117193986024696
"V209_0",0.162169191622608,-0.118158694073526,0.0766336251093952,-0.0158367360717461,-0.0415059721243357
"V209_1",-0.891930553924342,0.649872817404393,-0.421484938101674,0.0871020483946037,0.228282846683847
"V210_0",0.155655483963069,-0.128004033710973,0.0637257579091655,-0.0197737017633268,-0.0494752476906887
"V210_1",-0.94808340232051,0.779660932603198,-0.388147798174008,0.120439819831172,0.301349235934195
"V211_0",0.350309325062869,-0.312291450978731,0.114910010675388,-0.0332140395180891,-0.0302872931665668
"V211_1",-0.950839596599216,0.847648224085126,-0.311898600404624,0.0901523929776704,0.0822083671663957
"V212_0",0.1185271027328,-0.116414688798969,-0.0260787449429204,-0.0286685380885825,-0.0281378314341558
"V212_1",-1.037112148912,1.01862852699098,0.228189018250553,0.250849708275097,0.246206025048863
"V213_0",0.141742797652224,-0.131855969983592,0.0241072884085539,-0.0173574591435131,-0.0168859415878347
"V213_1",-0.963851024035121,0.896620595888429,-0.163929561178167,0.118030722175889,0.114824402797276
"V214_0",0.192435800696095,-0.150709237767158,0.10334870203517,0.0105905409038101,0.0181042343417357
"V214_1",-0.879706517467861,0.688956515507007,-0.472451209303635,-0.0484139012745606,-0.0827622141336488
"V215_0",0.237619746085124,-0.233199591311149,0.292476223944731,0.0160840711400729,0.0416047141683956
"V215_1",-0.792065820283746,0.777331971037163,-0.974920746482439,-0.0536135704669098,-0.138682380561319
"V216_0",0.199685188829022,-0.225323516905748,0.217643892381865,-0.00420384119185122,0.00896679157559629
"V216_1",-0.838677793081892,0.946358771004144,-0.914104348003833,0.0176561330057751,-0.0376605246175042
"V217_0",0.119370370695276,-0.0915851774937368,0.0197382859181365,-0.0201173617594651,-0.0337661045725356
"V217_1",-0.915172841997117,0.702153027451983,-0.151326858705713,0.154233106822566,0.25887346838944
"V218_0",0.311531783443724,-0.280069728762374,0.218605056237606,-0.022943038175365,-0.0864427419235472
"V218_1",-0.967388169641038,0.869690210367372,-0.678826227264145,0.0712441711761334,0.268427461762594
"V219_0",0.248832642530368,-0.230701982974076,0.223268789585952,-0.023411624717895,-0.0598845473694691
"V219_1",-0.964226489805176,0.893970184024546,-0.865166559645565,0.0907200457818433,0.232052621056693
"V220_0",0.251916675795232,-0.239647717560539,0.261904306200427,-0.0191852108501584,-0.0595497591564033
"V220_1",-0.976177118706522,0.928634905547089,-1.01487918652666,0.074342692044364,0.230755316731063
"V221_0",0.0904527132568057,-0.0694600868049829,-0.0386518495832427,-0.0125844806717336,0.00118719704869472
"V221_1",-0.917448948747601,0.704523737593399,0.392040188630033,0.127642589670441,-0.0120415700653322
"V222_0",0.209788343411085,-0.167525717978295,0.2397661853268,0.0118942288610168,-0.0133828626505911
"V222_1",-0.881111042326558,0.703608015508841,-1.00701797837256,-0.0499557612162704,0.0562080231324826
"V223_0",0.247295533958934,-0.226622563008732,0.24002626238996,-0.0182843074491112,-0.0554783123775417
"V223_1",-0.958270194090871,0.878162431658836,-0.930101766761093,0.0708516913653058,0.214978460462974
"V224_0",0.113947550430958,-0.117386228804288,0.15277505810202,-0.00993595004565087,-0.0405672691491789
"V224_1",-0.99704106627088,1.02712950203752,-1.33678175839267,0.086939562899445,0.354963605055315
"V225_0",0.15418011315924,-0.177069061013332,0.247034054560731,0.0198710618381113,0.0364687050212898
"V225_1",-0.770900565796201,0.885345305066657,-1.23517027280366,-0.0993553091905567,-0.182343525106449
"V226_0",0.241987772555497,-0.243533139260096,0.152364998089164,-0.0330046163649389,-0.0566627923381074
"V226_1",-1.01634864473309,1.0228391848924,-0.63993299197449,0.138619388732743,0.237983727820051
"V227_0",0.134156964141015,-0.131165589892497,0.0159929363666182,-0.0345685509362764,-0.0468483751795359
"V227_1",-1.02853672508112,1.00560285584248,-0.122612512144073,0.265025557178119,0.359170876376442
"V228_0",0.163917181556677,-0.163680606805074,0.120335039684301,-0.0307412103139909,-0.0582915523838614
"V228_1",-0.998404651299758,0.996963695994545,-0.732949787168015,0.187241917367035,0.355048546338065
"V229_0",0.111691784560171,-0.168576594617042,0.136406870459504,-0.0149521306069168,0.00536992315390465
"V229_1",-0.856303681627975,1.29242055873065,-1.0457860068562,0.114633001319695,-0.0411694108466023
"V230_0",0.295327079051307,-0.281140307272356,0.0433809905448252,-0.0431172259234918,-0.0369870719233606
"V230_1",-0.984423596837689,0.93713435757452,-0.144603301816084,0.143724086411639,0.123290239744535
"V231_0",0.0890872084145565,-0.0988073021343337,-0.0382287550760057,-0.022118201023208,-0.00718594589756693
"V231_1",-1.06904650097468,1.185687625612,0.458745060912068,0.265418412278496,0.086231350770803
"V232_0",0.250638002798738,-0.2002554178097,0.0930918469086603,-0.00270056236697538,-0.00949786050348561
"V232_1",-0.899348127689588,0.718563558023041,-0.334035450672251,0.00969025319914706,0.034080558277213
"V233_0",0.151317015472455,-0.160840434652887,0.18704706255288,0.0221938728612831,0.0414192386425783
"V233_1",-0.756585077362277,0.804202173264432,-0.9352353127644,-0.110969364306415,-0.207096193212891
"V234_0",0.153823353217023,-0.131650296353216,-0.128435827581598,-0.0410884058684579,0.00627564701938614
"V234_1",-0.936924060503686,0.80186998687868,0.782290949815189,0.250265744835152,-0.0382243954817157
"V235_0",0.293034477225964,-0.270690768454703,0.183207520353314,-0.0261505371883488,-0.0762723278537241
"V235_1",-0.976781590753213,0.902302561515677,-0.610691734511046,0.087168457294496,0.254241092845747
"V236_0",0.323767835033739,-0.283668350904053,0.250371572034885,-0.0236174753790455,-0.0489579578570856
"V236_1",-0.938926721597845,0.822638217621755,-0.726077558901167,0.0684906785992321,0.141978077785548
"V237_0",0.264683747822766,-0.240718863570447,0.268605923587355,-0.0116458529479088,-0.0461208075319026
"V237_1",-0.949747565716984,0.863755922223367,-0.963821255225214,0.0417880605777904,0.16549230937918
"V238_0",0.16582679294091,-0.174142227499604,0.0758183121084041,-0.0226483215051704,-0.0283209011824859
"V238_1",-1.01003592064009,1.0606844765885,-0.461802446478461,0.137948867349674,0.172500034475142
"V239_0",0.151830220283187,-0.100374394508192,0.129899162828036,0.0102397307771933,-0.0136047540251643
"V239_1",-0.835066211557528,0.552059169795055,-0.714445395554201,-0.0563185192745631,0.0748261471384037
"V240_0",0.208559040685389,-0.18659044541711,0.221886140026807,-0.0046175454809317,-0.0346438503161031
"V240_1",-0.953412757418921,0.852984893335359,-1.01433664012254,0.021108779341402,0.158371887159328
"V241_0",0.0920667006516633,-0.105449183466736,0.107158668105948,-0.015731599142877,-0.0359108913540529
"V241_1",-1.10480040781996,1.26539020160083,-1.28590401727138,0.188779189714524,0.430930696248634
"V242_0",0.149765941641671,-0.100344521231722,0.248150118149251,0.0290257484206663,-0.0110301075661957
"V242_1",-0.823712679029189,0.55189486677447,-1.36482564982088,-0.159641616313665,0.0606655916140762
"V243_0",0.101622475092823,-0.117513234010743,0.0396512941228967,-0.0126570941482607,0.0165053628331196
"V243_1",-1.03074224737006,1.1919199449661,-0.402177411817952,0.128379097789502,-0.167411537307356
"V244_0",0.119490506731315,-0.116752695032241,0.0723735672435545,-0.0242810942589389,-0.0497024709858361
"V244_1",-1.04554193389901,1.02158608153211,-0.633268713381102,0.212459574765715,0.434896621126066
"V245_0",0.240417460672411,-0.209517175350712,0.219241530004529,-0.0192167416063926,-0.0641791070963615
"V245_1",-0.931617660105595,0.81187905448401,-0.849560928767551,0.0744648737247713,0.248694039998401
"V246_0",0.0969772306172899,-0.103302938803421,0.105950154103097,-0.0109914565587675,-0.0243708556245658
"V246_1",-0.983626196261082,1.04778695072041,-1.07463727733141,0.111484773667499,0.247190107049167
"V247_0",0.111706888716671,-0.104183991426154,-0.159994166960753,-0.050907570731602,-0.00286025976741642
"V247_1",-0.977435276270874,0.911609924978848,1.39994896090659,0.445441243901517,0.0250272729648935
"V248_0",0.180771217768611,-0.139134742233553,-0.0875752057881305,-0.0331465950106038,-0.000586608685046577
"V248_1",-0.903856088843055,0.695673711167765,0.437876028940653,0.165732975053019,0.002933043425233
"V249_0",0.145318825140163,-0.135499612184708,-0.0961619794457083,-0.0430624163674255,-0.0167607615704727
"V249_1",-0.988168010953108,0.921397362856015,0.653901460230817,0.292824431298494,0.113973178679214
"V250_0",0.30626095959074,-0.255251721866741,-0.184283064629877,-0.080151876591971,-0.0290075415565814
"V250_1",-0.951020874518614,0.792623767901986,0.57224741121909,0.248892669417173,0.0900760500967528
"V251_0",0.146416668285608,-0.105633673669011,-0.190226915374581,-0.0446717341812138,-0.011334443178502
"V251_1",-0.891810615921427,0.643405103256706,1.15865484819063,0.27209147183103,0.0690370629963302
"V252_0",0.264444063124539,-0.263454640507204,-0.103044458327119,-0.0741013221604847,-0.0409404011376689
"V252_1",-1.02472074460759,1.02088673196541,0.399297276017588,0.287142623371878,0.158644054408467
"V253_0",0.238195675383357,-0.262346663542388,0.201050953974002,-0.00355564594281462,0.0132532711904435
"V253_1",-0.854702129316752,0.941361557416803,-0.721418128965536,0.0127584942653936,-0.0475558554480622
"V254_0",0.0850858653898323,-0.0930782475351501,0.0605377553890354,-0.0166261477235099,-0.0260749474185773
"V254_1",-1.02103038467799,1.1169389704218,-0.726453064668425,0.199513772682119,0.312899369022927
"V255_0",0.170473322486487,-0.103010971247986,-0.231661002367581,-0.049878697020062,-0.00505802635310834
"V255_1",-0.852366612432435,0.51505485623993,1.15830501183791,0.24939348510031,0.0252901317655417
"V256_0",0.323909619171335,-0.220286728991539,-0.0298333385019721,-0.0281956112948172,-0.062929235110371
"V256_1",-0.879183252036481,0.597921121548464,0.0809762045053528,0.0765309449430751,0.170807923871007
"V257_0",0.130070727684414,-0.118206165522744,0.0267600656764105,-0.0297302954525373,-0.0358295521247984
"V257_1",-0.997208912247174,0.906247269007704,-0.205160503519148,0.227932265136119,0.274693232956788
"V258_0",0.187582631829945,-0.19413143649043,0.174525673828323,-0.0285395645797962,-0.0493601999809996
"V258_1",-1.0317044750647,1.06772290069736,-0.959891206055777,0.156967605188879,0.271481099895498
"V259_0",0.139317769591261,-0.149621951217505,-0.187529821197061,-0.0730583007964194,-0.000148111587733203
"V259_1",-1.06810290019967,1.14710162600087,1.43772862917747,0.560113639439215,0.00113552217262119
"V260_0",0.194583732281184,-0.177562274353178,-0.15179777154113,-0.0665958758074394,-0.0191236273061523
"V260_1",-0.972918661405922,0.887811371765887,0.75898885770565,0.332979379037197,0.0956181365307618
"V261_0",0.137161583119066,-0.147965682310249,0.06056090153056,-0.0279482640028381,-0.0411736611856362
"V261_1",-1.05157213724617,1.13440356437857,-0.464300245067626,0.214270024021759,0.315664735756544
"V262_0",0.173630121975485,-0.153128550776731,0.136417816812461,-0.00747146508598501,-0.0323382651694602
"V262_1",-0.954965670865169,0.842207029272018,-0.750297992468536,0.0410930579729176,0.177860458432031
"V263_0",0.257956111642642,-0.241318844560854,0.278557534145911,0.0147472614963095,-0.00748439511580593
"V263_1",-0.801021609837678,0.749358517320546,-0.864994448137303,-0.0457941278043295,0.0232410164122394
"V264_0",0.113899148002372,-0.102443863375141,0.0649189749928628,-0.0151817980621,-0.0281010286880937
"V264_1",-0.996617545020759,0.896383804532481,-0.568041031187549,0.132840733043375,0.24588400102082
"V265_0",0.225551125121755,-0.149134665917863,-0.0760907653315683,-0.0365333093527582,-0.057366394562461
"V265_1",-0.874010609846801,0.577896830431719,0.294851715659827,0.141566573741938,0.222294778929536
"V266_0",0.172457598528559,-0.175276787162082,0.0927001439636769,-0.0376959495426784,-0.0759497482603703
"V266_1",-1.05042355467395,1.06759497635087,-0.56462814959694,0.22960260175995,0.462603012131346
"V267_0",0.151558740171495,-0.13533348793579,0.168946100234478,0.00343051069873002,-0.019848391886943
"V267_1",-0.923130508317286,0.824303971972539,-1.02903533779182,-0.0208949288013556,0.120894750584107
"V268_0",0.0968241022408742,-0.0996507598982657,0.0801599796066157,-0.0165635633528956,-0.0344113918397011
"V268_1",-0.982073037014582,1.01074342182527,-0.813051221724244,0.168001856865084,0.349029831516968
"V269_0",0.133732329633391,-0.117879944717529,0.110281308273523,-0.0121508102955113,-0.0268074158832621
"V269_1",-0.90937984150706,0.801583624079199,-0.749912896259955,0.0826255100094769,0.182290428006182
"V270_0",0.113307278863246,-0.136322444843536,-0.174326766297117,-0.0688609197303641,-0.00110604768106434
"V270_1",-1.14925954275578,1.38269908341301,1.76817148672791,0.698446471550836,0.0112184836222242
"V271_0",0.0769476556506449,-0.0591899401369941,-0.194558110312409,-0.044950098198828,0.026871315944612
"V271_1",-0.923371867807738,0.710279281643929,2.33469732374891,0.539401178385936,-0.322455791335344
"V272_0",0.148048888559198,-0.146884053113442,-0.201066402212627,-0.0689568859387182,0.0182051569617026
"V272_1",-1.00673244220255,0.998811561171404,1.36725153504586,0.468906824383284,-0.123795067339578
"V273_0",0.113307278863246,-0.136322444843536,-0.174326766297117,-0.0688609197303641,-0.00110604768106434
"V273_1",-1.14925954275578,1.38269908341301,1.76817148672791,0.698446471550836,0.0112184836222242
"V274_0",0.128210067340903,-0.155376704769519,-0.122570969880133,-0.0548197997900886,0.00630610713776667
"V274_1",-1.1218380892329,1.35954616673329,1.07249598645116,0.479673248163275,-0.0551784374554584
"V275_0",0.121085430117237,-0.129862375548259,-0.147370355918589,-0.0685527313334027,0.00834619399803323
"V275_1",-1.05949751352583,1.13629578604727,1.28949061428765,0.599836399167274,-0.0730291974827908
"V276_0",0.123330690509094,-0.136655927949142,-0.202075572155512,-0.0741631077385723,0.0089221698886831
"V276_1",-1.07914354195457,1.19573936955499,1.76816125636073,0.648927192712508,-0.0780689865259773
"V277_0",0.123330690509094,-0.136655927949142,-0.202075572155512,-0.0741631077385723,0.0089221698886831
"V277_1",-1.07914354195457,1.19573936955499,1.76816125636073,0.648927192712508,-0.0780689865259773
"V278_0",0.0834336219653519,-0.0597098670604952,-0.130567149872419,-0.0290780180130061,0.0368313285180081
"V278_1",-0.846255308505713,0.605628651613595,1.32432394870597,0.294934182703348,-0.373574903539797
"V279_0",0.130549125770414,-0.120965980727455,-0.104438992776159,-0.0537900956420034,-0.0308007277635777
"V279_1",-1.00087663090651,0.927405852243821,0.800698944617217,0.41239073325536,0.236138912854096
"V280_0",0.101466187928614,-0.126410310282824,0.00174748875594281,-0.0416349226839803,-0.0422888647841985
"V280_1",-1.21759425514336,1.51692372339389,-0.0209698650713144,0.499619072207764,0.507466377410381
"V281_0",0.0946411150001815,-0.115407302765985,-0.164748398574436,-0.0585491602142532,0.00732697559418816
"V281_1",-1.13569338000218,1.38488763319183,1.97698078289323,0.702589922571038,-0.0879237071302578
"V282_0",0.104621395482294,-0.118196476099045,-0.163942366981997,-0.0534893406022247,0.0224009014822924
"V282_1",-1.06115986846326,1.19884997186174,1.66284400796025,0.542534740393993,-0.227209143606109
"V283_0",0.143339553674871,-0.168873885400355,-0.158178058438714,-0.066433643370782,0.0155371702512252
"V283_1",-1.09893657817401,1.29469978806938,1.21269844803014,0.509324599175995,-0.119118305259393
"V284_0",0.104260448117735,-0.115441509460561,-0.19197146959366,-0.0636314334685978,0.0173327256386611
"V284_1",-1.05749883090845,1.17090673881426,1.94713919159284,0.645404539467206,-0.175803360049276
"V285_0",0.0946411150001815,-0.115407302765985,-0.164748398574436,-0.0585491602142532,0.00732697559418816
"V285_1",-1.13569338000218,1.38488763319183,1.97698078289323,0.702589922571038,-0.0879237071302578
"V286_0",0.143339553674871,-0.168873885400355,-0.158178058438714,-0.066433643370782,0.0155371702512252
"V286_1",-1.09893657817401,1.29469978806938,1.21269844803014,0.509324599175995,-0.119118305259393
"V287_0",0.147657119934092,-0.142735801335391,-0.162018717973844,-0.070473911264811,0.00913134725758141
"V287_1",-1.00406841555182,0.970603449080655,1.10172728222214,0.479222596600715,-0.0620931613515537
"V288_0",0.136565566456495,-0.141425600881784,-0.22426036407491,-0.0755722211308812,0.00600666635841341
"V288_1",-1.04700267616646,1.08426294009368,1.71932945790765,0.579387028670089,-0.0460511087478363
"V289_0",0.0946411150001815,-0.115407302765985,-0.164748398574436,-0.0585491602142532,0.00732697559418816
"V289_1",-1.13569338000218,1.38488763319183,1.97698078289323,0.702589922571038,-0.0879237071302578
"V290_0",0.0845912681371132,-0.0914735249865692,-0.164562385054962,-0.0412411062246215,0.0365447963744493
"V290_1",-1.01509521764536,1.09768229983883,1.97474862065954,0.494893274695458,-0.438537556493392
"V291_0",0.112041769014433,-0.130012239405145,-0.0160626437059968,-0.0433279075755837,-0.0406869526111645
"V291_1",-1.13642365714639,1.31869557110933,0.162921100446539,0.439468776838063,0.41268194791324
"V292_0",0.15087105049019,-0.126010955492816,-0.219119927755833,-0.0681372407031201,0.0248715415290153
"V292_1",-0.918941852985704,0.767521274365331,1.33463955996735,0.415017738828096,-0.151490298404003
"V293_0",0.135711204307487,-0.135265362374201,-0.0833956641770823,-0.0556609746160137,-0.0354372272576699
"V293_1",-1.0404525663574,1.03703444486887,0.639366758690965,0.426734138722772,0.271685408975469
"V294_0",0.105015260346609,-0.113438658057006,-0.146681040286305,-0.0536673003966284,-0.00710516648824746
"V294_1",-1.06515478351561,1.15059210314963,1.48776483718967,0.544339761165802,0.0720666886665101
"V295_0",0.107342995272482,-0.126876933833026,-0.106901955321946,-0.0453591159992519,0.028299948300788
"V295_1",-1.08876466633517,1.28689461459212,1.0842912611226,0.460071033706698,-0.287042332765135
"V296_0",0.14349655243055,-0.148925954837314,-0.10018367376412,-0.04192060594111,0.0565757940342561
"V296_1",-0.975776556527739,1.01269649289374,0.681248981596015,0.285060120399547,-0.384715399432941
"V297_0",0.132632964851435,-0.142865751154149,-0.182123612987955,-0.0560630920714191,0.0476172298575904
"V297_1",-1.01685273052767,1.09530409218181,1.39628103290765,0.429817039214213,-0.365065428908193
"V298_0",0.116932497010116,-0.13078984560151,-0.133067192809644,-0.0461512468512707,0.0435051585459123
"V298_1",-1.02315934883852,1.14441114901321,1.16433793708439,0.403823409948618,-0.380670137276732
"V299_0",0.111753286890422,-0.139693549900304,-0.123240924486743,-0.0440340405266319,0.0162791247206497
"V299_1",-1.13349762417428,1.41689172041737,1.25001509122268,0.44663098248441,-0.165116836452304
"V300_0",0.0985187599656511,-0.106872773488393,-0.141427119632385,-0.0371508299455718,0.0393146723811515
"V300_1",-0.999261708223033,1.0839952739537,1.43447507055705,0.376815560876514,-0.398763105580251
"V301_0",0.104803106782397,-0.132541917780849,0.163509201468205,0.0228366989918819,0.0725550062224702
"V301_1",-0.712661126120302,0.901285040909775,-1.11186256998379,-0.155289553144797,-0.493374042312797
"V302_0",0.193670991462525,-0.188343425967139,-0.0783583328417151,-0.0543009973371449,0.0380134554426051
"V302_1",-0.968354957312627,0.941717129835694,0.391791664208576,0.271504986685725,-0.190067277213025
"V303_0",0.24578765546431,-0.220976747312083,0.140446975671131,-0.0106463663360532,-0.0184913515824483
"V303_1",-0.952427164924199,0.856284895834322,-0.544232030725633,0.0412546695522062,0.0716539873819871
"V304_0",0.290666158687323,-0.275719413484542,0.180407134533999,-0.0287190967462818,-0.015644831874127
"V304_1",-0.96888719562441,0.91906471161514,-0.60135711511333,0.095730322487606,0.0521494395804233
"V305_0",0.289074371978261,-0.268446878361788,0.223492404524859,-0.0148676242050035,-0.0336475023568624
"V305_1",-0.963581239927537,0.894822927872626,-0.74497468174953,0.0495587473500117,0.112158341189541
"V306_0",0.100436310702193,-0.11430258510846,-0.0359873878281618,-0.0324957355484342,0.0367801964815174
"V306_1",-1.01871115140796,1.15935479181438,0.365014933685642,0.329599603419833,-0.373056278598248
"V307_0",0.140152329681342,-0.138087329331613,0.128245626180953,-0.00190318411353219,0.0141156195978181
"V307_1",-0.953035841833128,0.93899383945497,-0.87207025803048,0.0129416519720188,-0.0959862132651632
"V308_0",0.0901538015363733,-0.0884896920524293,0.0718055266142299,0.00276607846452039,0.0319667436314927
"V308_1",-0.914417129868928,0.897538305103212,-0.72831319851576,-0.0280559387115638,-0.324234113976569
"V309_0",0.189149453666,-0.204633600198009,0.22936498657966,0.0167952542429006,0.0436808349418585
"V309_1",-0.794427705397198,0.859461120831637,-0.963332943634571,-0.0705400678201825,-0.183459506755806
"V310_0",0.119459833687889,-0.137578828747788,0.00225611838328866,-0.0289230637542593,0.0181458461916003
"V310_1",-1.04527354476903,1.20381475154315,-0.0197410358537755,0.25307680784977,-0.158776154176503
"V311_0",0.121742185821805,-0.126466233844608,0.0536343899962416,-0.026062473710578,-0.0358770901081101
"V311_1",-1.0652441259408,1.10657954614032,-0.469300912467114,0.228046644967557,0.313924538445963
"V312_0",0.317636650485845,-0.301504557716703,0.108671441732779,-0.0517230107388652,-0.0418800758096561
"V312_1",-0.986345388350782,0.936250995015025,-0.337453424328104,0.160613559662792,0.130048656461564
"V313_0",0.337596815277948,-0.281214154701657,0.314382425001089,0.000509945249329748,-0.0454487995479504
"V313_1",-0.916334212897288,0.76329556276164,-0.853323725002956,-0.00138413710532365,0.123361027344437
"V314_0",0.118234273387981,-0.157957716065413,0.108368512325758,-0.0291524694249484,-0.0335961154650738
"V314_1",-1.19923334436381,1.60214254866347,-1.09916633930412,0.295689332738763,0.340760599717177
"V315_0",0.157563573654172,-0.152745069010155,0.145864170156068,-0.00408442688637303,-0.0179990010810916
"V315_1",-0.95970540316632,0.930356329425488,-0.888445400041506,0.024877872853363,0.109630279312103
"V316_0",0.218649936995646,-0.197089992358088,-0.014294801286216,-0.0443963971135759,-0.0570841494841396
"V316_1",-0.999542569122951,0.900982822208405,0.0653476630227011,0.202954958233489,0.260956111927495
"V317_0",0.328218889859338,-0.286515774621846,-0.0469546580121405,-0.0593757573026905,-0.0437936479339411
"V317_1",-0.951834780592079,0.830895746403353,0.136168508235208,0.172189696177802,0.127001579008429
"V318_0",0.0834744087958174,-0.0714415124888687,-0.0552961621555567,-0.0283763773910827,-0.0237774469574135
"V318_1",-1.00169290554981,0.857298149866425,0.663553945866681,0.340516528692993,0.285329363488962
"V319_0",0.475618335199226,-0.362311751073362,-0.0161736890556066,-0.0520107696661097,-0.0115488216479679
"V319_1",-0.89839018870965,0.684366640916349,0.0305503015494793,0.0982425649248738,0.021814440890606
"V320_0",0.189744648025769,-0.195790092013716,-0.067621378491536,-0.0482899829464926,-0.0397074903996627
"V320_1",-1.04359556414173,1.07684550607544,0.371917581703447,0.265594906205709,0.218391197198145
"V321_0",0.352177347004391,-0.308810707826475,0.0316822541278264,-0.0557392503343627,-0.0584290695071151
"V321_1",-0.955909941869061,0.83820049267186,-0.0859946897755289,0.151292250907556,0.158593188662169
"V322_0",0.378272906959034,-0.300737192228646,0.171965432655689,-0.0141014485623989,-0.0361240432586222
"V322_1",-0.904565647075951,0.71915415532937,-0.411221686785342,0.0337208552579104,0.0863835817054008
"V323_0",0.282114254344631,-0.275037517512196,0.305773887426935,0.0172008407174704,0.0256791895094935
"V323_1",-0.818131337599429,0.797608800785367,-0.886744273538113,-0.0498824380806643,-0.0744696495775314
"V324_0",0.26563257765503,-0.262729466030921,0.284731396883061,0.00612404935580776,-0.00139974419658898
"V324_1",-0.824859056928777,0.815844131359177,-0.884165916636874,-0.0190167848417189,0.00434657408414456
"V325_0",0.288018138956477,-0.262512302344792,0.12134947594045,-0.0378846681977712,-0.0488148351628493
"V325_1",-0.960060463188257,0.875041007815972,-0.404498253134835,0.126282227325904,0.162716117209498
"V326_0",0.369024641895472,-0.313081051351194,0.212229854342391,-0.0240158950024963,-0.0659260322172197
"V326_1",-0.939335452097564,0.796933585257585,-0.540221447416996,0.0611313690972632,0.167811718371105
"V327_0",0.274088452149,-0.265249638030349,0.210512156246594,-0.0349575279152266,-0.0454013804553098
"V327_1",-0.983493857711117,0.951778112932427,-0.755367148884838,0.125435835460519,0.162910835751406
"V328_0",0.232754647838932,-0.22519390779797,0.243174750552153,-0.0198055960045834,-0.0481827442131001
"V328_1",-0.977569520923513,0.945814412751475,-1.02133395231904,0.0831835032192504,0.202367525695021
"V329_0",0.247095047863931,-0.162175816135422,-0.058260944767491,-0.0496269009742004,-0.0466356901036763
"V329_1",-0.886635171747047,0.581924987309457,0.20905397828335,0.178072997613307,0.167339829195544
"V330_0",0.387386006805689,-0.321999049597721,0.0554009969209544,-0.0517431137151702,-0.0364341477555964
"V330_1",-0.92635784236143,0.769997727298898,-0.132480644810978,0.123733532797146,0.0871251359372958
"V331_0",0.285488305245394,-0.259100702255641,0.230490274512035,-0.00943127720386059,-0.0378080859058032
"V331_1",-0.951627684151312,0.863669007518803,-0.768300915040117,0.0314375906795353,0.126026953019344
"V332_0",0.286865774783185,-0.261126656394126,0.233359275057993,-0.0174284734142883,-0.0583593707892615
"V332_1",-0.956219249277285,0.870422187980419,-0.777864250193308,0.0580949113809611,0.194531235964205
"V333_0",0.283946222236823,-0.254835875361909,0.260854860434449,-0.0118205945078707,-0.0479033268182536
"V333_1",-0.946487407456077,0.849452917873031,-0.869516201448162,0.0394019816929023,0.159677756060845
"V334_0",0.200212300204082,-0.202645478326012,0.194339505788979,-0.02059700532314,-0.0429395602770197
"V334_1",-1.00106150102041,1.01322739163006,-0.971697528944896,0.1029850266157,0.214697801385098
"V335_0",0.186120256187325,-0.16835619623102,0.301450247562357,0.0361599618476084,0.0312242064810644
"V335_1",-0.721215992725885,0.652380260395204,-1.16811970930414,-0.140119852159483,-0.120993800114125
"V336_0",0.297147147052716,-0.291222619343824,0.203549090390371,-0.03650037979367,-0.0424329237136675
"V336_1",-0.990490490175719,0.970742064479413,-0.678496967967904,0.121667932645567,0.141443079045559
"V337_0",0.108540215866233,-0.107610052243541,0.0214414906192108,0.0273721080679398,-0.0775769568258146
"V337_1",-0.738073467890387,0.731748355256078,-0.145802136210633,-0.186130334861991,0.527523306415539
"V338_0",0.209578269108254,-0.220042014839446,0.13995401046332,-0.0388652195058719,-0.0699868680413188
"V338_1",-1.04789134554127,1.10021007419723,-0.699770052316598,0.194326097529359,0.349934340206594
"V339_0",0.239642316099027,-0.20945597912547,0.240618036780577,-0.00218978489572668,-0.0288365382795439
"V339_1",-0.928613974883729,0.811641919111195,-0.932394892524734,0.00848541647094087,0.111741585833233
"V340_0",0.0784540055992517,-0.0711620499636538,0.118097066757629,-0.00115586938429275,-0.0300502020659278
"V340_1",-0.94144806719102,0.853944599563845,-1.41716480109155,0.0138704326115129,0.360602424791133
"V341_0",0.142697879534234,-0.141196189246918,0.183420249470765,-0.0102077410578166,-0.0510240059777172
"V341_1",-0.970345580832787,0.960134086879038,-1.2472576964012,0.0694126391931526,0.346963240648477
"V342_0",0.151204681743208,-0.135671452943493,0.196566181152791,-0.00507187027882815,-0.052664902509403
"V342_1",-0.920973970617724,0.826362486110367,-1.19726673974882,0.030892300789226,0.320777133466364
"V343_0",0.139084146804949,-0.131454523515417,0.165621830201638,-0.0101652290880744,-0.0520516941061711
"V343_1",-0.945772198273653,0.893890759904836,-1.12622844537114,0.0691235577989061,0.353951519921963
"V344_0",0.150335728478239,-0.151202125044012,-0.114046410402831,-0.0608497507295782,-0.0122645589264815
"V344_1",-1.02228295365203,1.02817445029928,0.77551559073925,0.413778304961131,0.0833990007000746
"V345_0",0.37173677207884,-0.283049574497858,0.257545791734791,-0.00524432444879794,-0.0442802053203123
"V345_1",-0.888935759318966,0.676857678147051,-0.615870371539717,0.0125407758558212,0.105887447505095
"V346_0",0.183883139439557,-0.18093444327412,-0.012677845184574,-0.0301348053056586,-0.0230547739691014
"V346_1",-1.01135726691757,0.995139438007661,0.069728148515157,0.165741429181122,0.126801256830058
"V347_0",0.261238222941862,-0.245009991842047,-0.0676324363259859,-0.0651465711162506,-0.0571700883306131
"V347_1",-1.01229811389971,0.949413718387933,0.262075690763196,0.252442963075471,0.221534092281125
"V348_0",0.267376729528875,-0.22993471856532,0.0683380839427219,-0.0331013222552063,-0.0554631536370731
"V348_1",-0.959410617721258,0.82505987249909,-0.24521312473565,0.118775332798093,0.199014845403615
"V349_0",0.422567775415252,-0.364493515745237,-0.0134165303706834,-0.0581797541106723,-0.0318883708362014
"V349_1",-0.950777494684317,0.820110410426783,0.0301871933340377,0.130904446749013,0.071748834381453
"V350_0",0.25162499854331,-0.218986514757258,-0.103526219096643,-0.0478216013433776,-0.0342886079073994
"V350_1",-0.975046869355327,0.848572744684376,0.401164098999493,0.185308705205588,0.132868355641173
"V351_0",0.346394922825725,-0.326213953495615,-0.0225267869635114,-0.0652969484620827,-0.0730896586448434
"V351_1",-1.0045452761946,0.946020465137285,0.0653276821941831,0.18936115054004,0.211960010070046
"V352_0",0.369774021180018,-0.322956235772395,0.20802096768398,-0.0143766620751424,-0.0398666836609003
"V352_1",-0.941242963003683,0.822070418329733,-0.52950791774104,0.0365951398276354,0.101478831136837
"V353_0",0.28933407583336,-0.29129602744342,0.228553816090193,-0.00996925406293396,0.0257819571080385
"V353_1",-0.839068819916746,0.844758479585917,-0.66280606666156,0.0289108367825085,-0.0747676756133117
"V354_0",0.283889571971942,-0.280980978044565,0.302575872413504,0.00977280838836179,0.0232966263194277
"V354_1",-0.823279758718633,0.814844836329239,-0.877470029999161,-0.0283411443262492,-0.0675602163263403
"V355_0",0.37116273875631,-0.315363185790611,0.0396950726368672,-0.0498404047013829,-0.0414627762161558
"V355_1",-0.944777880470608,0.802742654739736,-0.101042003075662,0.126866484694429,0.105541612186578
"V356_0",0.410332068148915,-0.332683298499428,0.130461643951138,-0.0362522790235519,-0.0506163523459887
"V356_1",-0.923247153335059,0.748537421623713,-0.29353869889006,0.0815676278029919,0.113886792778474
"V357_0",0.270581213665462,-0.259480852436921,0.184778913097156,-0.0337778089866456,-0.031810450211152
"V357_1",-0.970909060799599,0.931078352861893,-0.663030217583914,0.121202726363846,0.114143380169428
"V358_0",0.266846264063965,-0.248743154071218,0.217101161764868,-0.0298349386714946,-0.0360055740081722
"V358_1",-0.957507182817758,0.892548964608489,-0.779010051038644,0.107054779938892,0.129196471441088
"V359_0",0.242555007925981,-0.226754748958901,0.0427207785258276,-0.053188906355078,-0.086334800202355
"V359_1",-1.01873103328912,0.952369945627385,-0.179427269808476,0.223393406691328,0.362606160849891
"V360_0",0.37303444827442,-0.320226937241691,-0.0736792286859406,-0.0743146772538678,-0.0179934473402982
"V360_1",-0.949542231971252,0.81512311297885,0.187547127564212,0.189164633009845,0.045801502320759
"V361_0",0.426132184698179,-0.332401082398761,0.155038849679583,-0.0145352350125699,-0.0277368141220215
"V361_1",-0.903400231560139,0.704690294685372,-0.328682361320716,0.0308146982266481,0.0588020459386855
"V362_0",0.289741000005276,-0.273205370832996,0.220449389013344,-0.0232989150114161,-0.0301393027177933
"V362_1",-0.965803333350922,0.910684569443319,-0.734831296711147,0.0776630500380538,0.100464342392644
"V363_0",0.314900143884425,-0.298629109734226,0.20089045484861,-0.0332989787196423,-0.0427922532618222
"V363_1",-0.977847815220057,0.927321972332597,-0.623817728214104,0.103402091813626,0.132881207497237
"V364_0",0.243716369200692,-0.222232412373267,0.259194254594956,-0.0041434784194099,-0.0243568259569007
"V364_1",-0.94440093065268,0.861150597946408,-1.00437773655545,0.0160559788752133,0.0943827005829903
"V365_0",0.295663141252229,-0.275583671484388,0.283765241291358,0.00371018309795154,0.0340401343989107
"V365_1",-0.802514240541765,0.748012822600483,-0.770219940647972,-0.0100704969801543,-0.0923946505113291
"V366_0",0.292504692994962,-0.279874848843697,0.202767123328226,-0.0313445654130517,-0.0338643243903372
"V366_1",-0.975015643316539,0.932916162812324,-0.675890411094088,0.104481884710172,0.112881081301124
"V367_0",0.20946052028385,-0.214141691210978,0.106105381208171,-0.0376610976594349,-0.0711055785012243
"V367_1",-1.04730260141925,1.07070845605489,-0.530526906040853,0.188305488297175,0.355527892506121
"V368_0",0.210669378242288,-0.230938015733718,0.145413330508391,-0.0439317555417957,-0.0382904153558662
"V368_1",-1.05334689121144,1.15469007866859,-0.727066652541954,0.219658777708979,0.191452076779331
"V369_0",0.239448851164253,-0.237531904326749,0.28866990558712,0.00861997077205089,0.0159228972964987
"V369_1",-0.798162837214177,0.791773014422496,-0.962233018623733,-0.0287332359068364,-0.0530763243216622
"V370_0",0.17841653429333,-0.205849999001062,0.175973921811631,-0.0299063813226015,-0.0468980638914433
"V370_1",-1.08671889069574,1.2538136302792,-1.07184116012539,0.182157049874027,0.285651843702427
"V371_0",0.162649295058583,-0.16776620113039,0.213762138049592,-0.0106144956030545,-0.0416635928712142
"V371_1",-0.990682069902278,1.02184867961238,-1.30200574993843,0.0646519277640593,0.253769156579214
"V372_0",0.264385148322918,-0.240234765190954,0.22340423663674,-0.0277792195575996,-0.0503242180156794
"V372_1",-0.948676120452822,0.862018863332245,-0.801626966755362,0.099678376059622,0.180575135232732
"V373_0",0.265606761522895,-0.232820996955888,0.165004935104254,-0.0232925229997201,-0.0704568469504582
"V373_1",-0.95305955605274,0.835416518488774,-0.592076531844677,0.0835790531166429,0.25281574493988
"V374_0",0.343610131449835,-0.289143525196284,0.223924791124174,-0.0113822144435352,-0.0533519208240195
"V374_1",-0.932656071078124,0.784818139818486,-0.607795861622757,0.0308945820610241,0.144812356522339
"V375_0",0.214744094560684,-0.180597702272711,0.262774469424213,-0.00240333368815241,-0.047474289314175
"V375_1",-0.901925197154874,0.758510349545388,-1.10365277158169,0.0100940014902401,0.199392015119535
"V376_0",0.0978367377510291,-0.120302906338185,-0.0618007847092472,-0.038906512279445,-0.0233207286850184
"V376_1",-1.17404085301235,1.44363487605822,0.741609416510967,0.46687814735334,0.279848744220221
"V377_0",0.160983847955247,-0.172091249143843,-0.174702812047654,-0.0717973800955458,-0.0238881029012497
"V377_1",-1.09469016609568,1.17022049417813,1.18797912192405,0.488222184649712,0.162439099728498
"V378_0",0.273418248799363,-0.249519083731593,-0.10028091684365,-0.061960735455747,-0.0543361407960584
"V378_1",-0.981089010397716,0.895333182801597,0.359831525144862,0.222329697811798,0.194970858150563
"V379_0",0.0932853204571844,-0.071468752010233,-0.0989788052768426,-0.0296458292606791,-0.021345119307477
"V379_1",-0.94617967892287,0.724897341818077,1.00392788209369,0.300693411072602,0.216500495832981
"V380_0",0.128578300879273,-0.147032498855861,-0.0725955774196544,-0.0505751047112424,-0.0360876154272049
"V380_1",-1.12506013269364,1.28653436498878,0.635211302421975,0.442532166223371,0.315766634988043
"V381_0",0.161364753628016,-0.156017001064474,0.111299309982631,-0.0116354921893164,-0.0230221813408251
"V381_1",-0.982858044825189,0.950285370119981,-0.67791397898512,0.0708707251531087,0.140226013621389
"V382_0",0.220526870914895,-0.252534738244451,0.229636457367773,-0.00446474502937594,0.016001659553514
"V382_1",-0.854541624795217,0.978572110697246,-0.88984127230012,0.0173008869888316,-0.0620064307698667
"V383_0",0.119701139159296,-0.135606729365194,0.149823632954018,-0.0145144606778905,-0.0404518890764629
"V383_1",-1.04738496764384,1.18655888194544,-1.31095678834766,0.127001530931542,0.35395402941905
"V384_0",0.139909202932823,-0.120280867170654,-0.0208756225567121,-0.0354507546607406,-0.0326967792660657
"V384_1",-0.951382579943197,0.81790989676045,0.141954233385642,0.241065131693036,0.222338099009247
"V385_0",0.357033109799824,-0.271728237929187,0.127872676003949,-0.0276880067745374,-0.0870902995667696
"V385_1",-0.908811552217734,0.691671878365203,-0.325494084373687,0.0704785626988225,0.221684398897232
"V386_0",0.114197454307734,-0.141815886282881,0.0701204040976939,-0.0342893161581882,-0.0336173997189063
"V386_1",-1.1582884651213,1.43841827515493,-0.711221241562325,0.347791635318766,0.340976482863193
"V387_0",0.211797962318726,-0.201532479187635,0.215395302660037,-0.0206664645076036,-0.0521445976083334
"V387_1",-0.968219256314174,0.921291333429187,-0.984664240731597,0.0944752663204737,0.238375303352381
"V388_0",0.136241085272399,-0.13995217426816,-0.189306703835004,-0.0672591239871617,-0.00531468191307205
"V388_1",-1.04451498708839,1.07296666938923,1.45135139606836,0.515653283901573,0.0407458946668857
"V389_0",0.14734303509663,-0.0997176618995226,-0.0764114685426266,-0.0341347746346658,-0.0111427395736493
"V389_1",-0.897453031952202,0.607371213388002,0.465415308395998,0.207911809138419,0.0678694137667734
"V390_0",0.197961731843343,-0.16243988817926,0.171515211963009,-0.00338172908838921,-0.0330990317114976
"V390_1",-0.904967916998141,0.74258234596233,-0.784069540402326,0.0154593329754936,0.151309859252561
"V391_0",0.149428532556934,-0.161763101078942,0.147901198994068,-0.0126492615847238,-0.0113235200965243
"V391_1",-1.01611402138715,1.09998908733681,-1.00572815315966,0.0860149787761215,0.0769999366563653
"V392_0",0.206085140509427,-0.216764801057099,0.184836925165394,-0.0320181199040056,-0.0521296398442072
"V392_1",-1.03042570254714,1.0838240052855,-0.92418462582697,0.160090599520028,0.260648199221035
"V393_0",0.309069414963353,-0.241102183787407,0.25787288868581,0.0780677542074839,-0.0916021787985152
"V393_1",-0.786722147179446,0.613714649640673,-0.65640371665479,-0.198717919800868,0.23316918239622
"V394_0",0.144730079976813,-0.130808991382647,-0.0558555496297276,-0.0422376987273943,-0.0350752208342355
"V394_1",-0.98416454384233,0.889501141401999,0.379817737482148,0.287216351346282,0.238511501672801
"V395_0",0.174516065327456,-0.155319889144415,0.14493853648441,-0.0250270450505746,-0.0730177622036028
"V395_1",-0.959838359301011,0.854259390294284,-0.797161950664256,0.13764874777816,0.401597692119816
"V396_0",0.158445543831216,-0.149714321477132,0.116535941069521,-0.0172817841789418,-0.0443285157125854
"V396_1",-0.965077403335587,0.911896321724351,-0.709809822877988,0.105261776362645,0.270000959340293
"V397_0",0.0962897087229937,-0.101106243753594,0.105321565683087,-0.0103897691529004,-0.0217999081084056
"V397_1",-0.976652759904649,1.02550618664359,-1.0682615947856,0.105381944265133,0.221113353670971
"V398_0",0.1075098444652,-0.105297359866789,0.11516408883002,-0.00963368065710975,-0.0270173423694829
"V398_1",-0.940711139070502,0.9213518988344,-1.00768577726268,0.0842947057497102,0.236401745732975
"V399_0",0.0832695614041961,-0.0813904960506593,-0.0503193307793355,-0.0352377757731799,-0.0187181346888675
"V399_1",-0.999234736850352,0.976685952607912,0.603831969352026,0.422853309278159,0.22461761626641
"V400_0",0.157160141408972,-0.141117506909433,0.174904222535276,-0.00416009688083664,-0.0408208945910334
"V400_1",-0.957248134036469,0.859533905721094,-1.0653257190785,0.0253387719105505,0.248636357963567
"V401_0",0.130876291511151,-0.136960306096011,0.153114888122991,-0.0151528501628855,-0.0504434657619479
"V401_1",-1.00338490158549,1.05002901340275,-1.17388080894293,0.116171851248789,0.386733237508267
"V402_0",0.221941705664532,-0.196614684864004,0.229883437197894,-0.0153705181783586,-0.0539074652155328
"V402_1",-0.932155163791035,0.825781676428817,-0.965510436231155,0.0645561763491062,0.226411353905238
"V403_0",0.130764984149548,-0.148124138909606,0.187137291697196,0.032667440587898,0.0860959378571404
"V403_1",-0.719207412822516,0.814682764002833,-1.02925510433458,-0.179670923233439,-0.473527658214272
"V404_0",0.146482544165135,-0.154431148885711,-0.0423080589295132,-0.0396400163629375,0.0364812827646238
"V404_1",-0.996081300322916,1.05013181242283,0.28769480072069,0.269552111267975,-0.248072722799442
"V405_0",0.142255363981129,-0.137831029775112,0.0217881816656412,-0.014113125054708,0.0146752660540025
"V405_1",-0.967336475071678,0.937251002470758,-0.14815963532636,0.0959692503720142,-0.099791809167217
"V406_0",0.11089762148064,-0.11397582950034,0.109981562618255,-0.00109784308702448,-0.00879301544755586
"V406_1",-0.970354187955599,0.997288508127973,-0.962338672909733,0.00960612701146423,0.0769388851661137
"V407_0",0.243351339178176,-0.218261348525951,0.194346148505413,-0.00617794545702809,-0.0170243885567657
"V407_1",-0.942986439315433,0.845762725538062,-0.753091325458477,0.0239395386459838,0.065969505657467
"V408_0",0.155971997770587,-0.154212199589693,0.111652421958631,-0.0012346263154116,0.0290702418576445
"V408_1",-0.950011259148119,0.939292488409952,-0.680064751929844,0.00751999664841606,-0.177064200405653
"V409_0",0.0436664974209486,-0.0666748383611487,0.0500855523989647,0.0146252314286643,0.0769654360624468
"V409_1",-0.523997969051383,0.800098060333785,-0.601026628787576,-0.175502777143972,-0.923585232749362
"V410_0",0.218616940100209,-0.222127383925163,0.1769956056488,0.0275145176718132,0.0850444802628834
"V410_1",-0.784449020359574,0.79704531879029,-0.635101879092753,-0.0987285634106237,-0.30515960564917
"V411_0",0.114234253934909,-0.101576822675061,-0.0241368131494565,-0.0146785913057505,0.0559485341524972
"V411_1",-0.875795946834298,0.7787556405088,0.1850489008125,0.11253586667742,-0.428938761835811
"V412_0",0.150272911026018,-0.139758059784064,-0.143872351991741,-0.0444016571211267,-0.0251947026483353
"V412_1",-1.02185579497692,0.950354806531632,0.978331993543841,0.301931268423662,0.17132397800868
"V413_0",0.28886111007257,-0.262130618767939,0.200632688414857,-0.0151908049879485,-0.0475236891422331
"V413_1",-0.962870366908569,0.873768729226463,-0.668775628049522,0.0506360166264951,0.158412297140777
"V414_0",0.237041723842775,-0.233465074801472,0.239153013548242,-0.0176487394491671,-0.0521800974398372
"V414_1",-0.995575240139657,0.980553314166183,-1.00444265690262,0.074124705686502,0.219156409247317
"V415_0",0.0716370835552765,-0.0598106479956767,0.0831828252533173,0.00636217001353228,0.00968543727140368
"V415_1",-0.859645002663317,0.717727775948121,-0.998193903039807,-0.0763460401623875,-0.116225247256844
"V416_0",0.162621730044042,-0.163725928342809,0.136660204373736,-0.0130927127088568,-0.025708597040862
"V416_1",-0.990514173904618,0.997239745360746,-0.832384881185485,0.0797465228630369,0.156588727430705
"V417_0",0.264156012689676,-0.206469359674966,0.304820219007968,0.0176297131074506,-0.0256546518476588
"V417_1",-0.880520042298919,0.688231198916551,-1.01606739669323,-0.0587657103581687,0.0855155061588627
"V418_0",0.285864931204073,-0.262449003300479,0.240097672743261,-0.00890356831130613,-0.0202368532637995
"V418_1",-0.952883104013575,0.874830011001597,-0.80032557581087,0.0296785610376871,0.0674561775459984
"V419_0",0.194986848820524,-0.192493928985464,0.244545325029243,-0.00545106154141716,-0.033667554331467
"V419_1",-0.97493424410262,0.96246964492732,-1.22272662514622,0.0272553077070858,0.168337771657335
"V420_0",0.104803106782397,-0.132541917780849,0.163509201468205,0.0228366989918819,0.0725550062224702
"V420_1",-0.712661126120302,0.901285040909775,-1.11186256998379,-0.155289553144797,-0.493374042312797
"V421_0",0.0395492056488183,-0.0546841081083247,0.0598338724016376,0.0210652947756649,0.0726723253361899
"V421_1",-0.474590467785819,0.656209297299897,-0.718006468819651,-0.252783537307978,-0.872067904034279
"V422_0",0.084299267527752,-0.0945129660012924,0.0334040701012199,-0.00927366005732078,0.0184924413214101
"V422_1",-1.01159121033302,1.13415559201551,-0.400848841214639,0.111283920687849,-0.221909295856921
"V423_0",0.171802123206384,-0.164761810825887,0.189561063390233,0.00378195198335008,0.010245211280689
"V423_1",-0.94491167763511,0.906189959542379,-1.04258584864628,-0.0208007359084254,-0.0563486620437894
"V424_0",0.120792785981485,-0.171438068513218,0.147028259210564,0.00256769124127394,0.0554052480394671
"V424_1",-0.821390944674096,1.16577886588988,-0.999792162631838,-0.0174603004406629,-0.376755686668376
"V425_0",0.118263306188363,-0.141700657536176,0.182683390417414,0.0295269238764143,0.0719172942596037
"V425_1",-0.720331046783668,0.86308582317489,-1.11270792345152,-0.179845809065432,-0.438041701399405
"V426_0",0.169756546345341,-0.178549863670891,0.15744186466537,-0.0186999818758776,-0.0365114372453429
"V426_1",-1.03397169137617,1.08753098781361,-0.95896408477998,0.113899889607618,0.222387845039816
"V427_0",0.140863478557311,-0.129274205342223,0.157053381046452,0.000993517138505023,-0.0251095225865631
"V427_1",-0.957871654189714,0.879064596327117,-1.06796299111587,-0.00675591654183425,0.170744753588629
"V428_0",0.0716370835552765,-0.0598106479956767,0.0831828252533173,0.00636217001353228,0.00968543727140368
"V428_1",-0.859645002663317,0.717727775948121,-0.998193903039807,-0.0763460401623875,-0.116225247256844
"V429_0",0.144842220910186,-0.123651178126525,0.178001797817718,0.00857302150174407,-0.00312498944887087
"V429_1",-0.882220800089317,0.753148084952472,-1.0841927685261,-0.052217494601532,0.0190340266431227
"V430_0",0.264241119259223,-0.235012378985178,0.219657365643298,-0.012056109814784,-0.0469567120610124
"V430_1",-0.948159310283095,0.843279712829168,-0.788182312014187,0.0432601587471662,0.168491731513045
"V431_0",0.125523215007547,-0.117864036729716,0.11723323238129,-0.0151388996809367,-0.0332217743648397
"V431_1",-0.962344648391192,0.90362428159449,-0.898788114923223,0.116064897553848,0.254700270130437
"V432_0",0.121253190511643,-0.139178998038762,-0.0465887594196969,-0.0218260236374756,0.012701551138336
"V432_1",-1.06096541697688,1.21781623283917,0.407651644922348,0.190977706827912,-0.11113857246044
"V433_0",0.187770906883515,-0.197967675346973,-0.0458864616580337,-0.035591511483563,0.00587097441415876
"V433_1",-1.03273998785933,1.08882221440835,0.252375539119185,0.195753313159596,-0.0322903592778731
"V434_0",0.148604859436209,-0.163120303257408,0.18519339520599,0.0318782347557765,0.0798376679929844
"V434_1",-0.743024297181044,0.815601516287038,-0.925966976029947,-0.159391173778882,-0.399188339964923
"V435_0",0.0512001610515125,-0.0622820708978905,0.0871730729798371,0.0260496454537506,0.0774832025269341
"V435_1",-0.519315919236769,0.631718147678603,-0.884184025938349,-0.26421783245947,-0.78590105420176
"V436_0",0.142077090172002,-0.14660063089724,-0.0661112753859861,-0.033721253070372,0.0452766255832376
"V436_1",-0.966124213169613,0.996884290101234,0.449556672624706,0.229304520878529,-0.307881053966016
"V437_0",0.250585456487448,-0.228909422435304,0.0538742505809945,-0.0253744614778217,-0.0151822695205459
"V437_1",-0.971018643888862,0.887024011936802,-0.208762721001354,0.098326038226559,0.0588312943921155
"V438_0",0.31007321206481,-0.288144006111793,0.190970792805145,-0.0306658526096051,-0.0353286242233555
"V438_1",-0.962858921674938,0.894762966347148,-0.593014567131767,0.095225542314037,0.109704675219893
"V439_0",0.324578780371113,-0.285472228294659,0.257027437535766,-0.0106033572109224,-0.0501194880526768
"V439_1",-0.941278463076228,0.82786946205451,-0.745379568853721,0.0307497359116751,0.145346515352763
"V440_0",0.0996123686967708,-0.101510602366057,-0.115984193729584,-0.0420139045421519,0.0195148455450869
"V440_1",-1.01035402535296,1.02960753828429,1.17641110782864,0.426141031784684,-0.197936290528738
"V441_0",0.110528150031428,-0.133427907924614,-0.0367479875656087,-0.0330505568793311,-0.0016392561738201
"V441_1",-1.12107123603306,1.35334020894965,0.372729588165459,0.335227076918929,0.0166267411916037
"V442_0",0.0883375656725248,-0.0815178028116458,0.031736809243764,0.00567705571285361,0.0290725774448252
"V442_1",-0.895995308964181,0.826823428518121,-0.321901922329607,-0.0575815650875152,-0.294878999797513
"V443_0",0.221852423538164,-0.228813501462921,0.172607758600096,-0.0180505526049495,-0.0235589480248641
"V443_1",-1.01418250760304,1.04600457811621,-0.789064039314725,0.0825168119083405,0.107698048113664
"V444_0",0.169770216372721,-0.181838438002248,0.197786841206293,0.0198009977469437,0.0466437279937814
"V444_1",-0.776092417703869,0.831261430867418,-0.904168416943051,-0.090518846843171,-0.213228470828715
"V445_0",0.228645244456609,-0.216532286268846,0.0716923420018541,-0.0294864084640166,0.020729478609094
"V445_1",-0.960310026717759,0.909435602329154,-0.301107836407787,0.12384291554887,-0.0870638101581947
"V446_0",0.241321129558597,-0.238419228517575,0.130641815703228,-0.0418233308363492,-0.062022604855472
"V446_1",-1.01354874414611,1.00136075977382,-0.54869562595356,0.175657989512666,0.260494940392982
"V447_0",0.183515395676371,-0.161719824284476,0.255749491572194,0.00375034730742879,-0.0426091821728862
"V447_1",-0.917576978381857,0.80859912142238,-1.27874745786097,-0.0187517365371439,0.213045910864431
"V448_0",0.284043210918248,-0.255620982371402,0.276751187664929,-0.0117971851650973,-0.0503445970354764
"V448_1",-0.946810703060826,0.852069941238006,-0.922503958883098,0.0393239505503245,0.167815323451588
"V449_0",0.127460586368485,-0.131363558266286,0.164275238202227,-0.0055764574178256,-0.0243828104766867
"V449_1",-0.977197828825051,1.00712061337486,-1.25944349288374,0.0427528402033295,0.186934880321264
"V450_0",0.257607834483369,-0.255248265993999,0.107535283168638,-0.0288505643073611,-0.034809278693377
"V450_1",-0.998230358623054,0.989087030726745,-0.416699222278471,0.111795936691024,0.134885954936836
"V451_0",0.116085313595006,-0.113654412701955,-0.06506441813366,-0.0321207489608925,-0.0140465707622293
"V451_1",-1.01574649395631,0.994476111142111,0.569313658669525,0.28105655340781,0.122907494169506
"V452_0",0.180481569191319,-0.132112598310606,-0.0720219875774731,-0.0306414080776917,-0.0287724240760021
"V452_1",-0.902407845956598,0.660562991553029,0.360109937887366,0.153207040388458,0.143862120380011
"V453_0",0.131293838034747,-0.106554320590644,0.154137266179107,0.0113285278739848,-0.0110357633018425
"V453_1",-0.892798098636276,0.724569380016381,-1.04813341001792,-0.0770339895430968,0.0750431904525289
"V454_0",0.149540579697031,-0.188603956458497,0.18579831822048,-0.00298174735583083,0.017477988934569
"V454_1",-0.822473188333672,1.03732176052173,-1.02189075021264,0.0163996104570695,-0.0961289391401293
"V455_0",0.205101089239656,-0.172671192548924,0.0874668188497059,-0.0308305355542677,-0.0488401964656024
"V455_1",-0.937604979381283,0.789354023080794,-0.399848314741512,0.140939591105224,0.22326946955704
"V456_0",0.34675908701268,-0.292333155715409,0.227490924793775,-0.0156964910967235,-0.0871625739229481
"V456_1",-0.941203236177275,0.793475708370395,-0.61747536729739,0.0426047615482494,0.236584129219431
"V457_0",0.297561190972194,-0.254259418953533,0.303814547392395,-0.00571328288913991,-0.0526119290021167
"V457_1",-0.924005803545233,0.789542406224129,-0.943424120850069,0.0177412468662764,0.163373884796047
"V458_0",0.266470514591732,-0.243177948516093,0.268379271069447,-0.0164539467923692,-0.0622026496245287
"V458_1",-0.956158905299746,0.87257969761657,-0.963007972660957,0.0590406326079132,0.223197742770368
"V459_0",0.237556317217687,-0.22192264361995,0.0994778268297093,-0.0316906219473359,-0.0658457792165742
"V459_1",-0.997736532314286,0.932075103203791,-0.417806872684779,0.133100612178811,0.276552272709611
"V460_0",0.233344889925438,-0.216594094509282,0.0843147178823349,-0.0317406736519292,-0.0379312402283576
"V460_1",-0.980048537686843,0.909695196938985,-0.354121815105807,0.133310829338102,0.159311208959102
"V461_0",0.167941475388604,-0.17567465914815,0.168354046551192,-0.0162960704383995,-0.0444654275854199
"V461_1",-1.02291625918513,1.07001837844782,-1.02542919262999,0.0992578835793422,0.270834877111194
"V462_0",0.103071053675644,-0.0643887351574696,0.133247562195313,0.0201572344134011,0.0167672147683408
"V462_1",-0.790211411513268,0.4936469695406,-1.0215646434974,-0.154538797169409,-0.128548646557279
"V463_0",0.1264585228243,-0.16083637122482,0.200426496227452,0.0130524430709417,0.0395576868176555
"V463_1",-0.770247366293464,0.979639715642084,-1.22077956793084,-0.0795012441593719,-0.240942274252993
"V464_0",0.29196946513389,-0.266223554473587,0.129634600889595,-0.0426644073927703,-0.0593217222014366
"V464_1",-0.9732315504463,0.88741184824529,-0.432115336298652,0.142214691309234,0.197739074004789
"V465_0",0.0991879871461136,-0.0976870115351614,0.0578680309046733,-0.022858013522579,-0.041373364761071
"V465_1",-1.00604958391058,0.99082540271378,-0.586947170604545,0.231845565729016,0.419644128290863
"V466_0",0.200680950719144,-0.199389104717897,0.18556620660429,-0.0278459698075897,-0.0745254525557139
"V466_1",-1.00340475359572,0.996945523589487,-0.927831033021448,0.139229849037948,0.37262726277857
"V467_0",0.0889414702684088,-0.0806824559001259,0.13061880775478,0.00895850434802279,0.0023291670175732
"V467_1",-0.902120627008145,0.818350624129849,-1.32484790722705,-0.0908648298156597,-0.0236244083210997
"V468_0",0.1085347174236,-0.106311089245572,0.125786831072989,-0.00830623961306634,-0.0318514417751275
"V468_1",-0.949678777456496,0.930222030898755,-1.10063477188865,0.0726795966143303,0.278700115532366
"V469_0",0.115632725197049,-0.126769284883429,0.141462774945955,-0.012295111528002,-0.0341611160297553
"V469_1",-1.01178634547418,1.10923124273,-1.23779928077711,0.107582225870018,0.298909765260359
"V470_0",0.168304362838303,-0.147501706938487,0.179276433095648,-0.00740303715161205,-0.0597023234360385
"V470_1",-0.925673995610665,0.811259388161677,-0.986020382026065,0.0407167043338663,0.328362778898212
"V471_0",0.236124703383832,-0.233059977618281,0.209760780346049,-0.0205906564934188,-0.0337498915045859
"V471_1",-0.991723754212093,0.978851905996782,-0.880995277453404,0.0864807572723588,0.141749544319261
"V472_0",0.151204681743208,-0.135671452943493,0.196566181152791,-0.00507187027882815,-0.052664902509403
"V472_1",-0.920973970617724,0.826362486110367,-1.19726673974882,0.030892300789226,0.320777133466364
"V473_0",0.20547553348986,-0.188202720520233,0.248469752786267,-0.00856938924094065,-0.0486640849811746
"V473_1",-0.939316724525075,0.860355293806778,-1.13586172702294,0.0391743508157286,0.222464388485369
"V474_0",0.151204681743208,-0.135671452943493,0.196566181152791,-0.00507187027882815,-0.052664902509403
"V474_1",-0.920973970617724,0.826362486110367,-1.19726673974882,0.030892300789226,0.320777133466364
"V475_0",0.147194744369102,-0.0938091837157307,0.192473079169175,0.0312976544822145,0.0174666540068567
"V475_1",-0.809571094030061,0.51595051043652,-1.05860193543046,-0.17213709965218,-0.0960665970377119
"V476_0",0.0958281364871263,-0.0728477992457451,0.13970345541629,0.0165865333764057,0.0114661533151368
"V476_1",-0.838496194262355,0.63741824340027,-1.22240523489254,-0.14513216704355,-0.100328841507447
"V477_0",0.135920961539475,-0.158544772314587,0.185214895085032,0.0236520739273232,0.079985946807341
"V477_1",-0.747565288467113,0.871996247730228,-1.01868192296768,-0.130086406600278,-0.439922707440376
"V478_0",0.113623578961303,-0.130761587384137,0.119398774039418,0.0267628222620816,0.0872118000524694
"V478_1",-0.69207089003703,0.796456941339743,-0.727247078240089,-0.163009917414497,-0.531199145774132
"V479_0",0.111672427589911,-0.121681976247819,-0.0800160586003038,-0.0328740936648666,0.0390496924786231
"V479_1",-0.977133741411725,1.06471729216842,0.700140512752658,0.287648319567583,-0.341684809187952
"V480_0",0.139505784380399,-0.159394383836783,0.0662233483502741,-0.0252340394688761,-0.0143784639311993
"V480_1",-1.06954434691639,1.22202360941534,-0.507712337352102,0.193460969261383,0.110234890139195
"V481_0",0.21658085671135,-0.219935574611272,0.205590873584128,-0.0145865482179308,-0.0246455223178782
"V481_1",-0.990083916394743,1.00541976965153,-0.939843993527441,0.0666813632819696,0.112665244881729
"V482_0",0.281477437323902,-0.276888878698293,0.254410395658512,0.0119840428965218,0.0504512793192938
"V482_1",-0.816284568239318,0.80297774822505,-0.737790147409685,-0.0347537243999132,-0.146308710025952
"V483_0",0.167865147725065,-0.159096145845672,0.123224475086471,0.00501158381583431,0.0236346947117556
"V483_1",-0.923258312487861,0.875028802151193,-0.67773461297559,-0.0275637109870888,-0.129990820914656
"V484_0",0.0616287523852699,-0.0942446319275337,0.068268978956505,0.0132454115277105,0.0792842784045785
"V484_1",-0.625091631336309,0.955909838122127,-0.69244250084455,-0.134346316923921,-0.804169109532153
"V485_0",0.217687491739202,-0.217502660502733,0.157702469099049,0.0246014884592538,0.0813882592536865
"V485_1",-0.781113940946549,0.780450722980395,-0.565873565590705,-0.0882759291773225,-0.292040224380875
"V486_0",0.125382494798118,-0.130234078067165,-0.0670677756503328,-0.0317153849313713,0.0388824911711407
"V486_1",-0.96126579345224,0.998461265181597,0.514186279985885,0.243151284473847,-0.298099098978746
"V487_0",0.307180411366363,-0.273111407997137,0.236936172688406,-0.0131273403301016,-0.0607604145894975
"V487_1",-0.953876014242916,0.848082793254267,-0.735749167821891,0.0407638462882103,0.188677076883176
"V488_0",0.149938772356859,-0.136485881739077,0.213223813031112,0.00921065051091021,-0.00899303082574873
"V488_1",-0.913263431628142,0.831323097865288,-1.2987268611895,-0.0561012349300894,0.0547757332113786
"V489_0",0.0835863932057752,-0.0657151734115637,0.125984213839908,0.0121880825203437,0.00542326576087223
"V489_1",-0.847804845372863,0.666539616031575,-1.27783988323336,-0.1236219798492,-0.0550074098602754
"V490_0",0.115889166382549,-0.0915771048511589,0.107608048291948,0.00389423417870572,-0.0181742110735278
