"","Dim 1","Dim 2","Dim 3","Dim 4","Dim 5","Dim 6"
"V1_0",0.0466668734391106,-0.00402044947933542,-0.164975454164708,-0.0575734705600856,-0.0330860168458497,0.0052046810622711
"V1_1",-0.6813363522098,0.0586985624029187,2.40864163080391,0.840572670178233,0.483055845947313,-0.0759883435096507
"V2_0",0.0709502523921028,-0.0749683348109864,-0.169525172399827,-0.0742672695842418,-0.0246279692755477,-0.0134068492202083
"V2_1",-1.03587368492265,1.09453768824302,2.47506751703674,1.08430213593068,0.359568351424382,0.195739998616089
"V3_0",0.0517800177687947,-0.0197387072687845,-0.155309582167672,-0.0569672918411139,-0.0520354614746016,-0.0179704315388603
"V3_1",-0.755988259429246,0.288185126122281,2.26751989964947,0.831722460883245,0.759717737528818,0.26236830046515
"V4_0",0.0709502523919686,-0.0749683348112619,-0.169525172399821,-0.0742672695843221,-0.0246279692756333,-0.0134068492203259
"V4_1",-1.03587368492154,1.09453768824311,2.47506751703705,1.08430213593057,0.359568351424206,0.1957399986161
"V5_0",0.0709502523917786,-0.0749683348111374,-0.169525172399862,-0.0742672695843164,-0.0246279692756629,-0.0134068492201673
"V5_1",-1.03587368492145,1.09453768824322,2.47506751703713,1.08430213593077,0.359568351424045,0.195739998616201
"V6_0",0.0670150066838531,-0.067739260763647,-0.116443755130771,-0.0564387101379801,-0.0379661716709686,-0.0286918424322018
"V6_1",-0.978419097585474,0.98899320714984,1.7000788249124,0.824005168016004,0.554306106395859,0.418900899510085
"V7_0",0.0739390754001837,-0.0312883338763548,-0.15393213082935,-0.0543640949438191,-0.0677131212456407,-0.0403371445868622
"V7_1",-0.74995347905882,0.317353100745904,1.56131161269749,0.551407248716429,0.686804515491672,0.40913389509517
"V8_0",0.0570257687666598,-0.0375377300335769,-0.0958510019835157,-0.0410187952479491,-0.0445289845076432,-0.0383802573996419
"V8_1",-0.832576223993523,0.548050858490555,1.39942462895929,0.598874410620187,0.650123173811739,0.560351758035102
"V9_0",0.0699519996259666,-0.0460894529286668,-0.1464974947121,-0.0563295596334463,-0.0588046400038401,-0.0433449636892299
"V9_1",-0.839423995511451,0.553073435143784,1.75796993654509,0.675954715601412,0.705655680046065,0.520139564270714
"V10_0",0.0576649230360707,-0.0416547587238095,-0.100585433921081,-0.0383703154406751,-0.0554919024359014,-0.0557995386970896
"V10_1",-0.84190787632692,0.608159477367998,1.46854733524794,0.560206605433834,0.810181775564289,0.814673264977298
"V11_0",0.0649890290294683,-0.0372115758853514,-0.1210113346636,-0.0461216192637086,-0.0617537600778362,-0.0635151427828581
"V11_1",-0.779868348353595,0.446538910624191,1.45213601596326,0.553459431164498,0.741045120934086,0.762181713394333
"V12_0",0.0800799769587453,-0.0767104493633277,-0.167376258320005,-0.0719636400081919,-0.0521506769887487,-0.033521987402684
"V12_1",-0.960959723504943,0.92052539235991,2.00851509983922,0.863563680097984,0.625808123866157,0.402263848833263
"V13_0",0.0893884875073811,-0.102086158631514,-0.160910523697341,-0.0738698148450762,-0.0310164881910158,-0.0387179982830512
"V13_1",-1.0726618500884,1.22503390357798,1.93092628436804,0.886437778140842,0.372197858292127,0.464615979396671
"V14_0",0.0865611273048974,-0.0967059707600256,-0.124753593247468,-0.0552066789417307,-0.0529361716567732,-0.0473880350098896
"V14_1",-1.03873352765874,1.16047164912027,1.49704311896941,0.662480147300859,0.635234059881639,0.568656420118737
"V15_0",0.0709502523919126,-0.0749683348112221,-0.169525172399801,-0.0742672695842992,-0.024627969275652,-0.013406849220376
"V15_1",-1.0358736849216,1.09453768824331,2.47506751703717,1.08430213593079,0.359568351424073,0.195739998616256
"V16_0",0.0581723852338269,-0.0394603174133388,-0.113270789219568,-0.0404398781867646,-0.0528101959416057,-0.0316465332882048
"V16_1",-0.849316824413866,0.576120634234698,1.65375352260572,0.59042222152673,0.771028860747455,0.462039386007744
"V17_0",0.0581723852338226,-0.0394603174133295,-0.113270789219568,-0.040439878186763,-0.0528101959416061,-0.0316465332882045
"V17_1",-0.849316824413841,0.576120634234657,1.65375352260573,0.590422221526752,0.77102886074746,0.462039386007754
"V18_0",0.0699519996259573,-0.0460894529286573,-0.146497494712076,-0.0563295596334426,-0.058804640003839,-0.0433449636892373
"V18_1",-0.839423995511527,0.553073435143912,1.75796993654506,0.675954715601379,0.705655680046092,0.520139564270748
"V19_0",0.0989064931965086,-0.104234751188893,-0.158610010141628,-0.0715281418278602,-0.0590168188144929,-0.0594729433281476
"V19_1",-1.00319443099318,1.05723819063024,1.60875867429403,0.725499724254188,0.59859916226133,0.603225568042608
"V20_0",0.0865611273048932,-0.0967059707600197,-0.124753593247457,-0.0552066789417364,-0.0529361716568081,-0.04738803500991
"V20_1",-1.03873352765871,1.16047164912026,1.49704311896941,0.662480147300803,0.635234059881687,0.568656420118757
"V21_0",0.0699519996259416,-0.0460894529286382,-0.146497494712082,-0.0563295596334509,-0.0588046400038378,-0.0433449636892414
"V21_1",-0.839423995511535,0.553073435143903,1.75796993654507,0.675954715601388,0.705655680046128,0.520139564270818
"V22_0",0.0581723852338194,-0.0394603174133265,-0.11327078921957,-0.0404398781867641,-0.0528101959416054,-0.0316465332881967
"V22_1",-0.84931682441388,0.576120634234735,1.65375352260574,0.590422221526768,0.771028860747474,0.4620393860078
"V23_0",0.0581723852338278,-0.0394603174133362,-0.113270789219569,-0.0404398781867641,-0.0528101959416023,-0.0316465332881979
"V23_1",-0.84931682441383,0.576120634234644,1.65375352260572,0.590422221526744,0.771028860747447,0.462039386007655
"V24_0",0.0576649230360908,-0.0416547587238373,-0.100585433921092,-0.0383703154406723,-0.0554919024359132,-0.0557995386970761
"V24_1",-0.841907876326926,0.608159477367958,1.46854733524788,0.5602066054338,0.810181775564336,0.814673264977336
"V25_0",0.0581723852338227,-0.0394603174133266,-0.113270789219571,-0.0404398781867634,-0.0528101959416063,-0.0316465332882014
"V25_1",-0.849316824413851,0.576120634234664,1.65375352260573,0.590422221526765,0.771028860747437,0.462039386007739
"V26_0",0.0581723852338237,-0.0394603174133335,-0.113270789219569,-0.040439878186764,-0.0528101959416058,-0.0316465332882023
"V26_1",-0.84931682441386,0.576120634234682,1.6537535226057,0.59042222152674,0.771028860747464,0.46203938600776
"V27_0",0.0739390754001832,-0.031288333876363,-0.153932130829335,-0.0543640949438573,-0.0677131212456417,-0.0403371445868498
"V27_1",-0.749953479058962,0.317353100745932,1.56131161269757,0.551407248716282,0.686804515491475,0.409133895095211
"V28_0",0.0517800177691339,-0.0197387072686532,-0.155309582167782,-0.0569672918413286,-0.0520354614745808,-0.0179704315387112
"V28_1",-0.755988259429342,0.288185126122332,2.26751989964956,0.831722460883355,0.759717737528818,0.262368300465173
"V29_0",0.0581723852338214,-0.0394603174133348,-0.11327078921957,-0.0404398781867613,-0.0528101959416052,-0.0316465332882016
"V29_1",-0.849316824413859,0.576120634234671,1.6537535226057,0.590422221526742,0.771028860747465,0.462039386007762
"V30_0",0.0699519996259542,-0.0460894529286564,-0.146497494712094,-0.05632955963345,-0.0588046400038368,-0.0433449636892321
"V30_1",-0.839423995511523,0.5530734351439,1.75796993654507,0.675954715601383,0.70565568004609,0.520139564270747
"V31_0",0.0989064931965152,-0.104234751188897,-0.158610010141668,-0.0715281418278789,-0.0590168188144985,-0.059472943328141
"V31_1",-1.00319443099319,1.05723819063024,1.60875867429404,0.725499724254199,0.598599162261332,0.603225568042613
"V32_0",0.0581723852338247,-0.0394603174133329,-0.113270789219567,-0.0404398781867623,-0.0528101959416071,-0.0316465332882024
"V32_1",-0.849316824413848,0.576120634234668,1.65375352260572,0.590422221526744,0.771028860747455,0.462039386007747
"V33_0",0.0581723852338259,-0.0394603174133351,-0.113270789219571,-0.0404398781867649,-0.0528101959416096,-0.0316465332881995
"V33_1",-0.849316824413849,0.576120634234668,1.65375352260572,0.590422221526747,0.771028860747461,0.46203938600774
"V34_0",0.0581723852338246,-0.0394603174133331,-0.11327078921957,-0.0404398781867648,-0.0528101959416054,-0.0316465332882019
"V34_1",-0.84931682441385,0.576120634234666,1.65375352260571,0.590422221526743,0.771028860747461,0.462039386007741
"V35_0",0.0581723852338265,-0.0394603174133334,-0.113270789219573,-0.0404398781867642,-0.0528101959416078,-0.0316465332882002
"V35_1",-0.849316824413843,0.576120634234667,1.65375352260572,0.590422221526741,0.77102886074746,0.46203938600773
"V36_0",0.106406621916211,-0.128833690782749,-0.0151147423041441,-0.0238015258868072,0.00104665151731815,-0.0820879924797415
"V36_1",-1.07926716515018,1.30674172079646,0.153306671942068,0.241415476851925,-0.010616036818511,0.832606780865962
"V37_0",0.100138587702388,-0.109664212690736,-0.0213475732677751,-0.0157452754558499,0.0275533572285083,-0.0421292212693807
"V37_1",-1.01569138955279,1.11230844300604,0.216525386001723,0.159702079623622,-0.27946976617487,0.427310672875145
"V38_0",0.197163869423375,-0.170514228699343,-0.0150362334532751,-0.0141609414037174,-0.0347505770441114,-0.128843338610145
"V38_1",-0.901320545935445,0.779493616911283,0.0687370672149584,0.0647357321312722,0.158859780773102,0.588998119360673
"V39_0",0.130014842120992,-0.100748243834599,-0.165513176178643,-0.0602292295957067,-0.000844579851341674,0.016837074238347
"V39_1",-0.884100926422774,0.685088058075281,1.12548959801471,0.409558761250778,0.00574314298916454,-0.114492104820723
"V40_0",0.133321132805037,-0.10646797655691,-0.150025041328872,-0.0614566079220693,0.0260382037264951,0.00946400220536674
"V40_1",-0.906583703074251,0.723982240586989,1.02017028103633,0.417904933870072,-0.177059785340167,-0.064355214996494
"V41_0",0.112210195975542,-0.11320426759638,-0.0840322292445666,-0.0393912290907289,0.0205094657356823,-0.0107415441626331
"V41_1",-0.981839214785995,0.990537341468324,0.735282005889958,0.344673254543878,-0.17945782518722,0.0939885114230391
"V42_0",0.122811288274662,-0.121445068347508,-0.03371198485822,-0.0159724422097069,-0.0275335180462801,-0.0838691554571927
"V42_1",-0.941553210105739,0.931078857330898,0.258458550579686,0.12245539027442,0.21109030502148,0.642996858505144
"V43_0",0.125641330414153,-0.129024550807453,-0.0359503991812735,-0.017623446837143,-0.0418380328412109,-0.0916474865141633
"V43_1",-0.963250199841841,0.989188222857138,0.27561972705643,0.135113092418096,0.320758251782617,0.702630729941918
"V44_0",0.0912905560599017,-0.115133899737547,-0.0158917171642069,-0.0213431809394892,-0.0299177049881628,-0.122810710890526
"V44_1",-1.09548667271882,1.38160679685057,0.190700605970483,0.25611817127387,0.359012459857953,1.47372853068631
"V45_0",0.104608609565198,-0.141098487085776,-0.099317524486096,-0.0579672986382447,-0.132620538975793,-0.0933175579430484
"V45_1",-0.801999339999854,1.08175506765762,0.761434354393403,0.444415956226543,1.01675746548108,0.715434610896704
"V46_0",0.0908137025271905,-0.104913846609698,-0.0167844883253411,-0.0154541554595373,-0.147612620313182,-0.146480842965584
"V46_1",-0.696238386041794,0.804339490674351,0.128681077160948,0.118481858523119,1.1316967557344,1.12301979606948
"V47_0",0.173652781810165,-0.224426419116801,0.000124461127629863,-0.0288221296317734,-0.144681141883736,-0.164923280438
"V47_1",-0.868263909050824,1.122132095584,-0.00062230563814909,0.144110648158867,0.723405709418679,0.824616402190003
"V48_0",0.0797001781879087,-0.127262237891448,-0.0232421108794416,-0.0236264049425535,-0.119199907584485,-0.115476844755067
"V48_1",-0.808387521620217,1.29080269861326,0.235741410348622,0.239639250131614,1.2090276340712,1.17126513965853
"V49_0",0.185019208559468,-0.192098276728135,0.0402830117246532,-4.76714631302734e-05,-0.155755927051017,-0.17833828237133
"V49_1",-0.777080675949764,0.806812762258168,-0.169188649243544,0.000200220145147094,0.654174893614271,0.749020785959586
"V50_0",0.0561866628297158,-0.0346046502315393,-0.0793024922653643,-0.0249615057840977,-0.0303323328001068,-0.00908132066169711
"V50_1",-0.82032527731385,0.505227893380474,1.15781638707432,0.364437984447826,0.44285205888156,0.132587281660778
"V51_0",0.143664578163137,-0.166489038564236,-0.0747423299452505,-0.0434561457121028,-0.17005978186354,-0.158209551338655
"V51_1",-0.790155179897254,0.915689712103298,0.411082814698878,0.239008801416565,0.935328800249468,0.8701525323626
"V52_0",0.138501545342982,-0.165868801301707,0.0814461538893039,0.0181105601565597,-0.184496749767086,-0.16974698190347
"V52_1",-0.761758499386399,0.91227840715939,-0.447953846391172,-0.0996080808610781,1.01473212371898,0.933608400469086
"V53_0",0.149412656075287,-0.188189178443065,0.00734768914427217,-0.0142341628481623,-0.160395084548027,-0.159711631211271
"V53_1",-0.821769608414078,1.03504048143686,-0.0404122902934972,0.0782878956648924,0.882172965014152,0.878413971661989
"V54_0",0.131520348166001,-0.176650200435643,0.163087049223954,0.0365961505197196,-0.0806745138162829,0.0375004859061709
"V54_1",-0.801078484283824,1.07596031174437,-0.99334839072772,-0.222903825892837,0.491381129608269,-0.228412050519404
"V55_0",0.0532565584544468,-0.0856612353033967,0.0626396690209602,0.00885795103106442,-0.124561634949803,-0.0797124299784257
"V55_1",-0.639078701453362,1.02793482364076,-0.751676028251523,-0.106295412372773,1.49473961939764,0.956549159741108
"V56_0",0.120418822531144,-0.130917826565987,-0.082109027880566,-0.0448246810665189,-0.134467084726127,-0.0530421062058447
"V56_1",-0.733460100871513,0.797408579992827,0.500118624363447,0.27302305740516,0.819026788786407,0.323074646890145
"V57_0",0.152736147930262,-0.191385390323329,-0.0380035901043234,-0.0324085804346066,-0.136265370307253,-0.163952194640488
"V57_1",-0.840048813616442,1.05261964677831,0.209019745573779,0.178247192390336,0.749459536689891,0.901737070522685
"V58_0",0.194224029164475,-0.243987239825443,0.0319506695940663,-0.00878973762833953,-0.108602380176774,-0.132399563342228
"V58_1",-0.887881276180459,1.11537023920202,-0.146060203858589,0.040181657729552,0.496468023665255,0.605255146707328
"V59_0",0.231982986984894,-0.250852707448134,-0.0189178314253746,-0.0271017733191999,-0.136551667409857,-0.149384826902833
"V59_1",-0.832409541534031,0.900118538490361,0.0678816304086977,0.097247539557129,0.489979512470665,0.5360279082984
"V60_0",0.248823396517383,-0.237305316879888,0.0256871283245768,-0.00532701707669442,-0.176545208666681,-0.188037630852081
"V60_1",-0.772662126027664,0.736895457679653,-0.0797652932184228,0.0165417898697353,0.548219332175482,0.583906327382779
"V61_0",0.0432274702523671,-0.0453244603658693,-0.0497534562048313,-0.0216630383761961,-0.0993496268003263,-0.00288879573937558
"V61_1",-0.518729643028405,0.543893524390432,0.597041474457976,0.259956460514353,1.19219552160392,0.0346655488725074
"V62_0",0.154696967782718,-0.198463767863884,-0.00558071892733238,-0.0195612204147081,-0.139362565446634,-0.140637841180495
"V62_1",-0.850833322804949,1.09155072325136,0.030693954100328,0.107586712280894,0.76649410995649,0.77350812649272
"V63_0",0.142793388357328,-0.174737510766483,0.0653971225502627,0.0106619172281605,-0.170227330344319,-0.164214324441894
"V63_1",-0.785363635965306,0.961056309215659,-0.359684174026445,-0.0586405447548829,0.936250316893752,0.903178784430417
"V64_0",0.238940946249674,-0.239380799999613,-0.0294665681818886,-0.0318305762041147,-0.179275822742161,-0.179705440395427
"V64_1",-0.796469820832247,0.79793599999871,0.0982218939396286,0.106101920680383,0.597586075807205,0.599018134651424
"V65_0",0.085098624771469,-0.125418450201529,0.137703735116948,0.0347930416027337,-0.104278397647546,-0.0110974088174052
"V65_1",-0.744612966750354,1.09741143926338,-1.2049076822733,-0.304439114023919,0.912435979416023,0.0971023271522958
"V66_0",0.070997886512067,-0.110950160533393,0.0946889364279836,0.0184750433354569,-0.119909759098831,-0.0688155393067219
"V66_1",-0.720121420336679,1.12535162826727,-0.96041635519812,-0.187389725259634,1.21622755657386,0.69798618439675
"V67_0",0.0852370393114324,-0.126085538477192,0.126745416327718,0.0294378761523767,-0.116284608000953,-0.0519861461165543
"V67_1",-0.745824093975034,1.10324846167543,-1.10902239286753,-0.257581416333297,1.01749032000834,0.45487877851985
"V68_0",0.0697751986044822,-0.0837790624433182,-0.036595385420462,-0.0190008971019957,-0.0589304946672007,-0.0762038003606455
"V68_1",-1.01871789962544,1.22317431167245,0.534292627138745,0.277413097689138,0.86038522214113,1.11257548526543
"V69_0",0.0713715570807227,-0.084413731246052,-0.077023632636918,-0.0357022780557872,-0.0361831183011635,-0.0524351043430627
"V69_1",-1.04202473337855,1.23244047619236,1.124545036499,0.521253259614493,0.528273527196988,0.765552523408715
"V70_0",0.0450381488866407,-0.0848944946912577,0.0444139036306966,0.000666726726416549,-0.11101692420402,-0.0732721578033118
"V70_1",-0.657556973744953,1.23945962249236,-0.648442993008171,-0.00973421020568165,1.6208470933787,1.06977350392835
"V71_0",0.0624189250327965,-0.109821535673447,0.0757649066933132,0.0100364813001279,-0.106241536757287,-0.0624371646107272
"V71_1",-0.749027100393559,1.31785842808136,-0.909178880319758,-0.120437775601535,1.27489844108744,0.749245975328727
"V72_0",0.0442194558990965,-0.0826652002762209,0.042515475464837,0.00184433773825817,-0.0954650880004814,-0.0271401460253136
"V72_1",-0.645604056126808,1.20691192403283,-0.62072594178662,-0.026927330978569,1.39379028480703,0.396246131969578
"V73_0",0.168463900823291,-0.169196702134499,-0.0794984654222901,-0.0402347384784031,-0.133101519578179,-0.0869954849434656
"V73_1",-0.770120689477901,0.773470638329139,0.363421556216183,0.183930233044128,0.608464089500247,0.397693645455843
"V74_0",0.228964548519381,-0.24080986043991,-0.0114616657982091,-0.0221721559690149,-0.118739171374769,-0.104564512002662
"V74_1",-0.821578674098954,0.864082440402029,0.0411271537465153,0.0795589125947005,0.42606408552123,0.375202072480142
"V75_0",0.255597486451787,-0.28058899171081,0.0231090039624656,-0.0141713117681051,-0.115330505042053,-0.141075171740916
"V75_1",-0.851991621505957,0.935296639036033,-0.0770300132082185,0.0472377058936837,0.384435016806844,0.470250572469719
"V76_0",0.247789586729295,-0.292971193735768,-0.00380660879377915,-0.0331571676158688,-0.0924587092599737,-0.11537786506417
"V76_1",-0.889127340616881,1.05124957752246,0.0136590080247371,0.118975719092235,0.3317636038152,0.414002927583196
"V77_0",0.29584969145712,-0.282298135270154,0.086712101396216,0.0227970988135388,-0.109324217310771,-0.0771921410722368
"V77_1",-0.803020591097896,0.766237795733275,-0.235361418075443,-0.0618778396367481,0.296737161272092,0.2095215257675
"V78_0",0.138154254432698,-0.170153038262328,-0.105742132817965,-0.0551093570242244,-0.0816695258939281,-0.0499295169140274
"V78_1",-0.841485004271891,1.03638668759782,0.644065718073063,0.335666083693003,0.497441657717562,0.304116148476349
"V79_0",0.149090711232454,-0.153013886057436,-0.118024910888823,-0.0643001293786287,0.0156321086537265,0.00501398943936187
"V79_1",-1.01381683638068,1.04049442519056,0.802569394043996,0.437240879774675,-0.10629833884534,-0.0340951281876608
"V80_0",0.119675404075896,-0.107178640796332,-0.0778280043946066,-0.0305316209038795,-0.0185898543913179,0.0348563750954044
"V80_1",-0.917511431248539,0.821702912771876,0.596681367025318,0.234075760263077,0.142522217000104,-0.267232209064767
"V81_0",0.254313008514211,-0.265088501843568,-0.138207081613307,-0.0741403876698902,-0.114958521737103,-0.0864865726016296
"V81_1",-0.847710028380706,0.88362833947856,0.460690272044357,0.247134625566301,0.383195072457011,0.288288575338765
"V82_0",0.206463601784921,-0.223596395846001,0.0832126031852315,0.020033058859886,-0.150095185879613,-0.135373912342213
"V82_1",-0.800046456916569,0.866436033903253,-0.322448837342772,-0.077628103082058,0.581618845283499,0.524573910326073
"V83_0",0.192662413968477,-0.214254539139835,0.0175110649919317,-0.00630660935114992,-0.163341683641982,-0.161034709673713
"V83_1",-0.809182138667605,0.899869064387306,-0.0735464729661133,0.0264877592748298,0.686035071296323,0.676345780629592
"V84_0",0.0585212177523372,-0.0992475612221432,0.0748816614110317,0.0110776986788519,-0.107368960151989,-0.0569721452364348
"V84_1",-0.702254613028047,1.19097073466572,-0.898579936932382,-0.132932384146224,1.28842752182387,0.683665742837219
"V85_0",0.0852370393114324,-0.126085538477192,0.126745416327718,0.0294378761523767,-0.116284608000953,-0.0519861461165543
"V85_1",-0.745824093975034,1.10324846167543,-1.10902239286753,-0.257581416333297,1.01749032000834,0.45487877851985
"V86_0",0.0412363544927274,-0.0488460484756116,0.111615913091945,0.0378831648821878,-0.102905075133669,0.00120241517421975
"V86_1",-0.494836253912729,0.586152581707339,-1.33939095710334,-0.454597978586254,1.23486090160403,-0.014428982090637
"V87_0",0.073009571285289,-0.106669234124045,0.0305898893855534,-0.00462258503884562,-0.0848830025873351,-0.0927191947032901
"V87_1",-0.740525651607931,1.08193080325817,-0.31026887805347,0.0468862196797199,0.860956169100114,0.940437546276229
"V88_0",0.0830409620401507,-0.108133596924246,-0.040763765128494,-0.0216241852292963,-0.107884296424466,-0.0680065579398712
"V88_1",-0.726608417851318,0.946168973087149,0.356682944874322,0.189211620756343,0.943987593714079,0.595057381973872
"V89_0",0.0674870745825514,-0.11843083091786,-0.0344745118950784,-0.0293974063547246,-0.0935803949999027,-0.0785231625001493
"V89_1",-0.809844894990618,1.42116997101432,0.41369414274094,0.352768876256696,1.12296473999883,0.942277950001792
"V90_0",0.137747377461425,-0.1349856773554,-0.0197291937857806,-0.00990381656202063,-0.0677770735115399,-0.142640696829957
"V90_1",-0.936682166737692,0.91790260601672,0.134158517743307,0.06734595262174,0.460884099878471,0.969956738443704
"V91_0",0.106418416092768,-0.104681899221327,-0.0455548906921164,-0.0196883950931198,-0.0653614145708144,-0.125859834725215
"V91_1",-0.931161140811724,0.915966618186608,0.398605293556018,0.172273457064798,0.571912377494626,1.10127355384563
"V92_0",0.0670452819459674,-0.100227256864466,0.0937932510713039,0.0195309257476841,-0.121053061696275,-0.0632735478285663
"V92_1",-0.680030716880527,1.01659074819672,-0.951331546580368,-0.19809938972651,1.22782391149079,0.641774556546886
"V93_0",0.0515430970038416,-0.102131593047795,0.0653999560417247,0.00725358890935417,-0.0770587071624472,0.00224411862681975
"V93_1",-0.752529216256086,1.49112125849781,-0.95483935820918,-0.105902398076571,1.12505712457173,-0.0327641319515681
"V94_0",0.0383337630344314,-0.0680594824594387,0.0430396114613322,0.00358051347389955,-0.10056335211965,-0.0159459508122645
"V94_1",-0.559672940302697,0.993668443907805,-0.62837832733545,-0.0522754967189335,1.46822494094689,0.232810881859062
"V95_0",0.122090807264035,-0.143063162133552,-0.132401918303095,-0.0653761545314989,-0.0592096732713876,-0.130732121990874
"V95_1",-1.06829456356031,1.25180266866858,1.15851678515208,0.572041352150615,0.518084641124641,1.14390606742015
"V96_0",0.0373228305778775,-0.0605685191737135,-0.02378415984378,-0.0207998788801218,-0.10575677747616,-0.0347176797007122
"V96_1",-0.544913326437012,0.884300379936216,0.347248733719189,0.303678231649779,1.54404895115194,0.506878123630397
"V97_0",0.0637193841480545,-0.104591278661341,-0.0771378572348945,-0.0431463105859096,-0.111881799798374,-0.0432220779168857
"V97_1",-0.764632609776654,1.25509534393609,0.925654286818734,0.517755727030916,1.34258159758049,0.518664935002629
"V98_0",0.0805071331015944,-0.0862870318597989,-0.073589974949237,-0.0328630235973143,-0.0638663141952966,-0.0730923016244697
"V98_1",-0.966085597219133,1.03544438231759,0.883079699390846,0.394356283167772,0.766395770343559,0.877107619493637
"V99_0",0.0449074688071217,-0.0849619471834185,0.0230212502881204,-0.00597856077917095,-0.10765947447995,-0.0636112083673419
"V99_1",-0.655649044583976,1.24044442887791,-0.336110254206558,0.0872869873758958,1.57182832740728,0.92872364216319
"V100_0",0.1395863147673,-0.155629743730738,-0.128937704183507,-0.0606372297558732,0.0100655948073698,-0.0271485525588419
"V100_1",-1.0701617465493,1.19316136860232,0.988522398740218,0.464885428128361,-0.0771695601898348,0.208138902951121
"V101_0",0.0687544045524761,-0.101842573998037,-0.0163700769330034,-0.0184493883652375,-0.136869740737896,-0.0994397858794926
"V101_1",-0.697366103317972,1.03297467912295,0.166039351749035,0.187129510561695,1.38825022748438,1.008603542492
"V102_0",0.0576653899447548,-0.0941723397611175,-0.0259742389366802,-0.0208026552414902,-0.122811942336864,-0.0689263445314601
"V102_1",-0.691984679337058,1.13006807713341,0.311690867240162,0.249631862897883,1.47374330804237,0.827116134377521
"V103_0",0.0576653899447548,-0.0941723397611175,-0.0259742389366802,-0.0208026552414902,-0.122811942336864,-0.0689263445314601
"V103_1",-0.691984679337058,1.13006807713341,0.311690867240162,0.249631862897883,1.47374330804237,0.827116134377521
"V104_0",0.0450381488866407,-0.0848944946912577,0.0444139036306966,0.000666726726416549,-0.11101692420402,-0.0732721578033118
"V104_1",-0.657556973744953,1.23945962249236,-0.648442993008171,-0.00973421020568165,1.6208470933787,1.06977350392835
"V105_0",0.0532565584544468,-0.0856612353033967,0.0626396690209602,0.00885795103106442,-0.124561634949803,-0.0797124299784257
"V105_1",-0.639078701453362,1.02793482364076,-0.751676028251523,-0.106295412372773,1.49473961939764,0.956549159741108
"V106_0",0.147740315555736,-0.15031236520289,-0.211320908876054,-0.105906458318536,0.00385805348679917,-0.00488128086030425
"V106_1",-1.00463414577901,1.02212408337965,1.43698218035717,0.720163916566046,-0.0262347637102341,0.0331927098500694
"V107_0",0.102140724526557,-0.133302198480523,-0.122243681365784,-0.0664876501772521,0.0306699932905096,0.0385518554774741
"V107_1",-1.22568869431869,1.59962638176627,1.46692417638941,0.797851802127026,-0.368039919486115,-0.462622265729689
"V108_0",0.147740315555736,-0.15031236520289,-0.211320908876054,-0.105906458318536,0.00385805348679917,-0.00488128086030425
"V108_1",-1.00463414577901,1.02212408337965,1.43698218035717,0.720163916566046,-0.0262347637102341,0.0331927098500694
"V109_0",0.147740315555736,-0.15031236520289,-0.211320908876054,-0.105906458318536,0.00385805348679917,-0.00488128086030425
"V109_1",-1.00463414577901,1.02212408337965,1.43698218035717,0.720163916566046,-0.0262347637102341,0.0331927098500694
"V110_0",0.147740315555736,-0.15031236520289,-0.211320908876054,-0.105906458318536,0.00385805348679917,-0.00488128086030425
"V110_1",-1.00463414577901,1.02212408337965,1.43698218035717,0.720163916566046,-0.0262347637102341,0.0331927098500694
"V111_0",0.180141425002039,-0.184079086772606,-0.200845377855217,-0.103918584178578,-0.0322727991152493,-0.0541788800260242
"V111_1",-0.990777837511213,1.01243497724933,1.10464957820369,0.571552212982179,0.177500395133871,0.297983840143134
"V112_0",0.147740315555736,-0.15031236520289,-0.211320908876054,-0.105906458318536,0.00385805348679917,-0.00488128086030425
"V112_1",-1.00463414577901,1.02212408337965,1.43698218035717,0.720163916566046,-0.0262347637102341,0.0331927098500694
"V113_0",0.145799349069131,-0.141078097905436,-0.237773752148266,-0.111583053212127,0.0204304432739481,0.0392446685686018
"V113_1",-0.991435573670087,0.959331065756968,1.61686151460821,0.758764761842464,-0.138927014262847,-0.266863746266492
"V114_0",0.13687949316252,-0.144273544647309,-0.214471532268729,-0.102433682008789,0.0258642317450937,0.0459182814223827
"V114_1",-1.04940944757932,1.10609717562937,1.64428174739359,0.785324895400714,-0.198292443379052,-0.352040157571601
"V115_0",0.147740315555736,-0.15031236520289,-0.211320908876054,-0.105906458318536,0.00385805348679917,-0.00488128086030425
"V115_1",-1.00463414577901,1.02212408337965,1.43698218035717,0.720163916566046,-0.0262347637102341,0.0331927098500694
"V116_0",0.129190868712668,-0.161055765191731,-0.120797338030141,-0.0721838897329599,0.0168823957488147,-0.0185165091321126
"V116_1",-1.13042010123584,1.40923794542765,1.05697670776373,0.6316090351634,-0.147720962802129,0.162019454905985
"V117_0",0.180141425002039,-0.184079086772606,-0.200845377855217,-0.103918584178578,-0.0322727991152493,-0.0541788800260242
"V117_1",-0.990777837511213,1.01243497724933,1.10464957820369,0.571552212982179,0.177500395133871,0.297983840143134
"V118_0",0.171741161983334,-0.187489776078197,-0.218417576429059,-0.110221660226968,0.004532806894001,-0.0379996843381236
"V118_1",-1.04605980480758,1.1419831815672,1.33036160188609,0.67135011229153,-0.0276089147180059,0.231452622786753
"V119_0",0.135024446530241,-0.141606181778788,-0.218517268764774,-0.107094547378491,0.0164875272643299,0.0255884187344661
"V119_1",-1.03518742339851,1.08564739363737,1.67529906052993,0.821058196568432,-0.126404375693196,-0.19617787696424
"V120_0",0.155489551272192,-0.171299140043943,-0.210116348026353,-0.107156467033933,0.0103278527736234,-0.000638161626772116
"V120_1",-1.0573289486509,1.16483415229881,1.4287911665792,0.728663975830741,-0.0702293988606388,0.0043394990620507
"V121_0",0.195588527595062,-0.194985269954598,-0.220065231309997,-0.108888085341325,-0.0306065090254509,-0.0826390029932749
"V121_1",-0.977942637975311,0.974926349772989,1.10032615654998,0.544440426706623,0.153032545127255,0.413195014966375
"V122_0",0.171741161983334,-0.187489776078197,-0.218417576429059,-0.110221660226968,0.004532806894001,-0.0379996843381236
"V122_1",-1.04605980480758,1.1419831815672,1.33036160188609,0.67135011229153,-0.0276089147180059,0.231452622786753
"V123_0",0.195588527595062,-0.194985269954598,-0.220065231309997,-0.108888085341325,-0.0306065090254509,-0.0826390029932749
"V123_1",-0.977942637975311,0.974926349772989,1.10032615654998,0.544440426706623,0.153032545127255,0.413195014966375
"V124_0",0.192627993603082,-0.184353901011501,-0.225622691176304,-0.111228952541628,-0.00396124856332739,-0.0404393793200452
"V124_1",-0.963139968015413,0.921769505057502,1.12811345588152,0.556144762708142,0.0198062428166371,0.202196896600226
"V125_0",0.155489551272192,-0.171299140043943,-0.210116348026353,-0.107156467033933,0.0103278527736234,-0.000638161626772116
"V125_1",-1.0573289486509,1.16483415229881,1.4287911665792,0.728663975830741,-0.0702293988606388,0.0043394990620507
"V126_0",0.145799349069131,-0.141078097905436,-0.237773752148266,-0.111583053212127,0.0204304432739481,0.0392446685686018
"V126_1",-0.991435573670087,0.959331065756968,1.61686151460821,0.758764761842464,-0.138927014262847,-0.266863746266492
"V127_0",0.195588527595062,-0.194985269954598,-0.220065231309997,-0.108888085341325,-0.0306065090254509,-0.0826390029932749
"V127_1",-0.977942637975311,0.974926349772989,1.10032615654998,0.544440426706623,0.153032545127255,0.413195014966375
"V128_0",0.181974700128658,-0.190564360780387,-0.176927651128765,-0.0924038384337146,-0.0256511299287667,-0.0859358621807299
"V128_1",-1.00086085070762,1.04810398429213,0.973102081208205,0.50822111138543,0.141081214608217,0.472647241994015
"V129_0",0.195588527595062,-0.194985269954598,-0.220065231309997,-0.108888085341325,-0.0306065090254509,-0.0826390029932749
"V129_1",-0.977942637975311,0.974926349772989,1.10032615654998,0.544440426706623,0.153032545127255,0.413195014966375
"V130_0",0.0960212161781294,-0.123871880121604,-0.0535621351587922,-0.0368020203479425,0.00514584616113421,-0.062759428457978
"V130_1",-1.15225459413755,1.48646256145925,0.642745621905507,0.441624244175311,-0.0617501539336103,0.753113141495736
"V131_0",0.107803758577256,-0.113478709603931,0.00632099415551204,-0.0110033526982824,-0.0649444177732482,-0.178112617041018
"V131_1",-0.943282887550993,0.992938709034394,-0.0553086988607303,0.0962793361099709,0.568263655515923,1.5584853991089
"V132_0",0.0570448094538615,-0.113910342426137,0.0276493572730827,-0.0105648802008776,-0.0579506673016941,-0.0433520074054326
"V132_1",-0.832854218026376,1.6630909994216,-0.403680616187008,0.154247250932813,0.846079742604735,0.632939308119316
"V133_0",0.235549828623912,-0.216203794777151,-0.0347928342740739,-0.0309419512473468,-0.0687069831040696,-0.191164322840436
"V133_1",-0.912755585917661,0.837789704761459,0.134822232812037,0.119900061083469,0.26623955952827,0.740761751006689
"V134_0",0.122515975634852,-0.145458429000996,-0.0761870468624391,-0.0572103846435977,0.0189506233631787,-0.0538313287387524
"V134_1",-1.07201478680496,1.27276125375872,0.666636660046342,0.50059086563148,-0.165817954427814,0.471024126464083
"V135_0",0.25771225915256,-0.222706739247192,-0.228674915831651,-0.100707321685988,0.0222609887092822,-0.0754291089999324
"V135_1",-0.92473222401801,0.799124182004631,0.820539403866514,0.361361566049721,-0.079877665368601,0.270657391117404
"V136_0",0.158000523399889,-0.176477340805105,-0.132896257594401,-0.0634018606239611,0.0179393038520649,-0.0514272792744324
"V136_1",-1.07440355911925,1.20004591747472,0.903694551641927,0.431132652242935,-0.121987266194041,0.349705499066141
"V137_0",0.273446152533417,-0.229486128530814,-0.21314748876787,-0.0897222186443838,0.00280384674713401,-0.0762138734504882
"V137_1",-0.91148717511139,0.76495376176938,0.710491629226234,0.299074062147947,-0.00934615582378007,0.254046244834961
"V138_0",0.312084059772296,-0.258558614776315,-0.219643705023413,-0.0992311897593708,0.0463540375089075,0.0211494340176495
"V138_1",-0.905043773339658,0.749819982851314,0.636966744567897,0.287770450302176,-0.134426708775832,-0.0613333586511837
"V139_0",0.283779282820326,-0.257142604248858,-0.181670633255741,-0.0824917685858012,0.0430013768545554,-0.0380759606573608
"V139_1",-0.945930942734419,0.857142014162858,0.605568777519136,0.274972561952671,-0.143337922848518,0.126919868857869
"V140_0",0.339604879696764,-0.296033590127685,-0.209641316006676,-0.0991671051795621,0.0395296277698993,-0.0102162931627191
"V140_1",-0.921784673462647,0.803519744632288,0.569026429160979,0.269167856915954,-0.107294703946869,0.0277299385845234
"V141_0",0.271801796945575,-0.22060138813427,-0.254607336573093,-0.111158220128169,0.0698449390204033,0.0301359767545419
"V141_1",-0.906005989818584,0.735337960447567,0.84869112191031,0.37052740042723,-0.232816463401344,-0.100453255848473
"V142_0",0.134214408280347,-0.111380146295979,-0.20686221718189,-0.0899734272687653,-0.00446933650157168,-0.0249353101301438
"V142_1",-0.912657976306361,0.757384994812656,1.40666307683685,0.611819305427605,0.0303914882106874,0.169560108884978
"V143_0",0.219426904415444,-0.184691845931297,-0.21473490210975,-0.0909334578968928,0.0340068633027156,-0.0268197668072433
"V143_1",-0.921592998544863,0.775705752911447,0.901886588860952,0.38192052316695,-0.142828825871405,0.112643020590422
"V144_0",0.312950007053086,-0.261449347952615,-0.244179540159625,-0.10907725168648,0.0310059303881965,-0.0247537996197309
"V144_1",-0.90755502045395,0.758203109062585,0.708120666462912,0.316324029890792,-0.08991719812577,0.0717860188972196
"V145_0",0.303493394893651,-0.277601485580923,-0.136322838014216,-0.0690429070138445,0.0290679894588954,-0.043239382877341
"V145_1",-0.942426857827653,0.862025665751289,0.423318286465198,0.214396395464043,-0.0902637567407806,0.134269662619111
"V146_0",0.341517445235195,-0.304863206032967,-0.110604472744083,-0.0562508938353237,0.00388777223803399,-0.0664467216609535
"V146_1",-0.926975922781242,0.827485844946625,0.300212140305368,0.152680997553021,-0.010552524646092,0.180355387365445
"V147_0",0.342329133637826,-0.324528831022848,0.107915409270646,0.0244158524952144,0.0394224901153298,-0.0010201779086582
"V147_1",-0.929179077016957,0.880863969919161,-0.292913253734611,-0.0662715996298678,-0.10700390174161,0.00276905432350052
"V148_0",0.0803345419577336,-0.0853978871823881,0.0992162673153039,0.0314082077991071,-0.0208573871388744,-0.0755986373931379
"V148_1",-0.964014503492804,1.02477464618866,-1.19059520778365,-0.376898493589285,0.250288645666494,0.907183648717655
"V149_0",0.269755155953512,-0.29181595768132,0.184419288505418,0.0447553678760745,-0.0976705451139514,-0.133060490106815
"V149_1",-0.83766074743459,0.906165342273571,-0.572670422201033,-0.1389771949836,0.303292745353849,0.41318783770011
"V150_0",0.330852951025823,-0.339315830991256,0.16806700854599,0.0360978759823565,-0.0547733142749521,-0.0526786513697678
"V150_1",-0.842171148065731,0.863713024341378,-0.427806930844337,-0.0918855025005438,0.139422981790787,0.134091112577591
"V151_0",0.146681290429372,-0.163366453357839,0.0844203463250106,0.0190292015899681,-0.0185174126269516,-0.136143271922818
"V151_1",-0.997432774919732,1.1108918828333,-0.574058355010071,-0.129398570811783,0.12591840586327,0.925774249075164
"V152_0",0.286149287434193,-0.258654658347307,0.173575702508382,0.053576344319632,-0.0616286787841673,-0.0079670507958982
"V152_1",-0.776690923035666,0.702062644085547,-0.471134049665609,-0.14542150601043,0.167277842414169,0.0216248521602951
"V153_0",0.19860197921189,-0.176456331781953,0.0530589161198889,0.0165901948547222,0.0138434645767506,-0.0732491151089997
"V153_1",-0.907894762111499,0.806657516717499,-0.242555045119492,-0.0758408907644443,-0.0632844094937171,0.334853097641141
"V154_0",0.174112046320629,-0.220065310963053,0.0780218364508686,0.00574989826679898,-0.0751911506737357,-0.108241651677249
"V154_1",-0.870560231603147,1.10032655481526,-0.390109182254343,-0.028749491333995,0.375955753368679,0.541208258386246
"V155_0",0.170426080140243,-0.188573561932002,-0.0486559176600671,-0.0448995845593474,0.056523139006969,-0.0362609404824705
"V155_1",-1.03804976085421,1.14858442267674,0.296358771202227,0.273479287770571,-0.344277301224266,0.220862092029593
"V156_0",0.171829314773728,-0.194543139398907,-0.0266146620538817,-0.0382942066165062,0.0510525891279266,-0.0573130907252763
"V156_1",-1.04659673543998,1.1849445763388,0.162107487055461,0.233246531209628,-0.310956679233735,0.349088825326683
"V157_0",0.163978409083994,-0.178975099811263,0.0763369630385745,0.00761254646751897,0.0310972537738273,-0.000673853362215842
"V157_1",-0.998777582602509,1.09012106248679,-0.464961502144045,-0.0463673284839791,-0.189410545713311,0.00410437956986043
"V158_0",0.183524833883146,-0.198005242809521,0.096512347943426,0.0246473671904703,0.0512472263703571,-0.0289701806876477
"V158_1",-1.00938658635731,1.08902883545236,-0.530817913688844,-0.135560519547587,-0.281859745036964,0.159335993782062
"V159_0",0.117774358984999,-0.129449702547526,-0.0363978446764304,-0.0204453032611903,0.0261032476693447,0.0535954318053007
"V159_1",-1.03052564111874,1.13268489729085,0.318481140918765,0.178896403535415,-0.228403417106766,-0.468960028296382
"V160_0",0.152794214106864,-0.200836276858423,0.0550384549283269,-0.00280131900382228,0.067960315161538,0.00918106219233971
"V160_1",-1.17142230815263,1.53974478924791,-0.421961487783839,0.0214767790293041,-0.521029082905125,-0.0703881434746051
"V161_0",0.0574796843111128,-0.046518209875072,0.109434690496397,0.0410122959858727,0.0003761140954612,-0.000887686530825359
"V161_1",-0.839203390942247,0.679165864176052,-1.5977464812474,-0.598779521393741,-0.00549126579373329,0.0129602233500506
"V162_0",0.291392876784855,-0.303898954118864,0.160923916354585,0.0256523617835771,0.068327542968635,0.0168721256289084
"V162_1",-0.971309589282849,1.01299651372955,-0.536413054515283,-0.0855078726119236,-0.227758476562117,-0.0562404187630279
"V163_0",0.0718050766045977,-0.0643656162185759,0.132809612397981,0.0472088977479238,-0.0227013587127633,-0.0382276158174006
"V163_1",-0.861660919255172,0.772387394622911,-1.59371534877578,-0.566506772975085,0.27241630455316,0.458731389808808
"V164_0",0.262207010103087,-0.307750060274049,0.158521343752845,0.0186187471589892,-0.0800089057926065,-0.0729118444541249
"V164_1",-0.87402336701029,1.02583353424683,-0.52840447917615,-0.0620624905299641,0.266696352642022,0.243039481513749
"V165_0",0.147161541633439,-0.186442518624243,0.188479036011586,0.0457011768046041,-0.0603452089823633,0.0318635367609927
"V165_1",-0.809388478983912,1.02543385243334,-1.03663469806372,-0.251356472425322,0.331898649402998,-0.17524945218546
"V166_0",0.223274594139095,-0.272919319691367,0.206957256789605,0.0462405507215526,-0.0899910988629724,-0.0854373074516157
"V166_1",-0.865189052288993,1.05756236380405,-0.801959370059719,-0.179182134046016,0.348715508094018,0.331069566375011
"V167_0",0.128349842218096,-0.143939163206287,0.103535331233175,0.0218083219478983,0.00230535065260714,-0.0177803472311725
"V167_1",-0.984015457005401,1.10353358458153,-0.793770872787672,-0.167197134933887,-0.017674355003321,0.136315995438989
"V168_0",0.125509293815995,-0.157403534270221,0.0833207692198138,0.0159866955854451,-0.000730979883047049,-0.061497389326991
"V168_1",-1.09820632088996,1.37728092486443,-0.729056730673371,-0.139883586372645,0.00639607397666134,0.538102156611172
"V169_0",0.0550190234555361,-0.0384992490470691,0.0111608360857769,-0.00373595119404252,0.0102153946708592,0.0280791650882971
"V169_1",-0.803277742450827,0.562089036087208,-0.162948206852343,0.0545448874330209,-0.149144762194544,-0.409955810289139
"V170_0",0.0923116826135274,-0.0972933747095645,0.0327194849780983,-0.00184672679529477,-0.015736346368416,-0.0454377478889213
"V170_1",-0.936304209365779,0.986832800625582,-0.331869061920711,0.0187310860665615,0.159611513165363,0.460868585730487
"V171_0",0.314163910705686,-0.324613718595567,0.126657882261706,0.0148771088584542,0.0702089681854209,-0.0388539243609308
"V171_1",-0.975561617454498,1.00801102090202,-0.393306055444245,-0.0461973380341471,-0.218017322259991,0.120651659857627
"V172_0",0.175482704179901,-0.171477795949512,-0.210865646915997,-0.101614327628211,-0.0444421643967373,-0.146530546521028
"V172_1",-0.965154872989452,0.943127877722314,1.15976105803798,0.55887880195516,0.244431904182055,0.805918005865655
"V173_0",0.171459406958229,-0.163892884727938,-0.178392858175509,-0.0850810765621565,-0.0612009462894222,-0.188694865181067
"V173_1",-0.943026738270262,0.901410866003661,0.981160719965299,0.46794592109186,0.336605204591823,1.03782175849587
"V174_0",0.152166412248233,-0.144531996586754,-0.134345849944613,-0.071028188875611,-0.0755906743810501,-0.186863633211872
"V174_1",-0.926831783693785,0.880331251937499,0.818288358753549,0.432626241333267,0.460415925775487,1.13816940229049
"V175_0",0.14381615400183,-0.148743697665241,-0.150722063915609,-0.0747250188776272,-0.0558005573134717,-0.172121921030759
"V175_1",-0.977949847212445,1.01145714412364,1.02491003462614,0.508130128367865,0.379443789731608,1.17042906300917
"V176_0",0.154714752067858,-0.151716945584777,-0.148132139703156,-0.0722563087255644,-0.0858424609461567,-0.196107070597163
"V176_1",-0.942353489867864,0.924094123107281,0.902259396373769,0.440106607692074,0.522858625762955,1.19447033909181
"V177_0",0.156454068019583,-0.152408450399696,-0.192180826968847,-0.0904533357349192,-0.0610580060995789,-0.170209834637707
"V177_1",-0.952947505210186,0.928306016070878,1.17055594608298,0.550943044930872,0.371898764424708,1.03673262915694
"V178_0",0.14042726751379,-0.136733716213656,-0.184265433117026,-0.087678853196179,-0.0542983894406392,-0.130904045010185
"V178_1",-0.954905419093772,0.929789270252861,1.25300494519578,0.596216201734017,0.369229048196346,0.890147506069257
"V179_0",0.086662031364592,-0.0946028480389924,-0.158419091818455,-0.0741785487499726,-0.0242929259911528,-0.0542293007165281
"V179_1",-1.0399443763751,1.13523417646791,1.90102910182146,0.890142584999671,0.291515111893834,0.650751608598337
"V180_0",0.156454068019583,-0.152408450399696,-0.192180826968847,-0.0904533357349192,-0.0610580060995789,-0.170209834637707
"V180_1",-0.952947505210186,0.928306016070878,1.17055594608298,0.550943044930872,0.371898764424708,1.03673262915694
"V181_0",0.121183188174326,-0.145692744861534,-0.0810562569098687,-0.0472411779631594,-0.0459435835296879,-0.173672794483918
"V181_1",-1.06035289652535,1.27481151753842,0.709242247961351,0.413360307177645,0.402006355884769,1.51963695173428
"V182_0",0.167709279905062,-0.155482274086718,-0.190179824557012,-0.0881855287147539,-0.0916347484052759,-0.194529424555221
"V182_1",-0.922401039477842,0.855152507476949,1.04598903506357,0.485020407931146,0.503991116229017,1.06991183505372
"V183_0",0.194308491236533,-0.211902631111717,0.129002353835519,0.0319042053897656,-0.0651858818334878,-0.202673737677345
"V183_1",-0.971542456182667,1.05951315555859,-0.645011769177594,-0.159521026948828,0.325929409167439,1.01336868838673
"V184_0",0.0997307963817992,-0.139692339247091,0.0568053717755218,0.00518689754417159,-0.00660924624606685,-0.100576186331374
"V184_1",-1.19676955658159,1.6763080709651,-0.681664461306262,-0.062242770530059,0.0793109549528025,1.20691423597649
"V185_0",0.175595430949821,-0.206392601520759,0.0677719013210835,-0.00271272009470599,-0.160289244162518,-0.235534013500832
"V185_1",-0.802721970056324,0.94350903552347,-0.309814406039239,0.0124010061472275,0.732750830457223,1.07672691886095
"V186_0",0.214993688474047,-0.251517397452889,0.142944325350762,0.0263195520329424,-0.155222839850681,-0.220816520335117
"V186_1",-0.833100542836932,0.974629915129943,-0.553909260734201,-0.101988264127652,0.60148850442139,0.855664016298579
"V187_0",0.204206292029371,-0.22385851705506,0.0919837732728877,0.00780299834953761,-0.168832159421125,-0.213300032219541
"V187_1",-0.791299381613813,0.867451753588359,-0.35643712143244,-0.0302366186044583,0.65422461775686,0.826537624850723
"V188_0",0.0588470748013864,-0.0998183395709455,0.0266001949616268,-0.00743890503927889,-0.112507667755869,-0.100467238736082
"V188_1",-0.706164897616636,1.19782007485135,-0.319202339539521,0.0892668604713465,1.35009201307043,1.20560686483298
"V189_0",0.0805414795785608,-0.107302810995673,-0.0456051402605649,-0.0412068274965365,0.0270251642154659,0.0186297095543077
"V189_1",-1.17590560184699,1.56662104053682,0.665835047804248,0.601619681449433,-0.394567397545802,-0.271993759492892
"V190_0",0.147237724236467,-0.161330506911091,-0.0504728154554517,-0.043623521541421,-0.0208642201703861,-0.171389710364561
"V190_1",-1.00121652480798,1.09704744699542,0.343215145097071,0.296639946481663,0.141876697158626,1.16545003047901
"V191_0",0.239891328700654,-0.258436343681272,0.046629001548912,-0.00816161867546314,0.0280770389736692,-0.134876223779741
"V191_1",-1.00754358054275,1.08543264346134,-0.19584180650543,0.0342787984369453,-0.117923563689411,0.566480139874913
"V192_0",0.279524682911918,-0.306322547691756,0.12918688170457,0.0127973180695209,0.0493914855386332,-0.0580736422277258
"V192_1",-1.00300033280159,1.0991573770116,-0.463552928469341,-0.0459197883671042,-0.177228271638625,0.208381892699487
"V193_0",0.0888402235292923,-0.109868300239151,0.00650301924134023,-0.0111079250084719,-0.0189857432377609,-0.142613650843954
"V193_1",-1.06608268235151,1.31841960286982,-0.0780362308960823,0.133295100101663,0.227828918853131,1.71136381012744
"V194_0",0.0856577076187475,-0.124769755415331,0.026955004953551,-0.00521502315670548,0.00409968786112947,-0.0811861638072064
"V194_1",-1.25060253123371,1.82163842906383,-0.393543072321844,0.0761393380879001,-0.0598554427724901,1.18531799158521
"V195_0",0.208654241151067,-0.259069556784484,0.145669949996799,0.0206247977271566,-0.0448954726683921,-0.0430631975909081
"V195_1",-0.876347812834483,1.08809213849483,-0.611813789986554,-0.0866241504540576,0.188560985207247,0.180865429881814
"V196_0",0.125431337660521,-0.163465929317631,0.102879193534799,0.0193076876793129,-0.0321729884181377,-0.129083612415823
"V196_1",-1.09752420452956,1.43032688152928,-0.900192943429494,-0.168942267193988,0.281513648658705,1.12948160863845
"V197_0",0.16775722816531,-0.216636604250241,0.155935350259759,0.0338253832858545,-0.140164456401979,-0.192568298313377
"V197_1",-0.838786140826549,1.0831830212512,-0.779676751298796,-0.169126916429272,0.700822282009892,0.962841491566885
"V198_0",0.14229917332637,-0.176412722816111,0.134238354202771,0.0288530716948078,-0.137191995406863,-0.16022669462066
"V198_1",-0.782645453295032,0.97026997548861,-0.738310948115239,-0.158691894321443,0.754555974737745,0.881246820413631
"V199_0",0.255222016766562,-0.263060756571732,0.24232503606927,0.0661058609527319,-0.104183363060484,-0.0726855043526743
"V199_1",-0.792531525748798,0.816872875670114,-0.752483006741417,-0.205276094537431,0.323516758977291,0.225707618779357
"V200_0",0.119815285652746,-0.144205575987939,0.0410051579599392,-0.00538667704977836,-0.0238209355165728,-0.129110617808288
"V200_1",-1.04838374946153,1.26179878989446,-0.358795132149468,0.0471334241855606,0.208433185770012,1.12971790582252
"V201_0",0.252869337432278,-0.260173288605623,0.0550355457971953,-0.00728045941111301,0.0542818000637345,-0.0555128656300895
"V201_1",-0.979868682550076,1.00817149334679,-0.213262739964132,0.0282117802180629,-0.210341975246971,0.215112354316596
"V202_0",0.216736043090126,-0.234266408132678,0.120495313987026,0.0128967039320403,0.048519077694465,0.00536829786219115
"V202_1",-0.990793339840578,1.07093215146367,-0.550835721083549,-0.0589563608321845,-0.22180149803184,-0.0245407902271594
"V203_0",0.155544721146897,-0.189490864318508,0.0487363967826199,-0.00547639499375628,-0.0367853941985411,-0.196313573381068
"V203_1",-1.0577041037989,1.28853787736585,-0.331407498121815,0.0372394859575426,0.250140680550079,1.33493229899126
"V204_0",0.255575620434933,-0.260991993298744,-0.00384672630594264,-0.0181120932719698,0.0523521277038576,0.00323000960314695
"V204_1",-0.990355529185363,1.01134397403263,0.0149060644355276,0.0701843614288828,-0.202864494852448,-0.0125162872121944
"V205_0",0.138127452825206,-0.0987874054152279,-0.0233029129108986,-0.0163432702353966,0.0126881319372668,0.0311479859925206
"V205_1",-0.841321758117167,0.601705105710934,0.141935924093655,0.0995453732519609,-0.0772822581633515,-0.189719551045351
"V206_0",0.1868385672109,-0.172465787891809,0.01043917427991,-0.00521775351906166,0.0245470523964172,0.0102181329430272
"V206_1",-0.934192836054501,0.862328939459045,-0.0521958713995498,0.0260887675953084,-0.122735261982086,-0.051090664715136
"V207_0",0.263193792193343,-0.254999839582195,0.141479467202077,0.0384707615109319,0.0350732820974033,-0.0304734570064102
"V207_1",-0.944401254340819,0.914999424383169,-0.507661617607453,-0.138042144245109,-0.125851188702447,0.109345933964178
"V208_0",0.347696206234539,-0.338951107797924,0.0587315667349339,-0.00223471805733543,-0.0170549682645355,-0.114610969960732
"V208_1",-0.943746845493748,0.920010149737222,-0.159414252566249,0.00606566329848194,0.0462920567180248,0.311086918464844
"V209_0",0.251190892976087,-0.220752285624547,-0.0399924350208502,-0.0238552571967731,-0.0187682612028719,-0.00730920045509937
"V209_1",-0.901332027737726,0.792111142535138,0.143502266839521,0.0855982758237152,0.0673449372573637,0.0262271310447685
"V210_0",0.126104473163477,-0.121326471467665,-0.0555951142462724,-0.0237073795387371,-0.000885066690979991,0.00149462515785868
"V210_1",-0.966800960919988,0.930169614585429,0.426229209221422,0.181756576463651,0.00678551129751322,-0.0114587928769166
"V211_0",0.325393564586339,-0.312072093026322,0.00881764844558542,-0.0146807877609872,-0.00471575346139043,-0.0821997229994621
"V211_1",-0.943641337300383,0.905009069776333,-0.0255711804921979,0.042574284506863,0.0136756850380322,0.23837919669844
"V212_0",0.229760506653119,-0.270203102132294,0.151747029459329,0.0310259900705687,0.0334056855444756,-0.0753625292865395
"V212_1",-1.05033374469997,1.2352141811762,-0.693700706099788,-0.141833097465457,-0.152711705346174,0.344514419595609
"V213_0",0.323647717214513,-0.31547648893158,0.114773724489791,0.0251961082882312,-0.019084480117655,-0.0891245522199014
"V213_1",-0.938578379922089,0.914881817901583,-0.332843801020394,-0.0730687140358705,0.0553449923411995,0.258461201437714
"V214_0",0.269665243442646,-0.299183563141698,0.233549856917011,0.053266941308026,-0.0748097265858273,-0.0290675654852793
"V214_1",-0.837381545427164,0.929043696071587,-0.725233766215982,-0.165407870377555,0.232303887819148,0.0902624401911303
"V215_0",0.110602463940517,-0.125243071488992,0.131043542543095,0.0373771351535035,-0.0506823552706885,-0.0755573289920694
"V215_1",-0.967771559479528,1.09587687552868,-1.14663099725209,-0.327049932593156,0.443470608618524,0.661126628680607
"V216_0",0.255559629399707,-0.292577429999341,0.204483836764218,0.0429131655645475,-0.0898623339373894,-0.0743708078108163
"V216_1",-0.851865431332355,0.975258099997803,-0.681612789214061,-0.143043885215159,0.299541113124631,0.247902692702721
"V217_0",0.212914178429338,-0.251326796748439,0.243386814248592,0.0608282219477394,-0.0964026488601055,-0.0400463302296861
"V217_1",-0.825042441413686,0.9738913374002,-0.943123905213295,-0.23570936004749,0.373560264332908,0.155179529640034
"V218_0",0.142605943073613,-0.152947899407718,0.122316441703661,0.0348432712825421,-0.0275365135080909,-0.0748577090562958
"V218_1",-0.969720412900566,1.04004571597248,-0.831751803584894,-0.236934244721286,0.187248291855017,0.509032421582811
"V219_0",0.245377085931307,-0.271894042652681,0.242720269670112,0.057654166187343,-0.0754471702895631,0.00522579945810048
"V219_1",-0.817923619771023,0.906313475508936,-0.80906756556704,-0.19218055395781,0.251490567631877,-0.0174193315270017
"V220_0",0.189588514074549,-0.217535657430976,0.226987342927545,0.0582296150785932,-0.0879622037570503,-0.0106964538244743
"V220_1",-0.796271759113104,0.913649761210097,-0.953346840295689,-0.244564383330091,0.369441255779611,0.044925106062792
"V221_0",0.207391294522052,-0.255363294597384,0.174524796079172,0.0325533478690566,-0.0579410319985529,-0.00578414419639178
"V221_1",-0.871043436992616,1.07252583730901,-0.733004143532523,-0.136724061050038,0.243352334393922,0.0242934056248456
"V222_0",0.12111079672349,-0.145554760540146,0.0721368917582508,0.0141672157155903,0.0327539048115811,-0.0120457507884579
"V222_1",-1.05971947133054,1.27360415472627,-0.631197802884694,-0.123963137511415,-0.286596667101335,0.105400319399006
"V223_0",0.251315225341554,-0.257260787308981,0.0174499806134879,-0.0199553181618871,0.00482458226071994,-0.122053099306462
"V223_1",-0.973846498198523,0.996885550822301,-0.0676186748772658,0.0773268578773123,-0.0186952562602898,0.472955759812542
"V224_0",0.368293515474738,-0.351350885521457,0.0833737385581002,0.00718855730704439,0.0474112312634154,-0.0435092618825293
"V224_1",-0.937474403026607,0.894347708600073,-0.212224061784255,-0.0182981458724768,-0.120683134125057,0.110750848428256
"V225_0",0.226679732958076,-0.262637522873082,0.132749833979685,0.0134574370860026,0.046968589723271,-0.00116799337700124
"V225_1",-1.03625020780835,1.20062867599123,-0.60685638390713,-0.0615197123931546,-0.214713553020667,0.00533939829486289
"V226_0",0.293300646560042,-0.304084753135241,0.0789167280951708,-0.00522162536062991,0.0131989179603257,-0.0859147954563323
"V226_1",-0.977668821866806,1.01361584378414,-0.263055760317236,0.0174054178687665,-0.0439963932010855,0.286382651521107
"V227_0",0.239260871929206,-0.267872138447042,0.140347458892977,0.0161362753557456,0.0287019258425194,-0.0319705821036457
"V227_1",-1.00489566210266,1.12506298147758,-0.589459327350503,-0.0677723564941316,-0.120548088538582,0.134276444835312
"V228_0",0.0662273556266308,-0.0751967835766755,0.0102576676731776,-0.00751005049346139,-0.0381176538590481,-0.0341208153748528
"V228_1",-0.96691939214881,1.09787304021946,-0.149761948028393,0.109646737204537,0.556517746342102,0.498163904472851
"V229_0",0.146526564137666,-0.156060588116877,0.036898704238789,0.00532161078324719,0.027644140852573,-0.0212011535300648
"V229_1",-0.996380636136126,1.06121199919477,-0.250911188823765,-0.0361869533260809,-0.187980157797496,0.144167844004441
"V230_0",0.189057478869316,-0.209050206317475,-0.0724887868170679,-0.0465052152604781,0.0112006493538362,-0.0460831684434925
"V230_1",-1.03981613378124,1.14977613474611,0.398688327493873,0.255778683932629,-0.0616035714460989,0.253457426439209
"V231_0",0.216015132809011,-0.232543991909273,0.0852455953390663,0.00766806031766573,-0.0202536568655069,-0.122778271422386
"V231_1",-0.987497749984051,1.06305824872811,-0.389694150121446,-0.0350539900236147,0.092588145670889,0.561272097930908
"V232_0",0.261004633494092,-0.25704345422949,0.0404255627025681,-0.00197540897561377,-0.0848565810947343,-0.17989920610949
"V232_1",-0.936546037831743,0.92233239458817,-0.145056430873921,0.00708823220661435,0.304485379222282,0.645520680745817
"V233_0",0.284940351830529,-0.273762318968172,-0.0265746663991559,-0.0273776433730311,-0.00281446057504062,-0.0160244124094873
"V233_1",-0.949801172768431,0.91254106322724,0.0885822213305194,0.0912588112434368,0.00938153525013554,0.0534147080316243
"V234_0",0.135295931383125,-0.157387136766659,0.0152349645690589,-0.00516479209111686,-0.041215745449293,-0.130958823989882
"V234_1",-1.03726880727063,1.20663471521106,-0.116801395029452,0.039596739365229,0.315987381777913,1.0040176505891
"V235_0",0.201306359714572,-0.238004239086339,0.0833396210519431,0.0146721985177186,-0.114233982271705,-0.126976342921567
"V235_1",-0.845486710801202,0.999617804162626,-0.350026408418162,-0.0616232337744184,0.47978272554116,0.533300640270581
"V236_0",0.254822194859279,-0.237301041708805,0.0914512842875101,0.0188097508233144,-0.0366773041284883,-0.132743319786811
"V236_1",-0.914361993318591,0.851491973190418,-0.32814872597283,-0.0674938117777751,0.131606797166928,0.47631426511738
"V237_0",0.113132574713653,-0.128714579610913,0.181225443521632,0.0532666199116613,-0.134446111200587,-0.0384851835703206
"V237_1",-0.689080227801345,0.783988803084651,-1.10382770144994,-0.324442139461937,0.818899040949028,0.234409754473771
"V238_0",0.103641585121689,-0.108361585547806,0.122828478896921,0.0361105944976325,-0.0509756634857209,-0.0507563442890026
"V238_1",-0.906863869814778,0.9481638735433,-1.07474919034806,-0.315967701854284,0.446037055500058,0.444118012528773
"V239_0",0.116307895289972,-0.134755779104021,0.175855445801259,0.051466314160974,-0.133330504788136,-0.0715093519473899
"V239_1",-0.708420816766194,0.820785199997216,-1.07111953351676,-0.31347664079866,0.812103983709554,0.435556961861375
"V240_0",0.102334274742604,-0.12386872036331,0.157060707372871,0.044165008936,-0.132128937858456,-0.0550194764595746
"V240_1",-0.695873068249704,0.842307298470511,-1.06801281013552,-0.3003220607648,0.8984767774375,0.374132439925108
"V241_0",0.113132574713653,-0.128714579610913,0.181225443521632,0.0532666199116613,-0.134446111200587,-0.0384851835703206
"V241_1",-0.689080227801345,0.783988803084651,-1.10382770144994,-0.324442139461937,0.818899040949028,0.234409754473771
"V242_0",0.105104821152124,-0.130226648647778,0.154433797387741,0.042088799515146,-0.118488326882046,-0.0588612597263563
"V242_1",-0.714712783834446,0.88554121080489,-1.05014982223664,-0.286203836702993,0.805720622797911,0.400256566139223
"V243_0",0.0852370393114324,-0.126085538477192,0.126745416327718,0.0294378761523767,-0.116284608000953,-0.0519861461165543
"V243_1",-0.745824093975034,1.10324846167543,-1.10902239286753,-0.257581416333297,1.01749032000834,0.45487877851985
"V244_0",0.140890008344868,-0.162571573547826,0.0405359059939986,-0.000905378896901652,0.0483529754175145,-0.0107659464210445
"V244_1",-1.08015673064398,1.24638206386666,-0.310775279287322,0.00694123820957952,-0.370706144867611,0.0825389225613407
"V245_0",0.321241803821168,-0.308414858666832,0.170762818510042,0.0421821825762548,0.05533959898889,-0.0402081348077051
"V245_1",-0.931601231081386,0.894403090133814,-0.495212173679121,-0.122328329471139,-0.160484837067781,0.116603590942345
"V246_0",0.235779995141746,-0.257661296242198,0.143224153758679,0.0193276280750866,0.0482076527112222,0.00970659002956412
"V246_1",-0.990275979595333,1.08217744421723,-0.601541445786453,-0.0811760379153638,-0.202472141387133,-0.0407676781241693
"V247_0",0.222722809137886,-0.227030762286958,0.131176437546691,0.0295043477959444,-0.04912988839047,-0.193169127506832
"V247_1",-0.93543579837912,0.953529201605224,-0.550941037696101,-0.123918260742967,0.206345531239974,0.811310335528694
"V248_0",0.204658884520507,-0.209210383591052,0.134534086256195,0.0305778966881861,-0.0421341725295514,-0.15104798707651
"V248_1",-0.935583472093748,0.956390324987665,-0.615012965742607,-0.139784670574565,0.192613360135092,0.690505083778332
"V249_0",0.188638062446373,-0.198940693729722,0.196856987949505,0.0541845306806806,0.000921839780030469,-0.0319354822269287
"V249_1",-0.943190312231864,0.994703468648609,-0.984284939747524,-0.270922653403403,-0.00460919890015252,0.159677411134644
"V250_0",0.0466668734392914,-0.00402044947980886,-0.164975454164524,-0.0575734705601136,-0.0330860168456373,0.00520468106233464
"V250_1",-0.681336352213656,0.0586985624052083,2.40864163080206,0.840572670177658,0.483055845946305,-0.075988343510086
"V251_0",0.0517800177691337,-0.0197387072686528,-0.155309582167777,-0.0569672918413257,-0.0520354614745772,-0.0179704315387101
"V251_1",-0.755988259429352,0.288185126122329,2.26751989964955,0.831722460883355,0.759717737528828,0.262368300465168
"V252_0",0.0709502523918884,-0.0749683348111805,-0.169525172399803,-0.0742672695842975,-0.0246279692756237,-0.0134068492202926
"V252_1",-1.03587368492157,1.09453768824324,2.47506751703712,1.08430213593074,0.359568351424106,0.195739998616272
"V253_0",0.0800799769587486,-0.076710449363332,-0.16737625831994,-0.071963640008165,-0.0521506769888465,-0.0335219874027723
"V253_1",-0.960959723504984,0.920525392359984,2.00851509983928,0.863563680097979,0.625808123866158,0.402263848833268
"V254_0",0.0709502523918884,-0.0749683348111805,-0.169525172399803,-0.0742672695842975,-0.0246279692756237,-0.0134068492202926
"V254_1",-1.03587368492157,1.09453768824324,2.47506751703712,1.08430213593074,0.359568351424106,0.195739998616272
"V255_0",0.147740315555736,-0.15031236520289,-0.211320908876054,-0.105906458318536,0.00385805348679917,-0.00488128086030425
"V255_1",-1.00463414577901,1.02212408337965,1.43698218035717,0.720163916566046,-0.0262347637102341,0.0331927098500694
"V256_0",0.162242711960217,-0.160389009759005,-0.2301233865713,-0.110757285926275,0.00601387003066399,-0.0317560628559099
"V256_1",-0.988205609212234,0.976914877623032,1.40166062729792,0.674612559732765,-0.0366299356413171,0.193423291940541
"V257_0",0.229195992348467,-0.215869626511233,-0.173142772136774,-0.0853230229196666,0.0628855322319616,0.0325471767171983
"V257_1",-0.962623167863561,0.906652431347176,0.727199642974451,0.358356696262599,-0.264119235374239,-0.136698142212233
"V258_0",0.143423057501597,-0.14354341008411,-0.199764487472213,-0.091886148495515,-0.0472881568314024,-0.136860748963934
"V258_1",-0.975276791010859,0.976095188571951,1.35839851481105,0.624825809769502,0.321559466453536,0.93065309295475
"V259_0",0.0782245445646168,-0.0551127873827105,0.103868624274085,0.039759034314921,-0.0249381011545792,-0.0308482088962306
"V259_1",-0.793420380583971,0.559001129167492,-1.05352461763715,-0.403270205194199,0.252943597425017,0.312888975947482
"V260_0",0.0588461962398651,-0.0458105512966481,0.00199766066612126,-0.0047442763393957,-0.00818495989270341,0.0253661065090306
"V260_1",-0.85915446510203,0.668834048931062,-0.0291658457253701,0.0692664345551774,0.11950041443347,-0.370345155031845
"V261_0",0.0709502523918884,-0.0749683348111805,-0.169525172399803,-0.0742672695842975,-0.0246279692756237,-0.0134068492202926
"V261_1",-1.03587368492157,1.09453768824324,2.47506751703712,1.08430213593074,0.359568351424106,0.195739998616272
"V262_0",0.0989064931965115,-0.104234751188897,-0.158610010141666,-0.0715281418278789,-0.0590168188144976,-0.0594729433281447
"V262_1",-1.00319443099319,1.05723819063024,1.60875867429404,0.725499724254201,0.598599162261332,0.60322556804261
"V263_0",0.0709502523918884,-0.0749683348111805,-0.169525172399803,-0.0742672695842975,-0.0246279692756237,-0.0134068492202926
"V263_1",-1.03587368492157,1.09453768824324,2.47506751703712,1.08430213593074,0.359568351424106,0.195739998616272
"V264_0",0.0709502523918884,-0.0749683348111805,-0.169525172399803,-0.0742672695842975,-0.0246279692756237,-0.0134068492202926
"V264_1",-1.03587368492157,1.09453768824324,2.47506751703712,1.08430213593074,0.359568351424106,0.195739998616272
"V265_0",0.0709502523918884,-0.0749683348111805,-0.169525172399803,-0.0742672695842975,-0.0246279692756237,-0.0134068492202926
"V265_1",-1.03587368492157,1.09453768824324,2.47506751703712,1.08430213593074,0.359568351424106,0.195739998616272
"V266_0",0.0709502523918884,-0.0749683348111805,-0.169525172399803,-0.0742672695842975,-0.0246279692756237,-0.0134068492202926
"V266_1",-1.03587368492157,1.09453768824324,2.47506751703712,1.08430213593074,0.359568351424106,0.195739998616272
"V267_0",0.0768351576588435,-0.0968843862663603,-0.114801024153115,-0.0556702931836433,-0.0280844102369585,-0.0512359563786588
"V267_1",-1.12179330181911,1.41451203948886,1.67609495263548,0.812786280481192,0.410032389459594,0.748044963128418
"V268_0",0.0670150066839375,-0.0677392607636849,-0.116443755130985,-0.0564387101380831,-0.0379661716709466,-0.0286918424321978
"V268_1",-0.978419097585487,0.988993207149798,1.70007882491238,0.824005168016012,0.554306106395821,0.418900899510089
"V269_0",0.0754905329386769,-0.0643781597649764,-0.013890555923277,-0.00923013603707736,0.020209114976165,0.0913101271472882
"V269_1",-0.905886395264122,0.772537917179717,0.166686671079324,0.110761632444929,-0.24250937971398,-1.09572152576746
"V270_0",0.147740315555736,-0.15031236520289,-0.211320908876054,-0.105906458318536,0.00385805348679917,-0.00488128086030425
"V270_1",-1.00463414577901,1.02212408337965,1.43698218035717,0.720163916566046,-0.0262347637102341,0.0331927098500694
"V271_0",0.171741161983334,-0.187489776078197,-0.218417576429059,-0.110221660226968,0.004532806894001,-0.0379996843381236
"V271_1",-1.04605980480758,1.1419831815672,1.33036160188609,0.67135011229153,-0.0276089147180059,0.231452622786753
"V272_0",0.17767981226474,-0.171559614155223,-0.206064726376822,-0.0983504512806086,0.0274687030305607,-0.0157404398491667
"V272_1",-0.977238967456073,0.943577877853725,1.13335599507252,0.540927482043347,-0.151077866668083,0.0865724191704169
"V273_0",0.127271813228621,-0.135587487454277,-0.0887005215856259,-0.0542655360477174,-0.0423846810869421,-0.174456656007815
"V273_1",-0.975750568086098,1.03950407048279,0.680037332156465,0.416035776365833,0.324949221666556,1.33750102939325
"V274_0",0.141160038836349,-0.144933305442185,-0.0298017559321177,-0.0293449486681208,-0.00885560410749981,-0.0608978838387648
"V274_1",-0.959888264087177,0.985546477006855,0.2026519403384,0.199545650943221,0.0602181079309985,0.414105610103601
"V275_0",0.0709502523918884,-0.0749683348111805,-0.169525172399803,-0.0742672695842975,-0.0246279692756237,-0.0134068492202926
"V275_1",-1.03587368492157,1.09453768824324,2.47506751703712,1.08430213593074,0.359568351424106,0.195739998616272
"V276_0",0.0784588768485391,-0.0709878405294657,-0.190908569510075,-0.0825171422148879,-0.0304611611792156,-0.020533665952234
"V276_1",-0.941506522182469,0.851854086353589,2.2909028341209,0.990205706578655,0.365533934150587,0.246403991426808
"V277_0",0.0972625606903837,-0.0984315422306098,-0.182473762334479,-0.0822302849107528,-0.0370218168667028,-0.0463016877726692
"V277_1",-0.986520258431034,0.998377071196185,1.85080530367829,0.834050032666207,0.375506999647985,0.469631404551359
"V278_0",0.0784588768485391,-0.0709878405294657,-0.190908569510075,-0.0825171422148879,-0.0304611611792156,-0.020533665952234
"V278_1",-0.941506522182469,0.851854086353589,2.2909028341209,0.990205706578655,0.365533934150587,0.246403991426808
"V279_0",0.107029024649133,-0.100558620161672,-0.180448430565687,-0.0799745947085374,-0.0655079426230331,-0.0674614704539679
"V279_1",-0.936503965679911,0.879887926414628,1.57892376744976,0.699777703699703,0.57319449795154,0.59028786647222
"V280_0",0.0784588768485391,-0.0709878405294657,-0.190908569510075,-0.0825171422148879,-0.0304611611792156,-0.020533665952234
"V280_1",-0.941506522182469,0.851854086353589,2.2909028341209,0.990205706578655,0.365533934150587,0.246403991426808
"V281_0",0.0784588768485391,-0.0709878405294657,-0.190908569510075,-0.0825171422148879,-0.0304611611792156,-0.020533665952234
"V281_1",-0.941506522182469,0.851854086353589,2.2909028341209,0.990205706578655,0.365533934150587,0.246403991426808
"V282_0",0.0784588768485391,-0.0709878405294657,-0.190908569510075,-0.0825171422148879,-0.0304611611792156,-0.020533665952234
"V282_1",-0.941506522182469,0.851854086353589,2.2909028341209,0.990205706578655,0.365533934150587,0.246403991426808
"V283_0",0.0972625606903837,-0.0984315422306098,-0.182473762334479,-0.0822302849107528,-0.0370218168667028,-0.0463016877726692
"V283_1",-0.986520258431034,0.998377071196185,1.85080530367829,0.834050032666207,0.375506999647985,0.469631404551359
"V284_0",0.0736399059232183,-0.090605500531594,-0.0975827276995324,-0.049377845913195,-0.0294393874482911,-0.0621942531573545
"V284_1",-1.07514262647899,1.32284030776127,1.42470782441317,0.720916550332647,0.429815056745051,0.908036096097376
"V285_0",0.0800799769587486,-0.076710449363332,-0.16737625831994,-0.071963640008165,-0.0521506769888465,-0.0335219874027723
"V285_1",-0.960959723504984,0.920525392359984,2.00851509983928,0.863563680097979,0.625808123866158,0.402263848833268
"V286_0",0.125791238184891,-0.12429927344381,-0.0257518382466007,-0.0184430661010911,0.0275175688568553,-0.0285885383480801
"V286_1",-0.964399492750833,0.952961096402546,0.197430759890605,0.141396840108365,-0.210968027902558,0.219178794001947
"V287_0",0.100026577656775,-0.118542747189075,0.0434911979900891,0.00378445723575903,-0.0660643778407664,-0.160085167781469
"V287_1",-1.01455528766158,1.20236215006062,-0.44112500818519,-0.0383852091055558,0.670081546670631,1.62372098749776
"V288_0",0.124185632330025,-0.146793606382655,0.0183844830038559,-0.00465405856022992,-0.159111555663991,-0.165890752860185
"V288_1",-0.756403396919241,0.894106511603443,-0.11197821465985,0.0283474475941276,0.969134020862492,1.01042549469386
"V289_0",0.211798833533814,-0.214121765559114,0.0434957900978565,-0.000721297984487041,-0.0116381823299061,-0.0876001409093334
"V289_1",-0.968223239011721,0.978842356841666,-0.198837897590201,0.00329736221479789,0.0532031192224276,0.400457787014096
"V290_0",0.147740315555736,-0.15031236520289,-0.211320908876054,-0.105906458318536,0.00385805348679917,-0.00488128086030425
"V290_1",-1.00463414577901,1.02212408337965,1.43698218035717,0.720163916566046,-0.0262347637102341,0.0331927098500694
"V291_0",0.171741161983334,-0.187489776078197,-0.218417576429059,-0.110221660226968,0.004532806894001,-0.0379996843381236
"V291_1",-1.04605980480758,1.1419831815672,1.33036160188609,0.67135011229153,-0.0276089147180059,0.231452622786753
"V292_0",0.271500832401165,-0.222618997930174,-0.241386262196032,-0.102386421292451,0.0288312657186912,-0.0606278877098422
"V292_1",-0.905002774670551,0.742063326433915,0.804620873986775,0.341288070974838,-0.0961042190623039,0.202092959032808
"V293_0",0.0723821754650249,-0.0570022079600903,0.0325706557642612,0.00597328637355918,0.0426087527438462,0.0795148606705348
"V293_1",-0.8685861055803,0.684026495521084,-0.390847869171136,-0.0716794364827105,-0.511305032926154,-0.954178328046418
"V294_0",0.147136346140932,-0.156508139392847,-0.113815017078392,-0.0686193701822524,-0.0243149430531045,-0.141943664475059
"V294_1",-1.00052715375834,1.06425534787136,0.773942116133066,0.466611717239316,0.165341612761111,0.965216918430399
"V295_0",0.196800827732384,-0.235166702178133,0.0971594877936685,0.0105437721570776,0.073451932283093,0.036286271215303
"V295_1",-1.08240455252811,1.29341686197973,-0.534377182865177,-0.0579907468639266,-0.403985627557012,-0.199574491684166
"V296_0",0.141867020551689,-0.174726076975228,0.0820866529626173,0.0112041027872562,0.0153498958231598,-0.0645712913874234
"V296_1",-1.08764715756295,1.33956659014342,-0.629331006046732,-0.085898121368964,-0.117682534644225,0.49504656730358
"V297_0",0.0784588768485391,-0.0709878405294657,-0.190908569510075,-0.0825171422148879,-0.0304611611792156,-0.020533665952234
"V297_1",-0.941506522182469,0.851854086353589,2.2909028341209,0.990205706578655,0.365533934150587,0.246403991426808
"V298_0",0.0660552676939741,-0.066212072521889,-0.144388137831433,-0.064199164014146,-0.0275366904445012,-0.0333007244907248
"V298_1",-0.964406908332022,0.96669625881958,2.10806681233892,0.937307794606531,0.402035680489717,0.486190577564582
"V299_0",0.103364162818513,-0.0900528346967113,-0.166323891281013,-0.0697517216740726,-0.0680555951999019,-0.0566525550905749
"V299_1",-0.904436424661986,0.787962303596225,1.45533404870886,0.610327564648135,0.595486457999142,0.495709857042531
"V300_0",0.0699519996259608,-0.0460894529286585,-0.146497494712088,-0.0563295596334486,-0.0588046400038404,-0.0433449636892292
"V300_1",-0.83942399551153,0.553073435143901,1.75796993654506,0.675954715601383,0.705655680046085,0.520139564270751
"V301_0",0.0581723852338252,-0.0394603174133334,-0.11327078921957,-0.0404398781867633,-0.0528101959416066,-0.0316465332882014
"V301_1",-0.849316824413848,0.576120634234667,1.65375352260572,0.590422221526745,0.771028860747457,0.462039386007742
"V302_0",0.0865611273048941,-0.0967059707600221,-0.124753593247451,-0.0552066789417337,-0.0529361716568069,-0.0473880350098954
"V302_1",-1.03873352765873,1.16047164912027,1.49704311896942,0.662480147300804,0.635234059881683,0.568656420118746
"V303_0",0.0581723852338252,-0.0394603174133334,-0.11327078921957,-0.0404398781867633,-0.0528101959416066,-0.0316465332882014
"V303_1",-0.849316824413848,0.576120634234667,1.65375352260572,0.590422221526745,0.771028860747457,0.462039386007742
"V304_0",0.0930409414564039,-0.117809193707322,-0.0842353949672283,-0.0430399874785083,-0.0483432602034771,-0.0901433535227556
"V304_1",-1.11649129747685,1.41371032448786,1.01082473960674,0.516479849742099,0.580119122441725,1.08172024227307
"V305_0",0.149446429342648,-0.141813896604394,0.0269341868410849,0.00451092064493317,-0.0438341982213287,-0.115645816834458
"V305_1",-0.910264615087036,0.863775552044947,-0.164053683486608,-0.0274756075645929,0.266990116439002,0.70438815708261
"V306_0",0.0577170133882641,-0.0970029986199385,0.072581959932798,0.0123443051182319,-0.107556866216867,-0.0457795294136222
"V306_1",-0.69260416065917,1.16403598343926,-0.870983519193575,-0.148131661418783,1.2906823946024,0.549354352963466
"V307_0",0.0695870051942997,-0.083833052242466,0.0895652912895388,0.02254321534787,-0.1544910110634,-0.106086201921669
"V307_1",-0.608886295450121,0.733539207121577,-0.783696298783464,-0.197253134293862,1.35179634680475,0.928254266814604
"V308_0",0.0903551643842183,-0.138278010086112,0.0696211160789149,0.00639898011175011,-0.116011923485358,-0.0900929710802188
"V308_1",-0.79060768836191,1.20993258825348,-0.609184765690505,-0.0559910759778133,1.01510433049688,0.788313496951914
"V309_0",0.162479156026523,-0.197277767874698,0.112013978917182,0.0252786471068663,-0.138627066874943,-0.155789843436308
"V309_1",-0.812395780132616,0.986388839373491,-0.560069894585909,-0.126393235534332,0.693135334374716,0.77894921718154
"V310_0",0.0832164795767881,-0.0919418587929356,-0.00703251131275352,-0.0105841808570991,-0.0178152695875224,-0.0589683567143032
"V310_1",-0.998597754921458,1.10330230551523,0.0843901357530421,0.127010170285189,0.213783235050268,0.707620280571638
"V311_0",0.10303323623144,-0.123901801180556,-0.0546821730035475,-0.0391549700010711,-0.0475168389170048,-0.14485102589653
"V311_1",-1.04505139606175,1.25671826911706,0.554633469035982,0.397143267153721,0.481956509015334,1.4692032626648
"V312_0",0.160233875520961,-0.161504319686687,-0.174234931206749,-0.0847049166759788,-0.0554992474741634,-0.138934371470038
"V312_1",-0.97596996908222,0.983708129000731,1.06124912644111,0.515929947026416,0.338040870978995,0.846236626226597
"V313_0",0.295443739826942,-0.265802903860826,0.000296813880486902,-0.016517025365721,-0.0184777845036651,-0.129927641926855
"V313_1",-0.917430560515241,0.825387964620459,-0.000921685207827725,0.0512897103461864,0.0573783834587492,0.403459519667603
"V314_0",0.172987272851148,-0.181906038131867,0.144249276919332,0.0346845010853397,-0.0110883148359845,-0.0791512503441201
"V314_1",-0.951430000681311,1.00048320972527,-0.793371023056326,-0.190764755969369,0.0609857315979151,0.435331876892661
"V315_0",0.133181440482448,-0.129951256396369,-0.0395643583553863,-0.0319275479309824,-0.0816926019844987,-0.215747093100148
"V315_1",-0.905633795280645,0.883668543495312,0.269037636816627,0.21710732593068,0.555509693494591,1.46708023308101
"V316_0",0.154304663572546,-0.178656222383387,0.0704860903741768,0.012502762102025,0.0233717514785972,-0.0941544025286956
"V316_1",-1.04927171229331,1.21486231220704,-0.479305414544403,-0.0850187822937704,-0.158927910054461,0.640249937195131
"V317_0",0.329465941084117,-0.339713158916711,0.133280081287641,0.0253151014416195,-0.106849066908009,-0.106423511655047
"V317_1",-0.838640577305024,0.864724404515264,-0.339258388732177,-0.0644384400332135,0.271979443038569,0.270896211485574
"V318_0",0.169271405373974,-0.195915880291324,0.176793233327555,0.0466132434192021,-0.166266252136829,-0.173077131144292
"V318_1",-0.773812138852452,0.895615452760337,-0.808197638068821,-0.213089112773495,0.760074295482649,0.791209742373904
"V319_0",0.0802893658898156,-0.0718936572926424,-0.0844629083117609,-0.0435205892471356,0.0268367402088681,0.0475412549477949
"V319_1",-0.963472390677789,0.862723887511709,1.01355489974113,0.522247070965628,-0.322040882506417,-0.570495059373539
"V320_0",0.0499270607833626,-0.0756609518962459,0.0596369367305791,0.0111255423289894,-0.126039955289017,-0.0685844264518485
"V320_1",-0.599124729400352,0.907931422754951,-0.715643240766949,-0.133506507947872,1.51247946346821,0.823013117422182
"V321_0",0.044636542126063,-0.0620589317422364,0.0477698505950227,0.00883315496216129,-0.127276890093366,-0.0557445928528483
"V321_1",-0.535638505512757,0.744707180906837,-0.573238207140272,-0.105997859545935,1.52732268112039,0.668935114234181
"V322_0",0.072019437000441,-0.0911271341527632,0.101632345347336,0.0267940812327103,-0.124745899177397,-0.0285343131099441
"V322_1",-0.630170073753859,0.797362423836678,-0.88928302178919,-0.234448210786215,1.09152661780222,0.249675239712011
"V323_0",0.214560659488003,-0.229341758770318,0.109377426563627,0.0232002935115162,-0.0298352120811717,-0.155636977592873
"V323_1",-0.980848729088014,1.04841946866431,-0.500011092862297,-0.106058484624074,0.136389540942499,0.711483326138847
"V324_0",0.0895395308575345,-0.114558805422661,0.00340825995792119,-0.0111474195267268,-0.0495769361668238,-0.137114398396883
"V324_1",-1.07447437029041,1.37470566507193,-0.0408991194950542,0.133769034320722,0.594923234001886,1.6453727807626
"V325_0",0.199297084421247,-0.195211545327034,0.193951831697335,0.055533227377154,-0.0448428810917604,-0.0744108648469952
"V325_1",-0.911072385925701,0.892395635780727,-0.886636944902103,-0.253866182295561,0.204996027848047,0.340163953586263
"V326_0",0.0731400617459781,-0.0726870267104394,0.0583390451881483,0.0152729075011705,-0.0751338164916264,-0.106052601607972
"V326_1",-0.877680740951738,0.872244320525273,-0.700068542257778,-0.183274890014046,0.901605797899515,1.27263121929566
"V327_0",0.0383337630344314,-0.0680594824594387,0.0430396114613322,0.00358051347389955,-0.10056335211965,-0.0159459508122645
"V327_1",-0.559672940302697,0.993668443907805,-0.62837832733545,-0.0522754967189335,1.46822494094689,0.232810881859062
"V328_0",0.161299833573111,-0.167749388629437,0.0542503305427912,0.00739558783236057,0.0160517292125127,-0.078958018699307
"V328_1",-0.982462622672583,1.02174627619748,-0.33043383148791,-0.0450458531607416,-0.0977696233853046,0.480926113895779
"V329_0",0.0924223354695626,-0.117307980265614,0.0113936658335101,-0.0144976450030725,0.0071023938119034,-0.051887234813193
"V329_1",-1.10906802563475,1.40769576318736,-0.136723990002121,0.17397174003687,-0.0852287257428409,0.622646817758316
"V330_0",0.123318599829443,-0.1328377161554,0.154705317941524,0.0461886370317791,-0.0191195089214189,-0.0479544534481268
"V330_1",-0.945442598692393,1.01842249052473,-1.18607410421835,-0.354112883910306,0.146582901730879,0.367650809768972
"V331_0",0.0975990078139513,-0.135589607872571,0.0516783892512495,0.00122890433003993,-0.0255937744464743,-0.131928015249613
"V331_1",-1.17118809376742,1.62707529447085,-0.620140671014994,-0.0147468519604792,0.307125293357692,1.58313618299535
"V332_0",0.0817510036517356,-0.0957340898088091,0.0845697581149227,0.0212982825499894,-0.0416358747354419,-0.0742710076136986
"V332_1",-0.981012043820827,1.14880907770571,-1.01483709737907,-0.255579390599873,0.499630496825302,0.891252091364383
"V333_0",0.0793753330030889,-0.0811098318950798,-0.044278428998818,-0.0209718688072753,-0.0406880726855821,-0.060881449623637
"V333_1",-0.952503996037067,0.973317982740957,0.531341147985815,0.251662425687303,0.488256872226984,0.730577395483645
"V334_0",0.122265559278958,-0.153350708799149,0.035762035134035,0.00175349598059366,-0.0549292435183452,-0.129714180428294
"V334_1",-1.06982364369088,1.34181870199255,-0.312917807422806,-0.0153430898301946,0.480630880785521,1.13499907874758
"V335_0",0.15099693394673,-0.177951429738908,0.0509337969485304,0.000977409802459134,-0.0730517633869651,-0.176785579687474
"V335_1",-1.02677915083777,1.21006972222457,-0.346349819250007,-0.00664638665672214,0.496751991031363,1.20214194187483
"V336_0",0.129889475757276,-0.171377492251342,0.179775558739772,0.0476830218562305,-0.140292262566494,-0.108752077787529
"V336_1",-0.791144988703406,1.0438447255309,-1.09499658505134,-0.290432951306131,0.854507417450465,0.662399019251311
"V337_0",0.106004859187602,-0.136981589571352,0.0921932675489062,0.0194543492182613,-0.0491912443385708,-0.112034570937424
"V337_1",-1.07519214318853,1.38938469422371,-0.935103142281763,-0.197322684928079,0.498939764005503,1.13635064807958
"V338_0",0.118486672494909,-0.166309807189992,0.158296261606571,0.0383611438619428,-0.125347705869546,-0.095556298421787
"V338_1",-0.805709372965379,1.13090668889194,-1.07641457892468,-0.260855778261211,0.852364399912914,0.649782829268152
"V339_0",0.139561864776078,-0.195614062166398,0.15636377794615,0.0332815567391801,-0.125014620551408,-0.128711675915603
"V339_1",-0.850058630908836,1.19146746955897,-0.952397556581098,-0.202714936502278,0.761452688813121,0.78397111694049
"V340_0",0.101098269405971,-0.143734918655243,0.11341648554588,0.0235446525204908,-0.130479819577004,-0.119600756137425
"V340_1",-0.775086732112444,1.10196770969019,-0.869526389185079,-0.180509002657096,1.0003452834237,0.916939130386929
"V341_0",0.141268889379624,-0.177016603485848,0.204650591669075,0.0569758392545569,-0.142768231333628,-0.0927813956321943
"V341_1",-0.776978891587935,0.973591319172165,-1.12557825417991,-0.313367115900063,0.785225272334952,0.510297675977069
"V342_0",0.103352911887105,-0.150152762222999,0.124853349749179,0.0269512250545388,-0.128946584566369,-0.112242048627536
"V342_1",-0.792372324467808,1.15117117704299,-0.957209014743708,-0.206626058751464,0.988590481675493,0.860522372811107
"V343_0",0.0757505048813843,-0.122258835323632,0.0723124170612308,0.00840250004188937,-0.119548688816281,-0.115600923720626
"V343_1",-0.768326549511183,1.24005390113969,-0.73345451590677,-0.085225357567735,1.21256527227942,1.17252365488064
"V344_0",0.111016474455811,-0.14671387047425,0.00613637693824827,-0.0207515371469454,-0.019426646320889,-0.119465373108759
"V344_1",-1.12602424090894,1.48809782909596,-0.0622403946593749,0.210479876776161,0.197041698397589,1.21172021296027
"V345_0",0.217846607786365,-0.243673786941049,0.168411883518603,0.0382096089972144,-0.00370405980563628,-0.114733219711594
"V345_1",-0.99587020702338,1.11393731173051,-0.769882896085042,-0.17467249827298,0.016932844825766,0.524494718681574
"V346_0",0.205428418302474,-0.239522654108454,0.129552778233944,0.0168786853877076,0.0103636837793214,-0.07553856342935
"V346_1",-1.02714209151237,1.19761327054227,-0.647763891169722,-0.084393426938538,-0.0518184188966072,0.377692817146751
"V347_0",0.150135774074839,-0.177012202837674,0.0845751809503872,0.0111062040494199,-0.0334617778196368,-0.146714646082798
"V347_1",-1.02092326370891,1.20368297929618,-0.575111230462632,-0.0755221875360551,0.227540089173531,0.99765959336303
"V348_0",0.151855043677259,-0.183130955656362,0.137592629462303,0.0318743894169961,-0.0325669561146367,-0.134994897801169
"V348_1",-1.03261429700536,1.24529049846326,-0.935629880343663,-0.216745848035573,0.221455301579529,0.917965305047949
"V349_0",0.178248967377422,-0.224915991649157,0.1596192834627,0.0318467857794131,0.020724528129419,-0.040428252587039
"V349_1",-1.0856982558443,1.36994285822668,-0.972226544727355,-0.193975877020062,-0.126231216788279,0.246244811211965
"V350_0",0.138301811265197,-0.149869872982929,0.168331321018515,0.0503194727863163,-0.0422198307325364,-0.0847855879987875
"V350_1",-0.940452316603336,1.01911513628392,-1.1446529829259,-0.342172414946951,0.287094848981248,0.576541998391755
"V351_0",0.127586989045416,-0.146689068039783,0.146627223844707,0.0410609100122726,-0.0434217208801499,-0.0950913633306167
"V351_1",-0.978166916014858,1.12461618830501,-1.12414204947608,-0.314800310094089,0.332899860081149,0.729033785534728
"V352_0",0.0938149202140061,-0.103882500035518,0.0878118266399378,0.0229918690429155,-0.0567215270511598,-0.0992061536654324
"V352_1",-0.951551333599204,1.05366535750311,-0.890662813062227,-0.233203243149572,0.57531834580462,1.00623384432081
"V353_0",0.0967134451926556,-0.112481003280597,0.0788831673741257,0.0182592199313237,-0.0677693720830948,-0.12955314990185
"V353_1",-0.980950658382649,1.14087874756034,-0.800100697651846,-0.185200659303427,0.687375059699962,1.31403909186162
"V354_0",0.0845515531741221,-0.120097057394844,-0.0436241767708437,-0.0325460675878086,-0.0128628145762248,-0.0991636112096543
"V354_1",-1.23445267634218,1.75341703796472,0.636912980854318,0.475172586782006,0.187797092812881,1.44778872366095
"V355_0",0.0637978310747723,-0.0550245559448627,-0.0915307986043362,-0.0356859159106592,-0.031405022771681,-0.0834591164529259
"V355_1",-0.931448333691675,0.803358516794995,1.33634965962331,0.521014372295625,0.458513332466543,1.21850310021272
"V356_0",0.0942786248422418,-0.12704758830499,0.0283808213478992,-0.00400818738014319,-0.0331621577988078,-0.135447903369309
"V356_1",-1.1313434981069,1.52457105965988,-0.34056985617479,0.0480982485617185,0.397945893585693,1.62537484043171
"V357_0",0.127638110687747,-0.141233323152268,0.00650030150355156,-0.0121688188320288,-0.0799481536678654,-0.188180122091624
"V357_1",-0.978558848606058,1.08278881083405,-0.0498356448605621,0.093294277712221,0.612935844786968,1.44271426936912
"V358_0",0.116667112725914,-0.133188077464318,-0.0792670580443855,-0.0413612378943356,-0.0538227269234981,-0.150767549456001
"V358_1",-1.02083723635175,1.16539567781278,0.693586757888375,0.361910831575437,0.470948860580608,1.31921605774001
"V359_0",0.0625567324576471,-0.0642297379338442,-0.0377174421023751,-0.0178365054219004,-0.0649571570165712,-0.0801562949891412
"V359_1",-0.913328293881647,0.937754173834125,0.550674654694677,0.260412979159746,0.948374492441939,1.17028190684146
"V360_0",0.0571284063754969,-0.0962195155194371,0.0638978205577568,0.00774409393329982,-0.107478471561635,-0.0495973310117271
"V360_1",-0.685540876505964,1.15463418623325,-0.766773846693081,-0.0929291271995974,1.28974165873962,0.595167972140725
"V361_0",0.0940666225744982,-0.148431853771488,0.104957713260358,0.0181504729364992,-0.114758744079816,-0.10506105594993
"V361_1",-0.823082947526858,1.29877872050052,-0.918379991028136,-0.158816638194368,1.00413901069839,0.919284239561884
"V362_0",0.070997886512067,-0.110950160533393,0.0946889364279836,0.0184750433354569,-0.119909759098831,-0.0688155393067219
"V362_1",-0.720121420336679,1.12535162826727,-0.96041635519812,-0.187389725259634,1.21622755657386,0.69798618439675
"V363_0",0.0985578413584256,-0.136689158096633,0.144556027685064,0.0363141126348353,-0.117221718934736,-0.0679540928896065
"V363_1",-0.755610117081263,1.04795021207419,-1.10826287891882,-0.27840819686707,0.898699845166308,0.520981378820317
"V364_0",0.148923353517634,-0.191081793484955,0.140062771700534,0.0321291798653997,-0.129169555949464,-0.130765340858764
"V364_1",-0.819078444346987,1.05094986416725,-0.770345244352935,-0.176710489259698,0.71043255772205,0.719209374723202
"V365_0",0.0808857395096358,-0.115403789244242,0.1169270157283,0.026819585760725,-0.121953065315447,-0.0531869455819666
"V365_1",-0.707750220709313,1.00978315588712,-1.02311138762263,-0.234671375406344,1.06708932151016,0.465385773842207
"V366_0",0.0450381488866407,-0.0848944946912577,0.0444139036306966,0.000666726726416549,-0.11101692420402,-0.0732721578033118
"V366_1",-0.657556973744953,1.23945962249236,-0.648442993008171,-0.00973421020568165,1.6208470933787,1.06977350392835
"V367_0",0.0761999697558624,-0.100067854821296,-0.00868451208154326,-0.0170519594759896,-0.0194328420094343,-0.126279187390967
"V367_1",-1.11251955843559,1.46099068039093,0.126793876390532,0.248958608349448,0.283719493337741,1.84367613590812
"V368_0",0.237598333384523,-0.25423614768493,0.103134853176844,0.0186609506535831,0.0201858037945145,-0.134525754946362
"V368_1",-0.997913000214996,1.0677918202767,-0.433166383342745,-0.0783759927450488,-0.0847803759369607,0.56500817077472
"V369_0",0.254406622254422,-0.274899841817156,0.157778977749436,0.0244270603905547,0.0289344836610873,-0.0363546086967956
"V369_1",-0.985825661235887,1.06523688704148,-0.611393538779063,-0.0946548590133993,-0.112121124186713,0.140874108700083
"V370_0",0.135806714555832,-0.161964149530901,0.0159596618020356,-0.0151644994515395,-0.0428442264618791,-0.205836444312783
"V370_1",-1.04118481159471,1.24172514640357,-0.12235740714894,0.116261162461803,0.328472402874406,1.578079406398
"V371_0",0.151967184220359,-0.182615472990459,0.100896591057768,0.0194165257295203,-0.04392381291844,-0.190133970193114
"V371_1",-1.03337685269844,1.24178521633512,-0.686096819192822,-0.132032374960738,0.298681927845392,1.29291099731317
"V372_0",0.275696894158434,-0.299608241746979,0.174474569577127,0.0366107578287889,-0.00458699606847403,-0.109292371996024
"V372_1",-0.98926532609791,1.07506486744504,-0.626055808482632,-0.131368013385654,0.0164592211868774,0.392166746573968
"V373_0",0.0994145258462753,-0.138468305618035,0.158419356093296,0.0413297080361324,-0.101554046568787,-0.058587104761558
"V373_1",-0.76217803148811,1.0615903430716,-1.21454839671527,-0.316861094943681,0.778581023694036,0.449167803171945
"V374_0",0.0743329366939907,-0.0992813383010639,0.0423574199405169,0.00477049800880726,-0.0392296312208075,-0.0601425638795693
"V374_1",-1.08526087573226,1.44950753919553,-0.618418331131546,-0.0696492709285857,0.572752615823788,0.878081432641712
"V375_0",0.130417031184908,-0.154268550499728,0.144388809521653,0.0394099053848365,-0.0577262356750807,-0.102869694387587
"V375_1",-0.999863905750962,1.18272555383125,-1.10698087299934,-0.302142607950413,0.442567806842286,0.788667656971502
"V376_0",0.0702813429116191,-0.0826771486895848,-0.0513563791989842,-0.0255978490457699,-0.0509440588477872,-0.080544322420443
"V376_1",-1.02610760650964,1.20708637086794,0.749803136305169,0.373728596068241,0.743783259177693,1.17594710733847
"V377_0",0.0697751986044822,-0.0837790624433182,-0.036595385420462,-0.0190008971019957,-0.0589304946672007,-0.0762038003606455
"V377_1",-1.01871789962544,1.22317431167245,0.534292627138745,0.277413097689138,0.86038522214113,1.11257548526543
"V378_0",0.0697751986044822,-0.0837790624433182,-0.036595385420462,-0.0190008971019957,-0.0589304946672007,-0.0762038003606455
"V378_1",-1.01871789962544,1.22317431167245,0.534292627138745,0.277413097689138,0.86038522214113,1.11257548526543
"V379_0",0.0450381488866407,-0.0848944946912577,0.0444139036306966,0.000666726726416549,-0.11101692420402,-0.0732721578033118
"V379_1",-0.657556973744953,1.23945962249236,-0.648442993008171,-0.00973421020568165,1.6208470933787,1.06977350392835
"V380_0",0.176168789420306,-0.210584726918864,0.112704551009111,0.0219355883790723,0.0322787875994964,-0.0474800450616545
"V380_1",-1.07302808101459,1.28265242759671,-0.686473174328219,-0.133607674672531,-0.196607160833296,0.289196638102805
"V381_0",0.215531284323509,-0.234709733643985,0.174085301119522,0.043778341470755,-0.00911812743144942,-0.0917766988963558
"V381_1",-0.985285871193185,1.0729587823725,-0.79581851940353,-0.200129561009166,0.0416828682580544,0.419550623526198
"V382_0",0.0963882650819122,-0.134378179814198,0.0864093751364221,0.0158490304920933,-0.0213273800272514,-0.0905496032866505
"V382_1",-1.15665918098295,1.61253815777037,-1.03691250163707,-0.19018836590512,0.255928560327017,1.08659523943981
"V383_0",0.0697751986044822,-0.0837790624433182,-0.036595385420462,-0.0190008971019957,-0.0589304946672007,-0.0762038003606455
"V383_1",-1.01871789962544,1.22317431167245,0.534292627138745,0.277413097689138,0.86038522214113,1.11257548526543
"V384_0",0.0632956616387226,-0.0693183675511117,0.0399944466743662,0.00703348847025945,-0.0621054410215221,-0.0937976218724801
"V384_1",-0.92411665992535,1.01204816624623,-0.583918921445746,-0.102688931665788,0.906739438914224,1.36944527933821
"V385_0",0.0698261148775325,-0.0865709451533882,0.0606107285329958,0.0136919953075933,-0.0438843921926827,-0.0533740649019562
"V385_1",-1.01946127721198,1.26393579923947,-0.88491663658174,-0.199903131490861,0.640712126013167,0.779261347568559
"V386_0",0.175522153502016,-0.182913928778816,0.082894847186889,0.0198720850568766,-0.0129348069145016,-0.154892412583047
"V386_1",-0.965371844261089,1.00602660828349,-0.45592165952789,-0.109296467812821,0.0711414380297587,0.851908269206756
"V387_0",0.136397356373592,-0.165730406778902,0.143597053574924,0.0355691964600984,-0.00292153953865069,-0.0657468554289469
"V387_1",-1.04571306553087,1.27059978530491,-1.10091074407442,-0.272697172860754,0.0223984697963223,0.50405922495526
"V388_0",0.313099597540452,-0.27407944851975,-0.0616920202407254,-0.0336834870582867,-0.0433658534393908,-0.0975919296430437
"V388_1",-0.907988832867311,0.794830400707275,0.178906858698104,0.0976821124690315,0.125760974974233,0.283016595964827
"V389_0",0.133023606606873,-0.143619420225478,-0.0357308295189419,-0.0240817519464765,0.0142073473756326,-0.0207399590157938
"V389_1",-1.01984765065269,1.10108222172867,0.273936359645221,0.184626764922987,-0.108922996546517,0.159006352454419
"V390_0",0.365819173056493,-0.29751309058514,-0.0569496084690959,-0.0300904334840513,-0.0391749294071485,-0.0507824446497682
"V390_1",-0.874784979048136,0.711444347051421,0.136183846339143,0.0719553844183835,0.0936791790170941,0.121436280684228
"V391_0",0.419673361509424,-0.356767656501324,0.0152529730266685,-0.0104840699553074,-0.00357981979650609,-0.0257586485719008
"V391_1",-0.889707526399979,0.756347431782807,-0.0323363028165372,0.0222262283052516,0.00758921796859295,0.0546083349724296
"V392_0",0.341967719801377,-0.327484390168722,0.0789017355436834,0.0119579976516733,-0.10186760953732,-0.0810220803834165
"V392_1",-0.817748895177207,0.783114846055639,-0.188678063256634,-0.0285952117757407,0.243596457589244,0.193748453090778
"V393_0",0.430744137200792,-0.383109032869901,0.0104814143678412,-0.0183975932912943,-0.0634266025189471,0.0481536796992353
"V393_1",-0.813627814712608,0.723650395420925,-0.0197982271392557,0.0347510095502225,0.119805804758011,-0.0909569505430001
"V394_0",0.311109385207491,-0.313036016152696,-0.102769382416838,-0.0683414806976897,-0.0524500723014466,0.0320352573014133
"V394_1",-0.844439759848903,0.849669186700175,0.27894546655999,0.185498304750872,0.142364481961069,-0.0869528412466935
"V395_0",0.167007068398301,-0.173999345575752,-0.0679711352794036,-0.0374253953198358,0.0274607688163917,0.0398294514749075
"V395_1",-1.01722487115329,1.05981419577958,0.414006005792731,0.227954680584454,-0.167261046427113,-0.242597568074436
"V396_0",0.225187292683388,-0.207533821231387,-0.102218219412975,-0.0478838115633197,0.0244421617783441,0.0315830171941885
"V396_1",-0.945786629270229,0.871642049171827,0.429316521534496,0.201112008565943,-0.102657079469045,-0.132648672215591
"V397_0",0.425828888794711,-0.371444509061333,-0.0243704166893964,-0.0318592184472131,-0.106464457940565,-0.00385701943187722
"V397_1",-0.804343456612232,0.70161740600474,0.0460330093021932,0.0601785237336248,0.201099531665511,0.00728548114910136
"V398_0",0.307089175876348,-0.316696887427477,0.119861843546429,0.023971239316498,-0.0934293515649657,-0.0326794817985012
"V398_1",-0.833527763092945,0.859605837303152,-0.325339289626021,-0.0650647924304944,0.253593954247764,0.0887014505959316
"V399_0",0.3457843643817,-0.332888892735645,-0.0534205350979656,-0.0475296665032471,-0.115557915519789,-0.00784134372122769
"V399_1",-0.826875653956239,0.796038656541759,0.127744757842961,0.113657898159939,0.27633414580819,0.0187510393333705
"V400_0",0.0768937387636613,-0.0563780100775114,0.152384166636477,0.0585649267677788,-0.0516464266439316,-0.00937584627340132
"V400_1",-0.779922207459994,0.571834102214758,-1.54561083302712,-0.594015685787471,0.52384232738845,0.0950978693444995
"V401_0",0.0972996362521848,-0.114950011112186,0.113674101558979,0.0305827749240561,-0.0506956172185649,-0.0597071950453634
"V401_1",-0.986896310557876,1.16592154128074,-1.15298017295536,-0.310196717086854,0.514198403216873,0.605601549745829
"V402_0",0.106371260605907,-0.135294362272793,0.170808417703712,0.0472426314537503,-0.132926203367014,-0.0480113830470898
"V402_1",-0.72332457212017,0.920001663454995,-1.16149724038524,-0.321249893885502,0.903898182895695,0.326477404720211
"V403_0",0.106371260605907,-0.135294362272793,0.170808417703712,0.0472426314537503,-0.132926203367014,-0.0480113830470898
"V403_1",-0.72332457212017,0.920001663454995,-1.16149724038524,-0.321249893885502,0.903898182895695,0.326477404720211
"V404_0",0.0621173688305412,-0.065505775988391,0.0482128049681374,0.0124182832446291,-0.046377120051111,-0.0407738466307362
"V404_1",-0.906913584925901,0.956384329430508,-0.703906952534806,-0.181306935371584,0.677105952746221,0.595298160808748
"V405_0",0.0735276204659776,-0.089294413150265,0.147661321906835,0.0433965072925825,-0.075800249013877,0.0622841776899685
"V405_1",-0.643366679077304,0.781326115064819,-1.2920365666848,-0.379719438810097,0.663252178871424,-0.544986554787224
"V406_0",0.116502683314716,-0.142746708427437,0.137538905784443,0.0378446087420206,-0.0456328498630284,-0.0455142160082719
"V406_1",-1.01939847900376,1.24903369874007,-1.20346542561388,-0.33114032649268,0.399287436301499,0.398249390072379
"V407_0",0.115580374390924,-0.154392031962507,0.120912416975858,0.0270932699613797,-0.095577672857425,-0.0228336483454898
"V407_1",-0.785946545858282,1.04986581734505,-0.822204435435831,-0.184234235737382,0.649928175430489,0.15526880874933
"V408_0",0.293618434165685,-0.311093129032463,0.0173493418727553,-0.0184843637693333,-0.0996914476795296,-0.0728931580842264
"V408_1",-0.851493459080486,0.902170074194144,-0.05031309143099,0.0536046549310665,0.289105198270636,0.211390158444256
"V409_0",0.398943627529032,-0.356330896404053,0.167500566318708,0.038901262498757,-0.0567294162679476,0.0175958827302571
"V409_1",-0.797887255058065,0.712661792808107,-0.335001132637417,-0.077802524997514,0.113458832535895,-0.0351917654605142
"V410_0",0.324468118795544,-0.291316884597261,0.220647300831408,0.0544795983523512,0.0148882432710074,0.00198265533072179
"V410_1",-0.880699179587906,0.790717258192566,-0.598899816542394,-0.147873195527811,-0.0404109460213057,-0.00538149304053071
"V411_0",0.333985558113547,-0.308430009882145,0.0795439418228874,0.00947523168404049,-0.0643460084523837,-0.182624643820224
"V411_1",-0.90653222916534,0.837167169680107,-0.215904984947837,-0.0257184859995385,0.174653451513613,0.495695461797751
"V412_0",0.29776269193383,-0.29220214504921,0.190709863169242,0.0473426690763123,-0.0135939928919691,-0.0910471693011522
"V412_1",-0.92463151705768,0.907364555679125,-0.592204311946593,-0.147011446079075,0.0422129252961144,0.282725420461473
"V413_0",0.287132640785239,-0.3113492917122,0.255025147330095,0.0620508223717174,-0.0632418329699986,-0.0112319961712511
"V413_1",-0.832684658277194,0.902912945965382,-0.739572927257276,-0.17994738487798,0.183401315612996,0.0325727888966284
"V414_0",0.127481527390089,-0.139840015896901,0.200671083079978,0.0608164541699784,-0.135700992376809,-0.0549743860672051
"V414_1",-0.70114840064549,0.769120087432953,-1.10369095693988,-0.334490497934881,0.746355458072449,0.302359123369628
