0.000000000000000000e+00,3.878575419535185143e-02,7.090672591181944318e-02,-8.348212545334751655e-02,-8.348212545334751655e-02,-2.730229355418456114e-02,8.431210214599148267e-02,6.509987326369884308e-02,8.431210214599148267e-02,6.509987326369884308e-02,-4.058716113252502228e-02,-2.730229355418456114e-02,-1.728417248400991590e-02,-3.332692282371600978e-01,-1.724392028644619046e-01,-1.898226098912519644e-01,-7.510795816529566848e-03,-2.754418603403415156e-01,-8.044717096612066798e-02,-2.613632741921831371e-01,-2.429312470949185621e-01,-2.940039576869433180e-01,-3.782041408383280956e-01,0.000000000000000000e+00,-2.816619122303808398e-01,-1.110889986078470171e-01,-5.123179947401493850e-01,-2.801862683383488650e-01,7.090672591181944318e-02,-1.240099325220675036e-01,-7.948597231313202227e-02,-1.403690111807673890e-01,3.801555213411008521e-02,-2.438456112309761170e-01,-2.666438431731756875e-01,-3.317677860357053921e-01,0.000000000000000000e+00,3.803777017597379656e-02,-4.965772565643936098e-01,0.000000000000000000e+00,-3.167592579791176366e-01,-4.129630545988383084e-01,-1.734595703050207938e-01,-1.766307079820547687e-01,-5.060216684819936889e-02,-1.240509608003056152e-01,-2.885300612734563730e-01,-2.955311603389253472e-01,-4.335016264788115747e-01,0.000000000000000000e+00,-2.794531153131904477e-01,-1.940096887284687432e-01,-1.712877558962690450e-01,-1.638851070059535731e-01,-1.979350529502365286e-01,-1.808910988973717882e-01,-7.948597231313202227e-02,-2.032080463978768181e-01,-2.568127131756050008e-01,-2.757019968020818501e-01,-4.554013579806885370e-01,-3.450691110075409518e-01,-4.672532112061932863e-01,-3.860593476837465010e-01,-2.060958987230932238e-01,0.000000000000000000e+00,-1.405268644798125521e-01,-2.898989024940054060e-01,0.000000000000000000e+00,0.000000000000000000e+00,-4.042440396795133895e-01,-2.154970728326482399e-01,0.000000000000000000e+00,-1.787872559145289864e-01,-2.704955086914225260e-01,-2.616025421617216296e-01,8.022112632882770489e-02,0.000000000000000000e+00,0.000000000000000000e+00,2.057190825823204498e-03,8.022112632882770489e-02,0.000000000000000000e+00,-1.721650174260835886e-01,-1.604604765920976395e-01,-2.348540298749547117e-01,-1.728061734605855493e-01,-2.572034810062350796e-01,-3.318942893215292012e-01,0.000000000000000000e+00,0.000000000000000000e+00,0.000000000000000000e+00,-2.320052016129410810e-01,-2.442298568467585196e-02,0.000000000000000000e+00,0.000000000000000000e+00,-1.814805389529714763e-01,8.431210214599148267e-02,8.431210214599148267e-02,-1.728061734605855493e-01,-1.365044465124631567e-01,5.891678136064598670e-02,0.000000000000000000e+00,5.629326870636655600e-02,0.000000000000000000e+00,4.437849227996734647e-02,4.452117283308826279e-02,5.891678136064598670e-02,0.000000000000000000e+00,8.022112632882770489e-02,9.382721175983703421e-02,0.000000000000000000e+00,0.000000000000000000e+00,0.000000000000000000e+00,0.000000000000000000e+00,0.000000000000000000e+00,0.000000000000000000e+00,0.000000000000000000e+00,0.000000000000000000e+00,0.000000000000000000e+00,0.000000000000000000e+00,0.000000000000000000e+00,0.000000000000000000e+00,0.000000000000000000e+00,0.000000000000000000e+00,0.000000000000000000e+00,0.000000000000000000e+00,0.000000000000000000e+00,0.000000000000000000e+00,0.000000000000000000e+00,0.000000000000000000e+00,0.000000000000000000e+00,1.049644824292733994e-02,0.000000000000000000e+00,0.000000000000000000e+00,0.000000000000000000e+00,0.000000000000000000e+00,-6.794359404534514035e-02,0.000000000000000000e+00,0.000000000000000000e+00,0.000000000000000000e+00,0.000000000000000000e+00,0.000000000000000000e+00,0.000000000000000000e+00,0.000000000000000000e+00,0.000000000000000000e+00,0.000000000000000000e+00,0.000000000000000000e+00,0.000000000000000000e+00,0.000000000000000000e+00,0.000000000000000000e+00,0.000000000000000000e+00,0.000000000000000000e+00,0.000000000000000000e+00,0.000000000000000000e+00,0.000000000000000000e+00,0.000000000000000000e+00,0.000000000000000000e+00,0.000000000000000000e+00,0.000000000000000000e+00,0.000000000000000000e+00,0.000000000000000000e+00,0.000000000000000000e+00,0.000000000000000000e+00,1.049644824292733994e-02,0.000000000000000000e+00,0.000000000000000000e+00,0.000000000000000000e+00,0.000000000000000000e+00,0.000000000000000000e+00,0.000000000000000000e+00,0.000000000000000000e+00,0.000000000000000000e+00,0.000000000000000000e+00,0.000000000000000000e+00,0.000000000000000000e+00,0.000000000000000000e+00,0.000000000000000000e+00,0.000000000000000000e+00,0.000000000000000000e+00,0.000000000000000000e+00,0.000000000000000000e+00,0.000000000000000000e+00,-2.931882245346628668e-02,0.000000000000000000e+00,0.000000000000000000e+00,6.605559456131181173e-02,0.000000000000000000e+00,0.000000000000000000e+00,0.000000000000000000e+00,0.000000000000000000e+00,0.000000000000000000e+00,0.000000000000000000e+00,0.000000000000000000e+00,0.000000000000000000e+00,-3.660468191972707230e-02,0.000000000000000000e+00,3.174902730939853646e-01,0.000000000000000000e+00,0.000000000000000000e+00,3.174902730939853646e-01,-2.566388549408827879e-01,-2.954927191121637930e-01,-3.353284357512352765e-01,-1.915276491243505519e-01,-7.813654484149575030e-02,-1.944234332204392568e-01,1.201072780599303155e-02,0.000000000000000000e+00,0.000000000000000000e+00,0.000000000000000000e+00,0.000000000000000000e+00,0.000000000000000000e+00,0.000000000000000000e+00,0.000000000000000000e+00,6.407910851200852853e-02,0.000000000000000000e+00,0.000000000000000000e+00,0.000000000000000000e+00,0.000000000000000000e+00,0.000000000000000000e+00,8.022112632882770489e-02,0.000000000000000000e+00,8.714819948223206936e-02,0.000000000000000000e+00,0.000000000000000000e+00,0.000000000000000000e+00,0.000000000000000000e+00,0.000000000000000000e+00,0.000000000000000000e+00,0.000000000000000000e+00,0.000000000000000000e+00,0.000000000000000000e+00,0.000000000000000000e+00,0.000000000000000000e+00,0.000000000000000000e+00,0.000000000000000000e+00,0.000000000000000000e+00,0.000000000000000000e+00,0.000000000000000000e+00,0.000000000000000000e+00
0.000000000000000000e+00,0.000000000000000000e+00,6.509987326369884308e-02,2.482154226612761153e-02,-1.087485564949126765e-01,-7.233633998868874149e-02,6.509987326369884308e-02,6.509987326369884308e-02,0.000000000000000000e+00,6.509987326369884308e-02,-3.660468191972707230e-02,3.670968009586447062e-02,0.000000000000000000e+00,0.000000000000000000e+00,0.000000000000000000e+00,0.000000000000000000e+00,2.579962580957607422e-03,0.000000000000000000e+00,0.000000000000000000e+00,-8.783653420650135157e-02,-2.673324650765450672e-01,-2.198789940088834161e-01,-3.447921004482177310e-01,0.000000000000000000e+00,-2.984124831583403470e-01,-3.169538799962862141e-01,0.000000000000000000e+00,0.000000000000000000e+00,-1.158556918655817558e-02,-1.240099325220675036e-01,-1.433795270902847863e-01,-4.058716113252502228e-02,-1.644251884353062137e-03,0.000000000000000000e+00,0.000000000000000000e+00,0.000000000000000000e+00,0.000000000000000000e+00,0.000000000000000000e+00,-3.671455908918524469e-01,-3.390551775533414136e-01,-1.879694951211673959e-01,0.000000000000000000e+00,0.000000000000000000e+00,-2.875023606747104665e-01,0.000000000000000000e+00,0.000000000000000000e+00,2.243192577236543389e-02,0.000000000000000000e+00,0.000000000000000000e+00,0.000000000000000000e+00,-2.299660081051786154e-01,0.000000000000000000e+00,0.000000000000000000e+00,5.891678136064598670e-02,0.000000000000000000e+00,0.000000000000000000e+00,-2.320302920447548101e-01,0.000000000000000000e+00,0.000000000000000000e+00,-3.034508442101799264e-01,-3.819329752886529983e-01,-3.812027444200761228e-01,0.000000000000000000e+00,-2.679253389740450242e-01,0.000000000000000000e+00,0.000000000000000000e+00,-1.326305027068372944e-01,0.000000000000000000e+00,-2.875124679680980955e-01,0.000000000000000000e+00,0.000000000000000000e+00,2.579962580957607422e-03,0.000000000000000000e+00,0.000000000000000000e+00,0.000000000000000000e+00,0.000000000000000000e+00,0.000000000000000000e+00,0.000000000000000000e+00,0.000000000000000000e+00,0.000000000000000000e+00,0.000000000000000000e+00,0.000000000000000000e+00,-1.267639587746607621e-01,-2.320302920447548101e-01,-2.199513177924570517e-01,-2.537647533360585794e-01,0.000000000000000000e+00,0.000000000000000000e+00,0.000000000000000000e+00,0.000000000000000000e+00,0.000000000000000000e+00,-1.235472272576366992e-01,0.000000000000000000e+00,0.000000000000000000e+00,0.000000000000000000e+00,2.482154226612761153e-02,-3.660468191972707230e-02,-8.432441835152804099e-02,-1.100584264732622913e-01,-1.433795270902847863e-01,0.000000000000000000e+00,0.000000000000000000e+00,0.000000000000000000e+00,0.000000000000000000e+00,0.000000000000000000e+00,0.000000000000000000e+00,0.000000000000000000e+00,0.000000000000000000e+00,0.000000000000000000e+00,0.000000000000000000e+00,0.000000000000000000e+00,0.000000000000000000e+00,0.000000000000000000e+00,0.000000000000000000e+00,0.000000000000000000e+00,0.000000000000000000e+00,0.000000000000000000e+00,0.000000000000000000e+00,0.000000000000000000e+00,0.000000000000000000e+00,0.000000000000000000e+00,0.000000000000000000e+00,0.000000000000000000e+00,0.000000000000000000e+00,0.000000000000000000e+00,0.000000000000000000e+00,0.000000000000000000e+00,0.000000000000000000e+00,0.000000000000000000e+00,0.000000000000000000e+00,0.000000000000000000e+00,0.000000000000000000e+00,0.000000000000000000e+00,0.000000000000000000e+00,0.000000000000000000e+00,0.000000000000000000e+00,0.000000000000000000e+00,0.000000000000000000e+00,0.000000000000000000e+00,0.000000000000000000e+00,0.000000000000000000e+00,0.000000000000000000e+00,0.000000000000000000e+00,0.000000000000000000e+00,0.000000000000000000e+00,0.000000000000000000e+00,0.000000000000000000e+00,0.000000000000000000e+00,0.000000000000000000e+00,0.000000000000000000e+00,0.000000000000000000e+00,0.000000000000000000e+00,0.000000000000000000e+00,0.000000000000000000e+00,0.000000000000000000e+00,0.000000000000000000e+00,0.000000000000000000e+00,0.000000000000000000e+00,0.000000000000000000e+00,0.000000000000000000e+00,0.000000000000000000e+00,0.000000000000000000e+00,0.000000000000000000e+00,0.000000000000000000e+00,0.000000000000000000e+00,0.000000000000000000e+00,0.000000000000000000e+00,0.000000000000000000e+00,0.000000000000000000e+00,0.000000000000000000e+00,0.000000000000000000e+00,0.000000000000000000e+00,0.000000000000000000e+00,0.000000000000000000e+00,0.000000000000000000e+00,0.000000000000000000e+00,0.000000000000000000e+00,0.000000000000000000e+00,0.000000000000000000e+00,0.000000000000000000e+00,0.000000000000000000e+00,0.000000000000000000e+00,0.000000000000000000e+00,0.000000000000000000e+00,0.000000000000000000e+00,0.000000000000000000e+00,0.000000000000000000e+00,0.000000000000000000e+00,0.000000000000000000e+00,0.000000000000000000e+00,0.000000000000000000e+00,0.000000000000000000e+00,0.000000000000000000e+00,0.000000000000000000e+00,0.000000000000000000e+00,0.000000000000000000e+00,0.000000000000000000e+00,0.000000000000000000e+00,0.000000000000000000e+00,0.000000000000000000e+00,-2.198392847311974319e-01,0.000000000000000000e+00,-2.468358206595218096e-01,0.000000000000000000e+00,0.000000000000000000e+00,-1.710907300035186263e-01,0.000000000000000000e+00,0.000000000000000000e+00,0.000000000000000000e+00,0.000000000000000000e+00,0.000000000000000000e+00,0.000000000000000000e+00,0.000000000000000000e+00,0.000000000000000000e+00,3.878575419535185143e-02,0.000000000000000000e+00,0.000000000000000000e+00,0.000000000000000000e+00,0.000000000000000000e+00,0.000000000000000000e+00,0.000000000000000000e+00,0.000000000000000000e+00,5.560023134991985000e-02,0.000000000000000000e+00,0.000000000000000000e+00,0.000000000000000000e+00,0.000000000000000000e+00,0.000000000000000000e+00,0.000000000000000000e+00,0.000000000000000000e+00,0.000000000000000000e+00,0.000000000000000000e+00,0.000000000000000000e+00,0.000000000000000000e+00,0.000000000000000000e+00,0.000000000000000000e+00,0.000000000000000000e+00,0.000000000000000000e+00,0.000000000000000000e+00,0.000000000000000000e+00
0.000000000000000000e+00,0.000000000000000000e+00,0.000000000000000000e+00,3.670968009586447062e-02,-8.348212545334751655e-02,-4.058716113252502228e-02,6.509987326369884308e-02,8.431210214599148267e-02,8.431210214599148267e-02,6.509987326369884308e-02,-3.660468191972707230e-02,-3.660468191972707230e-02,0.000000000000000000e+00,0.000000000000000000e+00,-1.763884045002087064e-01,-3.186514171520369865e-01,-2.542718717299248254e-01,-4.074880179651659273e-01,-9.066503836243271219e-02,-1.006451093316597795e-01,-2.429312470949185621e-01,-2.692733979937975697e-01,-3.933476381261908905e-01,-1.473060201211353337e-01,-2.858423168008750737e-01,-2.406381625311350692e-01,-3.048990463772000004e-01,-4.465994756595616511e-01,8.431210214599148267e-02,-8.348212545334751655e-02,-1.433724175318450422e-01,-3.660468191972707230e-02,9.718775781623499241e-03,2.637458155527190595e-02,0.000000000000000000e+00,-3.711787802685236753e-02,-3.711787802685236753e-02,2.637458155527190595e-02,-5.247812357027782371e-01,0.000000000000000000e+00,-3.179992219440079815e-01,-3.498569413050143795e-01,-3.256620481097887154e-01,-3.124029936143369324e-01,-1.888183240664912388e-01,0.000000000000000000e+00,-2.459804771061036011e-01,-4.041725537894645948e-01,-3.532622106537606221e-01,0.000000000000000000e+00,-1.437533070779527522e-01,-1.410182287725860739e-01,-1.979350529502365286e-01,-2.017475634493037795e-01,0.000000000000000000e+00,-2.271695887272107417e-01,-8.348212545334751655e-02,-7.194530551702625620e-02,-1.901754566140869407e-01,-1.718341285795599860e-01,-4.633743985039935898e-01,-1.433904138084020063e-01,-4.317550676100669338e-01,-2.901667747310572310e-01,-4.399397961852283823e-01,0.000000000000000000e+00,-2.073231890778570174e-01,-1.030130824286511482e-01,0.000000000000000000e+00,-2.320429017768726176e-01,0.000000000000000000e+00,-3.660468191972707230e-02,9.718775781623499241e-03,-6.708294246618208556e-02,2.579962580957607422e-03,-2.121013186650383686e-01,0.000000000000000000e+00,-1.030130824286511482e-01,0.000000000000000000e+00,-1.333035849474938084e-01,-8.369746043298821603e-02,0.000000000000000000e+00,-1.479929165308546679e-01,-1.479929165308546679e-01,-2.348540298749547117e-01,-2.692733979937975697e-01,-1.766307079820547687e-01,-3.985429424308400276e-02,0.000000000000000000e+00,0.000000000000000000e+00,0.000000000000000000e+00,-1.316880274957021868e-01,0.000000000000000000e+00,0.000000000000000000e+00,-2.640155740311813104e-01,-2.225929406763417495e-02,-3.660468191972707230e-02,6.509987326369884308e-02,-2.940039576869433180e-01,-1.462458493885080979e-01,0.000000000000000000e+00,0.000000000000000000e+00,0.000000000000000000e+00,1.290971824776297912e-02,9.382721175983703421e-02,8.431210214599148267e-02,0.000000000000000000e+00,0.000000000000000000e+00,8.022112632882770489e-02,8.431210214599148267e-02,0.000000000000000000e+00,0.000000000000000000e+00,0.000000000000000000e+00,0.000000000000000000e+00,0.000000000000000000e+00,0.000000000000000000e+00,0.000000000000000000e+00,0.000000000000000000e+00,0.000000000000000000e+00,0.000000000000000000e+00,0.000000000000000000e+00,0.000000000000000000e+00,0.000000000000000000e+00,0.000000000000000000e+00,0.000000000000000000e+00,0.000000000000000000e+00,0.000000000000000000e+00,0.000000000000000000e+00,0.000000000000000000e+00,0.000000000000000000e+00,0.000000000000000000e+00,0.000000000000000000e+00,7.127442566286798509e-02,0.000000000000000000e+00,0.000000000000000000e+00,0.000000000000000000e+00,0.000000000000000000e+00,0.000000000000000000e+00,0.000000000000000000e+00,0.000000000000000000e+00,0.000000000000000000e+00,0.000000000000000000e+00,0.000000000000000000e+00,0.000000000000000000e+00,2.805159692491372425e-01,0.000000000000000000e+00,0.000000000000000000e+00,0.000000000000000000e+00,0.000000000000000000e+00,0.000000000000000000e+00,0.000000000000000000e+00,0.000000000000000000e+00,0.000000000000000000e+00,0.000000000000000000e+00,0.000000000000000000e+00,0.000000000000000000e+00,0.000000000000000000e+00,0.000000000000000000e+00,0.000000000000000000e+00,0.000000000000000000e+00,0.000000000000000000e+00,0.000000000000000000e+00,0.000000000000000000e+00,0.000000000000000000e+00,6.605559456131181173e-02,0.000000000000000000e+00,0.000000000000000000e+00,0.000000000000000000e+00,4.247545708113205642e-01,0.000000000000000000e+00,0.000000000000000000e+00,0.000000000000000000e+00,0.000000000000000000e+00,0.000000000000000000e+00,0.000000000000000000e+00,0.000000000000000000e+00,0.000000000000000000e+00,0.000000000000000000e+00,0.000000000000000000e+00,0.000000000000000000e+00,0.000000000000000000e+00,0.000000000000000000e+00,5.891678136064598670e-02,0.000000000000000000e+00,0.000000000000000000e+00,-4.875884860569052598e-02,0.000000000000000000e+00,0.000000000000000000e+00,0.000000000000000000e+00,0.000000000000000000e+00,0.000000000000000000e+00,0.000000000000000000e+00,0.000000000000000000e+00,0.000000000000000000e+00,-1.632702685547528926e-02,0.000000000000000000e+00,0.000000000000000000e+00,0.000000000000000000e+00,0.000000000000000000e+00,0.000000000000000000e+00,-1.593120429921584813e-01,-1.635909336904328160e-01,-4.897278467087092801e-01,-2.227486535451084493e-01,-2.023820694864127967e-01,-1.710907300035186263e-01,0.000000000000000000e+00,0.000000000000000000e+00,0.000000000000000000e+00,0.000000000000000000e+00,0.000000000000000000e+00,2.643862302066679951e-02,0.000000000000000000e+00,0.000000000000000000e+00,6.407910851200852853e-02,0.000000000000000000e+00,0.000000000000000000e+00,0.000000000000000000e+00,0.000000000000000000e+00,0.000000000000000000e+00,0.000000000000000000e+00,0.000000000000000000e+00,8.714819948223206936e-02,0.000000000000000000e+00,0.000000000000000000e+00,0.000000000000000000e+00,0.000000000000000000e+00,0.000000000000000000e+00,0.000000000000000000e+00,0.000000000000000000e+00,0.000000000000000000e+00,0.000000000000000000e+00,0.000000000000000000e+00,0.000000000000000000e+00,0.000000000000000000e+00,0.000000000000000000e+00,0.000000000000000000e+00,0.000000000000000000e+00,0.000000000000000000e+00,0.000000000000000000e+00
0.000000000000000000e+00,0.000000000000000000e+00,0.000000000000000000e+00,0.000000000000000000e+00,-1.335591713744020970e-01,-6.773194382543075431e-02,-9.685206218347526541e-02,6.509987326369884308e-02,6.509987326369884308e-02,-4.058716113252502228e-02,-6.773194382543075431e-02,-4.058716113252502228e-02,-3.779865897896107496e-01,-2.690452985335011760e-01,-3.691617380132566906e-01,-4.231135999670156411e-01,0.000000000000000000e+00,-4.611798238489975277e-01,1.179260250864155035e-01,-2.060034713258277472e-01,-2.429312470949185621e-01,-3.084322717781951551e-01,-4.324045409673769602e-01,-1.467402537598030132e-01,-2.920119662231969171e-01,0.000000000000000000e+00,-4.376987462767366055e-01,-4.221885914544132312e-01,3.670968009586447062e-02,-1.240099325220675036e-01,-7.948597231313202227e-02,-6.683141382940607778e-02,9.718775781623499241e-03,-1.593228647704667544e-01,-4.322238977111348412e-01,-1.163722113279525849e-01,-1.766307079820547687e-01,-1.071689489007334600e-01,-6.115633944244975861e-01,-2.859174885840715663e-01,-3.618148994874757496e-01,-4.299245299527374442e-01,-3.459121623318542893e-01,-2.317754958462561743e-01,-4.271776128553315260e-02,0.000000000000000000e+00,-3.437164990613624238e-01,-4.273482167760883632e-01,-3.667751343095377869e-01,0.000000000000000000e+00,-3.044732898235751883e-01,-1.820221127724187260e-01,-2.835970093064245634e-01,-1.871132709375111502e-01,-1.979350529502365286e-01,-1.871132709375111502e-01,-1.240099325220675036e-01,-2.406798435880177223e-01,-3.189215750380925973e-01,-2.853491400162979641e-01,-4.472795765333703044e-01,-5.692880591267744927e-01,-5.111150937085192636e-01,-5.722806055722022833e-01,-4.876778733507995400e-01,-3.935736743835154261e-01,-1.405268644798125521e-01,0.000000000000000000e+00,-3.426667483134894776e-01,-3.332692282371600978e-01,-3.194662670707009156e-01,-6.683141382940607778e-02,0.000000000000000000e+00,-1.948368780049023474e-01,-2.400084551241609965e-01,-4.735153760432356251e-01,-2.406798435880177223e-01,-1.952510295139722740e-01,0.000000000000000000e+00,-1.530864020609643827e-01,-3.187693208084853569e-01,-3.199654463203200350e-01,-1.808466683285802623e-01,-1.808910988973717882e-01,-2.413520317790135983e-01,-2.261125283529037966e-01,-3.134648563339635929e-01,-2.631330760420836912e-01,0.000000000000000000e+00,0.000000000000000000e+00,0.000000000000000000e+00,-2.916478160092123018e-01,-1.188802149007563841e-01,0.000000000000000000e+00,-4.882266745209550285e-01,-1.596242602540162703e-01,-6.683141382940607778e-02,-8.432441835152804099e-02,-2.692733979937975697e-01,-1.723332951667660984e-01,0.000000000000000000e+00,0.000000000000000000e+00,3.878575419535185143e-02,7.763423283665875363e-02,4.256932159152480855e-03,7.763423283665875363e-02,0.000000000000000000e+00,0.000000000000000000e+00,9.718775781623499241e-03,-8.170873746046951325e-02,-9.505539861757200670e-02,0.000000000000000000e+00,0.000000000000000000e+00,0.000000000000000000e+00,0.000000000000000000e+00,0.000000000000000000e+00,0.000000000000000000e+00,0.000000000000000000e+00,0.000000000000000000e+00,0.000000000000000000e+00,0.000000000000000000e+00,0.000000000000000000e+00,0.000000000000000000e+00,0.000000000000000000e+00,0.000000000000000000e+00,0.000000000000000000e+00,0.000000000000000000e+00,0.000000000000000000e+00,0.000000000000000000e+00,0.000000000000000000e+00,0.000000000000000000e+00,7.763423283665875363e-02,4.537203687333649788e-02,0.000000000000000000e+00,0.000000000000000000e+00,0.000000000000000000e+00,0.000000000000000000e+00,0.000000000000000000e+00,0.000000000000000000e+00,0.000000000000000000e+00,0.000000000000000000e+00,3.325876377654460314e-01,0.000000000000000000e+00,0.000000000000000000e+00,0.000000000000000000e+00,0.000000000000000000e+00,0.000000000000000000e+00,0.000000000000000000e+00,0.000000000000000000e+00,0.000000000000000000e+00,0.000000000000000000e+00,0.000000000000000000e+00,0.000000000000000000e+00,0.000000000000000000e+00,0.000000000000000000e+00,0.000000000000000000e+00,0.000000000000000000e+00,0.000000000000000000e+00,0.000000000000000000e+00,0.000000000000000000e+00,0.000000000000000000e+00,0.000000000000000000e+00,0.000000000000000000e+00,0.000000000000000000e+00,0.000000000000000000e+00,0.000000000000000000e+00,0.000000000000000000e+00,0.000000000000000000e+00,0.000000000000000000e+00,0.000000000000000000e+00,0.000000000000000000e+00,0.000000000000000000e+00,0.000000000000000000e+00,0.000000000000000000e+00,0.000000000000000000e+00,0.000000000000000000e+00,0.000000000000000000e+00,0.000000000000000000e+00,0.000000000000000000e+00,0.000000000000000000e+00,0.000000000000000000e+00,0.000000000000000000e+00,0.000000000000000000e+00,0.000000000000000000e+00,0.000000000000000000e+00,-1.158556918655817558e-02,0.000000000000000000e+00,0.000000000000000000e+00,0.000000000000000000e+00,0.000000000000000000e+00,0.000000000000000000e+00,0.000000000000000000e+00,0.000000000000000000e+00,0.000000000000000000e+00,-8.170873746046951325e-02,0.000000000000000000e+00,0.000000000000000000e+00,0.000000000000000000e+00,0.000000000000000000e+00,0.000000000000000000e+00,-2.223275679744716737e-01,-2.268076774347703439e-01,-3.782377403647250169e-01,-2.254203112103615736e-01,-2.195194907999976630e-01,-2.479236592648648707e-01,-1.855660294404384569e-01,0.000000000000000000e+00,0.000000000000000000e+00,0.000000000000000000e+00,0.000000000000000000e+00,-7.986668392945998896e-02,0.000000000000000000e+00,0.000000000000000000e+00,3.878575419535185143e-02,0.000000000000000000e+00,0.000000000000000000e+00,0.000000000000000000e+00,0.000000000000000000e+00,0.000000000000000000e+00,0.000000000000000000e+00,0.000000000000000000e+00,7.090672591181944318e-02,0.000000000000000000e+00,0.000000000000000000e+00,0.000000000000000000e+00,0.000000000000000000e+00,0.000000000000000000e+00,0.000000000000000000e+00,0.000000000000000000e+00,0.000000000000000000e+00,0.000000000000000000e+00,0.000000000000000000e+00,0.000000000000000000e+00,0.000000000000000000e+00,0.000000000000000000e+00,0.000000000000000000e+00,0.000000000000000000e+00,0.000000000000000000e+00,0.000000000000000000e+00
0.000000000000000000e+00,0.000000000000000000e+00,0.000000000000000000e+00,0.000000000000000000e+00,0.000000000000000000e+00,-6.501126752128487396e-02,-1.510456272520704357e-01,-8.348212545334751655e-02,-8.432441835152804099e-02,-1.595600404497300728e-01,-5.668392948987154706e-02,-1.595600404497300728e-01,-3.572460010420778764e-01,-2.542718717299248254e-01,-2.130906767384118106e-01,-4.112248236427286652e-01,-1.790789342572658982e-01,-4.610504156895535166e-01,-2.304397361056564342e-01,-2.542718717299248254e-01,-2.429312470949185621e-01,-2.940039576869433180e-01,-4.358671395757467981e-01,-4.854096100315383744e-01,-2.779796434092827173e-01,0.000000000000000000e+00,-5.933797238280126285e-01,-5.377789566755100115e-01,-8.348212545334751655e-02,-1.722903067253004350e-01,-1.535270114298193656e-01,-1.405817465682115963e-01,0.000000000000000000e+00,0.000000000000000000e+00,-3.679973997237775407e-01,-4.056503634011249249e-01,-2.542448352920521626e-01,0.000000000000000000e+00,-5.410138524129123327e-01,-4.947424328051479026e-01,-4.055808607523200826e-01,-5.034668207647688964e-01,-4.184800387470705152e-01,-2.709624356812344037e-01,-3.434925108944573702e-01,0.000000000000000000e+00,-3.670979507033897415e-01,-5.015493013122287458e-01,-4.386396658949901495e-01,-2.812748199955583117e-01,-3.429330162023497275e-01,-2.932797756036786274e-01,-2.734495249668899008e-01,-1.274194690715079459e-01,-9.448720352065814732e-02,-2.157197935610322137e-01,-1.100584264732622913e-01,-2.803653577585571988e-01,-3.784093478536604827e-01,-3.091175301914314555e-01,-4.931328459449919599e-01,-5.535463873565302784e-01,-5.815307208364067781e-01,-6.139496335014029693e-01,-5.138010724261621309e-01,-3.652061154045659896e-01,-7.948597231313202227e-02,-3.412756348182816590e-01,-3.685422137194032666e-01,-3.586391257745279448e-01,-2.147950891134652873e-01,-4.568080828107652647e-02,0.000000000000000000e+00,-2.872800821370152802e-01,-3.380570654376889861e-01,-4.880805881810213465e-01,-2.542718717299248254e-01,-1.766307079820547687e-01,0.000000000000000000e+00,-4.117663880985066721e-02,-1.597824211641370729e-01,0.000000000000000000e+00,-1.604604765920976395e-01,-2.199513177924570517e-01,-2.348540298749547117e-01,-2.117002151826105905e-01,-3.195267257285588358e-01,-3.973772365747325064e-01,0.000000000000000000e+00,0.000000000000000000e+00,-1.644721962787606129e-01,-3.125866844777271947e-01,-3.670778076699922066e-01,0.000000000000000000e+00,-2.986256190994434623e-01,0.000000000000000000e+00,0.000000000000000000e+00,-8.483223825886648806e-02,-2.469503167622473516e-01,-2.504737019506166895e-01,0.000000000000000000e+00,0.000000000000000000e+00,7.763423283665875363e-02,1.645138070155714449e-01,7.763423283665875363e-02,-9.441632185077031281e-02,0.000000000000000000e+00,0.000000000000000000e+00,8.022112632882770489e-02,0.000000000000000000e+00,0.000000000000000000e+00,0.000000000000000000e+00,0.000000000000000000e+00,3.222340937262000438e-01,0.000000000000000000e+00,0.000000000000000000e+00,0.000000000000000000e+00,0.000000000000000000e+00,0.000000000000000000e+00,0.000000000000000000e+00,0.000000000000000000e+00,0.000000000000000000e+00,0.000000000000000000e+00,0.000000000000000000e+00,0.000000000000000000e+00,0.000000000000000000e+00,0.000000000000000000e+00,0.000000000000000000e+00,0.000000000000000000e+00,0.000000000000000000e+00,0.000000000000000000e+00,1.892090601350035761e-01,1.522629418055752304e-01,0.000000000000000000e+00,0.000000000000000000e+00,0.000000000000000000e+00,0.000000000000000000e+00,0.000000000000000000e+00,0.000000000000000000e+00,0.000000000000000000e+00,0.000000000000000000e+00,-1.486620182532098489e-01,0.000000000000000000e+00,0.000000000000000000e+00,0.000000000000000000e+00,0.000000000000000000e+00,0.000000000000000000e+00,0.000000000000000000e+00,0.000000000000000000e+00,0.000000000000000000e+00,0.000000000000000000e+00,0.000000000000000000e+00,0.000000000000000000e+00,0.000000000000000000e+00,0.000000000000000000e+00,0.000000000000000000e+00,0.000000000000000000e+00,0.000000000000000000e+00,0.000000000000000000e+00,0.000000000000000000e+00,0.000000000000000000e+00,0.000000000000000000e+00,0.000000000000000000e+00,0.000000000000000000e+00,0.000000000000000000e+00,0.000000000000000000e+00,0.000000000000000000e+00,0.000000000000000000e+00,0.000000000000000000e+00,0.000000000000000000e+00,0.000000000000000000e+00,0.000000000000000000e+00,1.049644824292733994e-02,0.000000000000000000e+00,0.000000000000000000e+00,0.000000000000000000e+00,0.000000000000000000e+00,0.000000000000000000e+00,0.000000000000000000e+00,0.000000000000000000e+00,0.000000000000000000e+00,0.000000000000000000e+00,-4.586840688038569536e-02,7.780785632399195295e-02,0.000000000000000000e+00,0.000000000000000000e+00,0.000000000000000000e+00,0.000000000000000000e+00,0.000000000000000000e+00,0.000000000000000000e+00,0.000000000000000000e+00,0.000000000000000000e+00,0.000000000000000000e+00,-3.199932357212502410e-02,-8.170873746046951325e-02,-1.095284758530120639e-01,0.000000000000000000e+00,1.386839911800807623e-01,0.000000000000000000e+00,3.861200381654021907e-01,-2.611800079198999813e-01,-2.404947774069345623e-01,-4.521448181645624786e-01,-2.226082575469750802e-01,-1.623548029280620919e-01,-2.646413181158909778e-01,0.000000000000000000e+00,0.000000000000000000e+00,0.000000000000000000e+00,0.000000000000000000e+00,0.000000000000000000e+00,0.000000000000000000e+00,0.000000000000000000e+00,0.000000000000000000e+00,3.878575419535185143e-02,0.000000000000000000e+00,0.000000000000000000e+00,0.000000000000000000e+00,0.000000000000000000e+00,0.000000000000000000e+00,0.000000000000000000e+00,0.000000000000000000e+00,-6.542435203809782163e-02,0.000000000000000000e+00,0.000000000000000000e+00,0.000000000000000000e+00,0.000000000000000000e+00,0.000000000000000000e+00,0.000000000000000000e+00,0.000000000000000000e+00,0.000000000000000000e+00,0.000000000000000000e+00,0.000000000000000000e+00,0.000000000000000000e+00,0.000000000000000000e+00,0.000000000000000000e+00,0.000000000000000000e+00,0.000000000000000000e+00,0.000000000000000000e+00,0.000000000000000000e+00
0.000000000000000000e+00,0.000000000000000000e+00,0.000000000000000000e+00,0.000000000000000000e+00,0.000000000000000000e+00,0.000000000000000000e+00,-1.642293008876523353e-01,-3.660468191972707230e-02,-3.660468191972707230e-02,-1.642293008876523353e-01,-6.683141382940607778e-02,-6.683141382940607778e-02,-4.251436007964619623e-01,0.000000000000000000e+00,-3.772865525088551775e-01,-4.267845213293804396e-01,-2.385878555459604866e-01,-5.075404316670685256e-01,-1.899813285927118567e-01,-1.831416646676826132e-01,-2.946762110482653574e-01,-3.084322717781951551e-01,-4.700370513502355463e-01,-5.300853398004012895e-01,-2.823534681617379527e-01,-3.642864332872326472e-01,-6.062947632759253525e-01,-5.174343013061475371e-01,-9.685206218347526541e-02,-1.595600404497300728e-01,-1.527147080492552711e-01,-6.683141382940607778e-02,-1.593499012083395006e-01,-6.789535152837379572e-02,-3.888653885091066242e-01,-3.782448752074762388e-01,-2.305706453501064901e-01,-1.588372450986043627e-01,-5.593716715493344260e-01,-4.757605044378283021e-01,-4.222912008163262620e-01,-5.566591441651945749e-01,-6.191663732005566745e-01,-3.620755718682139856e-01,-5.021191146284537110e-01,-2.561015522527402277e-01,-3.007024952985075106e-01,-5.783641513309256688e-01,-5.630918020033208737e-01,-3.387818363585623493e-01,-4.613247771491559845e-01,-3.179054462964641670e-01,-8.432441835152804099e-02,-2.404965097868394241e-01,-1.628880845318498027e-01,-2.313989232776635097e-01,-1.527147080492552711e-01,-3.119980034704006866e-01,-3.784093478536604827e-01,-3.687993167632491742e-01,-5.127679596033153375e-01,-6.216526009029564870e-01,-6.580765920178215378e-01,-5.997640957989668342e-01,-6.024443087204941483e-01,-3.238776809816235058e-01,-1.567144873976975827e-01,-3.119980034704006866e-01,-5.364393387377899280e-01,-3.589022349741162188e-01,-4.967492938292016880e-01,-2.406798435880177223e-01,-2.542718717299248254e-01,-3.711677175079241553e-01,-2.731385069254316234e-01,-5.342704393766157800e-01,-2.406798435880177223e-01,-3.405228683538513157e-01,0.000000000000000000e+00,-2.816289597601237538e-01,-3.550814591145525778e-01,-2.117864382754964248e-01,-2.831041090776175717e-01,-2.319805253641368248e-01,-3.182739842612825054e-01,-2.983986662083195629e-01,-3.417535722041952773e-01,-3.435465680285241796e-01,-2.841165576414958482e-01,0.000000000000000000e+00,-4.588270174639183518e-01,-4.137161488625855643e-01,-5.205036658553940931e-01,-3.008445094520428853e-01,-5.439695858789466154e-01,0.000000000000000000e+00,-2.022691372267357568e-01,-1.642293008876523353e-01,-2.437872923074059783e-01,-3.146322879848361120e-01,0.000000000000000000e+00,0.000000000000000000e+00,7.199471669968585640e-03,5.746147092587198385e-02,3.493826936518529269e-02,1.448118380417750921e-02,0.000000000000000000e+00,2.637458155527190595e-02,-6.783485838800902556e-02,-9.505539861757200670e-02,-1.946891561502395451e-01,-5.759263229944119183e-02,0.000000000000000000e+00,0.000000000000000000e+00,0.000000000000000000e+00,0.000000000000000000e+00,0.000000000000000000e+00,0.000000000000000000e+00,0.000000000000000000e+00,5.105272363736615970e-01,0.000000000000000000e+00,0.000000000000000000e+00,0.000000000000000000e+00,0.000000000000000000e+00,0.000000000000000000e+00,0.000000000000000000e+00,4.416333333318568366e-01,0.000000000000000000e+00,0.000000000000000000e+00,0.000000000000000000e+00,0.000000000000000000e+00,1.551163974043554550e-01,-1.400723247198892019e-01,0.000000000000000000e+00,-5.841267642172306984e-02,0.000000000000000000e+00,0.000000000000000000e+00,0.000000000000000000e+00,0.000000000000000000e+00,0.000000000000000000e+00,4.684569380531433680e-01,3.015134343227625635e-01,0.000000000000000000e+00,0.000000000000000000e+00,0.000000000000000000e+00,0.000000000000000000e+00,0.000000000000000000e+00,0.000000000000000000e+00,0.000000000000000000e+00,0.000000000000000000e+00,7.763423283665875363e-02,0.000000000000000000e+00,0.000000000000000000e+00,0.000000000000000000e+00,0.000000000000000000e+00,0.000000000000000000e+00,0.000000000000000000e+00,0.000000000000000000e+00,0.000000000000000000e+00,0.000000000000000000e+00,0.000000000000000000e+00,0.000000000000000000e+00,0.000000000000000000e+00,0.000000000000000000e+00,7.763423283665875363e-02,-8.170873746046951325e-02,2.494011925516170791e-01,3.174902730939853646e-01,0.000000000000000000e+00,1.019111542571059098e-01,0.000000000000000000e+00,0.000000000000000000e+00,0.000000000000000000e+00,0.000000000000000000e+00,0.000000000000000000e+00,0.000000000000000000e+00,0.000000000000000000e+00,0.000000000000000000e+00,0.000000000000000000e+00,0.000000000000000000e+00,0.000000000000000000e+00,0.000000000000000000e+00,9.936257920435696833e-02,2.144579448489824514e-01,0.000000000000000000e+00,-2.406798435880177223e-01,0.000000000000000000e+00,0.000000000000000000e+00,0.000000000000000000e+00,0.000000000000000000e+00,0.000000000000000000e+00,0.000000000000000000e+00,0.000000000000000000e+00,4.483621463430030596e-02,-2.406798435880177223e-01,0.000000000000000000e+00,0.000000000000000000e+00,0.000000000000000000e+00,0.000000000000000000e+00,3.464315779917379601e-01,-3.263383283431312565e-01,-2.644061752856538550e-01,-5.013267112925501312e-01,-2.701369221713623148e-01,-1.466867749104906471e-01,-2.948454251005341864e-01,-3.040218615837123051e-01,9.718775781623499241e-03,0.000000000000000000e+00,0.000000000000000000e+00,1.578181999907626587e-01,0.000000000000000000e+00,0.000000000000000000e+00,0.000000000000000000e+00,0.000000000000000000e+00,0.000000000000000000e+00,0.000000000000000000e+00,0.000000000000000000e+00,0.000000000000000000e+00,0.000000000000000000e+00,0.000000000000000000e+00,0.000000000000000000e+00,8.431210214599148267e-02,0.000000000000000000e+00,0.000000000000000000e+00,0.000000000000000000e+00,0.000000000000000000e+00,0.000000000000000000e+00,0.000000000000000000e+00,0.000000000000000000e+00,0.000000000000000000e+00,0.000000000000000000e+00,0.000000000000000000e+00,0.000000000000000000e+00,0.000000000000000000e+00,0.000000000000000000e+00,0.000000000000000000e+00,0.000000000000000000e+00,0.000000000000000000e+00,0.000000000000000000e+00
0.000000000000000000e+00,0.000000000000000000e+00,0.000000000000000000e+00,0.000000000000000000e+00,0.000000000000000000e+00,0.000000000000000000e+00,0.000000000000000000e+00,8.431210214599148267e-02,8.431210214599148267e-02,8.431210214599148267e-02,-3.660468191972707230e-02,-3.660468191972707230e-02,-2.226380677415636111e-01,0.000000000000000000e+00,-7.877311559103809813e-02,-2.517990923042811441e-02,0.000000000000000000e+00,-2.415599170878290625e-01,-2.653195661627295171e-03,-2.973221525021842448e-01,-2.429312470949185621e-01,-2.999525463725927765e-01,-3.804684165294956455e-01,-1.898268417442729172e-01,-2.568127131756050008e-01,0.000000000000000000e+00,-4.461201945142595493e-01,-4.988433636474075561e-01,-8.348212545334751655e-02,-8.348212545334751655e-02,-7.948597231313202227e-02,-1.642293008876523353e-01,9.718775781623499241e-03,0.000000000000000000e+00,-2.306555061045051647e-01,-2.438456112309761170e-01,0.000000000000000000e+00,0.000000000000000000e+00,-4.444098284779307018e-01,-2.466664600013476483e-01,-2.815198264632777225e-01,-3.978061129573940424e-01,-1.985769732136808130e-01,-2.707099698050480785e-01,-2.449031697855447720e-01,0.000000000000000000e+00,-2.070127908180213749e-01,-4.193286811445846585e-01,-3.208548046657720976e-01,-2.999387105286620558e-01,-1.875463805433831010e-01,-2.045111546690014104e-01,-2.614692050820971447e-01,-1.638851070059535731e-01,-1.267639587746607621e-01,-1.808910988973717882e-01,-7.948597231313202227e-02,-1.632702685547528926e-02,-1.853471869751975309e-01,-2.133095822891832027e-01,-3.961607288053704545e-01,-2.811228077704492345e-01,-3.958446233076859389e-01,-5.046546048270368345e-01,-4.504208983559175872e-01,-1.148626278025005470e-01,-1.479929165308546679e-01,-9.746674323471696266e-02,-1.943794665712024750e-01,-2.683744693836247475e-01,-1.828675243142139917e-01,-5.462539253786703741e-02,0.000000000000000000e+00,-2.424442776893358520e-01,-1.487792772730852364e-01,-3.797692333722099689e-01,-4.875884860569052598e-02,8.022112632882770489e-02,0.000000000000000000e+00,-1.267639587746607621e-01,-3.556412607641321055e-01,0.000000000000000000e+00,-8.432441835152804099e-02,-1.808910988973717882e-01,-2.363136461677034783e-01,-2.198789940088834161e-01,-2.512060581419152117e-01,8.022112632882770489e-02,0.000000000000000000e+00,0.000000000000000000e+00,-1.051313493824406337e-01,-2.580494755820429975e-01,-1.771177656196008809e-01,0.000000000000000000e+00,-3.943936944393426902e-01,4.916710877268730406e-02,8.431210214599148267e-02,8.431210214599148267e-02,-2.473304014974034848e-01,-1.692173518900528528e-01,5.656683337042529153e-02,0.000000000000000000e+00,5.891678136064598670e-02,0.000000000000000000e+00,1.049644824292733994e-02,8.022112632882770489e-02,8.022112632882770489e-02,8.022112632882770489e-02,6.605559456131181173e-02,8.431210214599148267e-02,0.000000000000000000e+00,0.000000000000000000e+00,0.000000000000000000e+00,0.000000000000000000e+00,0.000000000000000000e+00,0.000000000000000000e+00,0.000000000000000000e+00,0.000000000000000000e+00,0.000000000000000000e+00,0.000000000000000000e+00,0.000000000000000000e+00,0.000000000000000000e+00,0.000000000000000000e+00,0.000000000000000000e+00,0.000000000000000000e+00,0.000000000000000000e+00,0.000000000000000000e+00,0.000000000000000000e+00,0.000000000000000000e+00,0.000000000000000000e+00,0.000000000000000000e+00,0.000000000000000000e+00,0.000000000000000000e+00,0.000000000000000000e+00,7.763423283665875363e-02,0.000000000000000000e+00,0.000000000000000000e+00,0.000000000000000000e+00,0.000000000000000000e+00,0.000000000000000000e+00,0.000000000000000000e+00,0.000000000000000000e+00,0.000000000000000000e+00,0.000000000000000000e+00,0.000000000000000000e+00,0.000000000000000000e+00,0.000000000000000000e+00,0.000000000000000000e+00,0.000000000000000000e+00,0.000000000000000000e+00,0.000000000000000000e+00,0.000000000000000000e+00,0.000000000000000000e+00,0.000000000000000000e+00,0.000000000000000000e+00,0.000000000000000000e+00,0.000000000000000000e+00,0.000000000000000000e+00,0.000000000000000000e+00,0.000000000000000000e+00,0.000000000000000000e+00,0.000000000000000000e+00,0.000000000000000000e+00,0.000000000000000000e+00,0.000000000000000000e+00,0.000000000000000000e+00,0.000000000000000000e+00,1.588773854360900628e-01,0.000000000000000000e+00,0.000000000000000000e+00,0.000000000000000000e+00,0.000000000000000000e+00,0.000000000000000000e+00,0.000000000000000000e+00,0.000000000000000000e+00,0.000000000000000000e+00,0.000000000000000000e+00,0.000000000000000000e+00,0.000000000000000000e+00,0.000000000000000000e+00,0.000000000000000000e+00,0.000000000000000000e+00,0.000000000000000000e+00,0.000000000000000000e+00,0.000000000000000000e+00,0.000000000000000000e+00,0.000000000000000000e+00,0.000000000000000000e+00,0.000000000000000000e+00,0.000000000000000000e+00,0.000000000000000000e+00,0.000000000000000000e+00,-1.111455654128951642e-01,0.000000000000000000e+00,8.431210214599148267e-02,0.000000000000000000e+00,0.000000000000000000e+00,1.049644824292733994e-02,0.000000000000000000e+00,1.386839911800807623e-01,-1.813383067248437452e-01,-1.326946094096458362e-01,-3.850934402865826001e-01,-2.200640334418611510e-01,-1.487792772730852364e-01,-1.735243946564806183e-01,0.000000000000000000e+00,-2.379790672987997235e-01,0.000000000000000000e+00,3.346561342660676619e-01,0.000000000000000000e+00,0.000000000000000000e+00,0.000000000000000000e+00,0.000000000000000000e+00,5.891678136064598670e-02,0.000000000000000000e+00,0.000000000000000000e+00,0.000000000000000000e+00,0.000000000000000000e+00,0.000000000000000000e+00,8.714819948223206936e-02,0.000000000000000000e+00,8.714819948223206936e-02,0.000000000000000000e+00,0.000000000000000000e+00,0.000000000000000000e+00,0.000000000000000000e+00,0.000000000000000000e+00,0.000000000000000000e+00,0.000000000000000000e+00,0.000000000000000000e+00,0.000000000000000000e+00,0.000000000000000000e+00,0.000000000000000000e+00,0.000000000000000000e+00,0.000000000000000000e+00,0.000000000000000000e+00,0.000000000000000000e+00,0.000000000000000000e+00,0.000000000000000000e+00
0.000000000000000000e+00,0.000000000000000000e+00,0.000000000000000000e+00,0.000000000000000000e+00,0.000000000000000000e+00,0.000000000000000000e+00,0.000000000000000000e+00,0.000000000000000000e+00,8.431210214599148267e-02,8.431210214599148267e-02,-1.632702685547528926e-02,-3.660468191972707230e-02,8.022112632882770489e-02,0.000000000000000000e+00,0.000000000000000000e+00,0.000000000000000000e+00,0.000000000000000000e+00,-3.250171616153101906e-01,0.000000000000000000e+00,0.000000000000000000e+00,-2.206726716153340762e-01,-2.692733979937975697e-01,-2.113637068137134700e-01,0.000000000000000000e+00,-2.305465118137558500e-01,0.000000000000000000e+00,0.000000000000000000e+00,-1.684188818332197912e-01,6.509987326369884308e-02,-8.348212545334751655e-02,-7.948597231313202227e-02,-3.660468191972707230e-02,9.718775781623499241e-03,0.000000000000000000e+00,0.000000000000000000e+00,-2.984124831583403470e-01,0.000000000000000000e+00,0.000000000000000000e+00,-3.764299456978856817e-01,0.000000000000000000e+00,-3.092201482538525781e-01,-3.800279562445091353e-01,-1.654794355603652345e-01,0.000000000000000000e+00,0.000000000000000000e+00,0.000000000000000000e+00,-7.064977009841169608e-02,-1.957019025273292190e-01,-2.506075156730128706e-01,0.000000000000000000e+00,-1.019306390677239826e-01,-2.079682827804451573e-01,0.000000000000000000e+00,-1.267639587746607621e-01,-9.960109520827840901e-02,-1.188960408344472558e-01,-7.948597231313202227e-02,0.000000000000000000e+00,-8.220536720756216331e-02,-2.440844077342666230e-01,-4.390639679130239892e-01,-2.198106692105126214e-01,8.022112632882770489e-02,-4.338278394661029824e-01,-3.035696657670863274e-01,-6.835794068151257452e-02,-8.348212545334751655e-02,0.000000000000000000e+00,0.000000000000000000e+00,0.000000000000000000e+00,3.402463940636975964e-02,-3.711787802685236753e-02,0.000000000000000000e+00,-2.258485497232150252e-01,-1.487792772730852364e-01,0.000000000000000000e+00,8.431210214599148267e-02,0.000000000000000000e+00,0.000000000000000000e+00,-2.758595951154022008e-01,-3.629861052126181487e-01,0.000000000000000000e+00,-1.430802302440864204e-01,-1.808910988973717882e-01,-2.429312470949185621e-01,-1.728061734605855493e-01,-1.800502305712144424e-01,0.000000000000000000e+00,0.000000000000000000e+00,0.000000000000000000e+00,0.000000000000000000e+00,-2.110808978530529512e-01,0.000000000000000000e+00,0.000000000000000000e+00,0.000000000000000000e+00,8.431210214599148267e-02,8.431210214599148267e-02,8.431210214599148267e-02,-1.751530801208932009e-01,-1.365044465124631567e-01,0.000000000000000000e+00,0.000000000000000000e+00,8.022112632882770489e-02,8.022112632882770489e-02,1.049644824292733994e-02,0.000000000000000000e+00,0.000000000000000000e+00,8.022112632882770489e-02,8.022112632882770489e-02,6.605559456131181173e-02,0.000000000000000000e+00,0.000000000000000000e+00,0.000000000000000000e+00,0.000000000000000000e+00,0.000000000000000000e+00,0.000000000000000000e+00,0.000000000000000000e+00,0.000000000000000000e+00,0.000000000000000000e+00,0.000000000000000000e+00,0.000000000000000000e+00,0.000000000000000000e+00,0.000000000000000000e+00,0.000000000000000000e+00,0.000000000000000000e+00,0.000000000000000000e+00,0.000000000000000000e+00,0.000000000000000000e+00,0.000000000000000000e+00,0.000000000000000000e+00,0.000000000000000000e+00,7.763423283665875363e-02,0.000000000000000000e+00,0.000000000000000000e+00,0.000000000000000000e+00,0.000000000000000000e+00,0.000000000000000000e+00,0.000000000000000000e+00,0.000000000000000000e+00,0.000000000000000000e+00,0.000000000000000000e+00,0.000000000000000000e+00,0.000000000000000000e+00,0.000000000000000000e+00,0.000000000000000000e+00,0.000000000000000000e+00,0.000000000000000000e+00,0.000000000000000000e+00,0.000000000000000000e+00,0.000000000000000000e+00,0.000000000000000000e+00,0.000000000000000000e+00,0.000000000000000000e+00,0.000000000000000000e+00,0.000000000000000000e+00,0.000000000000000000e+00,0.000000000000000000e+00,0.000000000000000000e+00,0.000000000000000000e+00,0.000000000000000000e+00,0.000000000000000000e+00,0.000000000000000000e+00,0.000000000000000000e+00,0.000000000000000000e+00,0.000000000000000000e+00,0.000000000000000000e+00,0.000000000000000000e+00,0.000000000000000000e+00,0.000000000000000000e+00,0.000000000000000000e+00,0.000000000000000000e+00,0.000000000000000000e+00,0.000000000000000000e+00,0.000000000000000000e+00,0.000000000000000000e+00,0.000000000000000000e+00,0.000000000000000000e+00,0.000000000000000000e+00,0.000000000000000000e+00,0.000000000000000000e+00,0.000000000000000000e+00,0.000000000000000000e+00,0.000000000000000000e+00,0.000000000000000000e+00,0.000000000000000000e+00,0.000000000000000000e+00,0.000000000000000000e+00,0.000000000000000000e+00,0.000000000000000000e+00,0.000000000000000000e+00,0.000000000000000000e+00,0.000000000000000000e+00,0.000000000000000000e+00,0.000000000000000000e+00,8.022112632882770489e-02,0.000000000000000000e+00,0.000000000000000000e+00,0.000000000000000000e+00,0.000000000000000000e+00,0.000000000000000000e+00,-1.382929435075646862e-01,0.000000000000000000e+00,-2.485299279423937857e-01,-1.588191896754075627e-01,-8.432441835152804099e-02,-1.809819334911637601e-01,0.000000000000000000e+00,0.000000000000000000e+00,0.000000000000000000e+00,0.000000000000000000e+00,0.000000000000000000e+00,0.000000000000000000e+00,0.000000000000000000e+00,0.000000000000000000e+00,8.714819948223206936e-02,0.000000000000000000e+00,0.000000000000000000e+00,0.000000000000000000e+00,0.000000000000000000e+00,0.000000000000000000e+00,5.891678136064598670e-02,0.000000000000000000e+00,8.714819948223206936e-02,0.000000000000000000e+00,0.000000000000000000e+00,0.000000000000000000e+00,0.000000000000000000e+00,0.000000000000000000e+00,0.000000000000000000e+00,0.000000000000000000e+00,0.000000000000000000e+00,0.000000000000000000e+00,0.000000000000000000e+00,0.000000000000000000e+00,0.000000000000000000e+00,0.000000000000000000e+00,0.000000000000000000e+00,0.000000000000000000e+00,0.000000000000000000e+00,0.000000000000000000e+00
0.000000000000000000e+00,0.000000000000000000e+00,0.000000000000000000e+00,0.000000000000000000e+00,0.000000000000000000e+00,0.000000000000000000e+00,0.000000000000000000e+00,0.000000000000000000e+00,0.000000000000000000e+00,8.431210214599148267e-02,-1.632702685547528926e-02,-3.660468191972707230e-02,-2.610336392413440398e-01,0.000000000000000000e+00,0.000000000000000000e+00,-1.149068387199292801e-01,0.000000000000000000e+00,-2.698236995116305992e-01,0.000000000000000000e+00,0.000000000000000000e+00,-2.286612233327338095e-01,-2.206726716153340762e-01,-3.365136479412116910e-01,-3.291735297242752711e-01,-1.597051664521659808e-01,0.000000000000000000e+00,-3.026390863575696977e-01,0.000000000000000000e+00,4.465229812752836286e-02,-8.348212545334751655e-02,-7.948597231313202227e-02,4.916710877268730406e-02,-3.711787802685236753e-02,0.000000000000000000e+00,0.000000000000000000e+00,0.000000000000000000e+00,0.000000000000000000e+00,0.000000000000000000e+00,-4.095515120693678512e-01,0.000000000000000000e+00,-2.999436633652327600e-01,-3.850934402865826001e-01,-2.810395531930875990e-01,-3.426667483134894776e-01,0.000000000000000000e+00,0.000000000000000000e+00,-8.884755066113550481e-02,-3.352672905929161562e-01,-3.637460775915633548e-01,0.000000000000000000e+00,-1.457432717158028690e-01,4.748512723021947740e-02,0.000000000000000000e+00,0.000000000000000000e+00,0.000000000000000000e+00,0.000000000000000000e+00,-7.948597231313202227e-02,-1.812711088723252817e-01,-8.170873746046951325e-02,-2.790094018384089991e-01,-3.503742058081324995e-01,-4.309430762735226295e-01,-4.461448310468015821e-01,-3.049252375956871819e-01,-1.569359824295346317e-01,-2.242021008755137046e-01,-8.432441835152804099e-02,0.000000000000000000e+00,0.000000000000000000e+00,0.000000000000000000e+00,-2.895658922533169699e-01,-5.668392948987154706e-02,0.000000000000000000e+00,-2.576103158858285003e-01,-2.320446641492425188e-01,-3.084545943723386308e-01,8.431210214599148267e-02,0.000000000000000000e+00,0.000000000000000000e+00,-1.999565800637798374e-01,-5.882000130309781444e-02,0.000000000000000000e+00,-1.979350529502365286e-01,-1.326305027068372944e-01,-1.820562209137286391e-01,-1.751530801208932009e-01,-2.690300637814733650e-02,-2.657374590401926362e-01,-3.040218615837123051e-01,0.000000000000000000e+00,0.000000000000000000e+00,-1.918376201559300331e-01,-8.884755066113550481e-02,0.000000000000000000e+00,-3.360266241625049499e-01,6.605559456131181173e-02,8.431210214599148267e-02,8.431210214599148267e-02,-2.206726716153340762e-01,-2.226133741637510433e-01,0.000000000000000000e+00,0.000000000000000000e+00,0.000000000000000000e+00,0.000000000000000000e+00,1.049644824292733994e-02,0.000000000000000000e+00,0.000000000000000000e+00,0.000000000000000000e+00,0.000000000000000000e+00,0.000000000000000000e+00,0.000000000000000000e+00,0.000000000000000000e+00,0.000000000000000000e+00,0.000000000000000000e+00,0.000000000000000000e+00,0.000000000000000000e+00,0.000000000000000000e+00,0.000000000000000000e+00,0.000000000000000000e+00,0.000000000000000000e+00,0.000000000000000000e+00,0.000000000000000000e+00,0.000000000000000000e+00,0.000000000000000000e+00,0.000000000000000000e+00,0.000000000000000000e+00,0.000000000000000000e+00,0.000000000000000000e+00,0.000000000000000000e+00,0.000000000000000000e+00,0.000000000000000000e+00,0.000000000000000000e+00,6.313244859175845547e-02,0.000000000000000000e+00,0.000000000000000000e+00,0.000000000000000000e+00,0.000000000000000000e+00,0.000000000000000000e+00,0.000000000000000000e+00,0.000000000000000000e+00,-1.804108259260714039e-02,0.000000000000000000e+00,0.000000000000000000e+00,0.000000000000000000e+00,0.000000000000000000e+00,0.000000000000000000e+00,0.000000000000000000e+00,0.000000000000000000e+00,0.000000000000000000e+00,0.000000000000000000e+00,0.000000000000000000e+00,0.000000000000000000e+00,0.000000000000000000e+00,0.000000000000000000e+00,0.000000000000000000e+00,0.000000000000000000e+00,0.000000000000000000e+00,0.000000000000000000e+00,0.000000000000000000e+00,0.000000000000000000e+00,0.000000000000000000e+00,0.000000000000000000e+00,0.000000000000000000e+00,0.000000000000000000e+00,0.000000000000000000e+00,0.000000000000000000e+00,0.000000000000000000e+00,0.000000000000000000e+00,0.000000000000000000e+00,0.000000000000000000e+00,0.000000000000000000e+00,0.000000000000000000e+00,0.000000000000000000e+00,0.000000000000000000e+00,0.000000000000000000e+00,0.000000000000000000e+00,0.000000000000000000e+00,0.000000000000000000e+00,0.000000000000000000e+00,0.000000000000000000e+00,0.000000000000000000e+00,0.000000000000000000e+00,0.000000000000000000e+00,0.000000000000000000e+00,0.000000000000000000e+00,0.000000000000000000e+00,0.000000000000000000e+00,0.000000000000000000e+00,0.000000000000000000e+00,0.000000000000000000e+00,0.000000000000000000e+00,0.000000000000000000e+00,0.000000000000000000e+00,0.000000000000000000e+00,0.000000000000000000e+00,0.000000000000000000e+00,0.000000000000000000e+00,0.000000000000000000e+00,0.000000000000000000e+00,0.000000000000000000e+00,-1.779701816193531017e-01,-2.076281483485933888e-01,-4.126363274022228911e-01,-5.720255378447042238e-02,7.103696453195104676e-02,-1.808084859623497187e-01,1.410319133068635086e-02,0.000000000000000000e+00,0.000000000000000000e+00,0.000000000000000000e+00,0.000000000000000000e+00,0.000000000000000000e+00,0.000000000000000000e+00,0.000000000000000000e+00,0.000000000000000000e+00,0.000000000000000000e+00,0.000000000000000000e+00,0.000000000000000000e+00,0.000000000000000000e+00,0.000000000000000000e+00,8.714819948223206936e-02,0.000000000000000000e+00,5.891678136064598670e-02,0.000000000000000000e+00,0.000000000000000000e+00,0.000000000000000000e+00,0.000000000000000000e+00,0.000000000000000000e+00,0.000000000000000000e+00,0.000000000000000000e+00,0.000000000000000000e+00,0.000000000000000000e+00,0.000000000000000000e+00,0.000000000000000000e+00,0.000000000000000000e+00,0.000000000000000000e+00,0.000000000000000000e+00,0.000000000000000000e+00,0.000000000000000000e+00,0.000000000000000000e+00
0.000000000000000000e+00,0.000000000000000000e+00,0.000000000000000000e+00,0.000000000000000000e+00,0.000000000000000000e+00,0.000000000000000000e+00,0.000000000000000000e+00,0.000000000000000000e+00,0.000000000000000000e+00,0.000000000000000000e+00,-3.660468191972707230e-02,-3.660468191972707230e-02,-2.957243719791361469e-01,-1.477237753536215017e-02,-2.435106370946665266e-01,-3.317161989109055353e-01,-2.022516992482777110e-01,-3.659047421617052098e-01,-1.892448821329413000e-01,-1.712039003005467186e-01,-2.429312470949185621e-01,-3.084322717781951551e-01,-4.243648774145247216e-01,-5.235199917390934710e-01,-2.568127131756050008e-01,-2.666438431731756875e-01,-5.503335313999794254e-01,-4.056155440635859089e-01,6.509987326369884308e-02,-8.348212545334751655e-02,-1.433724175318450422e-01,-2.528450995098614484e-01,-9.505539861757200670e-02,-1.588372450986043627e-01,-1.418405444764676004e-01,-2.988369601471542736e-01,-2.385878555459604866e-01,-1.317910638174724916e-03,-5.364092720505104772e-01,-4.729438979782607522e-01,-3.849745533776314232e-01,-5.387551056590158538e-01,-4.323766688828183935e-01,-3.227636072736582151e-01,-3.565553046140618187e-01,0.000000000000000000e+00,-3.404326734487605477e-01,-4.345537737591609884e-01,-5.068110909824552479e-01,-1.911281452449549167e-01,-2.558747485645765929e-01,-2.658452148497558731e-01,-6.150513342020219598e-02,-6.363046748948548992e-02,-8.432441835152804099e-02,-1.728061734605855493e-01,-8.348212545334751655e-02,-2.532209011943803989e-01,-2.992193199787550051e-01,-1.903506475854489233e-01,-4.455153094737993036e-01,-5.806704536677836925e-01,-4.624897077939409962e-01,-5.621760862393628821e-01,-4.574789625126818859e-01,-2.822214048825504862e-01,-7.948597231313202227e-02,-8.170873746046951325e-02,-3.494624850164413377e-01,-2.009741136160438646e-01,-3.629145970267510513e-01,-6.683141382940607778e-02,-9.505539861757200670e-02,-2.500581272754466289e-01,-2.532209011943803989e-01,-3.907328261500372379e-01,-6.683141382940607778e-02,-2.703314887400076749e-01,0.000000000000000000e+00,-9.559000827583273574e-02,-2.208575072399150963e-01,6.839279370754558496e-02,-1.867285460062013402e-01,-1.808910988973717882e-01,-2.919089309022551149e-01,-2.687683030232152492e-01,-2.836041045292824192e-01,0.000000000000000000e+00,0.000000000000000000e+00,-1.766307079820547687e-01,0.000000000000000000e+00,-2.937956520015549966e-01,-2.821765283572179595e-01,0.000000000000000000e+00,-4.617514677147418478e-01,-2.528450995098614484e-01,2.637458155527190595e-02,-8.432441835152804099e-02,-2.692733979937975697e-01,-2.226133741637510433e-01,1.960470534662031583e-01,0.000000000000000000e+00,8.022112632882770489e-02,1.230158858197083066e-01,1.404615061645175800e-01,6.313244859175845547e-02,7.763423283665875363e-02,6.605559456131181173e-02,1.477945274646462817e-02,7.763423283665875363e-02,9.184403134796519097e-02,0.000000000000000000e+00,0.000000000000000000e+00,4.635829405987296203e-01,0.000000000000000000e+00,3.647034667034066979e-01,0.000000000000000000e+00,0.000000000000000000e+00,0.000000000000000000e+00,0.000000000000000000e+00,0.000000000000000000e+00,0.000000000000000000e+00,0.000000000000000000e+00,3.174902730939853646e-01,-6.707929305910419193e-02,2.812712788250490425e-01,1.807903227273205404e-01,0.000000000000000000e+00,0.000000000000000000e+00,0.000000000000000000e+00,0.000000000000000000e+00,2.396058290250242528e-01,6.560839841698966335e-02,0.000000000000000000e+00,0.000000000000000000e+00,0.000000000000000000e+00,1.465882081171828444e-01,1.733256091491154338e-01,0.000000000000000000e+00,0.000000000000000000e+00,3.824843990858763920e-01,1.960470534662031583e-01,4.247545708113205642e-01,3.030598502639889613e-01,3.174902730939853646e-01,0.000000000000000000e+00,0.000000000000000000e+00,0.000000000000000000e+00,0.000000000000000000e+00,0.000000000000000000e+00,0.000000000000000000e+00,0.000000000000000000e+00,0.000000000000000000e+00,0.000000000000000000e+00,0.000000000000000000e+00,0.000000000000000000e+00,0.000000000000000000e+00,0.000000000000000000e+00,0.000000000000000000e+00,0.000000000000000000e+00,0.000000000000000000e+00,0.000000000000000000e+00,0.000000000000000000e+00,0.000000000000000000e+00,5.650351135581023476e-02,0.000000000000000000e+00,0.000000000000000000e+00,0.000000000000000000e+00,1.465882081171828444e-01,0.000000000000000000e+00,0.000000000000000000e+00,0.000000000000000000e+00,0.000000000000000000e+00,0.000000000000000000e+00,0.000000000000000000e+00,0.000000000000000000e+00,0.000000000000000000e+00,0.000000000000000000e+00,0.000000000000000000e+00,2.640125591978185748e-01,7.763423283665875363e-02,0.000000000000000000e+00,6.605559456131181173e-02,3.526112929668885898e-01,0.000000000000000000e+00,0.000000000000000000e+00,0.000000000000000000e+00,0.000000000000000000e+00,0.000000000000000000e+00,0.000000000000000000e+00,0.000000000000000000e+00,0.000000000000000000e+00,0.000000000000000000e+00,2.351695779832998351e-02,-1.805577378732680163e-02,0.000000000000000000e+00,0.000000000000000000e+00,0.000000000000000000e+00,2.968029891198123438e-01,1.747427084980214540e-01,-1.813383067248437452e-01,-3.406100393635420054e-01,-4.794954876293094914e-01,-2.320243396948112324e-01,-7.813654484149575030e-02,-2.500225185976837627e-01,-1.209169550118332354e-01,0.000000000000000000e+00,0.000000000000000000e+00,-6.794359404534514035e-02,0.000000000000000000e+00,0.000000000000000000e+00,0.000000000000000000e+00,0.000000000000000000e+00,8.431210214599148267e-02,0.000000000000000000e+00,0.000000000000000000e+00,0.000000000000000000e+00,0.000000000000000000e+00,0.000000000000000000e+00,8.158662302302323310e-02,0.000000000000000000e+00,8.714819948223206936e-02,0.000000000000000000e+00,0.000000000000000000e+00,0.000000000000000000e+00,0.000000000000000000e+00,0.000000000000000000e+00,0.000000000000000000e+00,0.000000000000000000e+00,0.000000000000000000e+00,0.000000000000000000e+00,0.000000000000000000e+00,0.000000000000000000e+00,0.000000000000000000e+00,5.366104745441561269e-02,0.000000000000000000e+00,0.000000000000000000e+00,0.000000000000000000e+00,0.000000000000000000e+00
0.000000000000000000e+00,0.000000000000000000e+00,0.000000000000000000e+00,0.000000000000000000e+00,0.000000000000000000e+00,0.000000000000000000e+00,0.000000000000000000e+00,0.000000000000000000e+00,0.000000000000000000e+00,0.000000000000000000e+00,0.000000000000000000e+00,-6.683141382940607778e-02,-3.429184586025694204e-01,-3.326802124333265720e-01,-3.387235061115737023e-01,-3.429102723228210081e-01,-1.751663403967863020e-01,-4.295675722065622759e-01,-3.565389437543273199e-01,-1.424192797698352331e-01,-3.275072842128208817e-01,-3.284407132377105687e-01,-4.800032126196716042e-01,-2.170083451761849469e-01,-3.230333334221479058e-01,-4.168745177238354360e-01,-6.186572666593486147e-01,-4.402429494598631421e-01,-1.632702685547528926e-02,-1.879237493746427623e-01,-2.053635569344437750e-01,-1.071689489007334600e-01,9.718775781623499241e-03,-1.071689489007334600e-01,-4.069207386843118890e-01,-2.406604760249489716e-01,-1.751663403967863020e-01,-2.385878555459604866e-01,-5.434341386932370899e-01,-4.817991167117879336e-01,-3.997714769684850844e-01,-4.550047440981274116e-01,-4.767721272055918114e-01,-3.099527195875623198e-01,-4.308480566969194459e-01,0.000000000000000000e+00,-3.024161382733126513e-01,-4.703849828692086565e-01,-5.370793284585958505e-01,-2.178484545821127716e-01,-3.045237958424077962e-01,-3.677704833642831961e-01,8.022112632882770489e-02,0.000000000000000000e+00,0.000000000000000000e+00,-2.540604828796810266e-01,-1.547827922142858414e-01,-1.071689489007334600e-01,-3.180268964123336151e-01,-2.862226654648616364e-01,-5.098943991974854706e-01,-6.278455187405277416e-01,-5.788252554708970266e-01,-5.298294884743707245e-01,-5.099919876499636739e-01,-4.518288125101966313e-01,-1.547827922142858414e-01,0.000000000000000000e+00,0.000000000000000000e+00,-2.339700517577005812e-01,-4.662707757117888208e-01,-9.505539861757200670e-02,9.718775781623499241e-03,-3.111282789318579600e-01,-3.119980034704006866e-01,-4.571200006109158442e-01,-8.170873746046951325e-02,-8.170873746046951325e-02,0.000000000000000000e+00,-2.883334246917140797e-01,-4.756906539543578893e-01,-2.671049265926447869e-01,-2.213548036548023124e-01,-3.075384746369800859e-01,-3.156850116371908155e-01,-2.739924524963497920e-01,-2.481939389475047164e-01,-1.203318885955305811e-01,-1.813358409959405226e-01,-2.762578115175257087e-01,-3.650197913107794956e-01,-2.148831216438338854e-01,-1.529753859528041326e-01,0.000000000000000000e+00,-3.737024918686867037e-01,-9.505539861757200670e-02,-9.505539861757200670e-02,-8.432441835152804099e-02,-2.759769015418373495e-01,-2.270824051563431201e-01,0.000000000000000000e+00,7.763423283665875363e-02,-5.668392948987154706e-02,-8.170873746046951325e-02,-5.797996569795516725e-02,-2.403070479831337022e-02,0.000000000000000000e+00,-8.170873746046951325e-02,-9.761411634142128785e-03,-9.505539861757200670e-02,-6.794684217249213898e-02,0.000000000000000000e+00,0.000000000000000000e+00,0.000000000000000000e+00,0.000000000000000000e+00,0.000000000000000000e+00,0.000000000000000000e+00,0.000000000000000000e+00,0.000000000000000000e+00,3.904537599174285334e-01,0.000000000000000000e+00,0.000000000000000000e+00,0.000000000000000000e+00,0.000000000000000000e+00,3.174902730939853646e-01,0.000000000000000000e+00,0.000000000000000000e+00,0.000000000000000000e+00,0.000000000000000000e+00,4.719918500642049652e-01,0.000000000000000000e+00,1.892090601350035761e-01,-2.403070479831337022e-02,0.000000000000000000e+00,0.000000000000000000e+00,0.000000000000000000e+00,3.003313683495340003e-01,0.000000000000000000e+00,0.000000000000000000e+00,0.000000000000000000e+00,1.287107035934857702e-01,4.000164372352846276e-01,0.000000000000000000e+00,0.000000000000000000e+00,1.386839911800807623e-01,0.000000000000000000e+00,0.000000000000000000e+00,0.000000000000000000e+00,0.000000000000000000e+00,0.000000000000000000e+00,0.000000000000000000e+00,0.000000000000000000e+00,0.000000000000000000e+00,0.000000000000000000e+00,0.000000000000000000e+00,0.000000000000000000e+00,0.000000000000000000e+00,0.000000000000000000e+00,0.000000000000000000e+00,0.000000000000000000e+00,0.000000000000000000e+00,0.000000000000000000e+00,0.000000000000000000e+00,0.000000000000000000e+00,7.763423283665875363e-02,0.000000000000000000e+00,0.000000000000000000e+00,1.465882081171828444e-01,0.000000000000000000e+00,-1.240509608003056152e-01,0.000000000000000000e+00,0.000000000000000000e+00,0.000000000000000000e+00,0.000000000000000000e+00,0.000000000000000000e+00,0.000000000000000000e+00,0.000000000000000000e+00,0.000000000000000000e+00,0.000000000000000000e+00,0.000000000000000000e+00,0.000000000000000000e+00,0.000000000000000000e+00,-8.170873746046951325e-02,6.823077626663798245e-02,0.000000000000000000e+00,-8.170873746046951325e-02,0.000000000000000000e+00,0.000000000000000000e+00,0.000000000000000000e+00,0.000000000000000000e+00,0.000000000000000000e+00,0.000000000000000000e+00,0.000000000000000000e+00,6.823077626663798245e-02,-8.170873746046951325e-02,0.000000000000000000e+00,0.000000000000000000e+00,0.000000000000000000e+00,0.000000000000000000e+00,4.900652305677646869e-01,-2.256430453688489102e-01,-2.444033134325456214e-01,-5.944373572639954917e-01,-2.157574782911207412e-01,-3.660468191972707230e-02,-3.613744124981699835e-01,-4.112650664382261345e-01,-9.505539861757200670e-02,0.000000000000000000e+00,0.000000000000000000e+00,0.000000000000000000e+00,0.000000000000000000e+00,0.000000000000000000e+00,0.000000000000000000e+00,0.000000000000000000e+00,0.000000000000000000e+00,0.000000000000000000e+00,0.000000000000000000e+00,0.000000000000000000e+00,0.000000000000000000e+00,0.000000000000000000e+00,0.000000000000000000e+00,-3.711787802685236753e-02,0.000000000000000000e+00,0.000000000000000000e+00,0.000000000000000000e+00,0.000000000000000000e+00,0.000000000000000000e+00,0.000000000000000000e+00,0.000000000000000000e+00,0.000000000000000000e+00,0.000000000000000000e+00,0.000000000000000000e+00,0.000000000000000000e+00,0.000000000000000000e+00,0.000000000000000000e+00,0.000000000000000000e+00,0.000000000000000000e+00,0.000000000000000000e+00,0.000000000000000000e+00
0.000000000000000000e+00,0.000000000000000000e+00,0.000000000000000000e+00,0.000000000000000000e+00,0.000000000000000000e+00,0.000000000000000000e+00,0.000000000000000000e+00,0.000000000000000000e+00,0.000000000000000000e+00,0.000000000000000000e+00,0.000000000000000000e+00,0.000000000000000000e+00,-3.429318172147424737e-01,-3.391971184650749427e-01,-3.240619402583132524e-01,-3.880712033345809497e-01,-1.751663403967863020e-01,-3.723345193023688271e-01,-2.903317661438032382e-01,-1.424192797698352331e-01,-2.946762110482653574e-01,-3.084322717781951551e-01,-5.064609226639474882e-01,-3.095227554615380683e-01,-2.625298932767111681e-01,-2.725583095911015552e-01,-6.107515659428134347e-01,-5.338617939893143260e-01,4.916710877268730406e-02,-1.335591713744020970e-01,-9.685206218347526541e-02,-6.683141382940607778e-02,9.718775781623499241e-03,-1.224303249278882871e-01,-4.485386015868415566e-01,-2.025976257685881410e-01,-2.385878555459604866e-01,-1.071689489007334600e-01,-4.786796136599816287e-01,-4.317731594763942193e-01,-3.921033309695807212e-01,-4.831629089826522949e-01,-5.164844567352100402e-01,-3.620755718682139856e-01,-4.136825875461967450e-01,0.000000000000000000e+00,-3.046114764241576456e-01,-5.486755407925243411e-01,-4.819571263760707991e-01,-2.762578115175257087e-01,-2.736987485155258359e-01,-2.370021818189219920e-01,-1.979350529502365286e-01,-2.195194907999976630e-01,-2.271695887272107417e-01,-9.685206218347526541e-02,-7.948597231313202227e-02,0.000000000000000000e+00,-2.161113881527483294e-01,-2.544364382171073191e-01,-5.326977420221589155e-01,-5.527311543420482254e-01,-6.226253006030904036e-01,-5.720456730116396660e-01,-5.447348091331755127e-01,-4.377439968592888864e-01,-9.685206218347526541e-02,-2.003229409536213812e-01,-4.573037634924931316e-01,-1.493300797030926996e-01,-5.082586486153957139e-01,9.718775781623499241e-03,9.718775781623499241e-03,-3.330889938932142247e-01,-2.022691372267357568e-01,-3.971072427275638694e-01,-8.205989369906571684e-02,-2.742153985430070273e-01,9.718775781623499241e-03,-3.899681434199674390e-01,-2.045202018490105966e-01,-3.195503030136707667e-01,-2.364014514975010528e-01,-1.880530992868239271e-01,-3.182739842612825054e-01,-2.739924524963497920e-01,-2.866952773387759779e-01,-2.090589313208970901e-01,-3.502093465681416773e-01,0.000000000000000000e+00,-3.796738687315836386e-02,-2.202685134637050735e-01,-2.999387105286620558e-01,0.000000000000000000e+00,-4.938470080317750588e-01,-6.683141382940607778e-02,-6.683141382940607778e-02,-4.040968896248915698e-02,-2.845082313251351969e-01,-2.625298932767111681e-01,1.065346798116891952e-01,7.763423283665875363e-02,-3.711787802685236753e-02,0.000000000000000000e+00,5.471371118407543366e-02,-4.907834597974262969e-02,0.000000000000000000e+00,6.605559456131181173e-02,-1.730605087865421943e-01,-6.683141382940607778e-02,-5.943168923166809725e-02,0.000000000000000000e+00,0.000000000000000000e+00,0.000000000000000000e+00,0.000000000000000000e+00,0.000000000000000000e+00,0.000000000000000000e+00,4.609791120724963664e-01,0.000000000000000000e+00,4.502867192751156544e-01,0.000000000000000000e+00,0.000000000000000000e+00,0.000000000000000000e+00,0.000000000000000000e+00,0.000000000000000000e+00,0.000000000000000000e+00,0.000000000000000000e+00,0.000000000000000000e+00,0.000000000000000000e+00,0.000000000000000000e+00,0.000000000000000000e+00,1.386839911800807623e-01,-4.221511997118653631e-02,0.000000000000000000e+00,0.000000000000000000e+00,0.000000000000000000e+00,0.000000000000000000e+00,0.000000000000000000e+00,0.000000000000000000e+00,0.000000000000000000e+00,4.204413131724217823e-01,2.680072171001728343e-01,0.000000000000000000e+00,0.000000000000000000e+00,0.000000000000000000e+00,0.000000000000000000e+00,0.000000000000000000e+00,0.000000000000000000e+00,0.000000000000000000e+00,0.000000000000000000e+00,0.000000000000000000e+00,0.000000000000000000e+00,0.000000000000000000e+00,0.000000000000000000e+00,0.000000000000000000e+00,0.000000000000000000e+00,0.000000000000000000e+00,0.000000000000000000e+00,0.000000000000000000e+00,0.000000000000000000e+00,0.000000000000000000e+00,0.000000000000000000e+00,0.000000000000000000e+00,0.000000000000000000e+00,6.605559456131181173e-02,1.578654944359537682e-01,0.000000000000000000e+00,3.222340937262000438e-01,0.000000000000000000e+00,0.000000000000000000e+00,0.000000000000000000e+00,0.000000000000000000e+00,0.000000000000000000e+00,0.000000000000000000e+00,0.000000000000000000e+00,0.000000000000000000e+00,0.000000000000000000e+00,0.000000000000000000e+00,0.000000000000000000e+00,0.000000000000000000e+00,0.000000000000000000e+00,0.000000000000000000e+00,9.718775781623499241e-03,1.206836431610847360e-01,0.000000000000000000e+00,-4.875884860569052598e-02,0.000000000000000000e+00,0.000000000000000000e+00,0.000000000000000000e+00,0.000000000000000000e+00,3.174902730939853646e-01,0.000000000000000000e+00,0.000000000000000000e+00,6.560839841698966335e-02,-6.683141382940607778e-02,0.000000000000000000e+00,2.496630912787643486e-01,0.000000000000000000e+00,0.000000000000000000e+00,0.000000000000000000e+00,-2.695043070346056502e-01,-9.893364694642541035e-02,-4.514789862108776197e-01,-2.826576736815948343e-01,-1.387931072946063937e-01,-3.820996828736412665e-01,0.000000000000000000e+00,0.000000000000000000e+00,0.000000000000000000e+00,0.000000000000000000e+00,0.000000000000000000e+00,-9.505539861757200670e-02,2.888105842226432740e-01,0.000000000000000000e+00,5.891678136064598670e-02,0.000000000000000000e+00,0.000000000000000000e+00,0.000000000000000000e+00,0.000000000000000000e+00,0.000000000000000000e+00,0.000000000000000000e+00,0.000000000000000000e+00,8.714819948223206936e-02,0.000000000000000000e+00,0.000000000000000000e+00,0.000000000000000000e+00,0.000000000000000000e+00,0.000000000000000000e+00,0.000000000000000000e+00,0.000000000000000000e+00,0.000000000000000000e+00,0.000000000000000000e+00,0.000000000000000000e+00,0.000000000000000000e+00,6.605559456131181173e-02,0.000000000000000000e+00,0.000000000000000000e+00,0.000000000000000000e+00,0.000000000000000000e+00,0.000000000000000000e+00
0.000000000000000000e+00,0.000000000000000000e+00,0.000000000000000000e+00,0.000000000000000000e+00,0.000000000000000000e+00,0.000000000000000000e+00,0.000000000000000000e+00,0.000000000000000000e+00,0.000000000000000000e+00,0.000000000000000000e+00,0.000000000000000000e+00,0.000000000000000000e+00,0.000000000000000000e+00,-2.205929313115291557e-01,-4.195833459166448676e-01,-3.419760979359081632e-01,-2.799559443411080983e-01,-4.410585874592555522e-02,-2.947972062993748921e-01,-2.947972062993748921e-01,0.000000000000000000e+00,-3.417356117313239405e-01,-6.275789306325315620e-01,-6.409962291247305322e-01,-5.401116934984526718e-01,-5.196347636823704930e-01,-5.776442929654571623e-01,-3.673681939572562283e-01,-1.155805769092243390e-01,0.000000000000000000e+00,-3.784736730880304822e-01,-4.211115619147051681e-01,-2.572149044644988503e-01,-2.911676219492019269e-01,-4.114247484329467408e-01,-2.349823892078350129e-01,-2.947972062993748921e-01,-2.683475533301447058e-01,-3.431079915674867253e-01,-5.777076049295947202e-01,-2.052488915642072254e-01,-4.788249260964090870e-01,-6.119521750696516049e-01,-2.947972062993748921e-01,-1.423448648210041412e-01,-1.203589250334032718e-01,-4.018793361078182858e-01,-2.105706057038097545e-01,-4.382492954715153100e-01,-1.423448648210041412e-01,0.000000000000000000e+00,-2.160992550731041517e-01,0.000000000000000000e+00,0.000000000000000000e+00,0.000000000000000000e+00,0.000000000000000000e+00,0.000000000000000000e+00,-2.671625966701383637e-01,-3.459470377713155798e-01,-3.703705025715994248e-01,-1.770553159234419527e-01,-4.278464629016713316e-01,-5.577140933009092638e-01,-5.548534926862126460e-01,-5.108115417530695312e-01,0.000000000000000000e+00,0.000000000000000000e+00,0.000000000000000000e+00,0.000000000000000000e+00,-3.508571261256485108e-01,-1.423448648210041412e-01,-3.136660962070680347e-01,-2.963671921229774076e-01,0.000000000000000000e+00,-2.984124831583403470e-01,-1.423448648210041412e-01,-3.699469544965433565e-01,-2.340844530272560564e-01,-2.947778387363060859e-01,-2.980235807995207931e-01,-1.807246740430409893e-01,-1.423448648210041412e-01,0.000000000000000000e+00,0.000000000000000000e+00,0.000000000000000000e+00,0.000000000000000000e+00,0.000000000000000000e+00,-1.423448648210041412e-01,-1.423448648210041412e-01,-1.423448648210041412e-01,-1.752052818721517580e-01,-4.356443296973105395e-01,-3.067084087970816109e-01,-3.804800944385480221e-01,-5.183311264640196869e-01,-4.207180789174866931e-01,-3.910546370961962004e-01,-2.700238428872369645e-01,-3.405466516538406263e-01,-3.169831491581395766e-01,0.000000000000000000e+00,0.000000000000000000e+00,0.000000000000000000e+00,0.000000000000000000e+00,0.000000000000000000e+00,0.000000000000000000e+00,0.000000000000000000e+00,0.000000000000000000e+00,0.000000000000000000e+00,0.000000000000000000e+00,0.000000000000000000e+00,0.000000000000000000e+00,0.000000000000000000e+00,0.000000000000000000e+00,0.000000000000000000e+00,0.000000000000000000e+00,0.000000000000000000e+00,0.000000000000000000e+00,0.000000000000000000e+00,0.000000000000000000e+00,0.000000000000000000e+00,0.000000000000000000e+00,0.000000000000000000e+00,0.000000000000000000e+00,0.000000000000000000e+00,0.000000000000000000e+00,0.000000000000000000e+00,0.000000000000000000e+00,0.000000000000000000e+00,0.000000000000000000e+00,0.000000000000000000e+00,0.000000000000000000e+00,0.000000000000000000e+00,0.000000000000000000e+00,0.000000000000000000e+00,0.000000000000000000e+00,0.000000000000000000e+00,0.000000000000000000e+00,0.000000000000000000e+00,0.000000000000000000e+00,0.000000000000000000e+00,0.000000000000000000e+00,0.000000000000000000e+00,0.000000000000000000e+00,0.000000000000000000e+00,0.000000000000000000e+00,0.000000000000000000e+00,0.000000000000000000e+00,0.000000000000000000e+00,0.000000000000000000e+00,0.000000000000000000e+00,0.000000000000000000e+00,0.000000000000000000e+00,0.000000000000000000e+00,0.000000000000000000e+00,0.000000000000000000e+00,0.000000000000000000e+00,0.000000000000000000e+00,0.000000000000000000e+00,0.000000000000000000e+00,0.000000000000000000e+00,0.000000000000000000e+00,0.000000000000000000e+00,0.000000000000000000e+00,0.000000000000000000e+00,0.000000000000000000e+00,0.000000000000000000e+00,0.000000000000000000e+00,0.000000000000000000e+00,0.000000000000000000e+00,0.000000000000000000e+00,0.000000000000000000e+00,0.000000000000000000e+00,0.000000000000000000e+00,0.000000000000000000e+00,0.000000000000000000e+00,0.000000000000000000e+00,0.000000000000000000e+00,0.000000000000000000e+00,0.000000000000000000e+00,0.000000000000000000e+00,0.000000000000000000e+00,0.000000000000000000e+00,0.000000000000000000e+00,0.000000000000000000e+00,0.000000000000000000e+00,0.000000000000000000e+00,0.000000000000000000e+00,0.000000000000000000e+00,0.000000000000000000e+00,0.000000000000000000e+00,0.000000000000000000e+00,0.000000000000000000e+00,0.000000000000000000e+00,-7.021192713451306078e-02,0.000000000000000000e+00,-3.931573840267332115e-02,0.000000000000000000e+00,0.000000000000000000e+00,0.000000000000000000e+00,-5.385422557585850534e-01,-1.808434017778748903e-01,-6.424153236412895041e-01,-3.568502402896482906e-01,-5.382195511195319026e-01,-3.105835897122408151e-01,0.000000000000000000e+00,0.000000000000000000e+00,0.000000000000000000e+00,0.000000000000000000e+00,0.000000000000000000e+00,0.000000000000000000e+00,0.000000000000000000e+00,0.000000000000000000e+00,0.000000000000000000e+00,0.000000000000000000e+00,0.000000000000000000e+00,0.000000000000000000e+00,0.000000000000000000e+00,0.000000000000000000e+00,-3.040218615837123051e-01,0.000000000000000000e+00,0.000000000000000000e+00,0.000000000000000000e+00,0.000000000000000000e+00,0.000000000000000000e+00,0.000000000000000000e+00,0.000000000000000000e+00,0.000000000000000000e+00,0.000000000000000000e+00,0.000000000000000000e+00,0.000000000000000000e+00,0.000000000000000000e+00,0.000000000000000000e+00,0.000000000000000000e+00,0.000000000000000000e+00,0.000000000000000000e+00,0.000000000000000000e+00,0.000000000000000000e+00,0.000000000000000000e+00
0.000000000000000000e+00,0.000000000000000000e+00,0.000000000000000000e+00,0.000000000000000000e+00,0.000000000000000000e+00,0.000000000000000000e+00,0.000000000000000000e+00,0.000000000000000000e+00,0.000000000000000000e+00,0.000000000000000000e+00,0.000000000000000000e+00,0.000000000000000000e+00,0.000000000000000000e+00,0.000000000000000000e+00,-2.148133737927808151e-01,-2.818366778590993826e-01,-1.985733729399438430e-01,-2.500018647108704917e-01,-3.134180454558366247e-01,-1.985733729399438430e-01,0.000000000000000000e+00,-1.159213901735779567e-01,-3.602167395728386179e-01,-3.477261487609245583e-01,-4.504874394157842299e-01,-4.847154604083733220e-01,-4.376208028467056255e-01,-4.073391803245708931e-01,0.000000000000000000e+00,0.000000000000000000e+00,0.000000000000000000e+00,-2.488998008411978657e-01,-3.023599710307626753e-01,-3.316376023786437033e-01,-4.408456664241683365e-01,-3.477574601171905533e-01,-3.134180454558366247e-01,-3.040791717608180567e-01,-4.163972290255327779e-01,-4.780383068283387549e-01,0.000000000000000000e+00,-3.423757723856512558e-01,0.000000000000000000e+00,-2.516811391954596466e-01,0.000000000000000000e+00,0.000000000000000000e+00,-3.974543719168980305e-01,-3.326802124333265720e-01,0.000000000000000000e+00,0.000000000000000000e+00,0.000000000000000000e+00,0.000000000000000000e+00,0.000000000000000000e+00,0.000000000000000000e+00,0.000000000000000000e+00,0.000000000000000000e+00,0.000000000000000000e+00,0.000000000000000000e+00,-2.661422046573192479e-01,-2.026069963965009546e-01,0.000000000000000000e+00,-2.241970320438572417e-01,-2.872830594997386466e-01,-4.126544587538679698e-01,-4.266223260990193999e-01,0.000000000000000000e+00,0.000000000000000000e+00,0.000000000000000000e+00,0.000000000000000000e+00,0.000000000000000000e+00,-2.241970320438572417e-01,-3.040791717608180567e-01,-3.023599710307626753e-01,-3.092747694648393941e-01,0.000000000000000000e+00,0.000000000000000000e+00,-3.544511889145143813e-01,-3.339711657676647238e-01,-2.878772401750772647e-01,0.000000000000000000e+00,0.000000000000000000e+00,0.000000000000000000e+00,0.000000000000000000e+00,0.000000000000000000e+00,0.000000000000000000e+00,0.000000000000000000e+00,-2.808090631042045593e-01,0.000000000000000000e+00,0.000000000000000000e+00,0.000000000000000000e+00,0.000000000000000000e+00,0.000000000000000000e+00,0.000000000000000000e+00,0.000000000000000000e+00,0.000000000000000000e+00,-3.761065402515552103e-01,-1.560608011112124827e-01,0.000000000000000000e+00,0.000000000000000000e+00,0.000000000000000000e+00,0.000000000000000000e+00,0.000000000000000000e+00,0.000000000000000000e+00,0.000000000000000000e+00,0.000000000000000000e+00,0.000000000000000000e+00,0.000000000000000000e+00,0.000000000000000000e+00,0.000000000000000000e+00,0.000000000000000000e+00,0.000000000000000000e+00,0.000000000000000000e+00,0.000000000000000000e+00,0.000000000000000000e+00,0.000000000000000000e+00,0.000000000000000000e+00,0.000000000000000000e+00,0.000000000000000000e+00,0.000000000000000000e+00,0.000000000000000000e+00,0.000000000000000000e+00,0.000000000000000000e+00,0.000000000000000000e+00,0.000000000000000000e+00,0.000000000000000000e+00,0.000000000000000000e+00,0.000000000000000000e+00,0.000000000000000000e+00,0.000000000000000000e+00,0.000000000000000000e+00,0.000000000000000000e+00,0.000000000000000000e+00,0.000000000000000000e+00,0.000000000000000000e+00,0.000000000000000000e+00,0.000000000000000000e+00,0.000000000000000000e+00,0.000000000000000000e+00,0.000000000000000000e+00,0.000000000000000000e+00,0.000000000000000000e+00,2.037212932490352346e-01,0.000000000000000000e+00,0.000000000000000000e+00,0.000000000000000000e+00,0.000000000000000000e+00,0.000000000000000000e+00,0.000000000000000000e+00,0.000000000000000000e+00,0.000000000000000000e+00,0.000000000000000000e+00,0.000000000000000000e+00,0.000000000000000000e+00,0.000000000000000000e+00,0.000000000000000000e+00,0.000000000000000000e+00,0.000000000000000000e+00,0.000000000000000000e+00,0.000000000000000000e+00,0.000000000000000000e+00,0.000000000000000000e+00,0.000000000000000000e+00,0.000000000000000000e+00,0.000000000000000000e+00,0.000000000000000000e+00,0.000000000000000000e+00,0.000000000000000000e+00,0.000000000000000000e+00,0.000000000000000000e+00,0.000000000000000000e+00,0.000000000000000000e+00,0.000000000000000000e+00,0.000000000000000000e+00,0.000000000000000000e+00,0.000000000000000000e+00,0.000000000000000000e+00,0.000000000000000000e+00,0.000000000000000000e+00,0.000000000000000000e+00,0.000000000000000000e+00,0.000000000000000000e+00,0.000000000000000000e+00,-3.679973997237775407e-01,-1.225447218698631630e-01,0.000000000000000000e+00,0.000000000000000000e+00,0.000000000000000000e+00,0.000000000000000000e+00,0.000000000000000000e+00,0.000000000000000000e+00,0.000000000000000000e+00,0.000000000000000000e+00,0.000000000000000000e+00,0.000000000000000000e+00,-2.613472099978391139e-01,0.000000000000000000e+00,0.000000000000000000e+00,0.000000000000000000e+00,0.000000000000000000e+00,0.000000000000000000e+00,-2.399616002766081224e-01,0.000000000000000000e+00,0.000000000000000000e+00,0.000000000000000000e+00,0.000000000000000000e+00,0.000000000000000000e+00,0.000000000000000000e+00,0.000000000000000000e+00,0.000000000000000000e+00,0.000000000000000000e+00,0.000000000000000000e+00,0.000000000000000000e+00,0.000000000000000000e+00,0.000000000000000000e+00,0.000000000000000000e+00,0.000000000000000000e+00,0.000000000000000000e+00,0.000000000000000000e+00,0.000000000000000000e+00,0.000000000000000000e+00,0.000000000000000000e+00,0.000000000000000000e+00,0.000000000000000000e+00,0.000000000000000000e+00,0.000000000000000000e+00,0.000000000000000000e+00,0.000000000000000000e+00,0.000000000000000000e+00,0.000000000000000000e+00,0.000000000000000000e+00,0.000000000000000000e+00,0.000000000000000000e+00,0.000000000000000000e+00,0.000000000000000000e+00,0.000000000000000000e+00,0.000000000000000000e+00,0.000000000000000000e+00,0.000000000000000000e+00,0.000000000000000000e+00,0.000000000000000000e+00
0.000000000000000000e+00,0.000000000000000000e+00,0.000000000000000000e+00,0.000000000000000000e+00,0.000000000000000000e+00,0.000000000000000000e+00,0.000000000000000000e+00,0.000000000000000000e+00,0.000000000000000000e+00,0.000000000000000000e+00,0.000000000000000000e+00,0.000000000000000000e+00,0.000000000000000000e+00,0.000000000000000000e+00,0.000000000000000000e+00,-3.247297732557320460e-01,-2.700337127496706402e-01,-3.247297732557320460e-01,-2.631641957504907148e-01,-2.148133737927808151e-01,-2.504139228290808150e-01,-3.536634765424022664e-01,-5.538518804329124468e-01,-5.498703766380385050e-01,-4.012482846180026597e-01,-4.545422880745381145e-01,-5.581759112041715376e-01,-3.677676094361100878e-01,0.000000000000000000e+00,-3.130491415615079265e-01,-3.864568423208412651e-01,-2.431349623689096073e-01,-2.033590285573989020e-01,-3.134180454558366247e-01,-3.949626769150023642e-01,-2.818366778590993826e-01,-1.985733729399438430e-01,-3.544511889145143813e-01,-3.688035523865949017e-01,-4.504511984337141728e-01,-3.685314372685015716e-01,-4.875203731105162142e-01,-6.096502693933519845e-01,-3.038099990252633997e-01,-2.477003059248686356e-01,-5.210334258900628512e-02,-3.530627998851145199e-01,-4.937596668490601970e-01,-6.211510630042413883e-01,0.000000000000000000e+00,-5.392066853756596334e-01,-5.381903957029257057e-01,0.000000000000000000e+00,0.000000000000000000e+00,0.000000000000000000e+00,0.000000000000000000e+00,0.000000000000000000e+00,-2.488998008411978657e-01,-3.307129030451956830e-01,-2.189855543727311504e-01,-2.814745754180872361e-01,-6.728716239126569798e-01,-6.064210028188397050e-01,-5.775618285139475505e-01,-4.486802807485862354e-01,-3.141592474674140267e-01,0.000000000000000000e+00,-3.624483087033785744e-01,-4.852235856606579856e-01,-3.194507230976565970e-01,-6.076741228719247934e-01,-2.189855543727311504e-01,-1.936794618843081239e-01,-3.550240116203105534e-01,-2.564005145319419032e-01,-5.539421874422072456e-01,-3.038099990252633997e-01,-3.494640662463630587e-01,-2.831184464038779547e-01,-3.505333626350836118e-01,-5.399932771510402851e-01,-3.679973997237775407e-01,0.000000000000000000e+00,0.000000000000000000e+00,0.000000000000000000e+00,0.000000000000000000e+00,-2.493569586164482710e-01,-3.747426800482121512e-01,0.000000000000000000e+00,-1.437179885651719835e-01,0.000000000000000000e+00,-4.735385813875063743e-01,-4.135170574060104132e-01,-1.979564123710005896e-01,-4.632476295972000058e-01,-3.528619921796936620e-01,-3.158040579165318218e-01,2.106956068740434632e-02,-3.162646260480692639e-01,-2.745478764067017519e-01,0.000000000000000000e+00,0.000000000000000000e+00,0.000000000000000000e+00,0.000000000000000000e+00,0.000000000000000000e+00,0.000000000000000000e+00,0.000000000000000000e+00,0.000000000000000000e+00,0.000000000000000000e+00,-7.112821241380996862e-02,8.524945336097734805e-02,0.000000000000000000e+00,0.000000000000000000e+00,0.000000000000000000e+00,0.000000000000000000e+00,0.000000000000000000e+00,0.000000000000000000e+00,0.000000000000000000e+00,2.494011925516170791e-01,1.356756645577644471e-01,0.000000000000000000e+00,0.000000000000000000e+00,-1.478530908823829926e-01,0.000000000000000000e+00,0.000000000000000000e+00,0.000000000000000000e+00,0.000000000000000000e+00,0.000000000000000000e+00,1.958122560757705882e-02,0.000000000000000000e+00,0.000000000000000000e+00,0.000000000000000000e+00,-2.537651578634348981e-01,0.000000000000000000e+00,0.000000000000000000e+00,0.000000000000000000e+00,0.000000000000000000e+00,-1.765693495668426150e-01,0.000000000000000000e+00,0.000000000000000000e+00,2.124407522068436915e-01,0.000000000000000000e+00,0.000000000000000000e+00,0.000000000000000000e+00,0.000000000000000000e+00,0.000000000000000000e+00,0.000000000000000000e+00,0.000000000000000000e+00,0.000000000000000000e+00,0.000000000000000000e+00,2.329989245969161793e-01,0.000000000000000000e+00,0.000000000000000000e+00,0.000000000000000000e+00,0.000000000000000000e+00,0.000000000000000000e+00,0.000000000000000000e+00,0.000000000000000000e+00,0.000000000000000000e+00,0.000000000000000000e+00,0.000000000000000000e+00,0.000000000000000000e+00,0.000000000000000000e+00,0.000000000000000000e+00,0.000000000000000000e+00,7.835476385604263350e-02,0.000000000000000000e+00,0.000000000000000000e+00,0.000000000000000000e+00,0.000000000000000000e+00,0.000000000000000000e+00,0.000000000000000000e+00,0.000000000000000000e+00,0.000000000000000000e+00,0.000000000000000000e+00,0.000000000000000000e+00,0.000000000000000000e+00,0.000000000000000000e+00,0.000000000000000000e+00,0.000000000000000000e+00,0.000000000000000000e+00,0.000000000000000000e+00,-3.907119078745604490e-01,-3.281503580176792778e-01,0.000000000000000000e+00,-8.350732524831169790e-02,0.000000000000000000e+00,0.000000000000000000e+00,0.000000000000000000e+00,0.000000000000000000e+00,0.000000000000000000e+00,0.000000000000000000e+00,0.000000000000000000e+00,-1.724214320197405281e-01,-2.241718090697669696e-01,0.000000000000000000e+00,0.000000000000000000e+00,0.000000000000000000e+00,-6.794359404534514035e-02,1.787628632082771118e-01,-4.067847622280107989e-01,-5.567320409214622234e-01,-6.884323346404276345e-01,-5.348752451886790160e-01,-4.303165403168933700e-01,-2.367403085791573991e-01,0.000000000000000000e+00,0.000000000000000000e+00,-6.065540679522133521e-02,0.000000000000000000e+00,0.000000000000000000e+00,0.000000000000000000e+00,0.000000000000000000e+00,0.000000000000000000e+00,0.000000000000000000e+00,0.000000000000000000e+00,0.000000000000000000e+00,0.000000000000000000e+00,0.000000000000000000e+00,0.000000000000000000e+00,0.000000000000000000e+00,0.000000000000000000e+00,3.352711061571940487e-02,0.000000000000000000e+00,0.000000000000000000e+00,0.000000000000000000e+00,0.000000000000000000e+00,0.000000000000000000e+00,0.000000000000000000e+00,0.000000000000000000e+00,0.000000000000000000e+00,0.000000000000000000e+00,0.000000000000000000e+00,0.000000000000000000e+00,0.000000000000000000e+00,0.000000000000000000e+00,0.000000000000000000e+00,0.000000000000000000e+00,0.000000000000000000e+00,0.000000000000000000e+00
0.000000000000000000e+00,0.000000000000000000e+00,0.000000000000000000e+00,0.000000000000000000e+00,0.000000000000000000e+00,0.000000000000000000e+00,0.000000000000000000e+00,0.000000000000000000e+00,0.000000000000000000e+00,0.000000000000000000e+00,0.000000000000000000e+00,0.000000000000000000e+00,0.000000000000000000e+00,0.000000000000000000e+00,0.000000000000000000e+00,0.000000000000000000e+00,-1.975234520440066754e-01,-1.726547977426294567e-01,-2.490946443354705442e-01,-1.024155201439705398e-01,-5.210334258900628512e-02,-2.564723358005156495e-01,-5.957228192684892454e-01,-4.431734407639285611e-01,-4.841158615580904434e-01,-3.983840952509279942e-01,-5.334507937670783795e-01,-3.417505538973635293e-01,8.331247395799465383e-02,-3.462408302950706340e-02,-2.865583264184038970e-01,-3.117926383131989221e-01,-1.683077050155632193e-01,-1.023933021021068285e-01,-4.305118540597036580e-01,-3.514308033343199744e-01,-1.024155201439705398e-01,-2.368423552675746335e-01,-3.688035523865949017e-01,-4.502902409408289786e-01,-4.096725182965011564e-02,-5.100438906348148116e-01,-4.919972109537834593e-01,-2.661913243615170455e-01,-2.934942336554950959e-01,-5.210334258900628512e-02,-4.385895760117095588e-01,-4.907253803139297044e-01,-5.663018049362824602e-01,-1.423448648210041412e-01,-4.290709102703864630e-01,-4.480072083030993690e-01,0.000000000000000000e+00,-1.766307079820547687e-01,0.000000000000000000e+00,0.000000000000000000e+00,-9.566110219628379263e-02,-2.488998008411978657e-01,-2.345636027173161331e-01,-2.196865534539076681e-01,-3.001470575266959040e-01,-5.622707728687689199e-01,-5.233034128407179075e-01,-5.500197560526649543e-01,-4.468875193686465686e-01,-3.431079915674867253e-01,0.000000000000000000e+00,-2.537651578634348981e-01,-2.999815637364952048e-01,-3.475416811474162371e-01,-4.516473931121758323e-01,-2.913186219820827483e-01,-1.755771905753593931e-01,-3.253900357939178978e-01,-2.061378470322671186e-01,-4.776527296489797569e-01,-3.575750513636075656e-01,-2.847462892207637819e-01,-2.871120906766279623e-01,0.000000000000000000e+00,-2.713289666544699830e-01,-2.585226433251084366e-01,0.000000000000000000e+00,0.000000000000000000e+00,-2.007526321304313466e-01,0.000000000000000000e+00,-2.833621623736239936e-01,-2.969288530152796035e-01,-1.423448648210041412e-01,-1.448850404695880001e-01,0.000000000000000000e+00,-5.254866122485399860e-01,-3.806883078255646757e-01,-1.478530908823829926e-01,-5.101876058100155431e-01,-3.511710841839512098e-01,-3.196637589524173872e-01,-3.528634249535370082e-01,-3.023189818877844437e-01,-2.032517756358706573e-01,0.000000000000000000e+00,0.000000000000000000e+00,0.000000000000000000e+00,0.000000000000000000e+00,-3.339711657676647238e-01,-9.213781642265221616e-02,0.000000000000000000e+00,0.000000000000000000e+00,0.000000000000000000e+00,-1.993916724005897201e-01,3.382243563196572073e-02,0.000000000000000000e+00,0.000000000000000000e+00,1.739640836653661982e-01,0.000000000000000000e+00,1.739640836653661982e-01,0.000000000000000000e+00,1.601439998640718232e-01,0.000000000000000000e+00,3.993097286445435740e-02,0.000000000000000000e+00,0.000000000000000000e+00,0.000000000000000000e+00,0.000000000000000000e+00,0.000000000000000000e+00,0.000000000000000000e+00,0.000000000000000000e+00,0.000000000000000000e+00,0.000000000000000000e+00,0.000000000000000000e+00,0.000000000000000000e+00,-9.525569021786618740e-02,-9.353852770392494242e-02,0.000000000000000000e+00,0.000000000000000000e+00,0.000000000000000000e+00,0.000000000000000000e+00,2.443770281706861558e-01,0.000000000000000000e+00,0.000000000000000000e+00,2.377947603096717544e-01,-3.722045116792893626e-02,0.000000000000000000e+00,0.000000000000000000e+00,0.000000000000000000e+00,0.000000000000000000e+00,0.000000000000000000e+00,0.000000000000000000e+00,0.000000000000000000e+00,0.000000000000000000e+00,0.000000000000000000e+00,5.038553084933310861e-02,0.000000000000000000e+00,0.000000000000000000e+00,0.000000000000000000e+00,0.000000000000000000e+00,0.000000000000000000e+00,0.000000000000000000e+00,0.000000000000000000e+00,0.000000000000000000e+00,0.000000000000000000e+00,0.000000000000000000e+00,0.000000000000000000e+00,0.000000000000000000e+00,0.000000000000000000e+00,1.644259557448209952e-01,0.000000000000000000e+00,0.000000000000000000e+00,0.000000000000000000e+00,0.000000000000000000e+00,0.000000000000000000e+00,0.000000000000000000e+00,0.000000000000000000e+00,0.000000000000000000e+00,0.000000000000000000e+00,0.000000000000000000e+00,0.000000000000000000e+00,0.000000000000000000e+00,0.000000000000000000e+00,0.000000000000000000e+00,0.000000000000000000e+00,0.000000000000000000e+00,-2.611061782374777818e-01,-1.279639979072701161e-01,0.000000000000000000e+00,-2.719665845894102540e-01,0.000000000000000000e+00,0.000000000000000000e+00,0.000000000000000000e+00,0.000000000000000000e+00,0.000000000000000000e+00,0.000000000000000000e+00,0.000000000000000000e+00,0.000000000000000000e+00,-2.069561464929129402e-01,0.000000000000000000e+00,0.000000000000000000e+00,0.000000000000000000e+00,0.000000000000000000e+00,1.598515136350572505e-02,-4.297396458728671709e-01,-4.971989295967448319e-01,-6.239360847229065143e-01,-5.469232718618504130e-01,-3.240544338096976174e-01,-3.684816784282004543e-01,0.000000000000000000e+00,0.000000000000000000e+00,0.000000000000000000e+00,0.000000000000000000e+00,0.000000000000000000e+00,0.000000000000000000e+00,0.000000000000000000e+00,0.000000000000000000e+00,0.000000000000000000e+00,0.000000000000000000e+00,0.000000000000000000e+00,0.000000000000000000e+00,0.000000000000000000e+00,0.000000000000000000e+00,0.000000000000000000e+00,0.000000000000000000e+00,0.000000000000000000e+00,0.000000000000000000e+00,0.000000000000000000e+00,0.000000000000000000e+00,0.000000000000000000e+00,0.000000000000000000e+00,0.000000000000000000e+00,0.000000000000000000e+00,0.000000000000000000e+00,0.000000000000000000e+00,0.000000000000000000e+00,0.000000000000000000e+00,0.000000000000000000e+00,0.000000000000000000e+00,0.000000000000000000e+00,0.000000000000000000e+00,0.000000000000000000e+00,0.000000000000000000e+00
