0.000000000000000000e+00,-4.416008296191647475e-01,-5.230522146665232963e-01,-6.719222532947621840e-01,-6.719222532947621840e-01,-4.543944597320564993e-01,-5.579617435544728110e-01,-5.789198933316513918e-01,-5.579617435544728110e-01,-5.789198933316513918e-01,-4.858112331429216835e-01,-4.543944597320564993e-01,-2.760481618388324621e-01,-2.975620337927354364e-01,-3.417227286997258084e-01,-2.589027418210762543e-01,-2.824857288193525218e-01,-2.314394606949628785e-01,-1.201322045623122031e-01,-5.048950950062787157e-01,-6.020560518788256044e-01,-6.157370861808545426e-01,-4.953123487407904424e-01,0.000000000000000000e+00,-5.522791559239832448e-01,-2.071612958531914295e-01,-2.519861038698834599e-01,-1.226058030214868394e-01,-5.230522146665232963e-01,-5.522986937239167116e-01,-6.470785326357784140e-01,-5.495680191484180188e-01,-3.988466427546608628e-01,-4.345127035192688503e-01,-2.264657794929203771e-01,-3.435470006368167017e-01,0.000000000000000000e+00,-3.868363910708123021e-01,-2.788263662413644206e-01,0.000000000000000000e+00,-5.091799347433562106e-01,-3.062864883719091935e-01,-2.488066260355517034e-01,-5.044010386442974170e-01,-2.254796182542938010e-01,-7.418063841648699086e-02,-3.663569413073112790e-01,-2.127126735928113466e-01,-3.499687645380483714e-01,0.000000000000000000e+00,-3.047676997547481559e-01,-4.857217922322921710e-01,-5.180202838079137617e-01,-5.856090226591577075e-01,-4.106210366567045189e-01,-6.554368489763022776e-01,-6.470785326357784140e-01,-6.264376532423555632e-01,-5.357679902259779858e-01,-4.586089501532530921e-01,-1.936430589088378451e-01,-3.398813098607529892e-01,-2.068159047169053910e-01,-3.645627811408079233e-01,-4.895750488244687837e-02,0.000000000000000000e+00,-6.380607459571842055e-01,-2.088665939742483935e-01,0.000000000000000000e+00,0.000000000000000000e+00,-1.376773068388856824e-01,-5.458760814954040086e-01,0.000000000000000000e+00,-5.758570361181762909e-01,-4.934133248135750272e-01,-4.086360193103703020e-01,-5.019644879515547942e-01,0.000000000000000000e+00,0.000000000000000000e+00,-4.793440542649237690e-01,-5.019644879515547942e-01,0.000000000000000000e+00,-6.180951909697940394e-01,-6.188084129601211236e-01,-5.788335447657432242e-01,-6.433093679382700936e-01,-4.907013743158452623e-01,-3.478869169831423636e-02,0.000000000000000000e+00,0.000000000000000000e+00,0.000000000000000000e+00,-4.041790066133633119e-01,-2.364493514061508095e-01,0.000000000000000000e+00,0.000000000000000000e+00,-5.914944219795469360e-01,-5.579617435544728110e-01,-5.579617435544728110e-01,-6.433093679382700936e-01,-6.384975335895030080e-01,-4.081844859639618406e-01,0.000000000000000000e+00,-5.186674912833887374e-01,0.000000000000000000e+00,-5.812144163494052662e-02,5.806176324252374649e-02,-4.081844859639618406e-01,0.000000000000000000e+00,-5.019644879515547942e-01,-3.554088248363695968e-01,0.000000000000000000e+00,0.000000000000000000e+00,0.000000000000000000e+00,0.000000000000000000e+00,0.000000000000000000e+00,0.000000000000000000e+00,0.000000000000000000e+00,0.000000000000000000e+00,0.000000000000000000e+00,0.000000000000000000e+00,0.000000000000000000e+00,0.000000000000000000e+00,0.000000000000000000e+00,0.000000000000000000e+00,0.000000000000000000e+00,0.000000000000000000e+00,0.000000000000000000e+00,0.000000000000000000e+00,0.000000000000000000e+00,0.000000000000000000e+00,0.000000000000000000e+00,3.414351867231819049e-01,0.000000000000000000e+00,0.000000000000000000e+00,0.000000000000000000e+00,0.000000000000000000e+00,-3.211151126088980234e-01,0.000000000000000000e+00,0.000000000000000000e+00,0.000000000000000000e+00,0.000000000000000000e+00,0.000000000000000000e+00,0.000000000000000000e+00,0.000000000000000000e+00,0.000000000000000000e+00,0.000000000000000000e+00,0.000000000000000000e+00,0.000000000000000000e+00,0.000000000000000000e+00,0.000000000000000000e+00,0.000000000000000000e+00,0.000000000000000000e+00,0.000000000000000000e+00,0.000000000000000000e+00,0.000000000000000000e+00,0.000000000000000000e+00,0.000000000000000000e+00,0.000000000000000000e+00,0.000000000000000000e+00,0.000000000000000000e+00,0.000000000000000000e+00,0.000000000000000000e+00,0.000000000000000000e+00,3.414351867231819049e-01,0.000000000000000000e+00,0.000000000000000000e+00,0.000000000000000000e+00,0.000000000000000000e+00,0.000000000000000000e+00,0.000000000000000000e+00,0.000000000000000000e+00,0.000000000000000000e+00,0.000000000000000000e+00,0.000000000000000000e+00,0.000000000000000000e+00,0.000000000000000000e+00,0.000000000000000000e+00,0.000000000000000000e+00,0.000000000000000000e+00,0.000000000000000000e+00,0.000000000000000000e+00,0.000000000000000000e+00,-2.457403682589018035e-01,0.000000000000000000e+00,0.000000000000000000e+00,-4.477832963966431601e-01,0.000000000000000000e+00,0.000000000000000000e+00,0.000000000000000000e+00,0.000000000000000000e+00,0.000000000000000000e+00,0.000000000000000000e+00,0.000000000000000000e+00,0.000000000000000000e+00,-4.452974968783483534e-01,0.000000000000000000e+00,4.163853397957108515e-01,0.000000000000000000e+00,0.000000000000000000e+00,4.163853397957108515e-01,-4.577594900815920020e-01,-3.711005684722814557e-01,-5.638810081307280564e-01,-5.841274714588703398e-01,-5.895259823284729750e-01,-5.743092825527735812e-01,-3.774492620301848622e-01,0.000000000000000000e+00,0.000000000000000000e+00,0.000000000000000000e+00,0.000000000000000000e+00,0.000000000000000000e+00,0.000000000000000000e+00,0.000000000000000000e+00,-3.377444968937112768e-01,0.000000000000000000e+00,0.000000000000000000e+00,0.000000000000000000e+00,0.000000000000000000e+00,0.000000000000000000e+00,-5.019644879515547942e-01,0.000000000000000000e+00,-4.883878794625630682e-01,0.000000000000000000e+00,0.000000000000000000e+00,0.000000000000000000e+00,0.000000000000000000e+00,0.000000000000000000e+00,0.000000000000000000e+00,0.000000000000000000e+00,0.000000000000000000e+00,0.000000000000000000e+00,0.000000000000000000e+00,0.000000000000000000e+00,0.000000000000000000e+00,0.000000000000000000e+00,0.000000000000000000e+00,0.000000000000000000e+00,0.000000000000000000e+00,0.000000000000000000e+00
0.000000000000000000e+00,0.000000000000000000e+00,-5.789198933316513918e-01,-3.603685435511616020e-01,-6.194780356045286318e-01,-3.539708568887708906e-01,-5.789198933316513918e-01,-5.789198933316513918e-01,0.000000000000000000e+00,-5.789198933316513918e-01,-4.452974968783483534e-01,-5.105223578781509230e-01,0.000000000000000000e+00,0.000000000000000000e+00,0.000000000000000000e+00,0.000000000000000000e+00,-2.145623133275479932e-01,0.000000000000000000e+00,0.000000000000000000e+00,-1.189938137870194812e-01,-5.595626726882408919e-01,-6.423680502352557831e-01,-4.661080446081281581e-01,0.000000000000000000e+00,-2.636438707336266063e-01,-1.830578877493285184e-01,0.000000000000000000e+00,0.000000000000000000e+00,-1.603811217726368032e-01,-5.522986937239167116e-01,-4.612391378102372874e-01,-4.858112331429216835e-01,-3.150272948381395710e-01,0.000000000000000000e+00,0.000000000000000000e+00,0.000000000000000000e+00,0.000000000000000000e+00,0.000000000000000000e+00,-2.623851763525617553e-01,-1.816299810880725452e-01,-5.896224411268653487e-01,0.000000000000000000e+00,0.000000000000000000e+00,-2.261269063482807540e-01,0.000000000000000000e+00,0.000000000000000000e+00,-3.696808782958286299e-01,0.000000000000000000e+00,0.000000000000000000e+00,0.000000000000000000e+00,-2.312082976262601064e-01,0.000000000000000000e+00,0.000000000000000000e+00,-4.081844859639618406e-01,0.000000000000000000e+00,0.000000000000000000e+00,-3.628050942439043358e-01,0.000000000000000000e+00,0.000000000000000000e+00,-4.244165132810355789e-01,-2.260194020526581915e-01,-2.490813067400516334e-01,0.000000000000000000e+00,1.444951704806862920e-03,0.000000000000000000e+00,0.000000000000000000e+00,-5.274224895839434435e-01,0.000000000000000000e+00,6.646957337249903564e-02,0.000000000000000000e+00,0.000000000000000000e+00,-2.145623133275479932e-01,0.000000000000000000e+00,0.000000000000000000e+00,0.000000000000000000e+00,0.000000000000000000e+00,0.000000000000000000e+00,0.000000000000000000e+00,0.000000000000000000e+00,0.000000000000000000e+00,0.000000000000000000e+00,0.000000000000000000e+00,-5.599640556027302152e-01,-3.628050942439043358e-01,-5.426474297468977248e-01,-4.763016088565784067e-01,0.000000000000000000e+00,0.000000000000000000e+00,0.000000000000000000e+00,0.000000000000000000e+00,0.000000000000000000e+00,8.823705659384464828e-02,0.000000000000000000e+00,0.000000000000000000e+00,0.000000000000000000e+00,-3.603685435511616020e-01,-4.452974968783483534e-01,-6.537310050501696779e-01,-5.549891156335540199e-01,-4.612391378102372874e-01,0.000000000000000000e+00,0.000000000000000000e+00,0.000000000000000000e+00,0.000000000000000000e+00,0.000000000000000000e+00,0.000000000000000000e+00,0.000000000000000000e+00,0.000000000000000000e+00,0.000000000000000000e+00,0.000000000000000000e+00,0.000000000000000000e+00,0.000000000000000000e+00,0.000000000000000000e+00,0.000000000000000000e+00,0.000000000000000000e+00,0.000000000000000000e+00,0.000000000000000000e+00,0.000000000000000000e+00,0.000000000000000000e+00,0.000000000000000000e+00,0.000000000000000000e+00,0.000000000000000000e+00,0.000000000000000000e+00,0.000000000000000000e+00,0.000000000000000000e+00,0.000000000000000000e+00,0.000000000000000000e+00,0.000000000000000000e+00,0.000000000000000000e+00,0.000000000000000000e+00,0.000000000000000000e+00,0.000000000000000000e+00,0.000000000000000000e+00,0.000000000000000000e+00,0.000000000000000000e+00,0.000000000000000000e+00,0.000000000000000000e+00,0.000000000000000000e+00,0.000000000000000000e+00,0.000000000000000000e+00,0.000000000000000000e+00,0.000000000000000000e+00,0.000000000000000000e+00,0.000000000000000000e+00,0.000000000000000000e+00,0.000000000000000000e+00,0.000000000000000000e+00,0.000000000000000000e+00,0.000000000000000000e+00,0.000000000000000000e+00,0.000000000000000000e+00,0.000000000000000000e+00,0.000000000000000000e+00,0.000000000000000000e+00,0.000000000000000000e+00,0.000000000000000000e+00,0.000000000000000000e+00,0.000000000000000000e+00,0.000000000000000000e+00,0.000000000000000000e+00,0.000000000000000000e+00,0.000000000000000000e+00,0.000000000000000000e+00,0.000000000000000000e+00,0.000000000000000000e+00,0.000000000000000000e+00,0.000000000000000000e+00,0.000000000000000000e+00,0.000000000000000000e+00,0.000000000000000000e+00,0.000000000000000000e+00,0.000000000000000000e+00,0.000000000000000000e+00,0.000000000000000000e+00,0.000000000000000000e+00,0.000000000000000000e+00,0.000000000000000000e+00,0.000000000000000000e+00,0.000000000000000000e+00,0.000000000000000000e+00,0.000000000000000000e+00,0.000000000000000000e+00,0.000000000000000000e+00,0.000000000000000000e+00,0.000000000000000000e+00,0.000000000000000000e+00,0.000000000000000000e+00,0.000000000000000000e+00,0.000000000000000000e+00,0.000000000000000000e+00,0.000000000000000000e+00,0.000000000000000000e+00,0.000000000000000000e+00,0.000000000000000000e+00,0.000000000000000000e+00,0.000000000000000000e+00,0.000000000000000000e+00,0.000000000000000000e+00,0.000000000000000000e+00,0.000000000000000000e+00,-1.402251117030490213e-01,0.000000000000000000e+00,-4.144099244067999677e-01,0.000000000000000000e+00,0.000000000000000000e+00,-5.496100466803914841e-01,0.000000000000000000e+00,0.000000000000000000e+00,0.000000000000000000e+00,0.000000000000000000e+00,0.000000000000000000e+00,0.000000000000000000e+00,0.000000000000000000e+00,0.000000000000000000e+00,-4.416008296191647475e-01,0.000000000000000000e+00,0.000000000000000000e+00,0.000000000000000000e+00,0.000000000000000000e+00,0.000000000000000000e+00,0.000000000000000000e+00,0.000000000000000000e+00,-2.339890315923801312e-01,0.000000000000000000e+00,0.000000000000000000e+00,0.000000000000000000e+00,0.000000000000000000e+00,0.000000000000000000e+00,0.000000000000000000e+00,0.000000000000000000e+00,0.000000000000000000e+00,0.000000000000000000e+00,0.000000000000000000e+00,0.000000000000000000e+00,0.000000000000000000e+00,0.000000000000000000e+00,0.000000000000000000e+00,0.000000000000000000e+00,0.000000000000000000e+00,0.000000000000000000e+00
0.000000000000000000e+00,0.000000000000000000e+00,0.000000000000000000e+00,-5.105223578781509230e-01,-6.719222532947621840e-01,-4.858112331429216835e-01,-5.789198933316513918e-01,-5.579617435544728110e-01,-5.579617435544728110e-01,-5.789198933316513918e-01,-4.452974968783483534e-01,-4.452974968783483534e-01,0.000000000000000000e+00,0.000000000000000000e+00,-8.644682988076399233e-02,-2.008857826399187418e-01,-2.169988640202908936e-01,-1.523674023944181777e-01,-5.534637839964767769e-02,-3.371255023117494809e-01,-6.020560518788256044e-01,-6.269872405097345336e-01,-4.638276118861347497e-01,-5.658145289781498638e-02,-4.988396961502405969e-01,-4.020087329575859902e-01,-1.626381175535693835e-01,-9.049573440738033214e-02,-5.579617435544728110e-01,-6.719222532947621840e-01,-6.186708443811534952e-01,-4.452974968783483534e-01,-2.541611237602296458e-01,-3.543215471092240332e-01,0.000000000000000000e+00,-4.355633232322415616e-01,-4.355633232322415616e-01,-3.543215471092240332e-01,-2.751305346633233784e-01,0.000000000000000000e+00,-5.065322098052177369e-01,-4.868986327587544460e-01,2.512328066095295340e-02,-3.614621737053034245e-01,-1.263618779404276082e-01,0.000000000000000000e+00,-3.616483618746416662e-01,-1.321601288246198325e-01,-3.923585593472672106e-01,0.000000000000000000e+00,-4.432095188697892651e-01,-3.322625465129388500e-01,-4.106210366567045189e-01,-5.049955046628095134e-01,0.000000000000000000e+00,-5.326824303321054943e-01,-6.719222532947621840e-01,-3.005969684694967392e-01,-5.470357733259803013e-01,-4.932878295913052380e-01,-2.280825938784594720e-01,-2.243260575389477152e-01,-4.242901827141810078e-01,-6.331973746678370984e-02,-1.489757584655067024e-01,0.000000000000000000e+00,-5.982354301160002219e-01,-2.050604979621437896e-01,0.000000000000000000e+00,-3.008267491676973604e-01,0.000000000000000000e+00,-4.452974968783483534e-01,-2.541611237602296458e-01,-3.148953184147722517e-01,-2.145623133275479932e-01,-9.765125275280392425e-02,0.000000000000000000e+00,-2.050604979621437896e-01,0.000000000000000000e+00,-3.041247374031214035e-01,-2.943349528670828885e-01,0.000000000000000000e+00,-6.549421830344834827e-01,-6.549421830344834827e-01,-5.788335447657432242e-01,-6.269872405097345336e-01,-5.044010386442974170e-01,-1.142678215214205373e-01,0.000000000000000000e+00,0.000000000000000000e+00,0.000000000000000000e+00,-4.858235958095916129e-01,0.000000000000000000e+00,0.000000000000000000e+00,-5.380938318350182714e-02,-5.393396896279909480e-01,-4.452974968783483534e-01,-5.789198933316513918e-01,-6.157370861808545426e-01,-5.927434923849325132e-01,0.000000000000000000e+00,0.000000000000000000e+00,0.000000000000000000e+00,-1.006059907040137286e-01,-3.554088248363695968e-01,-5.579617435544728110e-01,0.000000000000000000e+00,0.000000000000000000e+00,-5.019644879515547942e-01,-5.579617435544728110e-01,0.000000000000000000e+00,0.000000000000000000e+00,0.000000000000000000e+00,0.000000000000000000e+00,0.000000000000000000e+00,0.000000000000000000e+00,0.000000000000000000e+00,0.000000000000000000e+00,0.000000000000000000e+00,0.000000000000000000e+00,0.000000000000000000e+00,0.000000000000000000e+00,0.000000000000000000e+00,0.000000000000000000e+00,0.000000000000000000e+00,0.000000000000000000e+00,0.000000000000000000e+00,0.000000000000000000e+00,0.000000000000000000e+00,0.000000000000000000e+00,0.000000000000000000e+00,0.000000000000000000e+00,-2.378009157049517860e-02,0.000000000000000000e+00,0.000000000000000000e+00,0.000000000000000000e+00,0.000000000000000000e+00,0.000000000000000000e+00,0.000000000000000000e+00,0.000000000000000000e+00,0.000000000000000000e+00,0.000000000000000000e+00,0.000000000000000000e+00,0.000000000000000000e+00,3.546918393622495169e-01,0.000000000000000000e+00,0.000000000000000000e+00,0.000000000000000000e+00,0.000000000000000000e+00,0.000000000000000000e+00,0.000000000000000000e+00,0.000000000000000000e+00,0.000000000000000000e+00,0.000000000000000000e+00,0.000000000000000000e+00,0.000000000000000000e+00,0.000000000000000000e+00,0.000000000000000000e+00,0.000000000000000000e+00,0.000000000000000000e+00,0.000000000000000000e+00,0.000000000000000000e+00,0.000000000000000000e+00,0.000000000000000000e+00,-4.477832963966431601e-01,0.000000000000000000e+00,0.000000000000000000e+00,0.000000000000000000e+00,-2.360157314434913889e-01,0.000000000000000000e+00,0.000000000000000000e+00,0.000000000000000000e+00,0.000000000000000000e+00,0.000000000000000000e+00,0.000000000000000000e+00,0.000000000000000000e+00,0.000000000000000000e+00,0.000000000000000000e+00,0.000000000000000000e+00,0.000000000000000000e+00,0.000000000000000000e+00,0.000000000000000000e+00,-4.081844859639618406e-01,0.000000000000000000e+00,0.000000000000000000e+00,-3.910382275868046764e-01,0.000000000000000000e+00,0.000000000000000000e+00,0.000000000000000000e+00,0.000000000000000000e+00,0.000000000000000000e+00,0.000000000000000000e+00,0.000000000000000000e+00,0.000000000000000000e+00,-5.064776310531029502e-01,0.000000000000000000e+00,0.000000000000000000e+00,0.000000000000000000e+00,0.000000000000000000e+00,0.000000000000000000e+00,-5.188843498224129380e-01,-4.444110348375481245e-01,-4.423916069891171143e-01,-4.530194607461182632e-01,-4.974217744027700783e-01,-5.496100466803914841e-01,0.000000000000000000e+00,0.000000000000000000e+00,0.000000000000000000e+00,0.000000000000000000e+00,0.000000000000000000e+00,-2.234077217664385828e-01,0.000000000000000000e+00,0.000000000000000000e+00,-3.377444968937112768e-01,0.000000000000000000e+00,0.000000000000000000e+00,0.000000000000000000e+00,0.000000000000000000e+00,0.000000000000000000e+00,0.000000000000000000e+00,0.000000000000000000e+00,-4.883878794625630682e-01,0.000000000000000000e+00,0.000000000000000000e+00,0.000000000000000000e+00,0.000000000000000000e+00,0.000000000000000000e+00,0.000000000000000000e+00,0.000000000000000000e+00,0.000000000000000000e+00,0.000000000000000000e+00,0.000000000000000000e+00,0.000000000000000000e+00,0.000000000000000000e+00,0.000000000000000000e+00,0.000000000000000000e+00,0.000000000000000000e+00,0.000000000000000000e+00,0.000000000000000000e+00
0.000000000000000000e+00,0.000000000000000000e+00,0.000000000000000000e+00,0.000000000000000000e+00,-4.865534205555425151e-01,-3.795113221875144882e-01,-6.076570324460388584e-01,-5.789198933316513918e-01,-5.789198933316513918e-01,-4.858112331429216835e-01,-3.795113221875144882e-01,-4.858112331429216835e-01,-2.123508802399783624e-01,3.614206743762948815e-02,-1.695212747940076647e-01,-1.257770821706612752e-01,0.000000000000000000e+00,-1.314533269128268511e-01,4.908730626080649168e-02,-3.921660360038250470e-01,-6.020560518788256044e-01,-5.647258562256987080e-01,-4.546479497308301143e-01,-4.457434825977375087e-02,-4.054718768927192962e-01,0.000000000000000000e+00,-1.486488666363630917e-01,-3.586588707489717920e-01,-5.105223578781509230e-01,-5.522986937239167116e-01,-6.470785326357784140e-01,-3.289635921391639850e-01,-2.541611237602296458e-01,3.176573029282624312e-03,-1.055730786054318998e-01,-3.683992681484384857e-01,-5.044010386442974170e-01,-1.797928831621996015e-01,-2.170535510547209057e-01,3.413753379192992210e-02,-4.761327204169603089e-01,-2.398378442722477466e-01,-4.268710387080591473e-01,-3.952271042775740151e-01,-1.847921768427081002e-01,0.000000000000000000e+00,-2.262293995709393213e-01,-9.510170544556773020e-02,-4.528979173745362741e-01,0.000000000000000000e+00,-3.703966949201768499e-01,-5.351946060124640470e-01,-3.976514070902206210e-01,-6.265782811306908062e-01,-4.106210366567045189e-01,-6.265782811306908062e-01,-5.522986937239167116e-01,-3.695217344120413361e-01,-3.111323489148928312e-01,-4.572324391153499423e-01,-3.532304171299696094e-01,-7.636243273463545755e-02,-1.172639995186109396e-01,-2.900718630275804788e-01,-3.363587057870703889e-01,-2.596086368593558680e-01,-6.380607459571842055e-01,0.000000000000000000e+00,-2.705169035225241103e-01,-2.975620337927354364e-01,-3.858254876620932361e-01,-3.289635921391639850e-01,0.000000000000000000e+00,-4.810590141384420426e-01,-4.067907437887823829e-01,-2.215674502803100521e-01,-3.695217344120413361e-01,-4.188353156760905027e-01,0.000000000000000000e+00,-4.125260030961818147e-01,-2.924375757484327654e-01,-2.006072686118536286e-01,-6.025620615360313126e-01,-6.554368489763022776e-01,-5.509838737721588497e-01,-6.058951133920966736e-01,-3.600030776089329643e-01,-3.573212949333397503e-01,0.000000000000000000e+00,0.000000000000000000e+00,0.000000000000000000e+00,-3.881669164777467040e-01,-2.462069128545353314e-01,0.000000000000000000e+00,-1.117210149913475947e-01,-2.810499911403753770e-01,-3.289635921391639850e-01,-6.537310050501696779e-01,-6.269872405097345336e-01,-5.244749238242258915e-01,0.000000000000000000e+00,0.000000000000000000e+00,-4.416008296191647475e-01,-2.013030063493243815e-01,1.502141602949128296e-01,-2.013030063493243815e-01,0.000000000000000000e+00,0.000000000000000000e+00,-2.541611237602296458e-01,-2.988404999497367709e-01,-2.319231267869925062e-01,0.000000000000000000e+00,0.000000000000000000e+00,0.000000000000000000e+00,0.000000000000000000e+00,0.000000000000000000e+00,0.000000000000000000e+00,0.000000000000000000e+00,0.000000000000000000e+00,0.000000000000000000e+00,0.000000000000000000e+00,0.000000000000000000e+00,0.000000000000000000e+00,0.000000000000000000e+00,0.000000000000000000e+00,0.000000000000000000e+00,0.000000000000000000e+00,0.000000000000000000e+00,0.000000000000000000e+00,0.000000000000000000e+00,0.000000000000000000e+00,-2.013030063493243815e-01,-1.200253932707543228e-02,0.000000000000000000e+00,0.000000000000000000e+00,0.000000000000000000e+00,0.000000000000000000e+00,0.000000000000000000e+00,0.000000000000000000e+00,0.000000000000000000e+00,0.000000000000000000e+00,-2.463040723737105198e-01,0.000000000000000000e+00,0.000000000000000000e+00,0.000000000000000000e+00,0.000000000000000000e+00,0.000000000000000000e+00,0.000000000000000000e+00,0.000000000000000000e+00,0.000000000000000000e+00,0.000000000000000000e+00,0.000000000000000000e+00,0.000000000000000000e+00,0.000000000000000000e+00,0.000000000000000000e+00,0.000000000000000000e+00,0.000000000000000000e+00,0.000000000000000000e+00,0.000000000000000000e+00,0.000000000000000000e+00,0.000000000000000000e+00,0.000000000000000000e+00,0.000000000000000000e+00,0.000000000000000000e+00,0.000000000000000000e+00,0.000000000000000000e+00,0.000000000000000000e+00,0.000000000000000000e+00,0.000000000000000000e+00,0.000000000000000000e+00,0.000000000000000000e+00,0.000000000000000000e+00,0.000000000000000000e+00,0.000000000000000000e+00,0.000000000000000000e+00,0.000000000000000000e+00,0.000000000000000000e+00,0.000000000000000000e+00,0.000000000000000000e+00,0.000000000000000000e+00,0.000000000000000000e+00,0.000000000000000000e+00,0.000000000000000000e+00,0.000000000000000000e+00,0.000000000000000000e+00,-1.603811217726368032e-01,0.000000000000000000e+00,0.000000000000000000e+00,0.000000000000000000e+00,0.000000000000000000e+00,0.000000000000000000e+00,0.000000000000000000e+00,0.000000000000000000e+00,0.000000000000000000e+00,-2.988404999497367709e-01,0.000000000000000000e+00,0.000000000000000000e+00,0.000000000000000000e+00,0.000000000000000000e+00,0.000000000000000000e+00,-4.361157343727153912e-01,-2.529847021674953567e-01,-4.411194818116947469e-01,-3.919683026700340744e-01,-5.454392938630853171e-01,-5.831207406085160416e-01,-3.069618803078642544e-01,0.000000000000000000e+00,0.000000000000000000e+00,0.000000000000000000e+00,0.000000000000000000e+00,-3.335926245466411810e-01,0.000000000000000000e+00,0.000000000000000000e+00,-4.416008296191647475e-01,0.000000000000000000e+00,0.000000000000000000e+00,0.000000000000000000e+00,0.000000000000000000e+00,0.000000000000000000e+00,0.000000000000000000e+00,0.000000000000000000e+00,-5.230522146665232963e-01,0.000000000000000000e+00,0.000000000000000000e+00,0.000000000000000000e+00,0.000000000000000000e+00,0.000000000000000000e+00,0.000000000000000000e+00,0.000000000000000000e+00,0.000000000000000000e+00,0.000000000000000000e+00,0.000000000000000000e+00,0.000000000000000000e+00,0.000000000000000000e+00,0.000000000000000000e+00,0.000000000000000000e+00,0.000000000000000000e+00,0.000000000000000000e+00,0.000000000000000000e+00
0.000000000000000000e+00,0.000000000000000000e+00,0.000000000000000000e+00,0.000000000000000000e+00,0.000000000000000000e+00,-3.783475423731360032e-01,-6.341406870363018866e-01,-6.719222532947621840e-01,-6.537310050501696779e-01,-5.819244964874563664e-01,-3.677763103501088260e-01,-5.819244964874563664e-01,-1.895046880553014346e-01,-2.169988640202908936e-01,-1.776923250178913949e-01,-1.660756322073791980e-01,-3.737186091427491252e-02,-1.875028037281152860e-01,2.994935133516584205e-02,-2.169988640202908936e-01,-6.020560518788256044e-01,-6.157370861808545426e-01,-4.458902269010646124e-01,-6.925475183163116999e-02,-4.743315784941461999e-01,0.000000000000000000e+00,-1.386162481088410586e-02,-7.933983561251653494e-02,-6.719222532947621840e-01,-4.436031416674220962e-01,-4.224264195992924464e-01,-1.155622128516841512e-01,0.000000000000000000e+00,0.000000000000000000e+00,-1.690223236397258300e-01,-1.437629024446357706e-01,-2.023839656652778596e-01,0.000000000000000000e+00,-7.003530866550340683e-02,-6.738557337684954185e-02,-4.809840967368623210e-01,-4.108221551914845171e-01,-2.070613508306627382e-01,-4.794676052195012694e-01,1.598108463323951733e-01,0.000000000000000000e+00,-2.502521521502427682e-01,-1.926872157809978170e-01,-3.881501450344598259e-01,-2.388859020988937376e-01,-4.310916445125041463e-01,-4.225641003576638410e-01,-4.364641253011654065e-01,-6.120481434932941722e-01,-4.242726066979551902e-01,-5.661195841752925118e-01,-5.549891156335540199e-01,-2.680894230857883698e-01,-2.155269757771688943e-01,-1.804207937602865242e-01,-2.863641439361608865e-01,-1.672036134968158949e-01,-2.251959324736884371e-01,-1.669012653965736559e-01,-1.803126203949637629e-01,-1.841185403386718933e-01,-6.470785326357784140e-01,-1.947009245234635200e-01,-2.621703923597529795e-01,-2.350790045190511990e-01,-4.324432214863604407e-01,-1.125651793598367451e-01,0.000000000000000000e+00,-4.383948834288448615e-01,-2.692045061624572799e-01,-1.297158181343872341e-01,-2.169988640202908936e-01,-5.044010386442974170e-01,0.000000000000000000e+00,-3.125170871351822255e-01,-3.735377134463077620e-01,0.000000000000000000e+00,-6.188084129601211236e-01,-5.426474297468977248e-01,-5.788335447657432242e-01,-6.144190553305418634e-01,-3.358928100943456840e-01,-1.780851664639357401e-01,0.000000000000000000e+00,0.000000000000000000e+00,4.959080916922673464e-03,-4.399474171355607921e-01,-9.520042325456272436e-02,0.000000000000000000e+00,-3.395208515406323291e-01,0.000000000000000000e+00,0.000000000000000000e+00,-5.980192093275978893e-01,-6.279151704051533223e-01,-3.414365577406356933e-01,0.000000000000000000e+00,0.000000000000000000e+00,-2.013030063493243815e-01,-1.432927470007334392e-01,-2.013030063493243815e-01,2.575268452289790622e-01,0.000000000000000000e+00,0.000000000000000000e+00,-5.019644879515547942e-01,0.000000000000000000e+00,0.000000000000000000e+00,0.000000000000000000e+00,0.000000000000000000e+00,-2.641897169512610888e-01,0.000000000000000000e+00,0.000000000000000000e+00,0.000000000000000000e+00,0.000000000000000000e+00,0.000000000000000000e+00,0.000000000000000000e+00,0.000000000000000000e+00,0.000000000000000000e+00,0.000000000000000000e+00,0.000000000000000000e+00,0.000000000000000000e+00,0.000000000000000000e+00,0.000000000000000000e+00,0.000000000000000000e+00,0.000000000000000000e+00,0.000000000000000000e+00,0.000000000000000000e+00,-5.583263010728374554e-02,4.306373433799097483e-02,0.000000000000000000e+00,0.000000000000000000e+00,0.000000000000000000e+00,0.000000000000000000e+00,0.000000000000000000e+00,0.000000000000000000e+00,0.000000000000000000e+00,0.000000000000000000e+00,-3.164333039781183632e-01,0.000000000000000000e+00,0.000000000000000000e+00,0.000000000000000000e+00,0.000000000000000000e+00,0.000000000000000000e+00,0.000000000000000000e+00,0.000000000000000000e+00,0.000000000000000000e+00,0.000000000000000000e+00,0.000000000000000000e+00,0.000000000000000000e+00,0.000000000000000000e+00,0.000000000000000000e+00,0.000000000000000000e+00,0.000000000000000000e+00,0.000000000000000000e+00,0.000000000000000000e+00,0.000000000000000000e+00,0.000000000000000000e+00,0.000000000000000000e+00,0.000000000000000000e+00,0.000000000000000000e+00,0.000000000000000000e+00,0.000000000000000000e+00,0.000000000000000000e+00,0.000000000000000000e+00,0.000000000000000000e+00,0.000000000000000000e+00,0.000000000000000000e+00,0.000000000000000000e+00,3.414351867231819049e-01,0.000000000000000000e+00,0.000000000000000000e+00,0.000000000000000000e+00,0.000000000000000000e+00,0.000000000000000000e+00,0.000000000000000000e+00,0.000000000000000000e+00,0.000000000000000000e+00,0.000000000000000000e+00,-1.667666273693567403e-01,-5.992331052435884847e-02,0.000000000000000000e+00,0.000000000000000000e+00,0.000000000000000000e+00,0.000000000000000000e+00,0.000000000000000000e+00,0.000000000000000000e+00,0.000000000000000000e+00,0.000000000000000000e+00,0.000000000000000000e+00,-1.165868485665998849e-01,-2.988404999497367709e-01,-9.061368952921211584e-02,0.000000000000000000e+00,-5.461566211998720305e-02,0.000000000000000000e+00,2.702753707954374529e-01,-4.711032945482284129e-01,-2.086102417908245743e-01,-4.724672671419888337e-01,-4.763069047252006527e-01,-5.865222026252264742e-01,-5.696948033308278925e-01,0.000000000000000000e+00,0.000000000000000000e+00,0.000000000000000000e+00,0.000000000000000000e+00,0.000000000000000000e+00,0.000000000000000000e+00,0.000000000000000000e+00,0.000000000000000000e+00,-4.416008296191647475e-01,0.000000000000000000e+00,0.000000000000000000e+00,0.000000000000000000e+00,0.000000000000000000e+00,0.000000000000000000e+00,0.000000000000000000e+00,0.000000000000000000e+00,-6.191721998504799984e-01,0.000000000000000000e+00,0.000000000000000000e+00,0.000000000000000000e+00,0.000000000000000000e+00,0.000000000000000000e+00,0.000000000000000000e+00,0.000000000000000000e+00,0.000000000000000000e+00,0.000000000000000000e+00,0.000000000000000000e+00,0.000000000000000000e+00,0.000000000000000000e+00,0.000000000000000000e+00,0.000000000000000000e+00,0.000000000000000000e+00,0.000000000000000000e+00,0.000000000000000000e+00
0.000000000000000000e+00,0.000000000000000000e+00,0.000000000000000000e+00,0.000000000000000000e+00,0.000000000000000000e+00,0.000000000000000000e+00,-5.477141930321750563e-01,-4.452974968783483534e-01,-4.452974968783483534e-01,-5.477141930321750563e-01,-3.289635921391639850e-01,-3.289635921391639850e-01,-1.841604986723153203e-01,0.000000000000000000e+00,-6.786830575792912601e-02,-9.368339497650329806e-02,-3.125601497277937235e-01,-4.811086431013922304e-02,-1.666010444629110188e-01,-2.292859661043341463e-02,-5.626245044766021719e-01,-5.647258562256987080e-01,-4.573915280426489316e-01,-3.416045319349273607e-02,-4.479878035148971982e-01,-1.510286683688526477e-01,-1.742751317382228160e-01,-1.688325468312317501e-01,-6.076570324460388584e-01,-5.819244964874563664e-01,-5.740689741265669888e-01,-3.289635921391639850e-01,-1.143832532573037936e-02,4.785594921878970343e-02,1.860406573651309306e-02,-1.868496567211417880e-01,-3.357045011559842695e-01,1.626888736089215221e-02,-1.818628115785264621e-01,-2.008448398808637125e-01,-4.801080103499322238e-01,-2.677982362570771047e-01,-6.023249026712937382e-02,-2.639712288794656136e-01,-8.559614737298515408e-02,-4.809320839990453844e-02,-2.029199153831271196e-01,-1.222237519084523466e-01,-2.905295031570787612e-01,-1.964200360254661215e-01,-2.738780451092717172e-01,-5.076543774647014340e-01,-6.537310050501696779e-01,-5.917774869111435132e-01,-3.193279552026150325e-01,-5.660830312421547550e-01,-5.740689741265669888e-01,-2.013838728164628333e-01,-2.155269757771688943e-01,-2.674805500985906193e-01,-2.741076375187693204e-01,-4.810275591121076361e-02,-5.977866225975667774e-02,-2.392411693124546768e-01,-2.725987008321100954e-02,-2.224507768902055926e-01,-6.013143980634871877e-01,-2.013838728164628333e-01,-1.529100292771762813e-02,-2.600095153264677106e-01,-1.606616298680499100e-01,-3.695217344120413361e-01,-2.169988640202908936e-01,-3.432623978998229908e-01,-2.029991914273198972e-01,-1.311104066558620163e-01,-3.695217344120413361e-01,-3.174017075289193857e-01,0.000000000000000000e+00,-3.597090484490953477e-01,-1.261653926238163470e-01,5.793062159179136056e-02,-5.955911471066859253e-01,-5.889551827067581735e-01,-5.572777512167321756e-01,-5.865751739500082440e-01,-2.567440739749171641e-01,3.216154117192441403e-02,-5.445791271238577952e-02,0.000000000000000000e+00,-2.398577812888972316e-01,-4.239751099616783092e-01,-1.143330045661427180e-01,-1.941526819037072693e-01,-2.508497435182295288e-01,0.000000000000000000e+00,-4.468690248544835431e-01,-5.477141930321750563e-01,-5.623581279003877498e-01,-3.386554854497040301e-01,0.000000000000000000e+00,0.000000000000000000e+00,-4.112050355458248263e-01,-2.979052878518685943e-01,1.011024573559308887e-01,6.251880986176454325e-02,0.000000000000000000e+00,-3.543215471092240332e-01,3.819266427356726723e-02,-2.319231267869925062e-01,-1.967068507461802174e-01,1.471973734873109341e-01,0.000000000000000000e+00,0.000000000000000000e+00,0.000000000000000000e+00,0.000000000000000000e+00,0.000000000000000000e+00,0.000000000000000000e+00,0.000000000000000000e+00,-2.547997820808299840e-01,0.000000000000000000e+00,0.000000000000000000e+00,0.000000000000000000e+00,0.000000000000000000e+00,0.000000000000000000e+00,0.000000000000000000e+00,-7.886292291541496802e-02,0.000000000000000000e+00,0.000000000000000000e+00,0.000000000000000000e+00,0.000000000000000000e+00,3.394949480334887026e-02,-1.467195570699726115e-01,0.000000000000000000e+00,-5.111993634386089586e-02,0.000000000000000000e+00,0.000000000000000000e+00,0.000000000000000000e+00,0.000000000000000000e+00,0.000000000000000000e+00,-2.176272173745645577e-01,-1.415993846125238043e-01,0.000000000000000000e+00,0.000000000000000000e+00,0.000000000000000000e+00,0.000000000000000000e+00,0.000000000000000000e+00,0.000000000000000000e+00,0.000000000000000000e+00,0.000000000000000000e+00,-2.013030063493243815e-01,0.000000000000000000e+00,0.000000000000000000e+00,0.000000000000000000e+00,0.000000000000000000e+00,0.000000000000000000e+00,0.000000000000000000e+00,0.000000000000000000e+00,0.000000000000000000e+00,0.000000000000000000e+00,0.000000000000000000e+00,0.000000000000000000e+00,0.000000000000000000e+00,0.000000000000000000e+00,-2.013030063493243815e-01,-2.988404999497367709e-01,2.221475265598402971e-01,4.163853397957108515e-01,0.000000000000000000e+00,1.594984644261998874e-01,0.000000000000000000e+00,0.000000000000000000e+00,0.000000000000000000e+00,0.000000000000000000e+00,0.000000000000000000e+00,0.000000000000000000e+00,0.000000000000000000e+00,0.000000000000000000e+00,0.000000000000000000e+00,0.000000000000000000e+00,0.000000000000000000e+00,0.000000000000000000e+00,-1.719466527676144496e-01,6.417481871698681173e-02,0.000000000000000000e+00,-3.695217344120413361e-01,0.000000000000000000e+00,0.000000000000000000e+00,0.000000000000000000e+00,0.000000000000000000e+00,0.000000000000000000e+00,0.000000000000000000e+00,0.000000000000000000e+00,2.276299341338109891e-02,-3.695217344120413361e-01,0.000000000000000000e+00,0.000000000000000000e+00,0.000000000000000000e+00,0.000000000000000000e+00,6.845735490656940092e-02,-4.838818575830670099e-01,-4.232331951590280195e-01,-3.868726984787940193e-01,-5.026188064542392864e-01,-5.457450025568443275e-01,-5.416905896360424411e-01,-2.652408858939798164e-01,-2.541611237602296458e-01,0.000000000000000000e+00,0.000000000000000000e+00,-7.497087498349588874e-02,0.000000000000000000e+00,0.000000000000000000e+00,0.000000000000000000e+00,0.000000000000000000e+00,0.000000000000000000e+00,0.000000000000000000e+00,0.000000000000000000e+00,0.000000000000000000e+00,0.000000000000000000e+00,0.000000000000000000e+00,0.000000000000000000e+00,-5.579617435544728110e-01,0.000000000000000000e+00,0.000000000000000000e+00,0.000000000000000000e+00,0.000000000000000000e+00,0.000000000000000000e+00,0.000000000000000000e+00,0.000000000000000000e+00,0.000000000000000000e+00,0.000000000000000000e+00,0.000000000000000000e+00,0.000000000000000000e+00,0.000000000000000000e+00,0.000000000000000000e+00,0.000000000000000000e+00,0.000000000000000000e+00,0.000000000000000000e+00,0.000000000000000000e+00
0.000000000000000000e+00,0.000000000000000000e+00,0.000000000000000000e+00,0.000000000000000000e+00,0.000000000000000000e+00,0.000000000000000000e+00,0.000000000000000000e+00,-5.579617435544728110e-01,-5.579617435544728110e-01,-5.579617435544728110e-01,-4.452974968783483534e-01,-4.452974968783483534e-01,-4.463176894108553672e-01,0.000000000000000000e+00,-3.200044032296374130e-01,-1.048368766401936436e-01,0.000000000000000000e+00,-3.374257548824007302e-01,-2.636280392328591571e-01,-5.008983632028543020e-01,-6.020560518788256044e-01,-5.639776473158921721e-01,-5.018134529076588857e-01,-3.839931862971565635e-02,-5.357679902259779858e-01,0.000000000000000000e+00,-2.699676069725538419e-01,-2.856203737221534311e-01,-6.719222532947621840e-01,-6.719222532947621840e-01,-6.470785326357784140e-01,-5.477141930321750563e-01,-2.541611237602296458e-01,0.000000000000000000e+00,-3.126198065382838620e-01,-4.345127035192688503e-01,0.000000000000000000e+00,0.000000000000000000e+00,-2.975050147073927120e-01,-4.030543989159151574e-01,-5.373215888442435251e-01,-4.133626719692276574e-01,-3.302210421609124702e-01,-3.803198927437690946e-01,-4.515374636855758461e-01,0.000000000000000000e+00,-4.739993722480382310e-01,-2.783969730876046378e-01,-4.506936862455375725e-01,-2.222979496605589356e-01,-5.436688429499290098e-01,-5.050342461246972725e-01,-3.893379648294327255e-01,-5.856090226591577075e-01,-5.599640556027302152e-01,-6.554368489763022776e-01,-6.470785326357784140e-01,-5.064776310531029502e-01,-5.428937982706047993e-01,-4.318656272453815781e-01,-3.063157355148766192e-01,-4.854939242216039785e-01,-3.281713883193823067e-01,-3.826050191078991802e-01,-1.018753668815105817e-01,-3.483106191552887698e-01,-6.549421830344834827e-01,-2.947714135738929708e-01,-1.599553320737536199e-01,-1.920508963958448279e-01,-5.446538263127627122e-01,-3.584966615680176827e-01,0.000000000000000000e+00,-4.054880062605107360e-01,-6.298417437231504934e-01,-3.900410348736946253e-01,-3.910382275868046764e-01,-5.019644879515547942e-01,0.000000000000000000e+00,-5.599640556027302152e-01,-5.095933384466572180e-01,0.000000000000000000e+00,-6.537310050501696779e-01,-6.554368489763022776e-01,-5.741615301102340752e-01,-6.423680502352557831e-01,-5.236161157895561358e-01,-5.019644879515547942e-01,0.000000000000000000e+00,0.000000000000000000e+00,-1.859064772505001906e-01,-4.532960623999634509e-01,-3.633733673418214072e-01,0.000000000000000000e+00,-4.676019990245936508e-01,-4.744715420742981471e-01,-5.579617435544728110e-01,-5.579617435544728110e-01,-6.195135376188970477e-01,-6.170183235149375722e-01,-3.928388848474774764e-01,0.000000000000000000e+00,-4.081844859639618406e-01,0.000000000000000000e+00,3.414351867231819049e-01,-5.019644879515547942e-01,-5.019644879515547942e-01,-5.019644879515547942e-01,-4.477832963966431601e-01,-5.579617435544728110e-01,0.000000000000000000e+00,0.000000000000000000e+00,0.000000000000000000e+00,0.000000000000000000e+00,0.000000000000000000e+00,0.000000000000000000e+00,0.000000000000000000e+00,0.000000000000000000e+00,0.000000000000000000e+00,0.000000000000000000e+00,0.000000000000000000e+00,0.000000000000000000e+00,0.000000000000000000e+00,0.000000000000000000e+00,0.000000000000000000e+00,0.000000000000000000e+00,0.000000000000000000e+00,0.000000000000000000e+00,0.000000000000000000e+00,0.000000000000000000e+00,0.000000000000000000e+00,0.000000000000000000e+00,0.000000000000000000e+00,0.000000000000000000e+00,-2.013030063493243815e-01,0.000000000000000000e+00,0.000000000000000000e+00,0.000000000000000000e+00,0.000000000000000000e+00,0.000000000000000000e+00,0.000000000000000000e+00,0.000000000000000000e+00,0.000000000000000000e+00,0.000000000000000000e+00,0.000000000000000000e+00,0.000000000000000000e+00,0.000000000000000000e+00,0.000000000000000000e+00,0.000000000000000000e+00,0.000000000000000000e+00,0.000000000000000000e+00,0.000000000000000000e+00,0.000000000000000000e+00,0.000000000000000000e+00,0.000000000000000000e+00,0.000000000000000000e+00,0.000000000000000000e+00,0.000000000000000000e+00,0.000000000000000000e+00,0.000000000000000000e+00,0.000000000000000000e+00,0.000000000000000000e+00,0.000000000000000000e+00,0.000000000000000000e+00,0.000000000000000000e+00,0.000000000000000000e+00,0.000000000000000000e+00,-5.932060721819078231e-02,0.000000000000000000e+00,0.000000000000000000e+00,0.000000000000000000e+00,0.000000000000000000e+00,0.000000000000000000e+00,0.000000000000000000e+00,0.000000000000000000e+00,0.000000000000000000e+00,0.000000000000000000e+00,0.000000000000000000e+00,0.000000000000000000e+00,0.000000000000000000e+00,0.000000000000000000e+00,0.000000000000000000e+00,0.000000000000000000e+00,0.000000000000000000e+00,0.000000000000000000e+00,0.000000000000000000e+00,0.000000000000000000e+00,0.000000000000000000e+00,0.000000000000000000e+00,0.000000000000000000e+00,0.000000000000000000e+00,0.000000000000000000e+00,-1.665857729469829296e-01,0.000000000000000000e+00,-5.579617435544728110e-01,0.000000000000000000e+00,0.000000000000000000e+00,3.414351867231819049e-01,0.000000000000000000e+00,-5.461566211998720305e-02,-4.488947842252071219e-01,-5.812471726852422860e-01,-4.587723092888785770e-01,-4.840260236667932592e-01,-6.298417437231504934e-01,-5.397932819082253975e-01,0.000000000000000000e+00,-4.670542695380557885e-01,0.000000000000000000e+00,2.037733052536110923e-01,0.000000000000000000e+00,0.000000000000000000e+00,0.000000000000000000e+00,0.000000000000000000e+00,-4.081844859639618406e-01,0.000000000000000000e+00,0.000000000000000000e+00,0.000000000000000000e+00,0.000000000000000000e+00,0.000000000000000000e+00,-4.883878794625630682e-01,0.000000000000000000e+00,-4.883878794625630682e-01,0.000000000000000000e+00,0.000000000000000000e+00,0.000000000000000000e+00,0.000000000000000000e+00,0.000000000000000000e+00,0.000000000000000000e+00,0.000000000000000000e+00,0.000000000000000000e+00,0.000000000000000000e+00,0.000000000000000000e+00,0.000000000000000000e+00,0.000000000000000000e+00,0.000000000000000000e+00,0.000000000000000000e+00,0.000000000000000000e+00,0.000000000000000000e+00,0.000000000000000000e+00
0.000000000000000000e+00,0.000000000000000000e+00,0.000000000000000000e+00,0.000000000000000000e+00,0.000000000000000000e+00,0.000000000000000000e+00,0.000000000000000000e+00,0.000000000000000000e+00,-5.579617435544728110e-01,-5.579617435544728110e-01,-5.064776310531029502e-01,-4.452974968783483534e-01,-5.019644879515547942e-01,0.000000000000000000e+00,0.000000000000000000e+00,0.000000000000000000e+00,0.000000000000000000e+00,-4.046334534554790197e-01,0.000000000000000000e+00,0.000000000000000000e+00,-6.309196231693399159e-01,-6.269872405097345336e-01,-5.185519988251250378e-01,0.000000000000000000e+00,-5.437161879365628447e-01,0.000000000000000000e+00,0.000000000000000000e+00,1.560923408511803168e-01,-5.789198933316513918e-01,-6.719222532947621840e-01,-6.470785326357784140e-01,-4.452974968783483534e-01,-2.541611237602296458e-01,0.000000000000000000e+00,0.000000000000000000e+00,-2.636438707336266063e-01,0.000000000000000000e+00,0.000000000000000000e+00,-3.360147304794475764e-01,0.000000000000000000e+00,-5.555775847204098561e-01,-4.012600712726245300e-01,-2.513791074296902184e-01,0.000000000000000000e+00,0.000000000000000000e+00,0.000000000000000000e+00,-1.268161675387931009e-01,-1.880328331012244836e-01,-5.088595012561143438e-01,0.000000000000000000e+00,-5.680039422385338987e-01,-5.219267569571746090e-01,0.000000000000000000e+00,-5.599640556027302152e-01,-3.959059830282879999e-01,-5.806653173935837353e-01,-6.470785326357784140e-01,0.000000000000000000e+00,-3.619507554545050021e-01,-5.337765265465647113e-01,-2.045355172408485078e-01,-4.079517852326358107e-01,-5.019644879515547942e-01,-2.576494827663688980e-01,-1.109178157965985678e-01,-2.565862048802363127e-01,-6.719222532947621840e-01,0.000000000000000000e+00,0.000000000000000000e+00,0.000000000000000000e+00,-2.683705573661988586e-01,-4.355633232322415616e-01,0.000000000000000000e+00,-4.484116314429612005e-01,-6.298417437231504934e-01,0.000000000000000000e+00,-5.579617435544728110e-01,0.000000000000000000e+00,0.000000000000000000e+00,-3.640185740955616533e-01,-2.195360353653877106e-01,0.000000000000000000e+00,-5.792185040089589121e-01,-6.554368489763022776e-01,-6.020560518788256044e-01,-6.433093679382700936e-01,-5.638817999755256771e-01,0.000000000000000000e+00,0.000000000000000000e+00,0.000000000000000000e+00,0.000000000000000000e+00,-4.575719748743550808e-01,0.000000000000000000e+00,0.000000000000000000e+00,0.000000000000000000e+00,-5.579617435544728110e-01,-5.579617435544728110e-01,-5.579617435544728110e-01,-6.287537905914764025e-01,-6.384975335895030080e-01,0.000000000000000000e+00,0.000000000000000000e+00,-5.019644879515547942e-01,-5.019644879515547942e-01,3.414351867231819049e-01,0.000000000000000000e+00,0.000000000000000000e+00,-5.019644879515547942e-01,-5.019644879515547942e-01,-4.477832963966431601e-01,0.000000000000000000e+00,0.000000000000000000e+00,0.000000000000000000e+00,0.000000000000000000e+00,0.000000000000000000e+00,0.000000000000000000e+00,0.000000000000000000e+00,0.000000000000000000e+00,0.000000000000000000e+00,0.000000000000000000e+00,0.000000000000000000e+00,0.000000000000000000e+00,0.000000000000000000e+00,0.000000000000000000e+00,0.000000000000000000e+00,0.000000000000000000e+00,0.000000000000000000e+00,0.000000000000000000e+00,0.000000000000000000e+00,0.000000000000000000e+00,0.000000000000000000e+00,-2.013030063493243815e-01,0.000000000000000000e+00,0.000000000000000000e+00,0.000000000000000000e+00,0.000000000000000000e+00,0.000000000000000000e+00,0.000000000000000000e+00,0.000000000000000000e+00,0.000000000000000000e+00,0.000000000000000000e+00,0.000000000000000000e+00,0.000000000000000000e+00,0.000000000000000000e+00,0.000000000000000000e+00,0.000000000000000000e+00,0.000000000000000000e+00,0.000000000000000000e+00,0.000000000000000000e+00,0.000000000000000000e+00,0.000000000000000000e+00,0.000000000000000000e+00,0.000000000000000000e+00,0.000000000000000000e+00,0.000000000000000000e+00,0.000000000000000000e+00,0.000000000000000000e+00,0.000000000000000000e+00,0.000000000000000000e+00,0.000000000000000000e+00,0.000000000000000000e+00,0.000000000000000000e+00,0.000000000000000000e+00,0.000000000000000000e+00,0.000000000000000000e+00,0.000000000000000000e+00,0.000000000000000000e+00,0.000000000000000000e+00,0.000000000000000000e+00,0.000000000000000000e+00,0.000000000000000000e+00,0.000000000000000000e+00,0.000000000000000000e+00,0.000000000000000000e+00,0.000000000000000000e+00,0.000000000000000000e+00,0.000000000000000000e+00,0.000000000000000000e+00,0.000000000000000000e+00,0.000000000000000000e+00,0.000000000000000000e+00,0.000000000000000000e+00,0.000000000000000000e+00,0.000000000000000000e+00,0.000000000000000000e+00,0.000000000000000000e+00,0.000000000000000000e+00,0.000000000000000000e+00,0.000000000000000000e+00,0.000000000000000000e+00,0.000000000000000000e+00,0.000000000000000000e+00,0.000000000000000000e+00,0.000000000000000000e+00,-5.019644879515547942e-01,0.000000000000000000e+00,0.000000000000000000e+00,0.000000000000000000e+00,0.000000000000000000e+00,0.000000000000000000e+00,-4.421856053616856075e-01,0.000000000000000000e+00,-5.026176058556625081e-01,-5.183026700742315862e-01,-6.537310050501696779e-01,-5.678002129273960197e-01,0.000000000000000000e+00,0.000000000000000000e+00,0.000000000000000000e+00,0.000000000000000000e+00,0.000000000000000000e+00,0.000000000000000000e+00,0.000000000000000000e+00,0.000000000000000000e+00,-4.883878794625630682e-01,0.000000000000000000e+00,0.000000000000000000e+00,0.000000000000000000e+00,0.000000000000000000e+00,0.000000000000000000e+00,-4.081844859639618406e-01,0.000000000000000000e+00,-4.883878794625630682e-01,0.000000000000000000e+00,0.000000000000000000e+00,0.000000000000000000e+00,0.000000000000000000e+00,0.000000000000000000e+00,0.000000000000000000e+00,0.000000000000000000e+00,0.000000000000000000e+00,0.000000000000000000e+00,0.000000000000000000e+00,0.000000000000000000e+00,0.000000000000000000e+00,0.000000000000000000e+00,0.000000000000000000e+00,0.000000000000000000e+00,0.000000000000000000e+00,0.000000000000000000e+00
0.000000000000000000e+00,0.000000000000000000e+00,0.000000000000000000e+00,0.000000000000000000e+00,0.000000000000000000e+00,0.000000000000000000e+00,0.000000000000000000e+00,0.000000000000000000e+00,0.000000000000000000e+00,-5.579617435544728110e-01,-5.064776310531029502e-01,-4.452974968783483534e-01,-3.941004735914613866e-01,0.000000000000000000e+00,0.000000000000000000e+00,-1.618614219363992413e-01,0.000000000000000000e+00,-3.190216525334359510e-01,0.000000000000000000e+00,0.000000000000000000e+00,-6.356992765622959674e-01,-6.309196231693399159e-01,-4.870493766672260860e-01,-2.940481359923269311e-01,-5.800629241933283886e-01,0.000000000000000000e+00,-2.996846882908147935e-01,0.000000000000000000e+00,-4.741423956379516302e-01,-6.719222532947621840e-01,-6.470785326357784140e-01,-4.744715420742981471e-01,-4.355633232322415616e-01,0.000000000000000000e+00,0.000000000000000000e+00,0.000000000000000000e+00,0.000000000000000000e+00,0.000000000000000000e+00,-3.494911758369634858e-01,0.000000000000000000e+00,-4.953119067696947209e-01,-4.587723092888785770e-01,-4.174803221778491391e-01,-2.705169035225241103e-01,0.000000000000000000e+00,0.000000000000000000e+00,-2.592416895170551738e-01,-3.353419859226846045e-01,-4.381030003863021216e-01,0.000000000000000000e+00,-3.166885944763900840e-01,-4.424087227892907759e-01,0.000000000000000000e+00,0.000000000000000000e+00,0.000000000000000000e+00,0.000000000000000000e+00,-6.470785326357784140e-01,-5.727411431915129247e-01,-2.988404999497367709e-01,-4.762315187241206171e-01,-3.957196666079241809e-01,-2.387755273865127259e-01,-3.737504852748618767e-01,-4.211004707108496059e-01,-2.330669852940466524e-01,-2.782045533051586417e-01,-6.537310050501696779e-01,0.000000000000000000e+00,0.000000000000000000e+00,0.000000000000000000e+00,-3.523163309709390068e-01,-3.677763103501088260e-01,0.000000000000000000e+00,-3.684861540802405466e-01,-6.056592683862749293e-01,-3.648851872601820978e-01,-5.579617435544728110e-01,0.000000000000000000e+00,0.000000000000000000e+00,-2.607191424331270491e-01,-1.949867926500102044e-01,0.000000000000000000e+00,-4.106210366567045189e-01,-5.274224895839434435e-01,-6.362853572167983529e-01,-6.287537905914764025e-01,-4.650519574897983843e-01,-3.887849930376444663e-01,-2.652408858939798164e-01,0.000000000000000000e+00,0.000000000000000000e+00,-4.312183821602052491e-01,-2.592416895170551738e-01,0.000000000000000000e+00,-3.453020577742457742e-01,-4.477832963966431601e-01,-5.579617435544728110e-01,-5.579617435544728110e-01,-6.309196231693399159e-01,-5.996766062024516675e-01,0.000000000000000000e+00,0.000000000000000000e+00,0.000000000000000000e+00,0.000000000000000000e+00,3.414351867231819049e-01,0.000000000000000000e+00,0.000000000000000000e+00,0.000000000000000000e+00,0.000000000000000000e+00,0.000000000000000000e+00,0.000000000000000000e+00,0.000000000000000000e+00,0.000000000000000000e+00,0.000000000000000000e+00,0.000000000000000000e+00,0.000000000000000000e+00,0.000000000000000000e+00,0.000000000000000000e+00,0.000000000000000000e+00,0.000000000000000000e+00,0.000000000000000000e+00,0.000000000000000000e+00,0.000000000000000000e+00,0.000000000000000000e+00,0.000000000000000000e+00,0.000000000000000000e+00,0.000000000000000000e+00,0.000000000000000000e+00,0.000000000000000000e+00,0.000000000000000000e+00,0.000000000000000000e+00,0.000000000000000000e+00,1.003837433812001106e-01,0.000000000000000000e+00,0.000000000000000000e+00,0.000000000000000000e+00,0.000000000000000000e+00,0.000000000000000000e+00,0.000000000000000000e+00,0.000000000000000000e+00,2.428700768649849073e-01,0.000000000000000000e+00,0.000000000000000000e+00,0.000000000000000000e+00,0.000000000000000000e+00,0.000000000000000000e+00,0.000000000000000000e+00,0.000000000000000000e+00,0.000000000000000000e+00,0.000000000000000000e+00,0.000000000000000000e+00,0.000000000000000000e+00,0.000000000000000000e+00,0.000000000000000000e+00,0.000000000000000000e+00,0.000000000000000000e+00,0.000000000000000000e+00,0.000000000000000000e+00,0.000000000000000000e+00,0.000000000000000000e+00,0.000000000000000000e+00,0.000000000000000000e+00,0.000000000000000000e+00,0.000000000000000000e+00,0.000000000000000000e+00,0.000000000000000000e+00,0.000000000000000000e+00,0.000000000000000000e+00,0.000000000000000000e+00,0.000000000000000000e+00,0.000000000000000000e+00,0.000000000000000000e+00,0.000000000000000000e+00,0.000000000000000000e+00,0.000000000000000000e+00,0.000000000000000000e+00,0.000000000000000000e+00,0.000000000000000000e+00,0.000000000000000000e+00,0.000000000000000000e+00,0.000000000000000000e+00,0.000000000000000000e+00,0.000000000000000000e+00,0.000000000000000000e+00,0.000000000000000000e+00,0.000000000000000000e+00,0.000000000000000000e+00,0.000000000000000000e+00,0.000000000000000000e+00,0.000000000000000000e+00,0.000000000000000000e+00,0.000000000000000000e+00,0.000000000000000000e+00,0.000000000000000000e+00,0.000000000000000000e+00,0.000000000000000000e+00,0.000000000000000000e+00,0.000000000000000000e+00,0.000000000000000000e+00,0.000000000000000000e+00,-4.729404927783805723e-01,-4.669617294259737483e-01,-3.710906396176378852e-01,-2.458713567737590977e-01,-4.874061333846220201e-01,-5.201183212137020506e-01,-2.675716414080940297e-01,0.000000000000000000e+00,0.000000000000000000e+00,0.000000000000000000e+00,0.000000000000000000e+00,0.000000000000000000e+00,0.000000000000000000e+00,0.000000000000000000e+00,0.000000000000000000e+00,0.000000000000000000e+00,0.000000000000000000e+00,0.000000000000000000e+00,0.000000000000000000e+00,0.000000000000000000e+00,-4.883878794625630682e-01,0.000000000000000000e+00,-4.081844859639618406e-01,0.000000000000000000e+00,0.000000000000000000e+00,0.000000000000000000e+00,0.000000000000000000e+00,0.000000000000000000e+00,0.000000000000000000e+00,0.000000000000000000e+00,0.000000000000000000e+00,0.000000000000000000e+00,0.000000000000000000e+00,0.000000000000000000e+00,0.000000000000000000e+00,0.000000000000000000e+00,0.000000000000000000e+00,0.000000000000000000e+00,0.000000000000000000e+00,0.000000000000000000e+00
0.000000000000000000e+00,0.000000000000000000e+00,0.000000000000000000e+00,0.000000000000000000e+00,0.000000000000000000e+00,0.000000000000000000e+00,0.000000000000000000e+00,0.000000000000000000e+00,0.000000000000000000e+00,0.000000000000000000e+00,-4.452974968783483534e-01,-4.452974968783483534e-01,-3.384827047724964233e-01,2.274424553929611237e-01,-2.903528432332103115e-01,-1.797223510483488274e-01,-4.374426986542196416e-01,-3.462188669924979867e-01,-2.293310818597668055e-01,-1.555789281558286052e-01,-6.020560518788256044e-01,-5.647258562256987080e-01,-4.880555155476811180e-01,-1.445076879081547416e-01,-5.357679902259779858e-01,-2.264657794929203771e-01,-2.543460358486192008e-01,-1.858401021406964615e-01,-5.789198933316513918e-01,-6.719222532947621840e-01,-6.186708443811534952e-01,-4.485827386490174318e-01,-2.319231267869925062e-01,1.626888736089215221e-02,-1.481735168297693417e-01,-3.889803391858148163e-01,-3.125601497277937235e-01,-2.864881148863888671e-01,-2.089469303464178140e-01,-2.034174248184484335e-01,-4.650042605438617915e-01,-3.863237070824735442e-01,-1.601085131012401075e-01,-3.781441396527098764e-01,-2.676414310383322115e-01,0.000000000000000000e+00,-3.066081076778030545e-01,-6.524910784938210695e-02,-3.560251467884663623e-01,-3.693192300054750077e-01,-5.163425712143598911e-01,-5.245023366888986738e-01,-5.311109023559703601e-01,-5.904099173334923512e-01,-6.537310050501696779e-01,-6.433093679382700936e-01,-6.719222532947621840e-01,-4.988307080325140030e-01,-4.478886677094301438e-01,-4.535418159531955928e-01,-4.503305184279192686e-01,-1.993345610675521795e-01,-2.490083408621991123e-01,-2.261573455508353314e-01,-3.166522196825575231e-01,-3.308671879390864823e-01,-6.470785326357784140e-01,-2.988404999497367709e-01,-1.910058061095756543e-01,-3.962725636461549295e-01,-3.397291585048909934e-01,-3.289635921391639850e-01,-2.319231267869925062e-01,-5.347060394093662294e-01,-4.988307080325140030e-01,-2.738515817995793022e-01,-3.289635921391639850e-01,-3.933678941286808395e-01,0.000000000000000000e+00,-4.652581549557460727e-01,-4.535865001321291445e-01,-4.756888109055304459e-01,-5.752821073316107814e-01,-6.554368489763022776e-01,-5.491852408291409970e-01,-6.186224030342712954e-01,-4.311971131350619824e-01,0.000000000000000000e+00,0.000000000000000000e+00,-5.044010386442974170e-01,0.000000000000000000e+00,-4.689894822727128654e-01,-2.381414992364642158e-01,0.000000000000000000e+00,-2.480779088127779974e-01,-4.485827386490174318e-01,-3.543215471092240332e-01,-6.537310050501696779e-01,-6.269872405097345336e-01,-5.996766062024516675e-01,-3.582773723488367756e-01,0.000000000000000000e+00,-5.019644879515547942e-01,3.128374697768221413e-02,2.053651777340710638e-01,1.003837433812001106e-01,-2.013030063493243815e-01,-4.477832963966431601e-01,-1.610428614375213063e-01,-2.013030063493243815e-01,7.852394404634990832e-03,0.000000000000000000e+00,0.000000000000000000e+00,4.671865191096023079e-02,0.000000000000000000e+00,5.174843361450099516e-02,0.000000000000000000e+00,0.000000000000000000e+00,0.000000000000000000e+00,0.000000000000000000e+00,0.000000000000000000e+00,0.000000000000000000e+00,0.000000000000000000e+00,4.163853397957108515e-01,-2.368662052515322358e-01,3.079301478084176535e-01,-3.336762859025867445e-01,0.000000000000000000e+00,0.000000000000000000e+00,0.000000000000000000e+00,0.000000000000000000e+00,2.229434731466797825e-01,2.294450383842627436e-02,0.000000000000000000e+00,0.000000000000000000e+00,0.000000000000000000e+00,-2.993852988561722106e-01,-9.250863813958638826e-02,0.000000000000000000e+00,0.000000000000000000e+00,2.818879872477377257e-01,-3.582773723488367756e-01,-2.360157314434913889e-01,3.407365743242011247e-01,4.163853397957108515e-01,0.000000000000000000e+00,0.000000000000000000e+00,0.000000000000000000e+00,0.000000000000000000e+00,0.000000000000000000e+00,0.000000000000000000e+00,0.000000000000000000e+00,0.000000000000000000e+00,0.000000000000000000e+00,0.000000000000000000e+00,0.000000000000000000e+00,0.000000000000000000e+00,0.000000000000000000e+00,0.000000000000000000e+00,0.000000000000000000e+00,0.000000000000000000e+00,0.000000000000000000e+00,0.000000000000000000e+00,0.000000000000000000e+00,3.385669146323398021e-02,0.000000000000000000e+00,0.000000000000000000e+00,0.000000000000000000e+00,-2.993852988561722106e-01,0.000000000000000000e+00,0.000000000000000000e+00,0.000000000000000000e+00,0.000000000000000000e+00,0.000000000000000000e+00,0.000000000000000000e+00,0.000000000000000000e+00,0.000000000000000000e+00,0.000000000000000000e+00,0.000000000000000000e+00,-1.363116202302962487e-01,-2.013030063493243815e-01,0.000000000000000000e+00,-4.477832963966431601e-01,1.088050075701641611e-01,0.000000000000000000e+00,0.000000000000000000e+00,0.000000000000000000e+00,0.000000000000000000e+00,0.000000000000000000e+00,0.000000000000000000e+00,0.000000000000000000e+00,0.000000000000000000e+00,0.000000000000000000e+00,-1.977953914355588538e-01,-1.898212570468548466e-01,0.000000000000000000e+00,0.000000000000000000e+00,0.000000000000000000e+00,1.196544052355001247e-01,-2.644973703612439331e-01,-4.488947842252071219e-01,-4.378998046446920256e-01,-4.286736465444777044e-01,-5.295908021299162716e-01,-5.895259823284729750e-01,-5.508057679023042885e-01,-4.616572244727836227e-01,0.000000000000000000e+00,0.000000000000000000e+00,-3.211151126088980234e-01,0.000000000000000000e+00,0.000000000000000000e+00,0.000000000000000000e+00,0.000000000000000000e+00,-5.579617435544728110e-01,0.000000000000000000e+00,0.000000000000000000e+00,0.000000000000000000e+00,0.000000000000000000e+00,0.000000000000000000e+00,-4.148111585579352667e-01,0.000000000000000000e+00,-4.883878794625630682e-01,0.000000000000000000e+00,0.000000000000000000e+00,0.000000000000000000e+00,0.000000000000000000e+00,0.000000000000000000e+00,0.000000000000000000e+00,0.000000000000000000e+00,0.000000000000000000e+00,0.000000000000000000e+00,0.000000000000000000e+00,0.000000000000000000e+00,0.000000000000000000e+00,-2.242228448861253443e-01,0.000000000000000000e+00,0.000000000000000000e+00,0.000000000000000000e+00,0.000000000000000000e+00
0.000000000000000000e+00,0.000000000000000000e+00,0.000000000000000000e+00,0.000000000000000000e+00,0.000000000000000000e+00,0.000000000000000000e+00,0.000000000000000000e+00,0.000000000000000000e+00,0.000000000000000000e+00,0.000000000000000000e+00,0.000000000000000000e+00,-3.289635921391639850e-01,-2.281449060847683397e-01,-7.330224950004859963e-02,-1.413106868715191880e-02,-4.362995794048581122e-02,-3.270462571592663847e-01,-3.256603779570705487e-02,-2.120743827914214064e-01,-1.815773452833994717e-01,-4.787625225145651364e-01,-5.060556235624513732e-01,-3.833355711048823666e-01,-9.422513670639147410e-02,-3.766287070601447295e-01,-1.432521159108055830e-01,-2.773266861874632699e-02,-4.428616878906692367e-02,-5.064776310531029502e-01,-5.409112176041259712e-01,-4.589238984569680158e-01,-1.797928831621996015e-01,-2.541611237602296458e-01,-1.797928831621996015e-01,-1.710683594637655291e-01,-3.590523461380711323e-01,-3.270462571592663847e-01,-3.125601497277937235e-01,-3.920545251825355987e-02,-3.942158531304090080e-02,-3.908048218051295986e-01,-3.866197156349981401e-01,-1.192076959338203707e-01,-3.196749162027338054e-01,-2.150169085969561300e-01,0.000000000000000000e+00,-1.963162431343205561e-01,-8.168775364805047623e-02,-1.137934217950781479e-01,-4.079713216231805467e-02,-3.252325264584347009e-01,-3.740699332935443211e-01,-5.019644879515547942e-01,0.000000000000000000e+00,0.000000000000000000e+00,-4.050240692617119165e-01,-5.206698033316461416e-01,-1.797928831621996015e-01,-4.040332844496105080e-01,-3.251504275613750772e-01,-3.772418689626817062e-02,-3.112780198340707807e-02,-1.256988726579401916e-01,-2.174747534981682773e-01,-1.254174680676037323e-01,-1.490926873802064512e-01,-5.206698033316461416e-01,0.000000000000000000e+00,0.000000000000000000e+00,-4.782195249598945874e-02,-1.972204625800475231e-01,-2.319231267869925062e-01,-2.541611237602296458e-01,-3.768143524384294230e-01,-2.013838728164628333e-01,-2.009487300935365872e-01,-2.988404999497367709e-01,-2.988404999497367709e-01,0.000000000000000000e+00,2.196895374720279071e-01,-5.224027400290831569e-02,2.245351863646426974e-03,-5.449937740976084077e-01,-4.543617393183436159e-01,-5.031231755424425689e-01,-5.945901930193726592e-01,-4.375656352804989102e-01,1.172248961363115266e-01,2.692920727942383144e-02,-1.786313314151366793e-01,-1.913411623876060952e-01,-4.373549534789801241e-01,1.188438964424670119e-01,0.000000000000000000e+00,1.020171044965057366e-01,-2.319231267869925062e-01,-2.319231267869925062e-01,-6.537310050501696779e-01,-5.199437647809855845e-01,-5.201200847794649196e-01,0.000000000000000000e+00,-2.013030063493243815e-01,-3.677763103501088260e-01,-2.988404999497367709e-01,2.742583169860016157e-01,7.228512560609094695e-02,0.000000000000000000e+00,-2.988404999497367709e-01,-1.325500282442531631e-02,-2.319231267869925062e-01,-5.299449957578648146e-02,0.000000000000000000e+00,0.000000000000000000e+00,0.000000000000000000e+00,0.000000000000000000e+00,0.000000000000000000e+00,0.000000000000000000e+00,0.000000000000000000e+00,0.000000000000000000e+00,-1.352868428999470518e-01,0.000000000000000000e+00,0.000000000000000000e+00,0.000000000000000000e+00,0.000000000000000000e+00,4.163853397957108515e-01,0.000000000000000000e+00,0.000000000000000000e+00,0.000000000000000000e+00,0.000000000000000000e+00,-2.812259174927479455e-01,0.000000000000000000e+00,-5.583263010728374554e-02,7.228512560609094695e-02,0.000000000000000000e+00,0.000000000000000000e+00,0.000000000000000000e+00,3.937105504613304108e-01,0.000000000000000000e+00,0.000000000000000000e+00,0.000000000000000000e+00,5.154084530385889817e-02,1.824788768489697954e-01,0.000000000000000000e+00,0.000000000000000000e+00,-5.461566211998720305e-02,0.000000000000000000e+00,0.000000000000000000e+00,0.000000000000000000e+00,0.000000000000000000e+00,0.000000000000000000e+00,0.000000000000000000e+00,0.000000000000000000e+00,0.000000000000000000e+00,0.000000000000000000e+00,0.000000000000000000e+00,0.000000000000000000e+00,0.000000000000000000e+00,0.000000000000000000e+00,0.000000000000000000e+00,0.000000000000000000e+00,0.000000000000000000e+00,0.000000000000000000e+00,0.000000000000000000e+00,0.000000000000000000e+00,-2.013030063493243815e-01,0.000000000000000000e+00,0.000000000000000000e+00,-2.993852988561722106e-01,0.000000000000000000e+00,-7.418063841648699086e-02,0.000000000000000000e+00,0.000000000000000000e+00,0.000000000000000000e+00,0.000000000000000000e+00,0.000000000000000000e+00,0.000000000000000000e+00,0.000000000000000000e+00,0.000000000000000000e+00,0.000000000000000000e+00,0.000000000000000000e+00,0.000000000000000000e+00,0.000000000000000000e+00,-2.988404999497367709e-01,1.456835111950831319e-02,0.000000000000000000e+00,-2.988404999497367709e-01,0.000000000000000000e+00,0.000000000000000000e+00,0.000000000000000000e+00,0.000000000000000000e+00,0.000000000000000000e+00,0.000000000000000000e+00,0.000000000000000000e+00,1.456835111950831319e-02,-2.988404999497367709e-01,0.000000000000000000e+00,0.000000000000000000e+00,0.000000000000000000e+00,0.000000000000000000e+00,9.683968270084257479e-02,-4.359286281363162763e-01,-3.639233827294096613e-01,-1.957953615588868268e-01,-4.318231587199158339e-01,-4.452974968783483534e-01,-4.994570155062512673e-01,-1.634805525250123126e-01,-2.319231267869925062e-01,0.000000000000000000e+00,0.000000000000000000e+00,0.000000000000000000e+00,0.000000000000000000e+00,0.000000000000000000e+00,0.000000000000000000e+00,0.000000000000000000e+00,0.000000000000000000e+00,0.000000000000000000e+00,0.000000000000000000e+00,0.000000000000000000e+00,0.000000000000000000e+00,0.000000000000000000e+00,0.000000000000000000e+00,-4.355633232322415616e-01,0.000000000000000000e+00,0.000000000000000000e+00,0.000000000000000000e+00,0.000000000000000000e+00,0.000000000000000000e+00,0.000000000000000000e+00,0.000000000000000000e+00,0.000000000000000000e+00,0.000000000000000000e+00,0.000000000000000000e+00,0.000000000000000000e+00,0.000000000000000000e+00,0.000000000000000000e+00,0.000000000000000000e+00,0.000000000000000000e+00,0.000000000000000000e+00,0.000000000000000000e+00
0.000000000000000000e+00,0.000000000000000000e+00,0.000000000000000000e+00,0.000000000000000000e+00,0.000000000000000000e+00,0.000000000000000000e+00,0.000000000000000000e+00,0.000000000000000000e+00,0.000000000000000000e+00,0.000000000000000000e+00,0.000000000000000000e+00,0.000000000000000000e+00,-2.353660777492296019e-01,-2.358911641804447012e-01,-1.610268316025920410e-01,-1.886535594924030057e-01,-3.270462571592663847e-01,-1.364641756203173184e-01,-2.599422896376494263e-01,-1.815773452833994717e-01,-5.626245044766021719e-01,-5.647258562256987080e-01,-3.577758741253179720e-01,2.017616734084649033e-01,-5.094496735253856157e-01,-3.222222075013582709e-01,-1.120486503316720506e-01,-7.665481803992889309e-02,-4.744715420742981471e-01,-4.865534205555425151e-01,-6.076570324460388584e-01,-3.289635921391639850e-01,-2.541611237602296458e-01,-1.126135412815875703e-01,-1.332469094397389919e-01,-2.784976614027567243e-01,-3.125601497277937235e-01,-1.797928831621996015e-01,-2.469369908006412984e-01,-1.356906076891744584e-01,-4.986985172550211787e-01,-4.037930888574930433e-01,-1.179009772246361332e-01,-2.639712288794656136e-01,-2.025773644898048453e-01,0.000000000000000000e+00,-2.321584938586750690e-01,-1.706938766813193009e-01,-3.837604562032388422e-01,-1.786313314151366793e-01,-3.394400573952331412e-01,-3.989705125947905495e-01,-4.106210366567045189e-01,-5.454392938630853171e-01,-5.326824303321054943e-01,-6.076570324460388584e-01,-6.470785326357784140e-01,0.000000000000000000e+00,-4.765696867933369996e-01,-4.008834590716927049e-01,-2.025114140307797128e-01,-1.393860551568620598e-01,-1.217484942632330036e-01,-1.997171715844636153e-01,-1.837014676470324348e-01,-1.956693183171821226e-01,-6.076570324460388584e-01,-5.082230551150355158e-01,-8.415844039515882336e-02,-2.600625931493748960e-02,-2.162202952995936900e-01,-2.541611237602296458e-01,-2.541611237602296458e-01,-3.644924980972476525e-01,-4.468690248544835431e-01,-1.713868154606081051e-01,-2.760428032376081031e-01,-3.479520385755420775e-01,-2.541611237602296458e-01,-2.653650958032212070e-01,-3.398912164563072102e-01,-2.401769202591897967e-01,-5.286566480479196750e-01,-6.086984282368439469e-01,-5.572777512167321756e-01,-5.945901930193726592e-01,-3.088880423673656672e-01,1.771500186832758728e-01,-1.374714695314556145e-01,0.000000000000000000e+00,-1.516664698281199319e-01,-4.317101491125505119e-01,-2.222979496605589356e-01,0.000000000000000000e+00,-2.019318976597831994e-01,-3.289635921391639850e-01,-3.289635921391639850e-01,-4.804070621959466436e-01,-5.703195251182900938e-01,-5.094496735253856157e-01,2.172561406038294729e-01,-2.013030063493243815e-01,-4.355633232322415616e-01,0.000000000000000000e+00,-1.774599124141029161e-01,-6.981778901088742106e-02,0.000000000000000000e+00,-4.477832963966431601e-01,-4.008489548029182670e-01,-3.289635921391639850e-01,-2.473309349123432310e-01,0.000000000000000000e+00,0.000000000000000000e+00,0.000000000000000000e+00,0.000000000000000000e+00,0.000000000000000000e+00,0.000000000000000000e+00,2.551099709828961726e-01,0.000000000000000000e+00,-4.187421384769272059e-01,0.000000000000000000e+00,0.000000000000000000e+00,0.000000000000000000e+00,0.000000000000000000e+00,0.000000000000000000e+00,0.000000000000000000e+00,0.000000000000000000e+00,0.000000000000000000e+00,0.000000000000000000e+00,0.000000000000000000e+00,0.000000000000000000e+00,-5.461566211998720305e-02,7.628315110147851352e-02,0.000000000000000000e+00,0.000000000000000000e+00,0.000000000000000000e+00,0.000000000000000000e+00,0.000000000000000000e+00,0.000000000000000000e+00,0.000000000000000000e+00,1.889271852298258225e-01,-1.425797024697393334e-01,0.000000000000000000e+00,0.000000000000000000e+00,0.000000000000000000e+00,0.000000000000000000e+00,0.000000000000000000e+00,0.000000000000000000e+00,0.000000000000000000e+00,0.000000000000000000e+00,0.000000000000000000e+00,0.000000000000000000e+00,0.000000000000000000e+00,0.000000000000000000e+00,0.000000000000000000e+00,0.000000000000000000e+00,0.000000000000000000e+00,0.000000000000000000e+00,0.000000000000000000e+00,0.000000000000000000e+00,0.000000000000000000e+00,0.000000000000000000e+00,0.000000000000000000e+00,0.000000000000000000e+00,-4.477832963966431601e-01,3.191194872219554335e-01,0.000000000000000000e+00,-2.641897169512610888e-01,0.000000000000000000e+00,0.000000000000000000e+00,0.000000000000000000e+00,0.000000000000000000e+00,0.000000000000000000e+00,0.000000000000000000e+00,0.000000000000000000e+00,0.000000000000000000e+00,0.000000000000000000e+00,0.000000000000000000e+00,0.000000000000000000e+00,0.000000000000000000e+00,0.000000000000000000e+00,0.000000000000000000e+00,-2.541611237602296458e-01,3.717166127828372968e-01,0.000000000000000000e+00,-3.910382275868046764e-01,0.000000000000000000e+00,0.000000000000000000e+00,0.000000000000000000e+00,0.000000000000000000e+00,4.163853397957108515e-01,0.000000000000000000e+00,0.000000000000000000e+00,2.294450383842627436e-02,-3.289635921391639850e-01,0.000000000000000000e+00,3.691979516909847381e-01,0.000000000000000000e+00,0.000000000000000000e+00,0.000000000000000000e+00,-4.599707444963092029e-01,-2.282355247791978958e-01,-4.359472929438425459e-01,-4.792914363109150866e-01,-5.480857920652906223e-01,-4.490786950330029614e-01,0.000000000000000000e+00,0.000000000000000000e+00,0.000000000000000000e+00,0.000000000000000000e+00,0.000000000000000000e+00,-2.319231267869925062e-01,3.992739856178273983e-01,0.000000000000000000e+00,-4.081844859639618406e-01,0.000000000000000000e+00,0.000000000000000000e+00,0.000000000000000000e+00,0.000000000000000000e+00,0.000000000000000000e+00,0.000000000000000000e+00,0.000000000000000000e+00,-4.883878794625630682e-01,0.000000000000000000e+00,0.000000000000000000e+00,0.000000000000000000e+00,0.000000000000000000e+00,0.000000000000000000e+00,0.000000000000000000e+00,0.000000000000000000e+00,0.000000000000000000e+00,0.000000000000000000e+00,0.000000000000000000e+00,0.000000000000000000e+00,-4.477832963966431601e-01,0.000000000000000000e+00,0.000000000000000000e+00,0.000000000000000000e+00,0.000000000000000000e+00,0.000000000000000000e+00
0.000000000000000000e+00,0.000000000000000000e+00,0.000000000000000000e+00,0.000000000000000000e+00,0.000000000000000000e+00,0.000000000000000000e+00,0.000000000000000000e+00,0.000000000000000000e+00,0.000000000000000000e+00,0.000000000000000000e+00,0.000000000000000000e+00,0.000000000000000000e+00,0.000000000000000000e+00,2.435840855015715053e-02,1.322146650466516637e-01,1.780380403241785536e-01,-1.076610817738234416e-01,2.460156028195661926e-01,-4.904368279649536089e-02,-4.904368279649536089e-02,0.000000000000000000e+00,-3.098991764897374157e-01,-1.121730225515065738e-01,-3.612211406028963123e-02,-1.204760795639911843e-03,5.128167998633181845e-02,1.057222049109663026e-01,2.150150044840912211e-01,3.313523579100228350e-02,0.000000000000000000e+00,-1.807309041117567683e-01,-9.596576791694991226e-02,-8.826676735363854498e-02,-1.710732565954127815e-01,1.650061088981183144e-01,7.165765185059441711e-02,-4.904368279649536089e-02,-7.147312174454681366e-02,2.584267147047202284e-01,4.077433402396635209e-02,-1.207164061667620608e-01,-9.855925081766098161e-02,-5.696525342292164257e-02,-4.904368279649536089e-02,1.409775303864526930e-01,1.026099977812984926e-01,-7.062184641300232879e-02,1.863828945923713398e-01,-1.241688331442738907e-01,1.409775303864526930e-01,0.000000000000000000e+00,7.940267657847502325e-02,0.000000000000000000e+00,0.000000000000000000e+00,0.000000000000000000e+00,0.000000000000000000e+00,0.000000000000000000e+00,-1.149161305236229419e-01,-8.540593669390461606e-02,-1.165144106619157016e-01,1.577003774855074703e-01,8.665603387251761061e-04,9.716673790156861445e-02,9.667743078208027030e-02,7.714433387481513249e-02,0.000000000000000000e+00,0.000000000000000000e+00,0.000000000000000000e+00,0.000000000000000000e+00,-1.732167534645617513e-01,1.409775303864526930e-01,-4.081037088928964052e-02,1.958356145759978725e-02,0.000000000000000000e+00,-2.636438707336266063e-01,1.409775303864526930e-01,-1.232276965703879984e-01,1.505865381618635701e-01,-3.857429452252508079e-02,-7.613135697638008514e-02,1.694466659967425737e-01,1.409775303864526930e-01,0.000000000000000000e+00,0.000000000000000000e+00,0.000000000000000000e+00,0.000000000000000000e+00,0.000000000000000000e+00,1.409775303864526930e-01,1.409775303864526930e-01,1.409775303864526930e-01,1.672519616485370619e-01,-1.118905774627362848e-01,-1.476299171027692647e-01,-1.994220636356624013e-02,-5.306864287085296186e-03,-1.317886442264867286e-01,-2.078464860411609050e-01,-4.327497427155637677e-01,-2.924371289108623762e-01,-3.198933442563928753e-01,0.000000000000000000e+00,0.000000000000000000e+00,0.000000000000000000e+00,0.000000000000000000e+00,0.000000000000000000e+00,0.000000000000000000e+00,0.000000000000000000e+00,0.000000000000000000e+00,0.000000000000000000e+00,0.000000000000000000e+00,0.000000000000000000e+00,0.000000000000000000e+00,0.000000000000000000e+00,0.000000000000000000e+00,0.000000000000000000e+00,0.000000000000000000e+00,0.000000000000000000e+00,0.000000000000000000e+00,0.000000000000000000e+00,0.000000000000000000e+00,0.000000000000000000e+00,0.000000000000000000e+00,0.000000000000000000e+00,0.000000000000000000e+00,0.000000000000000000e+00,0.000000000000000000e+00,0.000000000000000000e+00,0.000000000000000000e+00,0.000000000000000000e+00,0.000000000000000000e+00,0.000000000000000000e+00,0.000000000000000000e+00,0.000000000000000000e+00,0.000000000000000000e+00,0.000000000000000000e+00,0.000000000000000000e+00,0.000000000000000000e+00,0.000000000000000000e+00,0.000000000000000000e+00,0.000000000000000000e+00,0.000000000000000000e+00,0.000000000000000000e+00,0.000000000000000000e+00,0.000000000000000000e+00,0.000000000000000000e+00,0.000000000000000000e+00,0.000000000000000000e+00,0.000000000000000000e+00,0.000000000000000000e+00,0.000000000000000000e+00,0.000000000000000000e+00,0.000000000000000000e+00,0.000000000000000000e+00,0.000000000000000000e+00,0.000000000000000000e+00,0.000000000000000000e+00,0.000000000000000000e+00,0.000000000000000000e+00,0.000000000000000000e+00,0.000000000000000000e+00,0.000000000000000000e+00,0.000000000000000000e+00,0.000000000000000000e+00,0.000000000000000000e+00,0.000000000000000000e+00,0.000000000000000000e+00,0.000000000000000000e+00,0.000000000000000000e+00,0.000000000000000000e+00,0.000000000000000000e+00,0.000000000000000000e+00,0.000000000000000000e+00,0.000000000000000000e+00,0.000000000000000000e+00,0.000000000000000000e+00,0.000000000000000000e+00,0.000000000000000000e+00,0.000000000000000000e+00,0.000000000000000000e+00,0.000000000000000000e+00,0.000000000000000000e+00,0.000000000000000000e+00,0.000000000000000000e+00,0.000000000000000000e+00,0.000000000000000000e+00,0.000000000000000000e+00,0.000000000000000000e+00,0.000000000000000000e+00,0.000000000000000000e+00,0.000000000000000000e+00,0.000000000000000000e+00,0.000000000000000000e+00,0.000000000000000000e+00,0.000000000000000000e+00,-1.849556844241924680e-01,0.000000000000000000e+00,-2.572556700115387618e-01,0.000000000000000000e+00,0.000000000000000000e+00,0.000000000000000000e+00,-1.734543300875784622e-01,4.901374000686363475e-02,-3.404420613441666577e-02,-2.264157826066154067e-01,-3.100664642779509261e-01,-2.197678726792116066e-01,0.000000000000000000e+00,0.000000000000000000e+00,0.000000000000000000e+00,0.000000000000000000e+00,0.000000000000000000e+00,0.000000000000000000e+00,0.000000000000000000e+00,0.000000000000000000e+00,0.000000000000000000e+00,0.000000000000000000e+00,0.000000000000000000e+00,0.000000000000000000e+00,0.000000000000000000e+00,0.000000000000000000e+00,-2.652408858939798164e-01,0.000000000000000000e+00,0.000000000000000000e+00,0.000000000000000000e+00,0.000000000000000000e+00,0.000000000000000000e+00,0.000000000000000000e+00,0.000000000000000000e+00,0.000000000000000000e+00,0.000000000000000000e+00,0.000000000000000000e+00,0.000000000000000000e+00,0.000000000000000000e+00,0.000000000000000000e+00,0.000000000000000000e+00,0.000000000000000000e+00,0.000000000000000000e+00,0.000000000000000000e+00,0.000000000000000000e+00,0.000000000000000000e+00
0.000000000000000000e+00,0.000000000000000000e+00,0.000000000000000000e+00,0.000000000000000000e+00,0.000000000000000000e+00,0.000000000000000000e+00,0.000000000000000000e+00,0.000000000000000000e+00,0.000000000000000000e+00,0.000000000000000000e+00,0.000000000000000000e+00,0.000000000000000000e+00,0.000000000000000000e+00,0.000000000000000000e+00,8.189856635850679967e-02,1.120323972122147654e-01,4.379482400086918276e-02,9.112149665510675678e-02,-7.906503983067812713e-02,4.379482400086918276e-02,0.000000000000000000e+00,3.190640543718977623e-02,1.107559571570885248e-01,2.182517883812998549e-01,-8.312055355583197747e-02,-2.250495642614343261e-02,7.868898348873509807e-02,7.674230454445835070e-02,0.000000000000000000e+00,0.000000000000000000e+00,0.000000000000000000e+00,8.238065979471655143e-02,-1.110430596314592733e-01,-1.043601113384599322e-01,-1.820422097528074865e-02,7.562988133805903512e-02,-7.906503983067812713e-02,-5.104157017700700072e-02,6.095310285950419210e-02,6.151104312185758094e-02,0.000000000000000000e+00,-2.395834218011367034e-01,0.000000000000000000e+00,1.094380027664312444e-01,0.000000000000000000e+00,0.000000000000000000e+00,-7.363416283094757764e-02,-7.330224950004859963e-02,0.000000000000000000e+00,0.000000000000000000e+00,0.000000000000000000e+00,0.000000000000000000e+00,0.000000000000000000e+00,0.000000000000000000e+00,0.000000000000000000e+00,0.000000000000000000e+00,0.000000000000000000e+00,0.000000000000000000e+00,-1.579842440458828490e-01,5.876300926027650667e-02,0.000000000000000000e+00,1.158393822350002045e-01,7.213640836740556339e-02,1.050307784180031304e-02,-9.472367524777019565e-04,0.000000000000000000e+00,0.000000000000000000e+00,0.000000000000000000e+00,0.000000000000000000e+00,0.000000000000000000e+00,1.158393822350002045e-01,-5.104157017700700072e-02,-1.110430596314592733e-01,9.831813380837105265e-02,0.000000000000000000e+00,0.000000000000000000e+00,-2.534278799862252352e-02,-1.517453398207395665e-01,-7.442120645231159459e-02,0.000000000000000000e+00,0.000000000000000000e+00,0.000000000000000000e+00,0.000000000000000000e+00,0.000000000000000000e+00,0.000000000000000000e+00,0.000000000000000000e+00,2.062616077295146774e-02,0.000000000000000000e+00,0.000000000000000000e+00,0.000000000000000000e+00,0.000000000000000000e+00,0.000000000000000000e+00,0.000000000000000000e+00,0.000000000000000000e+00,0.000000000000000000e+00,-1.760162227602637408e-01,-2.124785989747204618e-01,0.000000000000000000e+00,0.000000000000000000e+00,0.000000000000000000e+00,0.000000000000000000e+00,0.000000000000000000e+00,0.000000000000000000e+00,0.000000000000000000e+00,0.000000000000000000e+00,0.000000000000000000e+00,0.000000000000000000e+00,0.000000000000000000e+00,0.000000000000000000e+00,0.000000000000000000e+00,0.000000000000000000e+00,0.000000000000000000e+00,0.000000000000000000e+00,0.000000000000000000e+00,0.000000000000000000e+00,0.000000000000000000e+00,0.000000000000000000e+00,0.000000000000000000e+00,0.000000000000000000e+00,0.000000000000000000e+00,0.000000000000000000e+00,0.000000000000000000e+00,0.000000000000000000e+00,0.000000000000000000e+00,0.000000000000000000e+00,0.000000000000000000e+00,0.000000000000000000e+00,0.000000000000000000e+00,0.000000000000000000e+00,0.000000000000000000e+00,0.000000000000000000e+00,0.000000000000000000e+00,0.000000000000000000e+00,0.000000000000000000e+00,0.000000000000000000e+00,0.000000000000000000e+00,0.000000000000000000e+00,0.000000000000000000e+00,0.000000000000000000e+00,0.000000000000000000e+00,0.000000000000000000e+00,3.625191159925355011e-01,0.000000000000000000e+00,0.000000000000000000e+00,0.000000000000000000e+00,0.000000000000000000e+00,0.000000000000000000e+00,0.000000000000000000e+00,0.000000000000000000e+00,0.000000000000000000e+00,0.000000000000000000e+00,0.000000000000000000e+00,0.000000000000000000e+00,0.000000000000000000e+00,0.000000000000000000e+00,0.000000000000000000e+00,0.000000000000000000e+00,0.000000000000000000e+00,0.000000000000000000e+00,0.000000000000000000e+00,0.000000000000000000e+00,0.000000000000000000e+00,0.000000000000000000e+00,0.000000000000000000e+00,0.000000000000000000e+00,0.000000000000000000e+00,0.000000000000000000e+00,0.000000000000000000e+00,0.000000000000000000e+00,0.000000000000000000e+00,0.000000000000000000e+00,0.000000000000000000e+00,0.000000000000000000e+00,0.000000000000000000e+00,0.000000000000000000e+00,0.000000000000000000e+00,0.000000000000000000e+00,0.000000000000000000e+00,0.000000000000000000e+00,0.000000000000000000e+00,0.000000000000000000e+00,0.000000000000000000e+00,-1.690223236397258300e-01,2.609034199508019625e-01,0.000000000000000000e+00,0.000000000000000000e+00,0.000000000000000000e+00,0.000000000000000000e+00,0.000000000000000000e+00,0.000000000000000000e+00,0.000000000000000000e+00,0.000000000000000000e+00,0.000000000000000000e+00,0.000000000000000000e+00,1.464711154438931295e-01,0.000000000000000000e+00,0.000000000000000000e+00,0.000000000000000000e+00,0.000000000000000000e+00,0.000000000000000000e+00,-2.405022949981607816e-01,0.000000000000000000e+00,0.000000000000000000e+00,0.000000000000000000e+00,0.000000000000000000e+00,0.000000000000000000e+00,0.000000000000000000e+00,0.000000000000000000e+00,0.000000000000000000e+00,0.000000000000000000e+00,0.000000000000000000e+00,0.000000000000000000e+00,0.000000000000000000e+00,0.000000000000000000e+00,0.000000000000000000e+00,0.000000000000000000e+00,0.000000000000000000e+00,0.000000000000000000e+00,0.000000000000000000e+00,0.000000000000000000e+00,0.000000000000000000e+00,0.000000000000000000e+00,0.000000000000000000e+00,0.000000000000000000e+00,0.000000000000000000e+00,0.000000000000000000e+00,0.000000000000000000e+00,0.000000000000000000e+00,0.000000000000000000e+00,0.000000000000000000e+00,0.000000000000000000e+00,0.000000000000000000e+00,0.000000000000000000e+00,0.000000000000000000e+00,0.000000000000000000e+00,0.000000000000000000e+00,0.000000000000000000e+00,0.000000000000000000e+00,0.000000000000000000e+00,0.000000000000000000e+00
0.000000000000000000e+00,0.000000000000000000e+00,0.000000000000000000e+00,0.000000000000000000e+00,0.000000000000000000e+00,0.000000000000000000e+00,0.000000000000000000e+00,0.000000000000000000e+00,0.000000000000000000e+00,0.000000000000000000e+00,0.000000000000000000e+00,0.000000000000000000e+00,0.000000000000000000e+00,0.000000000000000000e+00,0.000000000000000000e+00,1.501872052413125991e-01,7.853808848746188231e-02,1.501872052413125991e-01,1.237618923352090117e-01,8.189856635850679967e-02,-9.937864961527993757e-03,-1.285799497573582584e-01,6.736386775361237478e-02,1.340237157401615552e-02,-2.066487273053115720e-02,9.082220781115957209e-02,7.338034247872818328e-02,1.945671924750329018e-01,0.000000000000000000e+00,-6.495232426681103732e-02,-7.834416859859999471e-02,1.207100476278880480e-01,8.116497138054050431e-02,-7.906503983067812713e-02,1.422926579959044313e-01,1.120323972122147654e-01,4.379482400086918276e-02,-2.534278799862252352e-02,2.063573404411005174e-01,1.714341512920662947e-01,-2.131108219196328479e-01,3.848345994588420887e-02,1.803368257402470157e-02,1.465223673198270959e-01,2.551788736220793052e-01,2.514288734171106210e-01,7.533949918343657570e-02,9.924387392392762519e-02,6.346493818467753567e-03,0.000000000000000000e+00,-5.668872419801052748e-02,1.268228986872405595e-01,0.000000000000000000e+00,0.000000000000000000e+00,0.000000000000000000e+00,0.000000000000000000e+00,0.000000000000000000e+00,8.238065979471655143e-02,9.091966815756298559e-02,9.359925952313440101e-02,1.533310541064164256e-01,6.803969678690764689e-02,1.223876233411792108e-01,8.585419061085020065e-02,1.276044059374232265e-01,1.009358197188082729e-01,0.000000000000000000e+00,-4.087509120862201084e-02,6.583579708416166520e-02,-6.371028681732707200e-02,-1.266984422651169957e-02,9.359925952313440101e-02,8.574113766576142714e-02,7.303846477131606396e-02,-6.281630777910174324e-02,5.318531082726656034e-02,1.465223673198270959e-01,1.267467312143166769e-01,1.217773869781474672e-01,9.879865686934292957e-02,-6.904917176920889743e-02,-1.690223236397258300e-01,0.000000000000000000e+00,0.000000000000000000e+00,0.000000000000000000e+00,0.000000000000000000e+00,-2.818379279212930577e-02,-6.279741774401186027e-02,0.000000000000000000e+00,1.420665891659931013e-01,0.000000000000000000e+00,-1.052071243344858409e-01,1.079859227800734761e-01,-1.444863624833923610e-01,8.103481311135232734e-02,2.964830763803262548e-02,-1.040234438435771319e-03,-2.293721108404604692e-02,1.379909756621097439e-01,-1.155664862467892379e-01,0.000000000000000000e+00,0.000000000000000000e+00,0.000000000000000000e+00,0.000000000000000000e+00,0.000000000000000000e+00,0.000000000000000000e+00,0.000000000000000000e+00,0.000000000000000000e+00,0.000000000000000000e+00,1.372437686832300996e-01,-5.568049148549843869e-02,0.000000000000000000e+00,0.000000000000000000e+00,0.000000000000000000e+00,0.000000000000000000e+00,0.000000000000000000e+00,0.000000000000000000e+00,0.000000000000000000e+00,2.221475265598402971e-01,2.701240669404052497e-01,0.000000000000000000e+00,0.000000000000000000e+00,1.024464901998138749e-01,0.000000000000000000e+00,0.000000000000000000e+00,0.000000000000000000e+00,0.000000000000000000e+00,0.000000000000000000e+00,1.779524644213534984e-02,0.000000000000000000e+00,0.000000000000000000e+00,0.000000000000000000e+00,-1.205820298925720790e-01,0.000000000000000000e+00,0.000000000000000000e+00,0.000000000000000000e+00,0.000000000000000000e+00,-1.338574730839340587e-01,0.000000000000000000e+00,0.000000000000000000e+00,-3.730892755700978003e-01,0.000000000000000000e+00,0.000000000000000000e+00,0.000000000000000000e+00,0.000000000000000000e+00,0.000000000000000000e+00,0.000000000000000000e+00,0.000000000000000000e+00,0.000000000000000000e+00,0.000000000000000000e+00,3.558361676995360212e-01,0.000000000000000000e+00,0.000000000000000000e+00,0.000000000000000000e+00,0.000000000000000000e+00,0.000000000000000000e+00,0.000000000000000000e+00,0.000000000000000000e+00,0.000000000000000000e+00,0.000000000000000000e+00,0.000000000000000000e+00,0.000000000000000000e+00,0.000000000000000000e+00,0.000000000000000000e+00,0.000000000000000000e+00,-4.861189915801528844e-02,0.000000000000000000e+00,0.000000000000000000e+00,0.000000000000000000e+00,0.000000000000000000e+00,0.000000000000000000e+00,0.000000000000000000e+00,0.000000000000000000e+00,0.000000000000000000e+00,0.000000000000000000e+00,0.000000000000000000e+00,0.000000000000000000e+00,0.000000000000000000e+00,0.000000000000000000e+00,0.000000000000000000e+00,0.000000000000000000e+00,0.000000000000000000e+00,5.076576382554087545e-03,-4.063581328980873930e-02,0.000000000000000000e+00,-2.158902678974428113e-01,0.000000000000000000e+00,0.000000000000000000e+00,0.000000000000000000e+00,0.000000000000000000e+00,0.000000000000000000e+00,0.000000000000000000e+00,0.000000000000000000e+00,8.860101721305331524e-02,-3.202361430703925399e-02,0.000000000000000000e+00,0.000000000000000000e+00,0.000000000000000000e+00,-3.211151126088980234e-01,6.824686529728660189e-02,-2.625677170531836024e-01,-7.424893648182806505e-02,2.129767542903300906e-02,-1.415987136058096674e-01,-2.539466044896258046e-01,5.817709061498183704e-02,0.000000000000000000e+00,0.000000000000000000e+00,-1.425280511617830204e-01,0.000000000000000000e+00,0.000000000000000000e+00,0.000000000000000000e+00,0.000000000000000000e+00,0.000000000000000000e+00,0.000000000000000000e+00,0.000000000000000000e+00,0.000000000000000000e+00,0.000000000000000000e+00,0.000000000000000000e+00,0.000000000000000000e+00,0.000000000000000000e+00,0.000000000000000000e+00,-6.653855423729143626e-02,0.000000000000000000e+00,0.000000000000000000e+00,0.000000000000000000e+00,0.000000000000000000e+00,0.000000000000000000e+00,0.000000000000000000e+00,0.000000000000000000e+00,0.000000000000000000e+00,0.000000000000000000e+00,0.000000000000000000e+00,0.000000000000000000e+00,0.000000000000000000e+00,0.000000000000000000e+00,0.000000000000000000e+00,0.000000000000000000e+00,0.000000000000000000e+00,0.000000000000000000e+00
0.000000000000000000e+00,0.000000000000000000e+00,0.000000000000000000e+00,0.000000000000000000e+00,0.000000000000000000e+00,0.000000000000000000e+00,0.000000000000000000e+00,0.000000000000000000e+00,0.000000000000000000e+00,0.000000000000000000e+00,0.000000000000000000e+00,0.000000000000000000e+00,0.000000000000000000e+00,0.000000000000000000e+00,0.000000000000000000e+00,0.000000000000000000e+00,3.683267389298806177e-02,2.834105213278937385e-01,7.204251485363388774e-02,-3.182418580796823881e-02,2.514288734171106210e-01,-3.066131249504204168e-02,2.536747896481137202e-02,1.506480480678892564e-01,4.541028283478328043e-02,8.567616052466089926e-02,1.537713875174125944e-01,1.832993687715410991e-01,1.854266210117904434e-01,-2.694861623947301665e-01,-7.959071004056385290e-02,1.840792139303758235e-02,7.428453474367305298e-02,-1.981393412411969202e-02,1.076613930112293310e-01,1.627934034281710851e-01,-3.182418580796823881e-02,-1.526569406550336294e-01,2.063573404411005174e-01,1.414782863961042969e-01,1.919604404859391045e-01,1.047258030855142685e-01,1.409966332137096434e-01,1.524935326255433821e-01,1.809884429319663368e-01,2.514288734171106210e-01,7.258042780975178243e-02,1.574434761488379408e-01,7.669468643700920463e-02,1.409775303864526930e-01,1.041058641990577349e-01,-8.553955904067345184e-02,0.000000000000000000e+00,-5.044010386442974170e-01,0.000000000000000000e+00,0.000000000000000000e+00,9.650498774133484114e-02,8.238065979471655143e-02,9.732335675832185298e-03,1.144810192129115667e-01,1.416015589834221378e-01,1.335707230273507073e-01,1.561712672731785101e-01,1.565462444261711272e-01,1.621141932879924252e-01,2.584267147047202284e-01,0.000000000000000000e+00,-1.205820298925720790e-01,7.241576750128629614e-02,1.495417278460291766e-01,1.098964806759868407e-01,1.299462277325741100e-01,4.797599362593615163e-02,1.698554815982813437e-01,-2.710976623550041820e-02,1.393212162916428742e-01,1.432937273601196104e-01,1.491198658910532215e-01,1.570114942286287563e-01,0.000000000000000000e+00,9.244059959005877791e-02,1.920683913495013495e-01,0.000000000000000000e+00,0.000000000000000000e+00,-1.128575021313628635e-01,0.000000000000000000e+00,4.102731341258758491e-02,5.161427150310490125e-02,1.409775303864526930e-01,1.295111515171263883e-01,0.000000000000000000e+00,3.524420828303106989e-02,4.687179696093649039e-02,1.024464901998138749e-01,3.224431868013040436e-02,4.216853538093832954e-02,-2.587395836576706840e-02,-2.168039237427513699e-01,-1.837934640195162395e-01,-1.082473300593448512e-01,0.000000000000000000e+00,0.000000000000000000e+00,0.000000000000000000e+00,0.000000000000000000e+00,-1.517453398207395665e-01,1.787076653571144369e-01,0.000000000000000000e+00,0.000000000000000000e+00,0.000000000000000000e+00,6.817079417019557275e-02,2.179034851318482902e-01,0.000000000000000000e+00,0.000000000000000000e+00,2.543921990443078207e-01,0.000000000000000000e+00,2.543921990443078207e-01,0.000000000000000000e+00,2.403003073500906417e-01,0.000000000000000000e+00,5.776061987424154637e-02,0.000000000000000000e+00,0.000000000000000000e+00,0.000000000000000000e+00,0.000000000000000000e+00,0.000000000000000000e+00,0.000000000000000000e+00,0.000000000000000000e+00,0.000000000000000000e+00,0.000000000000000000e+00,0.000000000000000000e+00,0.000000000000000000e+00,2.096533489221569790e-01,1.563425681272636036e-01,0.000000000000000000e+00,0.000000000000000000e+00,0.000000000000000000e+00,0.000000000000000000e+00,2.340895276655748092e-01,0.000000000000000000e+00,0.000000000000000000e+00,1.975795312030434181e-01,-4.367448834775490563e-02,0.000000000000000000e+00,0.000000000000000000e+00,0.000000000000000000e+00,0.000000000000000000e+00,0.000000000000000000e+00,0.000000000000000000e+00,0.000000000000000000e+00,0.000000000000000000e+00,0.000000000000000000e+00,-3.292426622141000209e-02,0.000000000000000000e+00,0.000000000000000000e+00,0.000000000000000000e+00,0.000000000000000000e+00,0.000000000000000000e+00,0.000000000000000000e+00,0.000000000000000000e+00,0.000000000000000000e+00,0.000000000000000000e+00,0.000000000000000000e+00,0.000000000000000000e+00,0.000000000000000000e+00,0.000000000000000000e+00,3.195490107279437830e-01,0.000000000000000000e+00,0.000000000000000000e+00,0.000000000000000000e+00,0.000000000000000000e+00,0.000000000000000000e+00,0.000000000000000000e+00,0.000000000000000000e+00,0.000000000000000000e+00,0.000000000000000000e+00,0.000000000000000000e+00,0.000000000000000000e+00,0.000000000000000000e+00,0.000000000000000000e+00,0.000000000000000000e+00,0.000000000000000000e+00,0.000000000000000000e+00,1.055162168929468236e-01,1.807558340300326472e-01,0.000000000000000000e+00,-6.030692908673943725e-02,0.000000000000000000e+00,0.000000000000000000e+00,0.000000000000000000e+00,0.000000000000000000e+00,0.000000000000000000e+00,0.000000000000000000e+00,0.000000000000000000e+00,0.000000000000000000e+00,-2.733796066174016930e-03,0.000000000000000000e+00,0.000000000000000000e+00,0.000000000000000000e+00,0.000000000000000000e+00,2.601470606839714761e-01,-2.170170865807137250e-01,8.589603536610608547e-02,8.535850397507847853e-02,2.568983204884617028e-03,-3.165787615728749560e-01,-5.326447134104704551e-02,0.000000000000000000e+00,0.000000000000000000e+00,0.000000000000000000e+00,0.000000000000000000e+00,0.000000000000000000e+00,0.000000000000000000e+00,0.000000000000000000e+00,0.000000000000000000e+00,0.000000000000000000e+00,0.000000000000000000e+00,0.000000000000000000e+00,0.000000000000000000e+00,0.000000000000000000e+00,0.000000000000000000e+00,0.000000000000000000e+00,0.000000000000000000e+00,0.000000000000000000e+00,0.000000000000000000e+00,0.000000000000000000e+00,0.000000000000000000e+00,0.000000000000000000e+00,0.000000000000000000e+00,0.000000000000000000e+00,0.000000000000000000e+00,0.000000000000000000e+00,0.000000000000000000e+00,0.000000000000000000e+00,0.000000000000000000e+00,0.000000000000000000e+00,0.000000000000000000e+00,0.000000000000000000e+00,0.000000000000000000e+00,0.000000000000000000e+00,0.000000000000000000e+00
