0.000000000000000000e+00,0.000000000000000000e+00,5.412618507298049692e-02,-4.632627454526250244e-02,-4.632627454526250244e-02,-3.459428144029922172e-03,0.000000000000000000e+00,5.032747582012343096e-02,0.000000000000000000e+00,5.032747582012343096e-02,-1.181041967370841453e-02,-3.459428144029922172e-03,0.000000000000000000e+00,0.000000000000000000e+00,-8.641941526156739217e-02,-1.215730281691442399e-01,0.000000000000000000e+00,-2.256483975780595175e-01,-9.401348964385512763e-02,-1.876935083074226795e-01,-2.246006273066647740e-01,-2.691866218561431157e-01,-3.836961162241560030e-01,0.000000000000000000e+00,-2.383601019273989818e-01,0.000000000000000000e+00,-5.285552980528466227e-01,-1.978632567166322964e-01,5.412618507298049692e-02,-7.875201310831242418e-02,-4.163466558421310970e-02,-7.719980901269098139e-02,0.000000000000000000e+00,0.000000000000000000e+00,0.000000000000000000e+00,-2.617790957974076571e-01,0.000000000000000000e+00,0.000000000000000000e+00,-4.739286968211460782e-01,0.000000000000000000e+00,-3.504530982547655604e-01,-4.428684537355774276e-01,-2.001472028396882874e-01,0.000000000000000000e+00,0.000000000000000000e+00,0.000000000000000000e+00,-2.251235653083048238e-01,-2.878573853484261980e-01,-4.760118736110310333e-01,0.000000000000000000e+00,-2.672024077673753051e-01,-1.938264127053189734e-01,-1.455991652787130830e-01,-1.642716839545968754e-01,0.000000000000000000e+00,-1.738351438557027562e-01,-4.163466558421310970e-02,-1.557572832082150804e-01,-2.031902106259499130e-01,-2.153251681219618130e-01,-4.319991129714793598e-01,-3.405283087887860938e-01,-4.581042819268272837e-01,-3.923064468212063005e-01,-2.287719048030954216e-01,0.000000000000000000e+00,-1.193854147887494221e-01,0.000000000000000000e+00,0.000000000000000000e+00,0.000000000000000000e+00,-4.208207161076480407e-01,-1.488638323982527378e-01,0.000000000000000000e+00,-1.211113581894225771e-01,-2.158509714687903147e-01,-2.166615343499565804e-01,0.000000000000000000e+00,0.000000000000000000e+00,0.000000000000000000e+00,0.000000000000000000e+00,0.000000000000000000e+00,0.000000000000000000e+00,-1.673328604675194120e-01,-1.566224007927136119e-01,-2.188303252426924417e-01,-1.629078980663531129e-01,-2.024820968473845517e-01,-3.002941547365545749e-01,0.000000000000000000e+00,0.000000000000000000e+00,0.000000000000000000e+00,-2.442392912527497906e-01,0.000000000000000000e+00,0.000000000000000000e+00,0.000000000000000000e+00,-1.395950829593593789e-01,0.000000000000000000e+00,0.000000000000000000e+00,-1.629078980663531129e-01,-1.001747086798180641e-01,0.000000000000000000e+00,0.000000000000000000e+00,0.000000000000000000e+00,0.000000000000000000e+00,0.000000000000000000e+00,0.000000000000000000e+00,0.000000000000000000e+00,0.000000000000000000e+00,0.000000000000000000e+00,0.000000000000000000e+00,0.000000000000000000e+00,0.000000000000000000e+00,0.000000000000000000e+00,0.000000000000000000e+00,0.000000000000000000e+00,0.000000000000000000e+00,0.000000000000000000e+00,0.000000000000000000e+00,0.000000000000000000e+00,0.000000000000000000e+00,0.000000000000000000e+00,0.000000000000000000e+00,0.000000000000000000e+00,0.000000000000000000e+00,0.000000000000000000e+00,0.000000000000000000e+00,0.000000000000000000e+00,0.000000000000000000e+00,0.000000000000000000e+00,0.000000000000000000e+00,0.000000000000000000e+00,0.000000000000000000e+00,0.000000000000000000e+00,0.000000000000000000e+00,0.000000000000000000e+00,0.000000000000000000e+00,0.000000000000000000e+00,0.000000000000000000e+00,0.000000000000000000e+00,0.000000000000000000e+00,0.000000000000000000e+00,0.000000000000000000e+00,0.000000000000000000e+00,0.000000000000000000e+00,0.000000000000000000e+00,0.000000000000000000e+00,0.000000000000000000e+00,0.000000000000000000e+00,0.000000000000000000e+00,0.000000000000000000e+00,0.000000000000000000e+00,0.000000000000000000e+00,0.000000000000000000e+00,0.000000000000000000e+00,0.000000000000000000e+00,0.000000000000000000e+00,0.000000000000000000e+00,0.000000000000000000e+00,0.000000000000000000e+00,0.000000000000000000e+00,0.000000000000000000e+00,0.000000000000000000e+00,0.000000000000000000e+00,0.000000000000000000e+00,0.000000000000000000e+00,0.000000000000000000e+00,0.000000000000000000e+00,0.000000000000000000e+00,0.000000000000000000e+00,0.000000000000000000e+00,0.000000000000000000e+00,0.000000000000000000e+00,0.000000000000000000e+00,0.000000000000000000e+00,0.000000000000000000e+00,0.000000000000000000e+00,0.000000000000000000e+00,0.000000000000000000e+00,0.000000000000000000e+00,0.000000000000000000e+00,0.000000000000000000e+00,0.000000000000000000e+00,0.000000000000000000e+00,0.000000000000000000e+00,0.000000000000000000e+00,0.000000000000000000e+00,0.000000000000000000e+00,0.000000000000000000e+00,0.000000000000000000e+00,0.000000000000000000e+00,0.000000000000000000e+00,0.000000000000000000e+00,0.000000000000000000e+00,0.000000000000000000e+00,-1.050020314981605675e-02,0.000000000000000000e+00,0.000000000000000000e+00,0.000000000000000000e+00,0.000000000000000000e+00,0.000000000000000000e+00,-2.537267376649182116e-01,-2.774753619134885385e-01,-3.512275375619416939e-01,-1.978152905925935068e-01,-4.843658906551575466e-02,-1.979248360995919664e-01,0.000000000000000000e+00,0.000000000000000000e+00,0.000000000000000000e+00,0.000000000000000000e+00,0.000000000000000000e+00,0.000000000000000000e+00,0.000000000000000000e+00,0.000000000000000000e+00,0.000000000000000000e+00,0.000000000000000000e+00,0.000000000000000000e+00,0.000000000000000000e+00,0.000000000000000000e+00,0.000000000000000000e+00,0.000000000000000000e+00,0.000000000000000000e+00,6.272653404758556095e-02,0.000000000000000000e+00,0.000000000000000000e+00,0.000000000000000000e+00,0.000000000000000000e+00,0.000000000000000000e+00,0.000000000000000000e+00,0.000000000000000000e+00,0.000000000000000000e+00,0.000000000000000000e+00,0.000000000000000000e+00,0.000000000000000000e+00,0.000000000000000000e+00,0.000000000000000000e+00,0.000000000000000000e+00,0.000000000000000000e+00,0.000000000000000000e+00,0.000000000000000000e+00
0.000000000000000000e+00,0.000000000000000000e+00,5.032747582012343096e-02,0.000000000000000000e+00,-6.358587971940701800e-02,-3.743082465644318596e-02,5.032747582012343096e-02,5.032747582012343096e-02,0.000000000000000000e+00,5.032747582012343096e-02,-1.050020314981605675e-02,5.100939496886837399e-02,0.000000000000000000e+00,0.000000000000000000e+00,0.000000000000000000e+00,0.000000000000000000e+00,0.000000000000000000e+00,0.000000000000000000e+00,0.000000000000000000e+00,2.299914761387750195e-02,-2.602025714226698372e-01,-2.095450120384241000e-01,-3.355819402159872511e-01,0.000000000000000000e+00,0.000000000000000000e+00,0.000000000000000000e+00,0.000000000000000000e+00,0.000000000000000000e+00,0.000000000000000000e+00,-7.875201310831242418e-02,-8.974937973584565243e-02,-1.181041967370841453e-02,0.000000000000000000e+00,0.000000000000000000e+00,0.000000000000000000e+00,0.000000000000000000e+00,0.000000000000000000e+00,0.000000000000000000e+00,-3.545954158478027418e-01,-2.542729729774565461e-01,-1.781886837149887493e-01,0.000000000000000000e+00,0.000000000000000000e+00,0.000000000000000000e+00,0.000000000000000000e+00,0.000000000000000000e+00,0.000000000000000000e+00,0.000000000000000000e+00,0.000000000000000000e+00,0.000000000000000000e+00,0.000000000000000000e+00,0.000000000000000000e+00,0.000000000000000000e+00,0.000000000000000000e+00,0.000000000000000000e+00,0.000000000000000000e+00,0.000000000000000000e+00,0.000000000000000000e+00,0.000000000000000000e+00,-2.416049017019324674e-01,-3.417600492076219298e-01,-3.646726242860204303e-01,0.000000000000000000e+00,0.000000000000000000e+00,0.000000000000000000e+00,0.000000000000000000e+00,0.000000000000000000e+00,0.000000000000000000e+00,-2.904901078610904186e-01,0.000000000000000000e+00,0.000000000000000000e+00,0.000000000000000000e+00,0.000000000000000000e+00,0.000000000000000000e+00,0.000000000000000000e+00,0.000000000000000000e+00,0.000000000000000000e+00,0.000000000000000000e+00,0.000000000000000000e+00,0.000000000000000000e+00,0.000000000000000000e+00,0.000000000000000000e+00,0.000000000000000000e+00,0.000000000000000000e+00,-2.090796206137422175e-01,-2.384277861847056978e-01,0.000000000000000000e+00,0.000000000000000000e+00,0.000000000000000000e+00,0.000000000000000000e+00,0.000000000000000000e+00,0.000000000000000000e+00,0.000000000000000000e+00,0.000000000000000000e+00,0.000000000000000000e+00,0.000000000000000000e+00,-1.050020314981605675e-02,-4.884140668305220895e-02,-5.746343978848141021e-02,-8.974937973584565243e-02,0.000000000000000000e+00,0.000000000000000000e+00,0.000000000000000000e+00,0.000000000000000000e+00,0.000000000000000000e+00,0.000000000000000000e+00,0.000000000000000000e+00,0.000000000000000000e+00,0.000000000000000000e+00,0.000000000000000000e+00,0.000000000000000000e+00,0.000000000000000000e+00,0.000000000000000000e+00,0.000000000000000000e+00,0.000000000000000000e+00,0.000000000000000000e+00,0.000000000000000000e+00,0.000000000000000000e+00,0.000000000000000000e+00,0.000000000000000000e+00,0.000000000000000000e+00,0.000000000000000000e+00,0.000000000000000000e+00,0.000000000000000000e+00,0.000000000000000000e+00,0.000000000000000000e+00,0.000000000000000000e+00,0.000000000000000000e+00,0.000000000000000000e+00,0.000000000000000000e+00,0.000000000000000000e+00,0.000000000000000000e+00,0.000000000000000000e+00,0.000000000000000000e+00,0.000000000000000000e+00,0.000000000000000000e+00,0.000000000000000000e+00,0.000000000000000000e+00,0.000000000000000000e+00,0.000000000000000000e+00,0.000000000000000000e+00,0.000000000000000000e+00,0.000000000000000000e+00,0.000000000000000000e+00,0.000000000000000000e+00,0.000000000000000000e+00,0.000000000000000000e+00,0.000000000000000000e+00,0.000000000000000000e+00,0.000000000000000000e+00,0.000000000000000000e+00,0.000000000000000000e+00,0.000000000000000000e+00,0.000000000000000000e+00,0.000000000000000000e+00,0.000000000000000000e+00,0.000000000000000000e+00,0.000000000000000000e+00,0.000000000000000000e+00,0.000000000000000000e+00,0.000000000000000000e+00,0.000000000000000000e+00,0.000000000000000000e+00,0.000000000000000000e+00,0.000000000000000000e+00,0.000000000000000000e+00,0.000000000000000000e+00,0.000000000000000000e+00,0.000000000000000000e+00,0.000000000000000000e+00,0.000000000000000000e+00,0.000000000000000000e+00,0.000000000000000000e+00,0.000000000000000000e+00,0.000000000000000000e+00,0.000000000000000000e+00,0.000000000000000000e+00,0.000000000000000000e+00,0.000000000000000000e+00,0.000000000000000000e+00,0.000000000000000000e+00,0.000000000000000000e+00,0.000000000000000000e+00,0.000000000000000000e+00,0.000000000000000000e+00,0.000000000000000000e+00,0.000000000000000000e+00,0.000000000000000000e+00,0.000000000000000000e+00,0.000000000000000000e+00,0.000000000000000000e+00,0.000000000000000000e+00,0.000000000000000000e+00,0.000000000000000000e+00,0.000000000000000000e+00,0.000000000000000000e+00,0.000000000000000000e+00,0.000000000000000000e+00,0.000000000000000000e+00,0.000000000000000000e+00,-1.978668707595382104e-01,0.000000000000000000e+00,-2.576900264366027704e-01,0.000000000000000000e+00,0.000000000000000000e+00,-1.737480302649797026e-01,0.000000000000000000e+00,0.000000000000000000e+00,0.000000000000000000e+00,0.000000000000000000e+00,0.000000000000000000e+00,0.000000000000000000e+00,0.000000000000000000e+00,0.000000000000000000e+00,0.000000000000000000e+00,0.000000000000000000e+00,0.000000000000000000e+00,0.000000000000000000e+00,0.000000000000000000e+00,0.000000000000000000e+00,0.000000000000000000e+00,0.000000000000000000e+00,0.000000000000000000e+00,0.000000000000000000e+00,0.000000000000000000e+00,0.000000000000000000e+00,0.000000000000000000e+00,0.000000000000000000e+00,0.000000000000000000e+00,0.000000000000000000e+00,0.000000000000000000e+00,0.000000000000000000e+00,0.000000000000000000e+00,0.000000000000000000e+00,0.000000000000000000e+00,0.000000000000000000e+00,0.000000000000000000e+00,0.000000000000000000e+00,0.000000000000000000e+00,0.000000000000000000e+00
0.000000000000000000e+00,0.000000000000000000e+00,0.000000000000000000e+00,5.100939496886837399e-02,-4.632627454526250244e-02,-1.181041967370841453e-02,5.032747582012343096e-02,0.000000000000000000e+00,0.000000000000000000e+00,5.032747582012343096e-02,-1.050020314981605675e-02,-1.050020314981605675e-02,0.000000000000000000e+00,0.000000000000000000e+00,-1.099814671166052388e-01,-2.370317362410323536e-01,0.000000000000000000e+00,-3.569770157749236894e-01,0.000000000000000000e+00,-7.904751208078476116e-03,-2.246006273066647740e-01,-2.469478748980868110e-01,-3.904798377325133241e-01,0.000000000000000000e+00,-2.374404851208864742e-01,-1.866691057702394019e-01,-3.214799623615970381e-01,-4.400554832138182104e-01,0.000000000000000000e+00,-4.632627454526250244e-02,-9.351566491919106883e-02,-1.050020314981605675e-02,0.000000000000000000e+00,0.000000000000000000e+00,0.000000000000000000e+00,0.000000000000000000e+00,0.000000000000000000e+00,0.000000000000000000e+00,-5.061738614798858560e-01,0.000000000000000000e+00,-3.121398024374435476e-01,-3.837740576655180869e-01,-3.479885355300543215e-01,-2.227956978088204976e-01,0.000000000000000000e+00,0.000000000000000000e+00,-1.763040540193617778e-01,-3.907881576032120052e-01,-3.634722517838204214e-01,0.000000000000000000e+00,-1.348414159603048001e-01,-1.046707610374567055e-01,0.000000000000000000e+00,-1.806081217927645310e-01,0.000000000000000000e+00,-2.127326276955081308e-01,-4.632627454526250244e-02,-3.896163838529396323e-02,-1.319017698763111368e-01,-9.301950774540512779e-02,-4.588796823855575968e-01,-1.963311603490829338e-01,-4.392769725081602239e-01,-3.477596611126784754e-01,-4.378555842756709504e-01,0.000000000000000000e+00,-1.965303010637149128e-01,0.000000000000000000e+00,0.000000000000000000e+00,-2.885680246288672701e-01,0.000000000000000000e+00,-1.050020314981605675e-02,0.000000000000000000e+00,0.000000000000000000e+00,0.000000000000000000e+00,-2.003335070020199893e-01,0.000000000000000000e+00,0.000000000000000000e+00,0.000000000000000000e+00,-1.797880281225480159e-01,0.000000000000000000e+00,0.000000000000000000e+00,-1.290167594727730793e-01,-1.290167594727730793e-01,-2.188303252426924417e-01,-2.469478748980868110e-01,0.000000000000000000e+00,0.000000000000000000e+00,0.000000000000000000e+00,0.000000000000000000e+00,0.000000000000000000e+00,-1.017529111654544016e-01,0.000000000000000000e+00,0.000000000000000000e+00,-2.949033971698478696e-01,-1.854715674969029809e-02,-1.050020314981605675e-02,5.032747582012343096e-02,-2.691866218561431157e-01,-8.975737889433381411e-02,0.000000000000000000e+00,0.000000000000000000e+00,0.000000000000000000e+00,0.000000000000000000e+00,0.000000000000000000e+00,0.000000000000000000e+00,0.000000000000000000e+00,0.000000000000000000e+00,0.000000000000000000e+00,0.000000000000000000e+00,0.000000000000000000e+00,0.000000000000000000e+00,0.000000000000000000e+00,0.000000000000000000e+00,0.000000000000000000e+00,0.000000000000000000e+00,0.000000000000000000e+00,0.000000000000000000e+00,0.000000000000000000e+00,0.000000000000000000e+00,0.000000000000000000e+00,0.000000000000000000e+00,0.000000000000000000e+00,0.000000000000000000e+00,0.000000000000000000e+00,0.000000000000000000e+00,0.000000000000000000e+00,0.000000000000000000e+00,0.000000000000000000e+00,0.000000000000000000e+00,0.000000000000000000e+00,0.000000000000000000e+00,8.600400267025402889e-02,0.000000000000000000e+00,0.000000000000000000e+00,0.000000000000000000e+00,0.000000000000000000e+00,0.000000000000000000e+00,0.000000000000000000e+00,0.000000000000000000e+00,0.000000000000000000e+00,0.000000000000000000e+00,0.000000000000000000e+00,0.000000000000000000e+00,0.000000000000000000e+00,0.000000000000000000e+00,0.000000000000000000e+00,0.000000000000000000e+00,0.000000000000000000e+00,0.000000000000000000e+00,0.000000000000000000e+00,0.000000000000000000e+00,0.000000000000000000e+00,0.000000000000000000e+00,0.000000000000000000e+00,0.000000000000000000e+00,0.000000000000000000e+00,0.000000000000000000e+00,0.000000000000000000e+00,0.000000000000000000e+00,0.000000000000000000e+00,0.000000000000000000e+00,0.000000000000000000e+00,0.000000000000000000e+00,0.000000000000000000e+00,0.000000000000000000e+00,0.000000000000000000e+00,0.000000000000000000e+00,0.000000000000000000e+00,0.000000000000000000e+00,0.000000000000000000e+00,0.000000000000000000e+00,0.000000000000000000e+00,0.000000000000000000e+00,0.000000000000000000e+00,0.000000000000000000e+00,0.000000000000000000e+00,0.000000000000000000e+00,0.000000000000000000e+00,0.000000000000000000e+00,0.000000000000000000e+00,0.000000000000000000e+00,0.000000000000000000e+00,0.000000000000000000e+00,0.000000000000000000e+00,0.000000000000000000e+00,0.000000000000000000e+00,0.000000000000000000e+00,0.000000000000000000e+00,0.000000000000000000e+00,0.000000000000000000e+00,0.000000000000000000e+00,0.000000000000000000e+00,0.000000000000000000e+00,-1.798841433678065663e-02,0.000000000000000000e+00,0.000000000000000000e+00,0.000000000000000000e+00,0.000000000000000000e+00,0.000000000000000000e+00,-1.532198663199798305e-01,0.000000000000000000e+00,-5.154629074152530244e-01,-2.354737801544548315e-01,-1.903918459477541847e-01,-1.737480302649797026e-01,0.000000000000000000e+00,0.000000000000000000e+00,0.000000000000000000e+00,0.000000000000000000e+00,0.000000000000000000e+00,0.000000000000000000e+00,0.000000000000000000e+00,0.000000000000000000e+00,0.000000000000000000e+00,0.000000000000000000e+00,0.000000000000000000e+00,0.000000000000000000e+00,0.000000000000000000e+00,0.000000000000000000e+00,0.000000000000000000e+00,0.000000000000000000e+00,6.272653404758556095e-02,0.000000000000000000e+00,0.000000000000000000e+00,0.000000000000000000e+00,0.000000000000000000e+00,0.000000000000000000e+00,0.000000000000000000e+00,0.000000000000000000e+00,0.000000000000000000e+00,0.000000000000000000e+00,0.000000000000000000e+00,0.000000000000000000e+00,0.000000000000000000e+00,0.000000000000000000e+00,0.000000000000000000e+00,0.000000000000000000e+00,0.000000000000000000e+00,0.000000000000000000e+00
0.000000000000000000e+00,0.000000000000000000e+00,0.000000000000000000e+00,0.000000000000000000e+00,-6.520994245201539030e-02,-2.501115169272120908e-02,-3.733993666392219218e-02,5.032747582012343096e-02,5.032747582012343096e-02,-1.181041967370841453e-02,-2.501115169272120908e-02,-1.181041967370841453e-02,-3.274440281653712148e-01,-2.423592747580104734e-01,-2.826985389710664487e-01,-3.636260475126151248e-01,0.000000000000000000e+00,-4.125656228975945750e-01,0.000000000000000000e+00,-1.109666597793050047e-01,-2.246006273066647740e-01,-2.668229990659576334e-01,-4.486468519783021192e-01,0.000000000000000000e+00,-2.164635775526723982e-01,0.000000000000000000e+00,-4.422612256601390901e-01,-3.998824724305812817e-01,5.100939496886837399e-02,-7.875201310831242418e-02,-4.163466558421310970e-02,-2.516767711867715432e-02,0.000000000000000000e+00,0.000000000000000000e+00,-3.550270248090597880e-01,-1.137921425825595967e-01,0.000000000000000000e+00,-4.445915666280782913e-02,-5.966443323488054284e-01,0.000000000000000000e+00,-3.745606944887616141e-01,-4.587805894915123472e-01,-3.417302328185944371e-01,-1.477145054997348328e-01,0.000000000000000000e+00,0.000000000000000000e+00,-2.594395108823427387e-01,-4.203540279303075722e-01,-3.862980944256818039e-01,0.000000000000000000e+00,-3.120890743922596355e-01,-1.883218443244339402e-01,-2.635719191218083290e-01,-1.843298872215593798e-01,0.000000000000000000e+00,-1.843298872215593798e-01,-7.875201310831242418e-02,-1.390810326582076761e-01,-2.551928848500896185e-01,-2.354959823147732556e-01,-4.193294554692146292e-01,-5.798793152998046319e-01,-5.062092350090618975e-01,-5.750177300177983231e-01,-4.876196112811424510e-01,-3.806580644687891923e-01,-1.193854147887494221e-01,0.000000000000000000e+00,0.000000000000000000e+00,0.000000000000000000e+00,-3.189993553201022070e-01,-2.516767711867715432e-02,0.000000000000000000e+00,-1.430561465572829927e-01,-1.631845484238599320e-01,-4.726566677207230116e-01,-1.390810326582076761e-01,0.000000000000000000e+00,0.000000000000000000e+00,0.000000000000000000e+00,-2.996936531907899992e-01,-2.924015613592039764e-01,-1.503053586961145272e-01,-1.738351438557027562e-01,-2.071876246302966906e-01,-1.960376919759445058e-01,-2.402308794459669106e-01,-2.440709224466232619e-01,0.000000000000000000e+00,0.000000000000000000e+00,0.000000000000000000e+00,-3.011387643236220213e-01,0.000000000000000000e+00,0.000000000000000000e+00,-5.085817160423736771e-01,-1.199892307828434035e-01,-2.516767711867715432e-02,-4.884140668305220895e-02,-2.469478748980868110e-01,-1.300566693353508718e-01,0.000000000000000000e+00,0.000000000000000000e+00,0.000000000000000000e+00,0.000000000000000000e+00,0.000000000000000000e+00,0.000000000000000000e+00,0.000000000000000000e+00,0.000000000000000000e+00,0.000000000000000000e+00,0.000000000000000000e+00,0.000000000000000000e+00,0.000000000000000000e+00,0.000000000000000000e+00,0.000000000000000000e+00,0.000000000000000000e+00,0.000000000000000000e+00,0.000000000000000000e+00,0.000000000000000000e+00,0.000000000000000000e+00,0.000000000000000000e+00,0.000000000000000000e+00,0.000000000000000000e+00,0.000000000000000000e+00,0.000000000000000000e+00,0.000000000000000000e+00,0.000000000000000000e+00,0.000000000000000000e+00,0.000000000000000000e+00,0.000000000000000000e+00,0.000000000000000000e+00,0.000000000000000000e+00,0.000000000000000000e+00,8.427400677929620942e-02,0.000000000000000000e+00,0.000000000000000000e+00,0.000000000000000000e+00,0.000000000000000000e+00,0.000000000000000000e+00,0.000000000000000000e+00,0.000000000000000000e+00,0.000000000000000000e+00,0.000000000000000000e+00,0.000000000000000000e+00,0.000000000000000000e+00,0.000000000000000000e+00,0.000000000000000000e+00,0.000000000000000000e+00,0.000000000000000000e+00,0.000000000000000000e+00,0.000000000000000000e+00,0.000000000000000000e+00,0.000000000000000000e+00,0.000000000000000000e+00,0.000000000000000000e+00,0.000000000000000000e+00,0.000000000000000000e+00,0.000000000000000000e+00,0.000000000000000000e+00,0.000000000000000000e+00,0.000000000000000000e+00,0.000000000000000000e+00,0.000000000000000000e+00,0.000000000000000000e+00,0.000000000000000000e+00,0.000000000000000000e+00,0.000000000000000000e+00,0.000000000000000000e+00,0.000000000000000000e+00,0.000000000000000000e+00,0.000000000000000000e+00,0.000000000000000000e+00,0.000000000000000000e+00,0.000000000000000000e+00,0.000000000000000000e+00,0.000000000000000000e+00,0.000000000000000000e+00,0.000000000000000000e+00,0.000000000000000000e+00,0.000000000000000000e+00,0.000000000000000000e+00,0.000000000000000000e+00,0.000000000000000000e+00,0.000000000000000000e+00,0.000000000000000000e+00,0.000000000000000000e+00,0.000000000000000000e+00,0.000000000000000000e+00,0.000000000000000000e+00,0.000000000000000000e+00,0.000000000000000000e+00,0.000000000000000000e+00,0.000000000000000000e+00,0.000000000000000000e+00,0.000000000000000000e+00,0.000000000000000000e+00,0.000000000000000000e+00,0.000000000000000000e+00,0.000000000000000000e+00,0.000000000000000000e+00,0.000000000000000000e+00,-2.178670467989972936e-01,-2.274847492810931071e-01,-3.907596698188036122e-01,-2.252512436169600285e-01,-1.680745385071840126e-01,-2.428276177624889842e-01,-1.753428431513285313e-01,0.000000000000000000e+00,0.000000000000000000e+00,0.000000000000000000e+00,0.000000000000000000e+00,-4.372688840870217475e-02,0.000000000000000000e+00,0.000000000000000000e+00,0.000000000000000000e+00,0.000000000000000000e+00,0.000000000000000000e+00,0.000000000000000000e+00,0.000000000000000000e+00,0.000000000000000000e+00,0.000000000000000000e+00,0.000000000000000000e+00,5.412618507298049692e-02,0.000000000000000000e+00,0.000000000000000000e+00,0.000000000000000000e+00,0.000000000000000000e+00,0.000000000000000000e+00,0.000000000000000000e+00,0.000000000000000000e+00,0.000000000000000000e+00,0.000000000000000000e+00,0.000000000000000000e+00,0.000000000000000000e+00,0.000000000000000000e+00,0.000000000000000000e+00,0.000000000000000000e+00,0.000000000000000000e+00,0.000000000000000000e+00,0.000000000000000000e+00
0.000000000000000000e+00,0.000000000000000000e+00,0.000000000000000000e+00,0.000000000000000000e+00,0.000000000000000000e+00,-2.204567809307024506e-02,-1.012636790213077426e-01,-4.632627454526250244e-02,-4.884140668305220895e-02,-8.951237731586424162e-02,-2.379550499638860214e-02,-8.951237731586424162e-02,-3.422295274313283397e-01,0.000000000000000000e+00,-1.188791217280702889e-01,-3.518519318440201382e-01,-6.384258472279186192e-02,-4.121825149584810721e-01,-1.842337503695238299e-01,0.000000000000000000e+00,-2.246006273066647740e-01,-2.691866218561431157e-01,-4.516145361947470627e-01,-4.719740624655295869e-01,-2.195759785127773256e-01,0.000000000000000000e+00,-5.877955112585788733e-01,-4.945734755787587478e-01,-4.632627454526250244e-02,0.000000000000000000e+00,-9.112155185813421154e-02,0.000000000000000000e+00,0.000000000000000000e+00,0.000000000000000000e+00,0.000000000000000000e+00,-3.159730107362633267e-01,0.000000000000000000e+00,0.000000000000000000e+00,-5.079155181927728080e-01,-4.297822216006827456e-01,-4.238223095851660349e-01,-5.381751090051307695e-01,-4.200903531950012648e-01,-2.289756780750661358e-01,-3.543407955920764851e-01,0.000000000000000000e+00,-2.893436939476880521e-01,-5.025894291378851797e-01,-4.751052501345145451e-01,0.000000000000000000e+00,-3.679523780139521416e-01,-2.905701342223074857e-01,-2.621997469995197561e-01,-1.127121180942790429e-01,-1.344924301933726474e-01,-1.976657141580527854e-01,-5.746343978848141021e-02,-1.689916390834678983e-01,-2.892836125541444203e-01,-2.095920191914320274e-01,-5.026164928342401472e-01,-5.875304127223146544e-01,-5.975033496091504137e-01,-6.321237678143417638e-01,-5.158638768798664564e-01,-2.944678728321825090e-01,-4.163466558421310970e-02,0.000000000000000000e+00,-3.431878960750548435e-01,-3.254256367918664794e-01,-1.859933622013110188e-01,0.000000000000000000e+00,0.000000000000000000e+00,-2.468015517632544398e-01,0.000000000000000000e+00,-4.837441077937633116e-01,0.000000000000000000e+00,0.000000000000000000e+00,0.000000000000000000e+00,0.000000000000000000e+00,-1.992473523014474945e-01,0.000000000000000000e+00,-1.566224007927136119e-01,-2.090796206137422175e-01,-2.188303252426924417e-01,-2.034720510004872085e-01,-2.495937431493116254e-01,-3.713680526707838214e-01,0.000000000000000000e+00,0.000000000000000000e+00,0.000000000000000000e+00,-3.255079526517145605e-01,-3.615008715673371231e-01,0.000000000000000000e+00,-2.810295893245838283e-01,0.000000000000000000e+00,0.000000000000000000e+00,-5.909262435097194233e-02,-2.335603320669725480e-01,-1.828153878929203169e-01,0.000000000000000000e+00,0.000000000000000000e+00,0.000000000000000000e+00,1.904419774970758650e-01,0.000000000000000000e+00,0.000000000000000000e+00,0.000000000000000000e+00,0.000000000000000000e+00,0.000000000000000000e+00,0.000000000000000000e+00,0.000000000000000000e+00,0.000000000000000000e+00,0.000000000000000000e+00,0.000000000000000000e+00,0.000000000000000000e+00,0.000000000000000000e+00,0.000000000000000000e+00,0.000000000000000000e+00,0.000000000000000000e+00,0.000000000000000000e+00,0.000000000000000000e+00,0.000000000000000000e+00,0.000000000000000000e+00,0.000000000000000000e+00,0.000000000000000000e+00,0.000000000000000000e+00,0.000000000000000000e+00,0.000000000000000000e+00,0.000000000000000000e+00,0.000000000000000000e+00,0.000000000000000000e+00,2.063390617567825436e-01,1.690738252444438927e-01,0.000000000000000000e+00,0.000000000000000000e+00,0.000000000000000000e+00,0.000000000000000000e+00,0.000000000000000000e+00,0.000000000000000000e+00,0.000000000000000000e+00,0.000000000000000000e+00,0.000000000000000000e+00,0.000000000000000000e+00,0.000000000000000000e+00,0.000000000000000000e+00,0.000000000000000000e+00,0.000000000000000000e+00,0.000000000000000000e+00,0.000000000000000000e+00,0.000000000000000000e+00,0.000000000000000000e+00,0.000000000000000000e+00,0.000000000000000000e+00,0.000000000000000000e+00,0.000000000000000000e+00,0.000000000000000000e+00,0.000000000000000000e+00,0.000000000000000000e+00,0.000000000000000000e+00,0.000000000000000000e+00,0.000000000000000000e+00,0.000000000000000000e+00,0.000000000000000000e+00,0.000000000000000000e+00,0.000000000000000000e+00,0.000000000000000000e+00,0.000000000000000000e+00,0.000000000000000000e+00,0.000000000000000000e+00,0.000000000000000000e+00,0.000000000000000000e+00,0.000000000000000000e+00,0.000000000000000000e+00,0.000000000000000000e+00,0.000000000000000000e+00,0.000000000000000000e+00,0.000000000000000000e+00,0.000000000000000000e+00,0.000000000000000000e+00,0.000000000000000000e+00,0.000000000000000000e+00,0.000000000000000000e+00,-4.203522282733489213e-02,0.000000000000000000e+00,0.000000000000000000e+00,0.000000000000000000e+00,0.000000000000000000e+00,0.000000000000000000e+00,0.000000000000000000e+00,0.000000000000000000e+00,0.000000000000000000e+00,0.000000000000000000e+00,0.000000000000000000e+00,3.494664525120450005e-02,0.000000000000000000e+00,0.000000000000000000e+00,0.000000000000000000e+00,0.000000000000000000e+00,0.000000000000000000e+00,0.000000000000000000e+00,-2.590639144662715276e-01,-2.442391145599592528e-01,-4.768663714500948614e-01,-2.371764349757083390e-01,-1.279083334887353984e-01,-2.835429788987997024e-01,0.000000000000000000e+00,0.000000000000000000e+00,0.000000000000000000e+00,0.000000000000000000e+00,0.000000000000000000e+00,0.000000000000000000e+00,0.000000000000000000e+00,0.000000000000000000e+00,0.000000000000000000e+00,0.000000000000000000e+00,0.000000000000000000e+00,0.000000000000000000e+00,0.000000000000000000e+00,0.000000000000000000e+00,0.000000000000000000e+00,0.000000000000000000e+00,-3.447554959074656394e-02,0.000000000000000000e+00,0.000000000000000000e+00,0.000000000000000000e+00,0.000000000000000000e+00,0.000000000000000000e+00,0.000000000000000000e+00,0.000000000000000000e+00,0.000000000000000000e+00,0.000000000000000000e+00,0.000000000000000000e+00,0.000000000000000000e+00,0.000000000000000000e+00,0.000000000000000000e+00,0.000000000000000000e+00,0.000000000000000000e+00,0.000000000000000000e+00,0.000000000000000000e+00
0.000000000000000000e+00,0.000000000000000000e+00,0.000000000000000000e+00,0.000000000000000000e+00,0.000000000000000000e+00,0.000000000000000000e+00,-9.386838158388527420e-02,-1.050020314981605675e-02,-1.050020314981605675e-02,-9.386838158388527420e-02,-2.516767711867715432e-02,-2.516767711867715432e-02,-3.895800233520532174e-01,0.000000000000000000e+00,-2.985398779343941267e-01,-3.487987946709414366e-01,-1.316693427195608224e-01,-4.649036266524761429e-01,-1.187226069973380815e-01,-5.178593603028255193e-02,-2.474548552087587339e-01,-2.668229990659576334e-01,-4.766621406074282308e-01,-5.352579550092699812e-01,-2.068653558932405101e-01,-3.057855039096801786e-01,-5.792606220114346893e-01,-4.531222133830192789e-01,-3.733993666392219218e-02,-8.951237731586424162e-02,-8.348530628633045458e-02,-2.516767711867715432e-02,0.000000000000000000e+00,0.000000000000000000e+00,-3.052891237542724179e-01,-2.761842331025697317e-01,-1.394426652018009583e-01,0.000000000000000000e+00,-5.510420651445946394e-01,-4.041265299823931789e-01,-4.223865808847145908e-01,-5.574839504102462318e-01,-6.188827054363055247e-01,-2.880431032730684793e-01,-4.921572380568859928e-01,-2.618724569755523368e-01,-1.974611439902055066e-01,-5.621899261635350253e-01,-5.588866714678399905e-01,-2.888275672514226122e-01,-4.591616213262780244e-01,-3.334244029502327344e-01,-4.884140668305220895e-02,-2.000101986771088136e-01,-9.338954908985212799e-02,-1.943621510897433902e-01,-8.348530628633045458e-02,0.000000000000000000e+00,-2.892836125541444203e-01,-2.813083443014234297e-01,-5.042513610423046133e-01,-6.265990982765105022e-01,-6.656210351420600579e-01,-5.945471155593566870e-01,-5.662000304485100832e-01,-2.983578452917016177e-01,-1.153821271854225672e-01,0.000000000000000000e+00,-4.911535327374543236e-01,-3.394579583135321488e-01,-4.996956450885344236e-01,-1.390810326582076761e-01,0.000000000000000000e+00,-3.240013939805750920e-01,0.000000000000000000e+00,-5.142835704798639496e-01,-1.390810326582076761e-01,-2.547262960629083639e-01,0.000000000000000000e+00,-2.618355039126406547e-01,-3.233201456624011927e-01,0.000000000000000000e+00,-2.435274644704460145e-01,-1.903482024928415117e-01,-2.694153592522720575e-01,-2.557533177829935944e-01,-2.434041403964487815e-01,-3.480819842822756027e-01,-1.831411024249067487e-01,0.000000000000000000e+00,-4.383764582813214350e-01,-4.078004815121216153e-01,-4.970155974388226205e-01,-2.938032672976260695e-01,-5.410554519813830510e-01,0.000000000000000000e+00,-1.142998676069778424e-01,-9.386838158388527420e-02,-2.034498292743134318e-01,-2.333974081785792631e-01,0.000000000000000000e+00,0.000000000000000000e+00,1.530469869300762203e-02,8.211808875091257398e-02,8.077547074465264709e-02,5.472697007099430050e-02,0.000000000000000000e+00,0.000000000000000000e+00,-1.458598281672963612e-02,0.000000000000000000e+00,-9.844773115142720077e-02,0.000000000000000000e+00,0.000000000000000000e+00,0.000000000000000000e+00,0.000000000000000000e+00,0.000000000000000000e+00,0.000000000000000000e+00,0.000000000000000000e+00,0.000000000000000000e+00,5.668244117291094675e-01,0.000000000000000000e+00,0.000000000000000000e+00,0.000000000000000000e+00,0.000000000000000000e+00,0.000000000000000000e+00,0.000000000000000000e+00,4.032119916872878296e-01,0.000000000000000000e+00,0.000000000000000000e+00,0.000000000000000000e+00,0.000000000000000000e+00,1.780036713168692830e-01,-5.147850554025808906e-02,0.000000000000000000e+00,-7.561436044559481477e-03,0.000000000000000000e+00,0.000000000000000000e+00,0.000000000000000000e+00,0.000000000000000000e+00,0.000000000000000000e+00,5.287253638047088034e-01,0.000000000000000000e+00,0.000000000000000000e+00,0.000000000000000000e+00,0.000000000000000000e+00,0.000000000000000000e+00,0.000000000000000000e+00,0.000000000000000000e+00,0.000000000000000000e+00,0.000000000000000000e+00,0.000000000000000000e+00,0.000000000000000000e+00,0.000000000000000000e+00,0.000000000000000000e+00,0.000000000000000000e+00,0.000000000000000000e+00,0.000000000000000000e+00,0.000000000000000000e+00,0.000000000000000000e+00,0.000000000000000000e+00,0.000000000000000000e+00,0.000000000000000000e+00,0.000000000000000000e+00,0.000000000000000000e+00,0.000000000000000000e+00,0.000000000000000000e+00,0.000000000000000000e+00,0.000000000000000000e+00,0.000000000000000000e+00,0.000000000000000000e+00,0.000000000000000000e+00,0.000000000000000000e+00,0.000000000000000000e+00,0.000000000000000000e+00,0.000000000000000000e+00,0.000000000000000000e+00,0.000000000000000000e+00,0.000000000000000000e+00,0.000000000000000000e+00,0.000000000000000000e+00,0.000000000000000000e+00,0.000000000000000000e+00,8.585799932428909986e-02,2.285218695681509871e-01,0.000000000000000000e+00,-1.390810326582076761e-01,0.000000000000000000e+00,0.000000000000000000e+00,0.000000000000000000e+00,0.000000000000000000e+00,0.000000000000000000e+00,0.000000000000000000e+00,0.000000000000000000e+00,1.026606516209857684e-01,-1.390810326582076761e-01,0.000000000000000000e+00,0.000000000000000000e+00,0.000000000000000000e+00,0.000000000000000000e+00,3.277331536429510805e-01,-3.263331660662157074e-01,-2.221746553407673574e-01,-5.114108662877618894e-01,-2.680475322786813885e-01,-8.268065870952148733e-02,-2.809723891336734503e-01,0.000000000000000000e+00,0.000000000000000000e+00,0.000000000000000000e+00,0.000000000000000000e+00,0.000000000000000000e+00,0.000000000000000000e+00,0.000000000000000000e+00,0.000000000000000000e+00,0.000000000000000000e+00,0.000000000000000000e+00,0.000000000000000000e+00,0.000000000000000000e+00,0.000000000000000000e+00,0.000000000000000000e+00,0.000000000000000000e+00,0.000000000000000000e+00,0.000000000000000000e+00,0.000000000000000000e+00,0.000000000000000000e+00,0.000000000000000000e+00,0.000000000000000000e+00,0.000000000000000000e+00,0.000000000000000000e+00,0.000000000000000000e+00,0.000000000000000000e+00,0.000000000000000000e+00,0.000000000000000000e+00,0.000000000000000000e+00,0.000000000000000000e+00,0.000000000000000000e+00,0.000000000000000000e+00,0.000000000000000000e+00,0.000000000000000000e+00,0.000000000000000000e+00
0.000000000000000000e+00,0.000000000000000000e+00,0.000000000000000000e+00,0.000000000000000000e+00,0.000000000000000000e+00,0.000000000000000000e+00,0.000000000000000000e+00,0.000000000000000000e+00,0.000000000000000000e+00,0.000000000000000000e+00,-1.050020314981605675e-02,-1.050020314981605675e-02,-2.180272680824860976e-01,0.000000000000000000e+00,-8.040459467817559491e-02,8.785534241102000569e-03,0.000000000000000000e+00,-2.116807995076077364e-01,0.000000000000000000e+00,-2.862907359621555403e-01,-2.246006273066647740e-01,-2.776593963560298750e-01,-4.106940925677420862e-01,0.000000000000000000e+00,-2.031902106259499130e-01,0.000000000000000000e+00,-4.269386114579107883e-01,-4.905463921127676818e-01,-4.632627454526250244e-02,-4.632627454526250244e-02,-4.163466558421310970e-02,-9.386838158388527420e-02,0.000000000000000000e+00,0.000000000000000000e+00,-1.731697750914045764e-01,0.000000000000000000e+00,0.000000000000000000e+00,0.000000000000000000e+00,-4.317143906728140856e-01,-1.878477098440211601e-01,-3.114691194715535350e-01,-4.300719593443459998e-01,-2.324692235471607638e-01,-2.557963593119484957e-01,-2.258349989255973023e-01,0.000000000000000000e+00,-1.474915973370185263e-01,-4.299042430197768105e-01,-3.586123534522309142e-01,0.000000000000000000e+00,-2.020821549191010591e-01,-2.097593200696400706e-01,0.000000000000000000e+00,-1.642716839545968754e-01,0.000000000000000000e+00,-1.738351438557027562e-01,-4.163466558421310970e-02,-1.798841433678065663e-02,-1.297325174846328255e-01,-1.545775328212741773e-01,-3.900033757004703339e-01,-2.854247111651780910e-01,-4.259729682205766754e-01,-5.322481772940782507e-01,-4.494930107497615568e-01,-1.380179086262260379e-01,-1.290167594727730793e-01,-8.230424885753946651e-02,0.000000000000000000e+00,-2.427042883670087192e-01,-1.695074021829490463e-01,0.000000000000000000e+00,0.000000000000000000e+00,-1.971950079393517685e-01,-1.156091951461870604e-01,-3.667985376607502679e-01,0.000000000000000000e+00,0.000000000000000000e+00,0.000000000000000000e+00,0.000000000000000000e+00,-3.821272687699911463e-01,0.000000000000000000e+00,-4.884140668305220895e-02,-1.738351438557027562e-01,-2.266817269985800520e-01,-2.095450120384241000e-01,-1.971427160347317131e-01,0.000000000000000000e+00,0.000000000000000000e+00,0.000000000000000000e+00,0.000000000000000000e+00,-2.864020936956395147e-01,-1.433022632888432402e-01,0.000000000000000000e+00,-4.210212735430287068e-01,5.926485819687028755e-02,0.000000000000000000e+00,0.000000000000000000e+00,-2.405080307139146334e-01,-1.311222014841014194e-01,4.429999177877318173e-02,0.000000000000000000e+00,0.000000000000000000e+00,0.000000000000000000e+00,0.000000000000000000e+00,0.000000000000000000e+00,0.000000000000000000e+00,0.000000000000000000e+00,0.000000000000000000e+00,0.000000000000000000e+00,0.000000000000000000e+00,0.000000000000000000e+00,0.000000000000000000e+00,0.000000000000000000e+00,0.000000000000000000e+00,0.000000000000000000e+00,0.000000000000000000e+00,0.000000000000000000e+00,0.000000000000000000e+00,0.000000000000000000e+00,0.000000000000000000e+00,0.000000000000000000e+00,0.000000000000000000e+00,0.000000000000000000e+00,0.000000000000000000e+00,0.000000000000000000e+00,0.000000000000000000e+00,0.000000000000000000e+00,0.000000000000000000e+00,0.000000000000000000e+00,0.000000000000000000e+00,0.000000000000000000e+00,0.000000000000000000e+00,0.000000000000000000e+00,0.000000000000000000e+00,0.000000000000000000e+00,0.000000000000000000e+00,0.000000000000000000e+00,0.000000000000000000e+00,0.000000000000000000e+00,0.000000000000000000e+00,0.000000000000000000e+00,0.000000000000000000e+00,0.000000000000000000e+00,0.000000000000000000e+00,0.000000000000000000e+00,0.000000000000000000e+00,0.000000000000000000e+00,0.000000000000000000e+00,0.000000000000000000e+00,0.000000000000000000e+00,0.000000000000000000e+00,0.000000000000000000e+00,0.000000000000000000e+00,0.000000000000000000e+00,0.000000000000000000e+00,0.000000000000000000e+00,0.000000000000000000e+00,0.000000000000000000e+00,0.000000000000000000e+00,0.000000000000000000e+00,0.000000000000000000e+00,0.000000000000000000e+00,0.000000000000000000e+00,0.000000000000000000e+00,0.000000000000000000e+00,0.000000000000000000e+00,0.000000000000000000e+00,0.000000000000000000e+00,0.000000000000000000e+00,0.000000000000000000e+00,0.000000000000000000e+00,0.000000000000000000e+00,0.000000000000000000e+00,0.000000000000000000e+00,0.000000000000000000e+00,0.000000000000000000e+00,0.000000000000000000e+00,0.000000000000000000e+00,0.000000000000000000e+00,0.000000000000000000e+00,0.000000000000000000e+00,0.000000000000000000e+00,0.000000000000000000e+00,0.000000000000000000e+00,0.000000000000000000e+00,0.000000000000000000e+00,0.000000000000000000e+00,0.000000000000000000e+00,0.000000000000000000e+00,0.000000000000000000e+00,0.000000000000000000e+00,0.000000000000000000e+00,0.000000000000000000e+00,0.000000000000000000e+00,0.000000000000000000e+00,0.000000000000000000e+00,0.000000000000000000e+00,0.000000000000000000e+00,0.000000000000000000e+00,-1.932447391725577446e-01,-1.212686265325241541e-01,-4.273411479705004901e-01,-2.285521332252511695e-01,-1.156091951461870604e-01,-1.826264124841319725e-01,0.000000000000000000e+00,0.000000000000000000e+00,0.000000000000000000e+00,0.000000000000000000e+00,0.000000000000000000e+00,0.000000000000000000e+00,0.000000000000000000e+00,0.000000000000000000e+00,0.000000000000000000e+00,0.000000000000000000e+00,0.000000000000000000e+00,0.000000000000000000e+00,0.000000000000000000e+00,0.000000000000000000e+00,6.272653404758556095e-02,0.000000000000000000e+00,6.272653404758556095e-02,0.000000000000000000e+00,0.000000000000000000e+00,0.000000000000000000e+00,0.000000000000000000e+00,0.000000000000000000e+00,0.000000000000000000e+00,0.000000000000000000e+00,0.000000000000000000e+00,0.000000000000000000e+00,0.000000000000000000e+00,0.000000000000000000e+00,0.000000000000000000e+00,0.000000000000000000e+00,0.000000000000000000e+00,0.000000000000000000e+00,0.000000000000000000e+00,0.000000000000000000e+00
0.000000000000000000e+00,0.000000000000000000e+00,0.000000000000000000e+00,0.000000000000000000e+00,0.000000000000000000e+00,0.000000000000000000e+00,0.000000000000000000e+00,0.000000000000000000e+00,0.000000000000000000e+00,0.000000000000000000e+00,-1.798841433678065663e-02,-1.050020314981605675e-02,0.000000000000000000e+00,0.000000000000000000e+00,0.000000000000000000e+00,0.000000000000000000e+00,0.000000000000000000e+00,-3.141183985590320082e-01,0.000000000000000000e+00,0.000000000000000000e+00,-2.170851330199429219e-01,-2.469478748980868110e-01,-1.995930080831346543e-01,0.000000000000000000e+00,-1.782264449060431410e-01,0.000000000000000000e+00,0.000000000000000000e+00,0.000000000000000000e+00,5.032747582012343096e-02,-4.632627454526250244e-02,-4.163466558421310970e-02,-1.050020314981605675e-02,0.000000000000000000e+00,0.000000000000000000e+00,0.000000000000000000e+00,0.000000000000000000e+00,0.000000000000000000e+00,0.000000000000000000e+00,-3.824982363985022782e-01,0.000000000000000000e+00,-3.222639888125092278e-01,-4.145793310702889367e-01,-1.974360925918429155e-01,0.000000000000000000e+00,0.000000000000000000e+00,0.000000000000000000e+00,0.000000000000000000e+00,-2.333617347336480741e-01,-2.623709834422064402e-01,0.000000000000000000e+00,-8.904721734165399472e-02,-2.308903397742508024e-01,0.000000000000000000e+00,0.000000000000000000e+00,-1.482863914599894806e-01,-6.495805184169559099e-02,-4.163466558421310970e-02,0.000000000000000000e+00,-6.713811546863406032e-02,-1.903942787903471490e-01,-4.160277012253347784e-01,0.000000000000000000e+00,0.000000000000000000e+00,-4.355034014342784032e-01,-3.248727775811606211e-01,-1.147267787618547474e-01,-4.632627454526250244e-02,0.000000000000000000e+00,0.000000000000000000e+00,0.000000000000000000e+00,0.000000000000000000e+00,0.000000000000000000e+00,0.000000000000000000e+00,-1.798994501531095691e-01,-1.156091951461870604e-01,0.000000000000000000e+00,0.000000000000000000e+00,0.000000000000000000e+00,0.000000000000000000e+00,-2.671705745098362228e-01,-3.552782973982199777e-01,0.000000000000000000e+00,-1.309561770884068721e-01,-1.738351438557027562e-01,-2.246006273066647740e-01,-1.629078980663531129e-01,-1.305391425300431174e-01,0.000000000000000000e+00,0.000000000000000000e+00,0.000000000000000000e+00,0.000000000000000000e+00,-2.144823675659358608e-01,0.000000000000000000e+00,0.000000000000000000e+00,0.000000000000000000e+00,0.000000000000000000e+00,0.000000000000000000e+00,0.000000000000000000e+00,-1.723345164315506772e-01,-1.001747086798180641e-01,0.000000000000000000e+00,0.000000000000000000e+00,0.000000000000000000e+00,0.000000000000000000e+00,0.000000000000000000e+00,0.000000000000000000e+00,0.000000000000000000e+00,0.000000000000000000e+00,0.000000000000000000e+00,0.000000000000000000e+00,0.000000000000000000e+00,0.000000000000000000e+00,0.000000000000000000e+00,0.000000000000000000e+00,0.000000000000000000e+00,0.000000000000000000e+00,0.000000000000000000e+00,0.000000000000000000e+00,0.000000000000000000e+00,0.000000000000000000e+00,0.000000000000000000e+00,0.000000000000000000e+00,0.000000000000000000e+00,0.000000000000000000e+00,0.000000000000000000e+00,0.000000000000000000e+00,0.000000000000000000e+00,0.000000000000000000e+00,0.000000000000000000e+00,0.000000000000000000e+00,0.000000000000000000e+00,0.000000000000000000e+00,0.000000000000000000e+00,0.000000000000000000e+00,0.000000000000000000e+00,0.000000000000000000e+00,0.000000000000000000e+00,0.000000000000000000e+00,0.000000000000000000e+00,0.000000000000000000e+00,0.000000000000000000e+00,0.000000000000000000e+00,0.000000000000000000e+00,0.000000000000000000e+00,0.000000000000000000e+00,0.000000000000000000e+00,0.000000000000000000e+00,0.000000000000000000e+00,0.000000000000000000e+00,0.000000000000000000e+00,0.000000000000000000e+00,0.000000000000000000e+00,0.000000000000000000e+00,0.000000000000000000e+00,0.000000000000000000e+00,0.000000000000000000e+00,0.000000000000000000e+00,0.000000000000000000e+00,0.000000000000000000e+00,0.000000000000000000e+00,0.000000000000000000e+00,0.000000000000000000e+00,0.000000000000000000e+00,0.000000000000000000e+00,0.000000000000000000e+00,0.000000000000000000e+00,0.000000000000000000e+00,0.000000000000000000e+00,0.000000000000000000e+00,0.000000000000000000e+00,0.000000000000000000e+00,0.000000000000000000e+00,0.000000000000000000e+00,0.000000000000000000e+00,0.000000000000000000e+00,0.000000000000000000e+00,0.000000000000000000e+00,0.000000000000000000e+00,0.000000000000000000e+00,0.000000000000000000e+00,0.000000000000000000e+00,0.000000000000000000e+00,0.000000000000000000e+00,0.000000000000000000e+00,0.000000000000000000e+00,0.000000000000000000e+00,0.000000000000000000e+00,0.000000000000000000e+00,0.000000000000000000e+00,0.000000000000000000e+00,0.000000000000000000e+00,0.000000000000000000e+00,0.000000000000000000e+00,0.000000000000000000e+00,0.000000000000000000e+00,0.000000000000000000e+00,0.000000000000000000e+00,0.000000000000000000e+00,0.000000000000000000e+00,0.000000000000000000e+00,-1.495389597034052775e-01,0.000000000000000000e+00,-2.720833772188498978e-01,-1.428790944776313909e-01,-4.884140668305220895e-02,-1.887550425985651537e-01,0.000000000000000000e+00,0.000000000000000000e+00,0.000000000000000000e+00,0.000000000000000000e+00,0.000000000000000000e+00,0.000000000000000000e+00,0.000000000000000000e+00,0.000000000000000000e+00,6.272653404758556095e-02,0.000000000000000000e+00,0.000000000000000000e+00,0.000000000000000000e+00,0.000000000000000000e+00,0.000000000000000000e+00,0.000000000000000000e+00,0.000000000000000000e+00,6.272653404758556095e-02,0.000000000000000000e+00,0.000000000000000000e+00,0.000000000000000000e+00,0.000000000000000000e+00,0.000000000000000000e+00,0.000000000000000000e+00,0.000000000000000000e+00,0.000000000000000000e+00,0.000000000000000000e+00,0.000000000000000000e+00,0.000000000000000000e+00,0.000000000000000000e+00,0.000000000000000000e+00,0.000000000000000000e+00,0.000000000000000000e+00,0.000000000000000000e+00,0.000000000000000000e+00
0.000000000000000000e+00,0.000000000000000000e+00,0.000000000000000000e+00,0.000000000000000000e+00,0.000000000000000000e+00,0.000000000000000000e+00,0.000000000000000000e+00,0.000000000000000000e+00,0.000000000000000000e+00,0.000000000000000000e+00,-1.798841433678065663e-02,-1.050020314981605675e-02,-2.688254235296009265e-01,0.000000000000000000e+00,0.000000000000000000e+00,-1.027938041932662389e-01,0.000000000000000000e+00,-2.404684415187704760e-01,0.000000000000000000e+00,0.000000000000000000e+00,-2.279942209965756805e-01,-2.170851330199429219e-01,-3.547691107440109071e-01,-3.301296531751452545e-01,-1.175073497853236087e-01,0.000000000000000000e+00,-2.998994038354145242e-01,0.000000000000000000e+00,0.000000000000000000e+00,-4.632627454526250244e-02,-4.163466558421310970e-02,5.926485819687028755e-02,0.000000000000000000e+00,0.000000000000000000e+00,0.000000000000000000e+00,0.000000000000000000e+00,0.000000000000000000e+00,0.000000000000000000e+00,-4.150913774136126277e-01,0.000000000000000000e+00,-3.274833337016462287e-01,-4.273411479705004901e-01,-2.483113604355813298e-01,0.000000000000000000e+00,0.000000000000000000e+00,0.000000000000000000e+00,0.000000000000000000e+00,-3.484584219108482483e-01,-3.991162203412401133e-01,0.000000000000000000e+00,-1.243310825403418085e-01,0.000000000000000000e+00,0.000000000000000000e+00,0.000000000000000000e+00,0.000000000000000000e+00,0.000000000000000000e+00,-4.163466558421310970e-02,-1.405352427178382935e-01,0.000000000000000000e+00,-2.179905814040874468e-01,-3.495082460408499569e-01,-4.296353190333562777e-01,-4.962708501650248683e-01,-3.221283066938562256e-01,-1.995163280301209541e-01,-2.010204120326630206e-01,-4.884140668305220895e-02,0.000000000000000000e+00,0.000000000000000000e+00,0.000000000000000000e+00,-3.057208005151075270e-01,-2.379550499638860214e-02,0.000000000000000000e+00,-2.292120946843148876e-01,-1.834747547505543586e-01,-3.097739743285749525e-01,0.000000000000000000e+00,0.000000000000000000e+00,0.000000000000000000e+00,-1.667912742873373100e-01,-9.717783602328694537e-02,0.000000000000000000e+00,0.000000000000000000e+00,0.000000000000000000e+00,-1.823398728011047243e-01,-1.723345164315506772e-01,0.000000000000000000e+00,-2.947326810456584734e-01,0.000000000000000000e+00,0.000000000000000000e+00,0.000000000000000000e+00,-1.649694768371607334e-01,0.000000000000000000e+00,0.000000000000000000e+00,-3.033806843850826440e-01,0.000000000000000000e+00,0.000000000000000000e+00,0.000000000000000000e+00,-2.170851330199429219e-01,-1.734120020970083831e-01,0.000000000000000000e+00,0.000000000000000000e+00,0.000000000000000000e+00,0.000000000000000000e+00,0.000000000000000000e+00,0.000000000000000000e+00,0.000000000000000000e+00,0.000000000000000000e+00,0.000000000000000000e+00,0.000000000000000000e+00,0.000000000000000000e+00,0.000000000000000000e+00,0.000000000000000000e+00,0.000000000000000000e+00,0.000000000000000000e+00,0.000000000000000000e+00,0.000000000000000000e+00,0.000000000000000000e+00,0.000000000000000000e+00,0.000000000000000000e+00,0.000000000000000000e+00,0.000000000000000000e+00,0.000000000000000000e+00,0.000000000000000000e+00,0.000000000000000000e+00,0.000000000000000000e+00,0.000000000000000000e+00,0.000000000000000000e+00,0.000000000000000000e+00,0.000000000000000000e+00,0.000000000000000000e+00,0.000000000000000000e+00,8.338729128464457407e-02,0.000000000000000000e+00,0.000000000000000000e+00,0.000000000000000000e+00,0.000000000000000000e+00,0.000000000000000000e+00,0.000000000000000000e+00,0.000000000000000000e+00,0.000000000000000000e+00,0.000000000000000000e+00,0.000000000000000000e+00,0.000000000000000000e+00,0.000000000000000000e+00,0.000000000000000000e+00,0.000000000000000000e+00,0.000000000000000000e+00,0.000000000000000000e+00,0.000000000000000000e+00,0.000000000000000000e+00,0.000000000000000000e+00,0.000000000000000000e+00,0.000000000000000000e+00,0.000000000000000000e+00,0.000000000000000000e+00,0.000000000000000000e+00,0.000000000000000000e+00,0.000000000000000000e+00,0.000000000000000000e+00,0.000000000000000000e+00,0.000000000000000000e+00,0.000000000000000000e+00,0.000000000000000000e+00,0.000000000000000000e+00,0.000000000000000000e+00,0.000000000000000000e+00,0.000000000000000000e+00,0.000000000000000000e+00,0.000000000000000000e+00,0.000000000000000000e+00,0.000000000000000000e+00,0.000000000000000000e+00,0.000000000000000000e+00,0.000000000000000000e+00,0.000000000000000000e+00,0.000000000000000000e+00,0.000000000000000000e+00,0.000000000000000000e+00,0.000000000000000000e+00,0.000000000000000000e+00,0.000000000000000000e+00,0.000000000000000000e+00,0.000000000000000000e+00,0.000000000000000000e+00,0.000000000000000000e+00,0.000000000000000000e+00,0.000000000000000000e+00,0.000000000000000000e+00,0.000000000000000000e+00,0.000000000000000000e+00,0.000000000000000000e+00,0.000000000000000000e+00,0.000000000000000000e+00,0.000000000000000000e+00,0.000000000000000000e+00,0.000000000000000000e+00,0.000000000000000000e+00,0.000000000000000000e+00,0.000000000000000000e+00,-1.796544730564453018e-01,-1.986206087090306716e-01,-4.501114614510956513e-01,0.000000000000000000e+00,4.798364624926579336e-02,-1.963417717984791422e-01,0.000000000000000000e+00,0.000000000000000000e+00,0.000000000000000000e+00,0.000000000000000000e+00,0.000000000000000000e+00,0.000000000000000000e+00,0.000000000000000000e+00,0.000000000000000000e+00,0.000000000000000000e+00,0.000000000000000000e+00,0.000000000000000000e+00,0.000000000000000000e+00,0.000000000000000000e+00,0.000000000000000000e+00,6.272653404758556095e-02,0.000000000000000000e+00,0.000000000000000000e+00,0.000000000000000000e+00,0.000000000000000000e+00,0.000000000000000000e+00,0.000000000000000000e+00,0.000000000000000000e+00,0.000000000000000000e+00,0.000000000000000000e+00,0.000000000000000000e+00,0.000000000000000000e+00,0.000000000000000000e+00,0.000000000000000000e+00,0.000000000000000000e+00,0.000000000000000000e+00,0.000000000000000000e+00,0.000000000000000000e+00,0.000000000000000000e+00,0.000000000000000000e+00
0.000000000000000000e+00,0.000000000000000000e+00,0.000000000000000000e+00,0.000000000000000000e+00,0.000000000000000000e+00,0.000000000000000000e+00,0.000000000000000000e+00,0.000000000000000000e+00,0.000000000000000000e+00,0.000000000000000000e+00,-1.050020314981605675e-02,-1.050020314981605675e-02,-2.872859420191600788e-01,0.000000000000000000e+00,-1.507224282631727807e-01,-2.516566125242697405e-01,-1.264408107939594128e-01,-3.267024578738478846e-01,-9.607059719987565138e-02,-5.185718054265708865e-02,-2.246006273066647740e-01,-2.668229990659576334e-01,-4.285739783242568102e-01,-5.181576708638305773e-01,-2.031902106259499130e-01,0.000000000000000000e+00,-5.426037717863160248e-01,-3.537508880856684579e-01,5.032747582012343096e-02,-4.632627454526250244e-02,-9.351566491919106883e-02,-1.708764788793335765e-01,0.000000000000000000e+00,0.000000000000000000e+00,0.000000000000000000e+00,-2.234813683865864431e-01,-1.316693427195608224e-01,3.860120653045106404e-02,-5.120848359157348373e-01,-4.198046547529042383e-01,-4.147494797161668800e-01,-5.585375434030711572e-01,-4.498690006145790177e-01,-2.679228959557155565e-01,-3.202402260207003470e-01,0.000000000000000000e+00,-2.769128393708734648e-01,-4.665995495279470218e-01,-5.398358551424485841e-01,0.000000000000000000e+00,-2.733229398139608302e-01,-2.836573285127743094e-01,-1.089329632383462948e-01,-3.516253084127612255e-02,-4.884140668305220895e-02,-1.629078980663531129e-01,-4.632627454526250244e-02,-1.916297418077766157e-01,-2.301909952462429798e-01,-1.079309952319016941e-01,-4.439368486990030171e-01,-5.866543765489521389e-01,-4.860248985179624337e-01,-5.713851347461398333e-01,-4.700659331074432123e-01,-2.501065073147332174e-01,-4.163466558421310970e-02,0.000000000000000000e+00,-2.938066398818600100e-01,-1.662049398545902557e-01,-3.624329828218343375e-01,-2.516767711867715432e-02,0.000000000000000000e+00,-2.052817579780762125e-01,-1.916297418077766157e-01,-3.577393109295006757e-01,-2.516767711867715432e-02,-2.276711084766458726e-01,0.000000000000000000e+00,-1.397520738796789730e-01,-2.179680647642859015e-01,4.438485212889699966e-02,-1.742329459376480150e-01,-1.738351438557027562e-01,-2.654555592071173309e-01,-2.533647157704730923e-01,-2.174558350482924673e-01,0.000000000000000000e+00,0.000000000000000000e+00,0.000000000000000000e+00,0.000000000000000000e+00,-3.254927360276454462e-01,0.000000000000000000e+00,0.000000000000000000e+00,-4.994544740250974058e-01,-1.708764788793335765e-01,0.000000000000000000e+00,-4.884140668305220895e-02,-2.469478748980868110e-01,-1.734120020970083831e-01,0.000000000000000000e+00,0.000000000000000000e+00,0.000000000000000000e+00,0.000000000000000000e+00,1.795425453406838123e-01,8.338729128464457407e-02,0.000000000000000000e+00,0.000000000000000000e+00,3.115683514855824288e-02,0.000000000000000000e+00,0.000000000000000000e+00,0.000000000000000000e+00,0.000000000000000000e+00,0.000000000000000000e+00,0.000000000000000000e+00,3.159753999008412806e-01,0.000000000000000000e+00,0.000000000000000000e+00,0.000000000000000000e+00,0.000000000000000000e+00,0.000000000000000000e+00,0.000000000000000000e+00,0.000000000000000000e+00,0.000000000000000000e+00,0.000000000000000000e+00,2.169779815276081103e-01,1.887328206826649479e-01,0.000000000000000000e+00,0.000000000000000000e+00,0.000000000000000000e+00,0.000000000000000000e+00,2.142235206890010513e-01,9.669294968601389872e-02,0.000000000000000000e+00,0.000000000000000000e+00,0.000000000000000000e+00,0.000000000000000000e+00,0.000000000000000000e+00,0.000000000000000000e+00,0.000000000000000000e+00,0.000000000000000000e+00,0.000000000000000000e+00,0.000000000000000000e+00,0.000000000000000000e+00,0.000000000000000000e+00,0.000000000000000000e+00,0.000000000000000000e+00,0.000000000000000000e+00,0.000000000000000000e+00,0.000000000000000000e+00,0.000000000000000000e+00,0.000000000000000000e+00,0.000000000000000000e+00,0.000000000000000000e+00,0.000000000000000000e+00,0.000000000000000000e+00,0.000000000000000000e+00,0.000000000000000000e+00,0.000000000000000000e+00,0.000000000000000000e+00,0.000000000000000000e+00,0.000000000000000000e+00,0.000000000000000000e+00,0.000000000000000000e+00,0.000000000000000000e+00,0.000000000000000000e+00,0.000000000000000000e+00,0.000000000000000000e+00,0.000000000000000000e+00,0.000000000000000000e+00,0.000000000000000000e+00,0.000000000000000000e+00,0.000000000000000000e+00,0.000000000000000000e+00,0.000000000000000000e+00,0.000000000000000000e+00,0.000000000000000000e+00,0.000000000000000000e+00,0.000000000000000000e+00,0.000000000000000000e+00,0.000000000000000000e+00,0.000000000000000000e+00,0.000000000000000000e+00,3.107272370736161027e-01,0.000000000000000000e+00,0.000000000000000000e+00,0.000000000000000000e+00,0.000000000000000000e+00,0.000000000000000000e+00,0.000000000000000000e+00,0.000000000000000000e+00,0.000000000000000000e+00,0.000000000000000000e+00,8.334261374477568152e-02,-1.754345384951511025e-03,0.000000000000000000e+00,0.000000000000000000e+00,0.000000000000000000e+00,0.000000000000000000e+00,0.000000000000000000e+00,-1.932447391725577446e-01,-3.528907806120178958e-01,-5.078796134336958090e-01,-2.442050017669774031e-01,-4.843658906551575466e-02,-2.537797391632543031e-01,-1.085544428326527810e-01,0.000000000000000000e+00,0.000000000000000000e+00,0.000000000000000000e+00,0.000000000000000000e+00,0.000000000000000000e+00,0.000000000000000000e+00,0.000000000000000000e+00,0.000000000000000000e+00,0.000000000000000000e+00,0.000000000000000000e+00,0.000000000000000000e+00,0.000000000000000000e+00,0.000000000000000000e+00,0.000000000000000000e+00,0.000000000000000000e+00,6.272653404758556095e-02,0.000000000000000000e+00,0.000000000000000000e+00,0.000000000000000000e+00,0.000000000000000000e+00,0.000000000000000000e+00,0.000000000000000000e+00,0.000000000000000000e+00,0.000000000000000000e+00,0.000000000000000000e+00,0.000000000000000000e+00,0.000000000000000000e+00,0.000000000000000000e+00,0.000000000000000000e+00,0.000000000000000000e+00,0.000000000000000000e+00,0.000000000000000000e+00,0.000000000000000000e+00
0.000000000000000000e+00,0.000000000000000000e+00,0.000000000000000000e+00,0.000000000000000000e+00,0.000000000000000000e+00,0.000000000000000000e+00,0.000000000000000000e+00,0.000000000000000000e+00,0.000000000000000000e+00,0.000000000000000000e+00,0.000000000000000000e+00,-2.516767711867715432e-02,-2.929959580937360752e-01,0.000000000000000000e+00,-2.285263211967401564e-01,-2.406491288712520604e-01,-7.531214900907937104e-02,-3.524976846939010255e-01,-2.886335582645570552e-01,-2.500302940349823436e-02,-2.908607404011233633e-01,-2.830744187726134675e-01,-4.796684256013160064e-01,0.000000000000000000e+00,-2.526966592938105771e-01,-3.697926676989234385e-01,-5.960592039879691884e-01,-3.879312590978589159e-01,-1.798841433678065663e-02,-1.223468212068520716e-01,-1.322485234326414849e-01,-4.445915666280782913e-02,0.000000000000000000e+00,-4.445915666280782913e-02,-3.312982602472860361e-01,-1.525654215427303673e-01,-7.531214900907937104e-02,-1.316693427195608224e-01,-5.003464194897397910e-01,-4.260932054576904715e-01,-3.958748489498717382e-01,-4.721507195136217527e-01,-4.705180332097108065e-01,-2.131977858981793095e-01,-4.278455566390887421e-01,0.000000000000000000e+00,0.000000000000000000e+00,-4.864118317411555426e-01,-5.323245987052540595e-01,-2.141837527397358887e-01,-2.537486781968110727e-01,-3.367910997789770877e-01,0.000000000000000000e+00,0.000000000000000000e+00,0.000000000000000000e+00,0.000000000000000000e+00,0.000000000000000000e+00,-4.445915666280782913e-02,-2.481239598162561510e-01,-1.868393439804155454e-01,-4.483682066412827405e-01,-6.266374953753215404e-01,-5.658911857820393410e-01,-5.318493596017951353e-01,-4.674814729165907567e-01,-4.114643725277088993e-01,0.000000000000000000e+00,0.000000000000000000e+00,0.000000000000000000e+00,0.000000000000000000e+00,-4.468259548526721803e-01,0.000000000000000000e+00,0.000000000000000000e+00,-2.554707299723839586e-01,0.000000000000000000e+00,-4.131114446216232472e-01,0.000000000000000000e+00,0.000000000000000000e+00,0.000000000000000000e+00,-2.848034293865819300e-01,-4.641352244189373422e-01,-2.971793080238884777e-01,-1.812985482551052185e-01,-2.778084793758607840e-01,-2.642573425657542829e-01,-2.331518713252429265e-01,0.000000000000000000e+00,0.000000000000000000e+00,0.000000000000000000e+00,0.000000000000000000e+00,-3.101044261107349098e-01,-2.062351245257127708e-01,0.000000000000000000e+00,0.000000000000000000e+00,-4.055959288093761717e-01,0.000000000000000000e+00,0.000000000000000000e+00,-4.884140668305220895e-02,-2.152841016050852929e-01,-1.740357947052867393e-01,0.000000000000000000e+00,0.000000000000000000e+00,-2.379550499638860214e-02,0.000000000000000000e+00,-1.483920529751972528e-02,1.121891902609402011e-02,0.000000000000000000e+00,0.000000000000000000e+00,2.109888516909073919e-02,0.000000000000000000e+00,-9.861749355058001612e-03,0.000000000000000000e+00,0.000000000000000000e+00,0.000000000000000000e+00,0.000000000000000000e+00,0.000000000000000000e+00,0.000000000000000000e+00,0.000000000000000000e+00,0.000000000000000000e+00,4.653302843350884954e-01,0.000000000000000000e+00,0.000000000000000000e+00,0.000000000000000000e+00,0.000000000000000000e+00,0.000000000000000000e+00,0.000000000000000000e+00,0.000000000000000000e+00,0.000000000000000000e+00,0.000000000000000000e+00,5.271845993531257824e-01,0.000000000000000000e+00,2.063390617567825436e-01,1.121891902609402011e-02,0.000000000000000000e+00,0.000000000000000000e+00,0.000000000000000000e+00,0.000000000000000000e+00,0.000000000000000000e+00,0.000000000000000000e+00,0.000000000000000000e+00,0.000000000000000000e+00,3.646706531620257374e-01,0.000000000000000000e+00,0.000000000000000000e+00,0.000000000000000000e+00,0.000000000000000000e+00,0.000000000000000000e+00,0.000000000000000000e+00,0.000000000000000000e+00,0.000000000000000000e+00,0.000000000000000000e+00,0.000000000000000000e+00,0.000000000000000000e+00,0.000000000000000000e+00,0.000000000000000000e+00,0.000000000000000000e+00,0.000000000000000000e+00,0.000000000000000000e+00,0.000000000000000000e+00,0.000000000000000000e+00,0.000000000000000000e+00,0.000000000000000000e+00,0.000000000000000000e+00,0.000000000000000000e+00,0.000000000000000000e+00,0.000000000000000000e+00,0.000000000000000000e+00,0.000000000000000000e+00,0.000000000000000000e+00,0.000000000000000000e+00,0.000000000000000000e+00,0.000000000000000000e+00,0.000000000000000000e+00,0.000000000000000000e+00,0.000000000000000000e+00,0.000000000000000000e+00,0.000000000000000000e+00,0.000000000000000000e+00,0.000000000000000000e+00,0.000000000000000000e+00,0.000000000000000000e+00,0.000000000000000000e+00,0.000000000000000000e+00,1.048996414428815110e-01,0.000000000000000000e+00,0.000000000000000000e+00,0.000000000000000000e+00,0.000000000000000000e+00,0.000000000000000000e+00,0.000000000000000000e+00,0.000000000000000000e+00,0.000000000000000000e+00,0.000000000000000000e+00,1.048996414428815110e-01,0.000000000000000000e+00,0.000000000000000000e+00,0.000000000000000000e+00,0.000000000000000000e+00,0.000000000000000000e+00,4.625450428771489819e-01,-2.218715317416349864e-01,-2.242555731079770576e-01,-5.938477000633128888e-01,-2.101182635414628741e-01,-1.050020314981605675e-02,-3.469490076717738347e-01,-3.977196469163334913e-01,0.000000000000000000e+00,0.000000000000000000e+00,0.000000000000000000e+00,0.000000000000000000e+00,0.000000000000000000e+00,0.000000000000000000e+00,0.000000000000000000e+00,0.000000000000000000e+00,0.000000000000000000e+00,0.000000000000000000e+00,0.000000000000000000e+00,0.000000000000000000e+00,0.000000000000000000e+00,0.000000000000000000e+00,0.000000000000000000e+00,0.000000000000000000e+00,0.000000000000000000e+00,0.000000000000000000e+00,0.000000000000000000e+00,0.000000000000000000e+00,0.000000000000000000e+00,0.000000000000000000e+00,0.000000000000000000e+00,0.000000000000000000e+00,0.000000000000000000e+00,0.000000000000000000e+00,0.000000000000000000e+00,0.000000000000000000e+00,0.000000000000000000e+00,0.000000000000000000e+00,0.000000000000000000e+00,0.000000000000000000e+00,0.000000000000000000e+00
0.000000000000000000e+00,0.000000000000000000e+00,0.000000000000000000e+00,0.000000000000000000e+00,0.000000000000000000e+00,0.000000000000000000e+00,0.000000000000000000e+00,0.000000000000000000e+00,0.000000000000000000e+00,0.000000000000000000e+00,0.000000000000000000e+00,0.000000000000000000e+00,-2.836952153590733272e-01,-2.719505391785435044e-01,-2.265992755246036827e-01,-3.106874419910064522e-01,-7.531214900907937104e-02,-2.932261044753973755e-01,-2.136292000009720748e-01,-2.500302940349823436e-02,-2.474548552087587339e-01,-2.668229990659576334e-01,-5.047065879452444781e-01,-3.213375483499018026e-01,-1.921036518516702485e-01,-2.062232493608857631e-01,-5.782646111562418367e-01,-5.002098681823997639e-01,5.926485819687028755e-02,-6.520994245201539030e-02,-3.733993666392219218e-02,-2.516767711867715432e-02,0.000000000000000000e+00,-5.962529005171318675e-02,-3.587816069297584121e-01,-1.011371899430259930e-01,-1.316693427195608224e-01,-4.445915666280782913e-02,-4.389665875288332741e-01,-3.554865111479683648e-01,-3.905569367243768020e-01,-5.026672244378034282e-01,-5.019456861899580513e-01,-2.880431032730684793e-01,-3.657145899911150577e-01,0.000000000000000000e+00,-2.117262971726181497e-01,-5.207788769045809119e-01,-4.835104467414644280e-01,0.000000000000000000e+00,-2.646935433795943871e-01,-1.987078501115771278e-01,0.000000000000000000e+00,-1.680745385071840126e-01,-2.127326276955081308e-01,-3.733993666392219218e-02,-4.163466558421310970e-02,0.000000000000000000e+00,-1.520888035315721420e-01,-1.648018174046082251e-01,-5.169640446084028396e-01,-5.422716221880683474e-01,-6.161769716119761542e-01,-5.538942491061941142e-01,-5.354210603362234977e-01,-4.252203613123725079e-01,-3.733993666392219218e-02,-1.332739419985997376e-01,-4.179169312481701426e-01,0.000000000000000000e+00,-4.983764939051946730e-01,0.000000000000000000e+00,0.000000000000000000e+00,-2.797117094278597782e-01,-1.142998676069778424e-01,-3.446417916845477825e-01,-2.910514127982853291e-02,-2.115864745306778316e-01,0.000000000000000000e+00,-3.637609773775006272e-01,-1.883015812916465082e-01,-2.780071310558361319e-01,-2.016268352217180648e-01,-1.591372499941407503e-01,-2.694153592522720575e-01,-2.331518713252429265e-01,-1.875922659131906700e-01,-1.590452579270045796e-01,-2.662935680816624906e-01,0.000000000000000000e+00,0.000000000000000000e+00,-2.326794720597355481e-01,0.000000000000000000e+00,0.000000000000000000e+00,-4.875005978117980532e-01,-2.516767711867715432e-02,-2.516767711867715432e-02,-1.013272483850030485e-02,-2.447765544704683660e-01,-1.921036518516702485e-01,0.000000000000000000e+00,0.000000000000000000e+00,0.000000000000000000e+00,0.000000000000000000e+00,6.578105021052692292e-02,-3.364912023763526154e-03,0.000000000000000000e+00,0.000000000000000000e+00,0.000000000000000000e+00,-2.516767711867715432e-02,-4.013254353677427749e-02,0.000000000000000000e+00,0.000000000000000000e+00,0.000000000000000000e+00,0.000000000000000000e+00,0.000000000000000000e+00,0.000000000000000000e+00,0.000000000000000000e+00,0.000000000000000000e+00,4.903112054070238313e-01,0.000000000000000000e+00,0.000000000000000000e+00,0.000000000000000000e+00,0.000000000000000000e+00,0.000000000000000000e+00,0.000000000000000000e+00,0.000000000000000000e+00,0.000000000000000000e+00,0.000000000000000000e+00,0.000000000000000000e+00,0.000000000000000000e+00,0.000000000000000000e+00,1.554514801717762039e-02,0.000000000000000000e+00,0.000000000000000000e+00,0.000000000000000000e+00,0.000000000000000000e+00,0.000000000000000000e+00,0.000000000000000000e+00,0.000000000000000000e+00,0.000000000000000000e+00,2.928469396096175514e-01,0.000000000000000000e+00,0.000000000000000000e+00,0.000000000000000000e+00,0.000000000000000000e+00,0.000000000000000000e+00,0.000000000000000000e+00,0.000000000000000000e+00,0.000000000000000000e+00,0.000000000000000000e+00,0.000000000000000000e+00,0.000000000000000000e+00,0.000000000000000000e+00,0.000000000000000000e+00,0.000000000000000000e+00,0.000000000000000000e+00,0.000000000000000000e+00,0.000000000000000000e+00,0.000000000000000000e+00,0.000000000000000000e+00,0.000000000000000000e+00,0.000000000000000000e+00,0.000000000000000000e+00,0.000000000000000000e+00,0.000000000000000000e+00,0.000000000000000000e+00,0.000000000000000000e+00,0.000000000000000000e+00,0.000000000000000000e+00,0.000000000000000000e+00,0.000000000000000000e+00,0.000000000000000000e+00,0.000000000000000000e+00,0.000000000000000000e+00,0.000000000000000000e+00,0.000000000000000000e+00,0.000000000000000000e+00,0.000000000000000000e+00,0.000000000000000000e+00,0.000000000000000000e+00,0.000000000000000000e+00,0.000000000000000000e+00,1.047151034082190041e-01,0.000000000000000000e+00,0.000000000000000000e+00,0.000000000000000000e+00,0.000000000000000000e+00,0.000000000000000000e+00,0.000000000000000000e+00,0.000000000000000000e+00,0.000000000000000000e+00,0.000000000000000000e+00,9.669294968601389872e-02,-2.516767711867715432e-02,0.000000000000000000e+00,0.000000000000000000e+00,0.000000000000000000e+00,0.000000000000000000e+00,0.000000000000000000e+00,-2.519924864903464456e-01,-6.291304821217386101e-02,-4.615548375331637310e-01,-3.092169365106485768e-01,-9.532347319823257503e-02,-3.997972747955311767e-01,0.000000000000000000e+00,0.000000000000000000e+00,0.000000000000000000e+00,0.000000000000000000e+00,0.000000000000000000e+00,0.000000000000000000e+00,0.000000000000000000e+00,0.000000000000000000e+00,0.000000000000000000e+00,0.000000000000000000e+00,0.000000000000000000e+00,0.000000000000000000e+00,0.000000000000000000e+00,0.000000000000000000e+00,0.000000000000000000e+00,0.000000000000000000e+00,6.272653404758556095e-02,0.000000000000000000e+00,0.000000000000000000e+00,0.000000000000000000e+00,0.000000000000000000e+00,0.000000000000000000e+00,0.000000000000000000e+00,0.000000000000000000e+00,0.000000000000000000e+00,0.000000000000000000e+00,0.000000000000000000e+00,0.000000000000000000e+00,0.000000000000000000e+00,0.000000000000000000e+00,0.000000000000000000e+00,0.000000000000000000e+00,0.000000000000000000e+00,0.000000000000000000e+00
0.000000000000000000e+00,0.000000000000000000e+00,0.000000000000000000e+00,0.000000000000000000e+00,0.000000000000000000e+00,0.000000000000000000e+00,0.000000000000000000e+00,0.000000000000000000e+00,0.000000000000000000e+00,0.000000000000000000e+00,0.000000000000000000e+00,0.000000000000000000e+00,0.000000000000000000e+00,-1.335815622916070866e-01,-3.452362712655290822e-01,-2.490772821348862243e-01,0.000000000000000000e+00,2.968215069303020009e-02,-1.881201750553441188e-01,-1.881201750553441188e-01,0.000000000000000000e+00,-2.917553159822740549e-01,-6.179432961417257175e-01,-6.334239644851208384e-01,-4.617255269443078514e-01,-4.818738699028520256e-01,-5.277343323130527786e-01,-2.771420763387850705e-01,0.000000000000000000e+00,0.000000000000000000e+00,-3.650840289627683699e-01,-3.479867906680428891e-01,-1.429754823615525527e-01,0.000000000000000000e+00,-3.164445166715675328e-01,-1.330742047169433118e-01,-1.881201750553441188e-01,-1.549144546359070562e-01,-3.013211023889716400e-01,-5.148809718860802853e-01,-2.242901034177445241e-01,-4.462923643895280179e-01,-6.004553571017304803e-01,-1.881201750553441188e-01,0.000000000000000000e+00,0.000000000000000000e+00,-3.283622425090300667e-01,0.000000000000000000e+00,-4.265545061865439469e-01,0.000000000000000000e+00,0.000000000000000000e+00,-2.262101520105565533e-01,0.000000000000000000e+00,0.000000000000000000e+00,0.000000000000000000e+00,0.000000000000000000e+00,0.000000000000000000e+00,0.000000000000000000e+00,-2.645787942627548794e-01,-3.116266234568370042e-01,-1.217249468489440267e-01,-3.761907133195044883e-01,-5.317325238242458507e-01,-5.059758337139775852e-01,-4.604051044035962215e-01,0.000000000000000000e+00,0.000000000000000000e+00,0.000000000000000000e+00,0.000000000000000000e+00,0.000000000000000000e+00,0.000000000000000000e+00,-2.212459872718666454e-01,-1.893602970613846859e-01,0.000000000000000000e+00,0.000000000000000000e+00,0.000000000000000000e+00,-3.208088832662178147e-01,0.000000000000000000e+00,-2.016045639398668932e-01,0.000000000000000000e+00,-1.621067702533173782e-01,0.000000000000000000e+00,0.000000000000000000e+00,0.000000000000000000e+00,0.000000000000000000e+00,0.000000000000000000e+00,0.000000000000000000e+00,0.000000000000000000e+00,0.000000000000000000e+00,0.000000000000000000e+00,0.000000000000000000e+00,-4.208321897137474732e-01,0.000000000000000000e+00,-3.376351869486632906e-01,-5.009393789120301088e-01,-3.991449060961715367e-01,-3.598000176805219996e-01,-2.798999147002637078e-01,-3.217120405765027669e-01,-2.817810828448254479e-01,0.000000000000000000e+00,0.000000000000000000e+00,0.000000000000000000e+00,0.000000000000000000e+00,0.000000000000000000e+00,0.000000000000000000e+00,0.000000000000000000e+00,0.000000000000000000e+00,0.000000000000000000e+00,0.000000000000000000e+00,0.000000000000000000e+00,0.000000000000000000e+00,0.000000000000000000e+00,0.000000000000000000e+00,0.000000000000000000e+00,0.000000000000000000e+00,0.000000000000000000e+00,0.000000000000000000e+00,0.000000000000000000e+00,0.000000000000000000e+00,0.000000000000000000e+00,0.000000000000000000e+00,0.000000000000000000e+00,0.000000000000000000e+00,0.000000000000000000e+00,0.000000000000000000e+00,0.000000000000000000e+00,0.000000000000000000e+00,0.000000000000000000e+00,0.000000000000000000e+00,0.000000000000000000e+00,0.000000000000000000e+00,0.000000000000000000e+00,0.000000000000000000e+00,0.000000000000000000e+00,0.000000000000000000e+00,0.000000000000000000e+00,0.000000000000000000e+00,0.000000000000000000e+00,0.000000000000000000e+00,0.000000000000000000e+00,0.000000000000000000e+00,0.000000000000000000e+00,0.000000000000000000e+00,0.000000000000000000e+00,0.000000000000000000e+00,0.000000000000000000e+00,0.000000000000000000e+00,0.000000000000000000e+00,0.000000000000000000e+00,0.000000000000000000e+00,0.000000000000000000e+00,0.000000000000000000e+00,0.000000000000000000e+00,0.000000000000000000e+00,0.000000000000000000e+00,0.000000000000000000e+00,0.000000000000000000e+00,0.000000000000000000e+00,0.000000000000000000e+00,0.000000000000000000e+00,0.000000000000000000e+00,0.000000000000000000e+00,0.000000000000000000e+00,0.000000000000000000e+00,0.000000000000000000e+00,0.000000000000000000e+00,0.000000000000000000e+00,0.000000000000000000e+00,0.000000000000000000e+00,0.000000000000000000e+00,0.000000000000000000e+00,0.000000000000000000e+00,0.000000000000000000e+00,0.000000000000000000e+00,0.000000000000000000e+00,0.000000000000000000e+00,0.000000000000000000e+00,0.000000000000000000e+00,0.000000000000000000e+00,0.000000000000000000e+00,0.000000000000000000e+00,0.000000000000000000e+00,0.000000000000000000e+00,0.000000000000000000e+00,0.000000000000000000e+00,0.000000000000000000e+00,0.000000000000000000e+00,0.000000000000000000e+00,0.000000000000000000e+00,0.000000000000000000e+00,0.000000000000000000e+00,0.000000000000000000e+00,0.000000000000000000e+00,0.000000000000000000e+00,0.000000000000000000e+00,1.778599283920416149e-02,0.000000000000000000e+00,0.000000000000000000e+00,0.000000000000000000e+00,-5.389236529074596938e-01,0.000000000000000000e+00,-6.529534142601974844e-01,-3.634551421492349110e-01,-5.538010951831429107e-01,-2.727054603877813177e-01,0.000000000000000000e+00,0.000000000000000000e+00,0.000000000000000000e+00,0.000000000000000000e+00,0.000000000000000000e+00,0.000000000000000000e+00,0.000000000000000000e+00,0.000000000000000000e+00,0.000000000000000000e+00,0.000000000000000000e+00,0.000000000000000000e+00,0.000000000000000000e+00,0.000000000000000000e+00,0.000000000000000000e+00,0.000000000000000000e+00,0.000000000000000000e+00,0.000000000000000000e+00,0.000000000000000000e+00,0.000000000000000000e+00,0.000000000000000000e+00,0.000000000000000000e+00,0.000000000000000000e+00,0.000000000000000000e+00,0.000000000000000000e+00,0.000000000000000000e+00,0.000000000000000000e+00,0.000000000000000000e+00,0.000000000000000000e+00,0.000000000000000000e+00,0.000000000000000000e+00,0.000000000000000000e+00,0.000000000000000000e+00,0.000000000000000000e+00,0.000000000000000000e+00
0.000000000000000000e+00,0.000000000000000000e+00,0.000000000000000000e+00,0.000000000000000000e+00,0.000000000000000000e+00,0.000000000000000000e+00,0.000000000000000000e+00,0.000000000000000000e+00,0.000000000000000000e+00,0.000000000000000000e+00,0.000000000000000000e+00,0.000000000000000000e+00,0.000000000000000000e+00,0.000000000000000000e+00,-1.008159896255569760e-01,-1.794411706662662198e-01,-7.947610688229794773e-02,-1.459596618295390114e-01,-2.042928486458978343e-01,-7.947610688229794773e-02,0.000000000000000000e+00,0.000000000000000000e+00,-3.408748040525981793e-01,-3.386709731673027135e-01,-3.992765924434007463e-01,-4.165899396183361247e-01,-3.666887929703108728e-01,-3.351031020196318377e-01,0.000000000000000000e+00,0.000000000000000000e+00,0.000000000000000000e+00,-1.400221946449267674e-01,0.000000000000000000e+00,0.000000000000000000e+00,-3.501564791825281242e-01,-2.455198380188014506e-01,-2.042928486458978343e-01,-1.903841246653106833e-01,-3.369011746481205272e-01,-4.008720759295469893e-01,0.000000000000000000e+00,-3.108232060435082156e-01,0.000000000000000000e+00,-1.430794062475679584e-01,0.000000000000000000e+00,0.000000000000000000e+00,-3.146773251774339641e-01,0.000000000000000000e+00,0.000000000000000000e+00,0.000000000000000000e+00,0.000000000000000000e+00,0.000000000000000000e+00,0.000000000000000000e+00,0.000000000000000000e+00,0.000000000000000000e+00,0.000000000000000000e+00,0.000000000000000000e+00,0.000000000000000000e+00,0.000000000000000000e+00,-7.896298717795420530e-02,0.000000000000000000e+00,0.000000000000000000e+00,0.000000000000000000e+00,-3.535987616807261258e-01,-3.725356355217890880e-01,0.000000000000000000e+00,0.000000000000000000e+00,0.000000000000000000e+00,0.000000000000000000e+00,0.000000000000000000e+00,0.000000000000000000e+00,-1.903841246653106833e-01,0.000000000000000000e+00,-2.966440427936297142e-01,0.000000000000000000e+00,0.000000000000000000e+00,-2.568237254372135459e-01,0.000000000000000000e+00,-1.744346270581750291e-01,0.000000000000000000e+00,0.000000000000000000e+00,0.000000000000000000e+00,0.000000000000000000e+00,0.000000000000000000e+00,0.000000000000000000e+00,0.000000000000000000e+00,-2.699470402482513354e-01,0.000000000000000000e+00,0.000000000000000000e+00,0.000000000000000000e+00,0.000000000000000000e+00,0.000000000000000000e+00,0.000000000000000000e+00,0.000000000000000000e+00,0.000000000000000000e+00,-3.037754303339730289e-01,-5.978572387857188086e-02,0.000000000000000000e+00,0.000000000000000000e+00,0.000000000000000000e+00,0.000000000000000000e+00,0.000000000000000000e+00,0.000000000000000000e+00,0.000000000000000000e+00,0.000000000000000000e+00,0.000000000000000000e+00,0.000000000000000000e+00,0.000000000000000000e+00,0.000000000000000000e+00,0.000000000000000000e+00,0.000000000000000000e+00,0.000000000000000000e+00,0.000000000000000000e+00,0.000000000000000000e+00,0.000000000000000000e+00,0.000000000000000000e+00,0.000000000000000000e+00,0.000000000000000000e+00,0.000000000000000000e+00,0.000000000000000000e+00,0.000000000000000000e+00,0.000000000000000000e+00,0.000000000000000000e+00,0.000000000000000000e+00,0.000000000000000000e+00,0.000000000000000000e+00,0.000000000000000000e+00,0.000000000000000000e+00,0.000000000000000000e+00,0.000000000000000000e+00,0.000000000000000000e+00,0.000000000000000000e+00,0.000000000000000000e+00,0.000000000000000000e+00,0.000000000000000000e+00,0.000000000000000000e+00,0.000000000000000000e+00,0.000000000000000000e+00,0.000000000000000000e+00,0.000000000000000000e+00,0.000000000000000000e+00,0.000000000000000000e+00,0.000000000000000000e+00,0.000000000000000000e+00,0.000000000000000000e+00,0.000000000000000000e+00,0.000000000000000000e+00,0.000000000000000000e+00,0.000000000000000000e+00,0.000000000000000000e+00,0.000000000000000000e+00,0.000000000000000000e+00,0.000000000000000000e+00,0.000000000000000000e+00,0.000000000000000000e+00,0.000000000000000000e+00,0.000000000000000000e+00,0.000000000000000000e+00,0.000000000000000000e+00,0.000000000000000000e+00,0.000000000000000000e+00,0.000000000000000000e+00,0.000000000000000000e+00,0.000000000000000000e+00,0.000000000000000000e+00,0.000000000000000000e+00,0.000000000000000000e+00,0.000000000000000000e+00,0.000000000000000000e+00,0.000000000000000000e+00,0.000000000000000000e+00,0.000000000000000000e+00,0.000000000000000000e+00,0.000000000000000000e+00,0.000000000000000000e+00,0.000000000000000000e+00,0.000000000000000000e+00,0.000000000000000000e+00,0.000000000000000000e+00,0.000000000000000000e+00,0.000000000000000000e+00,0.000000000000000000e+00,0.000000000000000000e+00,0.000000000000000000e+00,0.000000000000000000e+00,0.000000000000000000e+00,0.000000000000000000e+00,0.000000000000000000e+00,0.000000000000000000e+00,0.000000000000000000e+00,0.000000000000000000e+00,0.000000000000000000e+00,0.000000000000000000e+00,0.000000000000000000e+00,0.000000000000000000e+00,0.000000000000000000e+00,0.000000000000000000e+00,0.000000000000000000e+00,0.000000000000000000e+00,0.000000000000000000e+00,-2.548702511548940342e-01,0.000000000000000000e+00,0.000000000000000000e+00,0.000000000000000000e+00,0.000000000000000000e+00,0.000000000000000000e+00,0.000000000000000000e+00,0.000000000000000000e+00,0.000000000000000000e+00,0.000000000000000000e+00,0.000000000000000000e+00,0.000000000000000000e+00,0.000000000000000000e+00,0.000000000000000000e+00,0.000000000000000000e+00,0.000000000000000000e+00,0.000000000000000000e+00,0.000000000000000000e+00,0.000000000000000000e+00,0.000000000000000000e+00,0.000000000000000000e+00,0.000000000000000000e+00,0.000000000000000000e+00,0.000000000000000000e+00,0.000000000000000000e+00,0.000000000000000000e+00,0.000000000000000000e+00,0.000000000000000000e+00,0.000000000000000000e+00,0.000000000000000000e+00,0.000000000000000000e+00,0.000000000000000000e+00,0.000000000000000000e+00,0.000000000000000000e+00,0.000000000000000000e+00,0.000000000000000000e+00,0.000000000000000000e+00,0.000000000000000000e+00,0.000000000000000000e+00,0.000000000000000000e+00
0.000000000000000000e+00,0.000000000000000000e+00,0.000000000000000000e+00,0.000000000000000000e+00,0.000000000000000000e+00,0.000000000000000000e+00,0.000000000000000000e+00,0.000000000000000000e+00,0.000000000000000000e+00,0.000000000000000000e+00,0.000000000000000000e+00,0.000000000000000000e+00,0.000000000000000000e+00,0.000000000000000000e+00,0.000000000000000000e+00,-2.330348273371517787e-01,-1.647285818493254284e-01,-2.330348273371517787e-01,-1.619459139835802142e-01,-1.008159896255569760e-01,0.000000000000000000e+00,-2.658620590689104168e-01,-5.072027013094951853e-01,-4.990965220212785214e-01,-3.073292351903591513e-01,-3.677329253483819227e-01,-5.014696997842520432e-01,-2.870457599038108154e-01,0.000000000000000000e+00,-3.166752714357268794e-01,-2.891077579080327253e-01,-1.230373592725581416e-01,-8.173289770526480369e-02,-2.042928486458978343e-01,-3.029107585395919844e-01,-1.794411706662662198e-01,-7.947610688229794773e-02,-2.568237254372135459e-01,-2.724569139492593051e-01,-3.710523376700730069e-01,-3.382200557410257602e-01,-4.590247035661945696e-01,-5.796324740986698032e-01,-1.932434609432603645e-01,-1.726763267494244025e-01,6.557415749274302574e-04,-2.556078315286907654e-01,-4.410524965315857915e-01,-6.072652687706249219e-01,0.000000000000000000e+00,-5.568193140423711718e-01,-5.041597463313376437e-01,0.000000000000000000e+00,0.000000000000000000e+00,0.000000000000000000e+00,0.000000000000000000e+00,0.000000000000000000e+00,-1.400221946449267674e-01,-2.205407000385085636e-01,-9.949564946754996253e-02,-1.789781480157052740e-01,-6.531242928681225690e-01,-5.588437111909865251e-01,-5.472740644727964732e-01,-3.832395225192660737e-01,-2.225322979941390944e-01,0.000000000000000000e+00,-2.797563471559888493e-01,-4.135192708119694860e-01,0.000000000000000000e+00,-5.852019846446858686e-01,-9.949564946754996253e-02,-7.610960242115821783e-02,-2.694190017302767193e-01,-1.381314203590346679e-01,-4.994052455937492696e-01,-1.932434609432603645e-01,-2.313727930124428733e-01,-1.742136801103496002e-01,-3.489404627031784667e-01,-5.466431064074133150e-01,0.000000000000000000e+00,0.000000000000000000e+00,0.000000000000000000e+00,0.000000000000000000e+00,0.000000000000000000e+00,-1.345945651972701995e-01,-3.185677164886537849e-01,0.000000000000000000e+00,0.000000000000000000e+00,0.000000000000000000e+00,-4.619239937554676101e-01,-3.488982087640346563e-01,0.000000000000000000e+00,-4.203806439495535452e-01,-2.640645800799701348e-01,-2.049210230249826903e-01,0.000000000000000000e+00,-3.034276203419185025e-01,-1.664576916752135705e-01,0.000000000000000000e+00,0.000000000000000000e+00,0.000000000000000000e+00,0.000000000000000000e+00,0.000000000000000000e+00,0.000000000000000000e+00,0.000000000000000000e+00,0.000000000000000000e+00,0.000000000000000000e+00,1.440545856940782243e-02,0.000000000000000000e+00,0.000000000000000000e+00,0.000000000000000000e+00,0.000000000000000000e+00,0.000000000000000000e+00,0.000000000000000000e+00,0.000000000000000000e+00,0.000000000000000000e+00,0.000000000000000000e+00,0.000000000000000000e+00,0.000000000000000000e+00,0.000000000000000000e+00,0.000000000000000000e+00,0.000000000000000000e+00,0.000000000000000000e+00,0.000000000000000000e+00,0.000000000000000000e+00,0.000000000000000000e+00,0.000000000000000000e+00,0.000000000000000000e+00,0.000000000000000000e+00,0.000000000000000000e+00,0.000000000000000000e+00,0.000000000000000000e+00,0.000000000000000000e+00,0.000000000000000000e+00,0.000000000000000000e+00,-9.643229993376008224e-02,0.000000000000000000e+00,0.000000000000000000e+00,3.146661650663280518e-01,0.000000000000000000e+00,0.000000000000000000e+00,0.000000000000000000e+00,0.000000000000000000e+00,0.000000000000000000e+00,0.000000000000000000e+00,0.000000000000000000e+00,0.000000000000000000e+00,0.000000000000000000e+00,0.000000000000000000e+00,0.000000000000000000e+00,0.000000000000000000e+00,0.000000000000000000e+00,0.000000000000000000e+00,0.000000000000000000e+00,0.000000000000000000e+00,0.000000000000000000e+00,0.000000000000000000e+00,0.000000000000000000e+00,0.000000000000000000e+00,0.000000000000000000e+00,0.000000000000000000e+00,0.000000000000000000e+00,0.000000000000000000e+00,0.000000000000000000e+00,0.000000000000000000e+00,0.000000000000000000e+00,0.000000000000000000e+00,0.000000000000000000e+00,0.000000000000000000e+00,0.000000000000000000e+00,0.000000000000000000e+00,0.000000000000000000e+00,0.000000000000000000e+00,0.000000000000000000e+00,0.000000000000000000e+00,0.000000000000000000e+00,0.000000000000000000e+00,0.000000000000000000e+00,0.000000000000000000e+00,0.000000000000000000e+00,-3.196267618447087289e-01,-2.441870798128809306e-01,0.000000000000000000e+00,4.525690271649622683e-03,0.000000000000000000e+00,0.000000000000000000e+00,0.000000000000000000e+00,0.000000000000000000e+00,0.000000000000000000e+00,0.000000000000000000e+00,0.000000000000000000e+00,0.000000000000000000e+00,-1.274893095861041603e-01,0.000000000000000000e+00,0.000000000000000000e+00,0.000000000000000000e+00,0.000000000000000000e+00,1.968138815340855219e-01,-3.750787406003787683e-01,-5.270251975898363472e-01,-6.721428789921076730e-01,-5.416112066870544250e-01,-4.203208160327721599e-01,-2.385975232729896367e-01,0.000000000000000000e+00,0.000000000000000000e+00,-9.366766425182636302e-02,0.000000000000000000e+00,0.000000000000000000e+00,0.000000000000000000e+00,0.000000000000000000e+00,0.000000000000000000e+00,0.000000000000000000e+00,0.000000000000000000e+00,0.000000000000000000e+00,0.000000000000000000e+00,0.000000000000000000e+00,0.000000000000000000e+00,0.000000000000000000e+00,0.000000000000000000e+00,0.000000000000000000e+00,0.000000000000000000e+00,0.000000000000000000e+00,0.000000000000000000e+00,0.000000000000000000e+00,0.000000000000000000e+00,0.000000000000000000e+00,0.000000000000000000e+00,0.000000000000000000e+00,0.000000000000000000e+00,0.000000000000000000e+00,0.000000000000000000e+00,0.000000000000000000e+00,0.000000000000000000e+00,0.000000000000000000e+00,0.000000000000000000e+00,0.000000000000000000e+00,0.000000000000000000e+00
0.000000000000000000e+00,0.000000000000000000e+00,0.000000000000000000e+00,0.000000000000000000e+00,0.000000000000000000e+00,0.000000000000000000e+00,0.000000000000000000e+00,0.000000000000000000e+00,0.000000000000000000e+00,0.000000000000000000e+00,0.000000000000000000e+00,0.000000000000000000e+00,0.000000000000000000e+00,0.000000000000000000e+00,0.000000000000000000e+00,0.000000000000000000e+00,-8.769338402565066137e-02,-1.245452792445882195e-01,-1.605936475822006826e-01,0.000000000000000000e+00,6.557415749274302574e-04,-1.879558799452248075e-01,-5.704142067695503471e-01,-3.993762702815341070e-01,-4.018511471499401355e-01,-3.101812508429483972e-01,-4.665358139974748464e-01,-2.541176789681980352e-01,0.000000000000000000e+00,-1.613477891885615806e-03,-1.982700003594791704e-01,-2.044703621124507043e-01,-5.007852057288266628e-02,0.000000000000000000e+00,-3.412509713998932992e-01,-2.681181748514924745e-01,0.000000000000000000e+00,0.000000000000000000e+00,-2.724569139492593051e-01,-3.651904380672265082e-01,0.000000000000000000e+00,-4.711118779651714550e-01,-4.440982584154021251e-01,-1.601670114102387854e-01,-1.929638702918115845e-01,6.557415749274302574e-04,-3.425963483933535669e-01,-4.226635021509677070e-01,-5.433989738838156391e-01,0.000000000000000000e+00,-4.428551473823554296e-01,-4.261538783211830661e-01,0.000000000000000000e+00,0.000000000000000000e+00,0.000000000000000000e+00,0.000000000000000000e+00,-7.597810196813208072e-02,-1.400221946449267674e-01,-1.100082596588327633e-01,-1.020775932135026126e-01,-1.964734046983913074e-01,-5.142861813241181856e-01,-4.622828864319227238e-01,-4.890000563147708923e-01,-3.623304325162249317e-01,-3.013211023889716400e-01,0.000000000000000000e+00,0.000000000000000000e+00,-2.111501688740618499e-01,-3.419285517565613941e-01,-4.074721617573922039e-01,-1.869759016827660381e-01,-5.259265112725571012e-02,-2.354667288573289718e-01,-7.866939178532478261e-02,-4.143387077868269652e-01,-2.721980952372151097e-01,-1.818585064993601674e-01,-1.775982890307025996e-01,0.000000000000000000e+00,-2.019550814150570528e-01,-2.388589753636872759e-01,0.000000000000000000e+00,0.000000000000000000e+00,0.000000000000000000e+00,0.000000000000000000e+00,-2.038112001601078138e-01,-2.389032493255272283e-01,0.000000000000000000e+00,0.000000000000000000e+00,0.000000000000000000e+00,-4.917825506134281821e-01,-3.022711281121125415e-01,0.000000000000000000e+00,-4.748013126271277695e-01,-2.723240998753440056e-01,-2.135254475826620923e-01,-3.169255391463687288e-01,-2.152037943940177667e-01,-1.146095998884005679e-01,0.000000000000000000e+00,0.000000000000000000e+00,0.000000000000000000e+00,0.000000000000000000e+00,0.000000000000000000e+00,0.000000000000000000e+00,0.000000000000000000e+00,0.000000000000000000e+00,0.000000000000000000e+00,-8.249009539022200688e-02,0.000000000000000000e+00,0.000000000000000000e+00,0.000000000000000000e+00,1.731915476686452793e-01,0.000000000000000000e+00,1.731915476686452793e-01,0.000000000000000000e+00,0.000000000000000000e+00,0.000000000000000000e+00,0.000000000000000000e+00,0.000000000000000000e+00,0.000000000000000000e+00,0.000000000000000000e+00,0.000000000000000000e+00,0.000000000000000000e+00,0.000000000000000000e+00,0.000000000000000000e+00,0.000000000000000000e+00,0.000000000000000000e+00,0.000000000000000000e+00,0.000000000000000000e+00,-4.677646851438056058e-02,1.507264660395681195e-02,0.000000000000000000e+00,0.000000000000000000e+00,0.000000000000000000e+00,0.000000000000000000e+00,0.000000000000000000e+00,0.000000000000000000e+00,0.000000000000000000e+00,2.395786133177165989e-01,5.673272674884038969e-02,0.000000000000000000e+00,0.000000000000000000e+00,0.000000000000000000e+00,0.000000000000000000e+00,0.000000000000000000e+00,0.000000000000000000e+00,0.000000000000000000e+00,0.000000000000000000e+00,0.000000000000000000e+00,0.000000000000000000e+00,0.000000000000000000e+00,0.000000000000000000e+00,0.000000000000000000e+00,0.000000000000000000e+00,0.000000000000000000e+00,0.000000000000000000e+00,0.000000000000000000e+00,0.000000000000000000e+00,0.000000000000000000e+00,0.000000000000000000e+00,0.000000000000000000e+00,0.000000000000000000e+00,0.000000000000000000e+00,1.857512987392602455e-01,0.000000000000000000e+00,0.000000000000000000e+00,0.000000000000000000e+00,0.000000000000000000e+00,0.000000000000000000e+00,0.000000000000000000e+00,0.000000000000000000e+00,0.000000000000000000e+00,0.000000000000000000e+00,0.000000000000000000e+00,0.000000000000000000e+00,0.000000000000000000e+00,0.000000000000000000e+00,0.000000000000000000e+00,0.000000000000000000e+00,0.000000000000000000e+00,-1.618751970925294548e-01,-1.954725232986690917e-02,0.000000000000000000e+00,-1.693853246440130411e-01,0.000000000000000000e+00,0.000000000000000000e+00,0.000000000000000000e+00,0.000000000000000000e+00,0.000000000000000000e+00,0.000000000000000000e+00,0.000000000000000000e+00,0.000000000000000000e+00,-8.168338029324886951e-02,0.000000000000000000e+00,0.000000000000000000e+00,0.000000000000000000e+00,0.000000000000000000e+00,0.000000000000000000e+00,-4.224326662469953808e-01,-4.423583538180038688e-01,-6.058144634844775389e-01,-5.171362117802954517e-01,-3.165482467436184222e-01,-3.150469258542561990e-01,0.000000000000000000e+00,0.000000000000000000e+00,0.000000000000000000e+00,0.000000000000000000e+00,0.000000000000000000e+00,0.000000000000000000e+00,0.000000000000000000e+00,0.000000000000000000e+00,0.000000000000000000e+00,0.000000000000000000e+00,0.000000000000000000e+00,0.000000000000000000e+00,0.000000000000000000e+00,0.000000000000000000e+00,0.000000000000000000e+00,0.000000000000000000e+00,0.000000000000000000e+00,0.000000000000000000e+00,0.000000000000000000e+00,0.000000000000000000e+00,0.000000000000000000e+00,0.000000000000000000e+00,0.000000000000000000e+00,0.000000000000000000e+00,0.000000000000000000e+00,0.000000000000000000e+00,0.000000000000000000e+00,0.000000000000000000e+00,0.000000000000000000e+00,0.000000000000000000e+00,0.000000000000000000e+00,0.000000000000000000e+00,0.000000000000000000e+00,0.000000000000000000e+00
