0.000000000000000000e+00,0.000000000000000000e+00,-2.867926831395452014e-01,-4.077165269048809160e-01,-4.077165269048809160e-01,-1.375383907244427384e-01,0.000000000000000000e+00,-3.540039262599068426e-01,0.000000000000000000e+00,-3.540039262599068426e-01,-1.769064766674151301e-01,-1.375383907244427384e-01,0.000000000000000000e+00,0.000000000000000000e+00,-2.691408841698578625e-03,4.848094729307578232e-02,0.000000000000000000e+00,8.822471444262737841e-03,-1.330736742197321520e-01,-2.230092182953898605e-01,-4.682820803716213343e-01,-4.768661294073570089e-01,-4.176606476144668068e-01,0.000000000000000000e+00,-3.521737991280915470e-01,0.000000000000000000e+00,-2.294956268738879701e-01,6.389035696552967936e-02,-2.867926831395452014e-01,-3.727719560971658463e-01,-3.940404122779551654e-01,-2.013427112329256030e-01,0.000000000000000000e+00,0.000000000000000000e+00,0.000000000000000000e+00,-2.096863709114123453e-01,0.000000000000000000e+00,0.000000000000000000e+00,-1.289031463016322987e-01,0.000000000000000000e+00,-4.972635506334183719e-01,-3.703115664982390420e-01,-2.345960293145157582e-01,0.000000000000000000e+00,0.000000000000000000e+00,0.000000000000000000e+00,-2.100821658621787602e-01,-7.931687732165905447e-02,-3.965012349521296886e-01,0.000000000000000000e+00,-3.512280581657197809e-01,-3.898914215964129348e-01,-4.020455461185670210e-01,-4.337888759348844103e-01,0.000000000000000000e+00,-5.228635611407076444e-01,-3.940404122779551654e-01,-3.767261169584913971e-01,-2.959963343250971990e-01,-1.869363893513052155e-01,-2.131688683956363406e-01,-2.639715046459735204e-01,-1.561515560083381882e-01,-3.095403635481555615e-01,2.384258758172552381e-02,0.000000000000000000e+00,-4.566021252944618691e-01,0.000000000000000000e+00,0.000000000000000000e+00,0.000000000000000000e+00,-2.548937225048202859e-01,-2.253481055338279471e-01,0.000000000000000000e+00,-3.124662393353569989e-01,-3.278034734687366725e-01,-2.097284112258549216e-01,0.000000000000000000e+00,0.000000000000000000e+00,0.000000000000000000e+00,0.000000000000000000e+00,0.000000000000000000e+00,0.000000000000000000e+00,-4.876272957419762744e-01,-4.667058120730451232e-01,-4.454868300896028810e-01,-5.094601052426008803e-01,-3.257353728664754144e-01,-1.732530111322383437e-02,0.000000000000000000e+00,0.000000000000000000e+00,0.000000000000000000e+00,-3.537352305673047148e-01,0.000000000000000000e+00,0.000000000000000000e+00,0.000000000000000000e+00,-3.290607246389605223e-01,0.000000000000000000e+00,0.000000000000000000e+00,-5.094601052426008803e-01,-4.132321346376564564e-01,0.000000000000000000e+00,0.000000000000000000e+00,0.000000000000000000e+00,0.000000000000000000e+00,0.000000000000000000e+00,0.000000000000000000e+00,0.000000000000000000e+00,0.000000000000000000e+00,0.000000000000000000e+00,0.000000000000000000e+00,0.000000000000000000e+00,0.000000000000000000e+00,0.000000000000000000e+00,0.000000000000000000e+00,0.000000000000000000e+00,0.000000000000000000e+00,0.000000000000000000e+00,0.000000000000000000e+00,0.000000000000000000e+00,0.000000000000000000e+00,0.000000000000000000e+00,0.000000000000000000e+00,0.000000000000000000e+00,0.000000000000000000e+00,0.000000000000000000e+00,0.000000000000000000e+00,0.000000000000000000e+00,0.000000000000000000e+00,0.000000000000000000e+00,0.000000000000000000e+00,0.000000000000000000e+00,0.000000000000000000e+00,0.000000000000000000e+00,0.000000000000000000e+00,0.000000000000000000e+00,0.000000000000000000e+00,0.000000000000000000e+00,0.000000000000000000e+00,0.000000000000000000e+00,0.000000000000000000e+00,0.000000000000000000e+00,0.000000000000000000e+00,0.000000000000000000e+00,0.000000000000000000e+00,0.000000000000000000e+00,0.000000000000000000e+00,0.000000000000000000e+00,0.000000000000000000e+00,0.000000000000000000e+00,0.000000000000000000e+00,0.000000000000000000e+00,0.000000000000000000e+00,0.000000000000000000e+00,0.000000000000000000e+00,0.000000000000000000e+00,0.000000000000000000e+00,0.000000000000000000e+00,0.000000000000000000e+00,0.000000000000000000e+00,0.000000000000000000e+00,0.000000000000000000e+00,0.000000000000000000e+00,0.000000000000000000e+00,0.000000000000000000e+00,0.000000000000000000e+00,0.000000000000000000e+00,0.000000000000000000e+00,0.000000000000000000e+00,0.000000000000000000e+00,0.000000000000000000e+00,0.000000000000000000e+00,0.000000000000000000e+00,0.000000000000000000e+00,0.000000000000000000e+00,0.000000000000000000e+00,0.000000000000000000e+00,0.000000000000000000e+00,0.000000000000000000e+00,0.000000000000000000e+00,0.000000000000000000e+00,0.000000000000000000e+00,0.000000000000000000e+00,0.000000000000000000e+00,0.000000000000000000e+00,0.000000000000000000e+00,0.000000000000000000e+00,0.000000000000000000e+00,0.000000000000000000e+00,0.000000000000000000e+00,0.000000000000000000e+00,0.000000000000000000e+00,0.000000000000000000e+00,0.000000000000000000e+00,0.000000000000000000e+00,-1.204571618685334883e-01,0.000000000000000000e+00,0.000000000000000000e+00,0.000000000000000000e+00,0.000000000000000000e+00,0.000000000000000000e+00,-3.347759537769153249e-01,-2.968799999367482956e-01,-5.158481635006273436e-01,-4.756819526990384017e-01,-3.296658331697390754e-01,-4.735076849001386701e-01,0.000000000000000000e+00,0.000000000000000000e+00,0.000000000000000000e+00,0.000000000000000000e+00,0.000000000000000000e+00,0.000000000000000000e+00,0.000000000000000000e+00,0.000000000000000000e+00,0.000000000000000000e+00,0.000000000000000000e+00,0.000000000000000000e+00,0.000000000000000000e+00,0.000000000000000000e+00,0.000000000000000000e+00,0.000000000000000000e+00,0.000000000000000000e+00,-2.385182945031253110e-01,0.000000000000000000e+00,0.000000000000000000e+00,0.000000000000000000e+00,0.000000000000000000e+00,0.000000000000000000e+00,0.000000000000000000e+00,0.000000000000000000e+00,0.000000000000000000e+00,0.000000000000000000e+00,0.000000000000000000e+00,0.000000000000000000e+00,0.000000000000000000e+00,0.000000000000000000e+00,0.000000000000000000e+00,0.000000000000000000e+00,0.000000000000000000e+00,0.000000000000000000e+00
0.000000000000000000e+00,0.000000000000000000e+00,-3.540039262599068426e-01,0.000000000000000000e+00,-3.709974984748160010e-01,-1.204113268892215288e-01,-3.540039262599068426e-01,-3.540039262599068426e-01,0.000000000000000000e+00,-3.540039262599068426e-01,-1.204571618685334883e-01,-2.140639455272758118e-01,0.000000000000000000e+00,0.000000000000000000e+00,0.000000000000000000e+00,0.000000000000000000e+00,0.000000000000000000e+00,0.000000000000000000e+00,0.000000000000000000e+00,1.969235250024664596e-01,-4.762848163953941616e-01,-5.247685805172285223e-01,-3.787797424198530716e-01,0.000000000000000000e+00,0.000000000000000000e+00,0.000000000000000000e+00,0.000000000000000000e+00,0.000000000000000000e+00,0.000000000000000000e+00,-3.727719560971658463e-01,-3.143120051699038187e-01,-1.769064766674151301e-01,0.000000000000000000e+00,0.000000000000000000e+00,0.000000000000000000e+00,0.000000000000000000e+00,0.000000000000000000e+00,0.000000000000000000e+00,-2.035274270890939652e-01,6.886786971700130378e-02,-4.366360539766978022e-01,0.000000000000000000e+00,0.000000000000000000e+00,0.000000000000000000e+00,0.000000000000000000e+00,0.000000000000000000e+00,0.000000000000000000e+00,0.000000000000000000e+00,0.000000000000000000e+00,0.000000000000000000e+00,0.000000000000000000e+00,0.000000000000000000e+00,0.000000000000000000e+00,0.000000000000000000e+00,0.000000000000000000e+00,0.000000000000000000e+00,0.000000000000000000e+00,0.000000000000000000e+00,0.000000000000000000e+00,-2.839531750473472393e-01,-1.546839966817230294e-01,-1.766797949595602657e-01,0.000000000000000000e+00,0.000000000000000000e+00,0.000000000000000000e+00,0.000000000000000000e+00,0.000000000000000000e+00,0.000000000000000000e+00,7.230851102713743705e-02,0.000000000000000000e+00,0.000000000000000000e+00,0.000000000000000000e+00,0.000000000000000000e+00,0.000000000000000000e+00,0.000000000000000000e+00,0.000000000000000000e+00,0.000000000000000000e+00,0.000000000000000000e+00,0.000000000000000000e+00,0.000000000000000000e+00,0.000000000000000000e+00,0.000000000000000000e+00,0.000000000000000000e+00,0.000000000000000000e+00,-4.946820204996939530e-01,-4.645908329843204676e-01,0.000000000000000000e+00,0.000000000000000000e+00,0.000000000000000000e+00,0.000000000000000000e+00,0.000000000000000000e+00,0.000000000000000000e+00,0.000000000000000000e+00,0.000000000000000000e+00,0.000000000000000000e+00,0.000000000000000000e+00,-1.204571618685334883e-01,-3.728228629069612610e-01,-3.278307318470530807e-01,-3.143120051699038187e-01,0.000000000000000000e+00,0.000000000000000000e+00,0.000000000000000000e+00,0.000000000000000000e+00,0.000000000000000000e+00,0.000000000000000000e+00,0.000000000000000000e+00,0.000000000000000000e+00,0.000000000000000000e+00,0.000000000000000000e+00,0.000000000000000000e+00,0.000000000000000000e+00,0.000000000000000000e+00,0.000000000000000000e+00,0.000000000000000000e+00,0.000000000000000000e+00,0.000000000000000000e+00,0.000000000000000000e+00,0.000000000000000000e+00,0.000000000000000000e+00,0.000000000000000000e+00,0.000000000000000000e+00,0.000000000000000000e+00,0.000000000000000000e+00,0.000000000000000000e+00,0.000000000000000000e+00,0.000000000000000000e+00,0.000000000000000000e+00,0.000000000000000000e+00,0.000000000000000000e+00,0.000000000000000000e+00,0.000000000000000000e+00,0.000000000000000000e+00,0.000000000000000000e+00,0.000000000000000000e+00,0.000000000000000000e+00,0.000000000000000000e+00,0.000000000000000000e+00,0.000000000000000000e+00,0.000000000000000000e+00,0.000000000000000000e+00,0.000000000000000000e+00,0.000000000000000000e+00,0.000000000000000000e+00,0.000000000000000000e+00,0.000000000000000000e+00,0.000000000000000000e+00,0.000000000000000000e+00,0.000000000000000000e+00,0.000000000000000000e+00,0.000000000000000000e+00,0.000000000000000000e+00,0.000000000000000000e+00,0.000000000000000000e+00,0.000000000000000000e+00,0.000000000000000000e+00,0.000000000000000000e+00,0.000000000000000000e+00,0.000000000000000000e+00,0.000000000000000000e+00,0.000000000000000000e+00,0.000000000000000000e+00,0.000000000000000000e+00,0.000000000000000000e+00,0.000000000000000000e+00,0.000000000000000000e+00,0.000000000000000000e+00,0.000000000000000000e+00,0.000000000000000000e+00,0.000000000000000000e+00,0.000000000000000000e+00,0.000000000000000000e+00,0.000000000000000000e+00,0.000000000000000000e+00,0.000000000000000000e+00,0.000000000000000000e+00,0.000000000000000000e+00,0.000000000000000000e+00,0.000000000000000000e+00,0.000000000000000000e+00,0.000000000000000000e+00,0.000000000000000000e+00,0.000000000000000000e+00,0.000000000000000000e+00,0.000000000000000000e+00,0.000000000000000000e+00,0.000000000000000000e+00,0.000000000000000000e+00,0.000000000000000000e+00,0.000000000000000000e+00,0.000000000000000000e+00,0.000000000000000000e+00,0.000000000000000000e+00,0.000000000000000000e+00,0.000000000000000000e+00,0.000000000000000000e+00,0.000000000000000000e+00,0.000000000000000000e+00,0.000000000000000000e+00,0.000000000000000000e+00,-1.504624025541609067e-01,0.000000000000000000e+00,-3.318093053323542541e-01,0.000000000000000000e+00,0.000000000000000000e+00,-4.266854284012122633e-01,0.000000000000000000e+00,0.000000000000000000e+00,0.000000000000000000e+00,0.000000000000000000e+00,0.000000000000000000e+00,0.000000000000000000e+00,0.000000000000000000e+00,0.000000000000000000e+00,0.000000000000000000e+00,0.000000000000000000e+00,0.000000000000000000e+00,0.000000000000000000e+00,0.000000000000000000e+00,0.000000000000000000e+00,0.000000000000000000e+00,0.000000000000000000e+00,0.000000000000000000e+00,0.000000000000000000e+00,0.000000000000000000e+00,0.000000000000000000e+00,0.000000000000000000e+00,0.000000000000000000e+00,0.000000000000000000e+00,0.000000000000000000e+00,0.000000000000000000e+00,0.000000000000000000e+00,0.000000000000000000e+00,0.000000000000000000e+00,0.000000000000000000e+00,0.000000000000000000e+00,0.000000000000000000e+00,0.000000000000000000e+00,0.000000000000000000e+00,0.000000000000000000e+00
0.000000000000000000e+00,0.000000000000000000e+00,0.000000000000000000e+00,-2.140639455272758118e-01,-4.077165269048809160e-01,-1.769064766674151301e-01,-3.540039262599068426e-01,0.000000000000000000e+00,0.000000000000000000e+00,-3.540039262599068426e-01,-1.204571618685334883e-01,-1.204571618685334883e-01,0.000000000000000000e+00,0.000000000000000000e+00,1.921423446910566768e-01,5.494211562572390989e-02,0.000000000000000000e+00,3.015122614453153577e-02,0.000000000000000000e+00,4.277089035842893128e-02,-4.682820803716213343e-01,-4.855957626370194791e-01,-3.490368846926157897e-01,0.000000000000000000e+00,-2.722859431800319641e-01,-2.279368048817563830e-01,-1.257291203235645083e-01,-1.135953027931199538e-01,0.000000000000000000e+00,-4.077165269048809160e-01,-3.488236744497131836e-01,-1.204571618685334883e-01,0.000000000000000000e+00,0.000000000000000000e+00,0.000000000000000000e+00,0.000000000000000000e+00,0.000000000000000000e+00,0.000000000000000000e+00,-1.183255299089270712e-01,0.000000000000000000e+00,-3.842831243923578444e-01,-4.801812878738621615e-01,-2.874906163985507107e-02,-9.504305821969714907e-02,0.000000000000000000e+00,0.000000000000000000e+00,-2.036769628828274115e-01,-1.435314670241329971e-01,-4.521813784263849501e-01,0.000000000000000000e+00,-2.853027757839360357e-01,-2.003731257691092338e-01,0.000000000000000000e+00,-4.085423211542363320e-01,0.000000000000000000e+00,-4.373864761207394980e-01,-4.077165269048809160e-01,-5.372615140015975232e-02,-2.670327361293894364e-01,-1.172076207449245233e-01,-3.170271760233171476e-01,-2.961740646332718940e-01,-3.983501974086311459e-01,-1.003173309942772956e-01,-1.615612730703002153e-01,0.000000000000000000e+00,-4.932137335500921260e-01,0.000000000000000000e+00,0.000000000000000000e+00,-3.665465411056328948e-01,0.000000000000000000e+00,-1.204571618685334883e-01,0.000000000000000000e+00,0.000000000000000000e+00,0.000000000000000000e+00,8.338446523754121376e-02,0.000000000000000000e+00,0.000000000000000000e+00,0.000000000000000000e+00,-3.295666982872851869e-01,0.000000000000000000e+00,0.000000000000000000e+00,-4.705015138189381219e-01,-4.705015138189381219e-01,-4.454868300896028810e-01,-4.855957626370194791e-01,0.000000000000000000e+00,0.000000000000000000e+00,0.000000000000000000e+00,0.000000000000000000e+00,0.000000000000000000e+00,-3.318846094743757580e-01,0.000000000000000000e+00,0.000000000000000000e+00,-9.432244584818541555e-02,-2.971657317208152849e-01,-1.204571618685334883e-01,-3.540039262599068426e-01,-4.768661294073570089e-01,-3.047625523985855733e-01,0.000000000000000000e+00,0.000000000000000000e+00,0.000000000000000000e+00,0.000000000000000000e+00,0.000000000000000000e+00,0.000000000000000000e+00,0.000000000000000000e+00,0.000000000000000000e+00,0.000000000000000000e+00,0.000000000000000000e+00,0.000000000000000000e+00,0.000000000000000000e+00,0.000000000000000000e+00,0.000000000000000000e+00,0.000000000000000000e+00,0.000000000000000000e+00,0.000000000000000000e+00,0.000000000000000000e+00,0.000000000000000000e+00,0.000000000000000000e+00,0.000000000000000000e+00,0.000000000000000000e+00,0.000000000000000000e+00,0.000000000000000000e+00,0.000000000000000000e+00,0.000000000000000000e+00,0.000000000000000000e+00,0.000000000000000000e+00,0.000000000000000000e+00,0.000000000000000000e+00,0.000000000000000000e+00,0.000000000000000000e+00,-7.229286531834461238e-02,0.000000000000000000e+00,0.000000000000000000e+00,0.000000000000000000e+00,0.000000000000000000e+00,0.000000000000000000e+00,0.000000000000000000e+00,0.000000000000000000e+00,0.000000000000000000e+00,0.000000000000000000e+00,0.000000000000000000e+00,0.000000000000000000e+00,0.000000000000000000e+00,0.000000000000000000e+00,0.000000000000000000e+00,0.000000000000000000e+00,0.000000000000000000e+00,0.000000000000000000e+00,0.000000000000000000e+00,0.000000000000000000e+00,0.000000000000000000e+00,0.000000000000000000e+00,0.000000000000000000e+00,0.000000000000000000e+00,0.000000000000000000e+00,0.000000000000000000e+00,0.000000000000000000e+00,0.000000000000000000e+00,0.000000000000000000e+00,0.000000000000000000e+00,0.000000000000000000e+00,0.000000000000000000e+00,0.000000000000000000e+00,0.000000000000000000e+00,0.000000000000000000e+00,0.000000000000000000e+00,0.000000000000000000e+00,0.000000000000000000e+00,0.000000000000000000e+00,0.000000000000000000e+00,0.000000000000000000e+00,0.000000000000000000e+00,0.000000000000000000e+00,0.000000000000000000e+00,0.000000000000000000e+00,0.000000000000000000e+00,0.000000000000000000e+00,0.000000000000000000e+00,0.000000000000000000e+00,0.000000000000000000e+00,0.000000000000000000e+00,0.000000000000000000e+00,0.000000000000000000e+00,0.000000000000000000e+00,0.000000000000000000e+00,0.000000000000000000e+00,0.000000000000000000e+00,0.000000000000000000e+00,0.000000000000000000e+00,0.000000000000000000e+00,0.000000000000000000e+00,0.000000000000000000e+00,-2.500391639144802225e-01,0.000000000000000000e+00,0.000000000000000000e+00,0.000000000000000000e+00,0.000000000000000000e+00,0.000000000000000000e+00,-3.833401880549882068e-01,0.000000000000000000e+00,-4.301363429159135165e-01,-3.810911622876963500e-01,-3.626643102199498259e-01,-4.266854284012122633e-01,0.000000000000000000e+00,0.000000000000000000e+00,0.000000000000000000e+00,0.000000000000000000e+00,0.000000000000000000e+00,0.000000000000000000e+00,0.000000000000000000e+00,0.000000000000000000e+00,0.000000000000000000e+00,0.000000000000000000e+00,0.000000000000000000e+00,0.000000000000000000e+00,0.000000000000000000e+00,0.000000000000000000e+00,0.000000000000000000e+00,0.000000000000000000e+00,-2.385182945031253110e-01,0.000000000000000000e+00,0.000000000000000000e+00,0.000000000000000000e+00,0.000000000000000000e+00,0.000000000000000000e+00,0.000000000000000000e+00,0.000000000000000000e+00,0.000000000000000000e+00,0.000000000000000000e+00,0.000000000000000000e+00,0.000000000000000000e+00,0.000000000000000000e+00,0.000000000000000000e+00,0.000000000000000000e+00,0.000000000000000000e+00,0.000000000000000000e+00,0.000000000000000000e+00
0.000000000000000000e+00,0.000000000000000000e+00,0.000000000000000000e+00,0.000000000000000000e+00,-2.309621220732871183e-01,-9.156346611485922937e-02,-2.785046780466934324e-01,-3.540039262599068426e-01,-3.540039262599068426e-01,-1.769064766674151301e-01,-9.156346611485922937e-02,-1.769064766674151301e-01,-1.599842285421977650e-01,9.527412213092381621e-02,8.931499346302364251e-02,6.472104139123852073e-02,0.000000000000000000e+00,3.573076054700943804e-02,0.000000000000000000e+00,-3.298241574306932933e-02,-4.682820803716213343e-01,-3.702675741655849784e-01,-4.033483953524326648e-01,0.000000000000000000e+00,-1.717553191351833264e-01,0.000000000000000000e+00,-1.391460135134332810e-01,-2.632880936311203235e-01,-2.140639455272758118e-01,-3.727719560971658463e-01,-3.940404122779551654e-01,-2.168615523370216736e-02,0.000000000000000000e+00,0.000000000000000000e+00,2.116997407911322057e-02,-1.963833929081601481e-01,0.000000000000000000e+00,1.408026898988668507e-01,-1.055196374768411494e-01,0.000000000000000000e+00,-4.027346309832522953e-01,-2.806718683471833842e-01,-3.581999705875034135e-01,-1.221855147337274211e-01,0.000000000000000000e+00,0.000000000000000000e+00,-9.685217894538537819e-02,-1.164281084535010308e-01,-4.624385573552355355e-01,0.000000000000000000e+00,-3.237422952107169571e-01,-4.133272324138118070e-01,-4.057250081993843960e-01,-4.947241436834358685e-01,0.000000000000000000e+00,-4.947241436834358685e-01,-3.727719560971658463e-01,-3.867972744861133960e-02,-1.537357857856345156e-01,-1.966080699874197812e-01,-2.224350271940404578e-01,-1.700165822093083756e-01,-7.157148137093764795e-02,-2.334892238149106347e-01,-2.866464714307319084e-01,-1.941908860202939680e-01,-4.566021252944618691e-01,0.000000000000000000e+00,0.000000000000000000e+00,0.000000000000000000e+00,-3.447525906545967911e-01,-2.168615523370216736e-02,0.000000000000000000e+00,-2.484022951848981753e-01,-2.367162907754861711e-01,-2.578313236769026462e-01,-3.867972744861133960e-02,0.000000000000000000e+00,0.000000000000000000e+00,0.000000000000000000e+00,-2.429281993693827857e-01,-2.072543464814058933e-01,-4.035098639322374781e-01,-5.228635611407076444e-01,-3.586888525994160748e-01,-4.247714832306979105e-01,-1.575476710478356801e-01,-2.691513388706422982e-01,0.000000000000000000e+00,0.000000000000000000e+00,0.000000000000000000e+00,-3.150710370573769348e-01,0.000000000000000000e+00,0.000000000000000000e+00,-2.255700429245575400e-01,-1.003471695844841832e-01,-2.168615523370216736e-02,-3.728228629069612610e-01,-4.855957626370194791e-01,-3.770693719395155075e-01,0.000000000000000000e+00,0.000000000000000000e+00,0.000000000000000000e+00,0.000000000000000000e+00,0.000000000000000000e+00,0.000000000000000000e+00,0.000000000000000000e+00,0.000000000000000000e+00,0.000000000000000000e+00,0.000000000000000000e+00,0.000000000000000000e+00,0.000000000000000000e+00,0.000000000000000000e+00,0.000000000000000000e+00,0.000000000000000000e+00,0.000000000000000000e+00,0.000000000000000000e+00,0.000000000000000000e+00,0.000000000000000000e+00,0.000000000000000000e+00,0.000000000000000000e+00,0.000000000000000000e+00,0.000000000000000000e+00,0.000000000000000000e+00,0.000000000000000000e+00,0.000000000000000000e+00,0.000000000000000000e+00,0.000000000000000000e+00,0.000000000000000000e+00,0.000000000000000000e+00,0.000000000000000000e+00,0.000000000000000000e+00,2.975579769663944801e-02,0.000000000000000000e+00,0.000000000000000000e+00,0.000000000000000000e+00,0.000000000000000000e+00,0.000000000000000000e+00,0.000000000000000000e+00,0.000000000000000000e+00,0.000000000000000000e+00,0.000000000000000000e+00,0.000000000000000000e+00,0.000000000000000000e+00,0.000000000000000000e+00,0.000000000000000000e+00,0.000000000000000000e+00,0.000000000000000000e+00,0.000000000000000000e+00,0.000000000000000000e+00,0.000000000000000000e+00,0.000000000000000000e+00,0.000000000000000000e+00,0.000000000000000000e+00,0.000000000000000000e+00,0.000000000000000000e+00,0.000000000000000000e+00,0.000000000000000000e+00,0.000000000000000000e+00,0.000000000000000000e+00,0.000000000000000000e+00,0.000000000000000000e+00,0.000000000000000000e+00,0.000000000000000000e+00,0.000000000000000000e+00,0.000000000000000000e+00,0.000000000000000000e+00,0.000000000000000000e+00,0.000000000000000000e+00,0.000000000000000000e+00,0.000000000000000000e+00,0.000000000000000000e+00,0.000000000000000000e+00,0.000000000000000000e+00,0.000000000000000000e+00,0.000000000000000000e+00,0.000000000000000000e+00,0.000000000000000000e+00,0.000000000000000000e+00,0.000000000000000000e+00,0.000000000000000000e+00,0.000000000000000000e+00,0.000000000000000000e+00,0.000000000000000000e+00,0.000000000000000000e+00,0.000000000000000000e+00,0.000000000000000000e+00,0.000000000000000000e+00,0.000000000000000000e+00,0.000000000000000000e+00,0.000000000000000000e+00,0.000000000000000000e+00,0.000000000000000000e+00,0.000000000000000000e+00,0.000000000000000000e+00,0.000000000000000000e+00,0.000000000000000000e+00,0.000000000000000000e+00,0.000000000000000000e+00,0.000000000000000000e+00,-2.884754696824490261e-01,-2.125891126425768496e-01,-3.715032471799243896e-01,-2.696560572293024149e-01,-2.687180961906333043e-01,-4.682937463548252355e-01,-2.418967501636470341e-01,0.000000000000000000e+00,0.000000000000000000e+00,0.000000000000000000e+00,0.000000000000000000e+00,-2.896795348774967027e-01,0.000000000000000000e+00,0.000000000000000000e+00,0.000000000000000000e+00,0.000000000000000000e+00,0.000000000000000000e+00,0.000000000000000000e+00,0.000000000000000000e+00,0.000000000000000000e+00,0.000000000000000000e+00,0.000000000000000000e+00,-2.867926831395452014e-01,0.000000000000000000e+00,0.000000000000000000e+00,0.000000000000000000e+00,0.000000000000000000e+00,0.000000000000000000e+00,0.000000000000000000e+00,0.000000000000000000e+00,0.000000000000000000e+00,0.000000000000000000e+00,0.000000000000000000e+00,0.000000000000000000e+00,0.000000000000000000e+00,0.000000000000000000e+00,0.000000000000000000e+00,0.000000000000000000e+00,0.000000000000000000e+00,0.000000000000000000e+00
0.000000000000000000e+00,0.000000000000000000e+00,0.000000000000000000e+00,0.000000000000000000e+00,0.000000000000000000e+00,-1.034899708872848295e-01,-3.548767384611978271e-01,-4.077165269048809160e-01,-3.728228629069612610e-01,-2.411282223796098467e-01,-5.195169377780996939e-02,-2.411282223796098467e-01,-2.146629334652808418e-01,0.000000000000000000e+00,1.171067093090774336e-01,3.546754732964872703e-02,2.082511385326794306e-01,-3.860039779938327642e-02,1.419239711417063232e-01,0.000000000000000000e+00,-4.682820803716213343e-01,-4.768661294073570089e-01,-3.937972526907911330e-01,-7.981420056886888437e-02,-2.542888810373218345e-01,0.000000000000000000e+00,-2.085940774848611332e-02,-1.114481093203792406e-02,-4.077165269048809160e-01,0.000000000000000000e+00,-2.840464666257961346e-01,0.000000000000000000e+00,0.000000000000000000e+00,0.000000000000000000e+00,0.000000000000000000e+00,1.470961118654350724e-02,0.000000000000000000e+00,0.000000000000000000e+00,6.032864095762331680e-02,3.445009513377833565e-02,-4.370845748483804805e-01,-4.086609154489581064e-01,-2.962747789445858149e-01,-3.676904386813966696e-01,1.261043636657732669e-01,0.000000000000000000e+00,-1.313794897625250591e-01,-2.718144892651819799e-01,-4.196774337638224939e-01,0.000000000000000000e+00,-4.293593978359094843e-01,-3.271376981483804514e-01,-4.359905467434921356e-01,-4.112099994431988592e-01,-3.869569783621254477e-01,-4.681703091778970927e-01,-3.278307318470530807e-01,-3.862882063881594580e-02,-8.419467255997935273e-02,1.971554457735225779e-02,-2.390596240917108872e-01,-2.269595833367578641e-01,-2.150271108329306347e-01,-2.015576870022108835e-01,-1.692610920505203120e-01,-1.220158048458403061e-01,-3.940404122779551654e-01,0.000000000000000000e+00,-3.073970455528494683e-01,-2.392499884438216429e-01,-3.147796650248735895e-01,0.000000000000000000e+00,0.000000000000000000e+00,-3.280525564983634568e-01,0.000000000000000000e+00,-2.071745778184669595e-01,0.000000000000000000e+00,0.000000000000000000e+00,0.000000000000000000e+00,0.000000000000000000e+00,-3.290649812740203406e-01,0.000000000000000000e+00,-4.667058120730451232e-01,-4.946820204996939530e-01,-4.454868300896028810e-01,-4.969816546054461881e-01,-1.900535193571342429e-01,-1.953138176404284332e-01,0.000000000000000000e+00,0.000000000000000000e+00,0.000000000000000000e+00,-3.899796344734365872e-01,-1.181866162636740214e-01,0.000000000000000000e+00,-2.619339796576660162e-01,0.000000000000000000e+00,0.000000000000000000e+00,-3.962094979379223170e-01,-5.123429357368133319e-01,-2.617621271333402944e-01,0.000000000000000000e+00,0.000000000000000000e+00,0.000000000000000000e+00,3.000236242076185708e-02,0.000000000000000000e+00,0.000000000000000000e+00,0.000000000000000000e+00,0.000000000000000000e+00,0.000000000000000000e+00,0.000000000000000000e+00,0.000000000000000000e+00,0.000000000000000000e+00,0.000000000000000000e+00,0.000000000000000000e+00,0.000000000000000000e+00,0.000000000000000000e+00,0.000000000000000000e+00,0.000000000000000000e+00,0.000000000000000000e+00,0.000000000000000000e+00,0.000000000000000000e+00,0.000000000000000000e+00,0.000000000000000000e+00,0.000000000000000000e+00,0.000000000000000000e+00,0.000000000000000000e+00,0.000000000000000000e+00,0.000000000000000000e+00,0.000000000000000000e+00,0.000000000000000000e+00,0.000000000000000000e+00,-1.586348655022037368e-01,-9.493633186232229570e-02,0.000000000000000000e+00,0.000000000000000000e+00,0.000000000000000000e+00,0.000000000000000000e+00,0.000000000000000000e+00,0.000000000000000000e+00,0.000000000000000000e+00,0.000000000000000000e+00,0.000000000000000000e+00,0.000000000000000000e+00,0.000000000000000000e+00,0.000000000000000000e+00,0.000000000000000000e+00,0.000000000000000000e+00,0.000000000000000000e+00,0.000000000000000000e+00,0.000000000000000000e+00,0.000000000000000000e+00,0.000000000000000000e+00,0.000000000000000000e+00,0.000000000000000000e+00,0.000000000000000000e+00,0.000000000000000000e+00,0.000000000000000000e+00,0.000000000000000000e+00,0.000000000000000000e+00,0.000000000000000000e+00,0.000000000000000000e+00,0.000000000000000000e+00,0.000000000000000000e+00,0.000000000000000000e+00,0.000000000000000000e+00,0.000000000000000000e+00,0.000000000000000000e+00,0.000000000000000000e+00,0.000000000000000000e+00,0.000000000000000000e+00,0.000000000000000000e+00,0.000000000000000000e+00,0.000000000000000000e+00,0.000000000000000000e+00,0.000000000000000000e+00,0.000000000000000000e+00,0.000000000000000000e+00,0.000000000000000000e+00,0.000000000000000000e+00,0.000000000000000000e+00,0.000000000000000000e+00,0.000000000000000000e+00,-2.823977207025870628e-01,0.000000000000000000e+00,0.000000000000000000e+00,0.000000000000000000e+00,0.000000000000000000e+00,0.000000000000000000e+00,0.000000000000000000e+00,0.000000000000000000e+00,0.000000000000000000e+00,0.000000000000000000e+00,0.000000000000000000e+00,-1.607441039341939160e-01,0.000000000000000000e+00,0.000000000000000000e+00,0.000000000000000000e+00,0.000000000000000000e+00,0.000000000000000000e+00,0.000000000000000000e+00,-3.548899848739259788e-01,-2.180137732153256680e-01,-4.531380533507958219e-01,-4.145286127764524764e-01,-3.763991479652309402e-01,-5.217068414004319976e-01,0.000000000000000000e+00,0.000000000000000000e+00,0.000000000000000000e+00,0.000000000000000000e+00,0.000000000000000000e+00,0.000000000000000000e+00,0.000000000000000000e+00,0.000000000000000000e+00,0.000000000000000000e+00,0.000000000000000000e+00,0.000000000000000000e+00,0.000000000000000000e+00,0.000000000000000000e+00,0.000000000000000000e+00,0.000000000000000000e+00,0.000000000000000000e+00,-3.453437172203988603e-01,0.000000000000000000e+00,0.000000000000000000e+00,0.000000000000000000e+00,0.000000000000000000e+00,0.000000000000000000e+00,0.000000000000000000e+00,0.000000000000000000e+00,0.000000000000000000e+00,0.000000000000000000e+00,0.000000000000000000e+00,0.000000000000000000e+00,0.000000000000000000e+00,0.000000000000000000e+00,0.000000000000000000e+00,0.000000000000000000e+00,0.000000000000000000e+00,0.000000000000000000e+00
0.000000000000000000e+00,0.000000000000000000e+00,0.000000000000000000e+00,0.000000000000000000e+00,0.000000000000000000e+00,0.000000000000000000e+00,-1.924783329553446665e-01,-1.204571618685334883e-01,-1.204571618685334883e-01,-1.924783329553446665e-01,-2.168615523370216736e-02,-2.168615523370216736e-02,-6.780112698139731386e-02,0.000000000000000000e+00,1.784573229675024131e-01,1.542364497415982805e-01,3.779265165504265556e-02,1.118803620994902048e-01,8.531926272553680413e-02,2.921738125719903212e-01,-3.481432597588071109e-01,-3.702675741655849784e-01,-3.850834479139879085e-01,-9.082887975092851507e-02,-1.706323145335594815e-01,-7.668734117908918013e-02,-7.291125242493175229e-02,3.898913141114768166e-02,-2.785046780466934324e-01,-2.411282223796098467e-01,-2.440970044024814711e-01,-2.168615523370216736e-02,0.000000000000000000e+00,0.000000000000000000e+00,1.936268730190039700e-01,7.064563604887318105e-02,-3.739347860974381182e-02,0.000000000000000000e+00,-5.568101773554579720e-02,1.831711289243842175e-02,-3.846969546111601024e-01,-2.418798943122562328e-01,-7.543213610660161328e-02,-2.633922265007786201e-02,-1.239613789058055526e-01,-7.377888068290872070e-02,1.828753707105962995e-02,-8.974785655972736254e-02,-1.989282873074025570e-01,-1.801616108819566187e-01,-2.215280607275910141e-01,-4.893518632270851265e-01,-3.728228629069612610e-01,-3.708642770287519652e-01,-9.079834664395274035e-02,-3.499360075137910586e-01,-2.440970044024814711e-01,0.000000000000000000e+00,-8.419467255997935273e-02,-2.699086316635626419e-03,-1.803308751974373458e-01,-9.353848453068010216e-02,-1.391633261120831244e-01,-1.584983429726961601e-01,1.764100368527303161e-02,-1.067005221910211077e-01,-3.489066732243584212e-01,0.000000000000000000e+00,5.451900845804699691e-02,-2.991061985253778976e-01,-2.216615039367332285e-01,-3.867972744861133960e-02,0.000000000000000000e+00,-1.994689608464226271e-01,0.000000000000000000e+00,-5.543020589318171931e-02,-3.867972744861133960e-02,-1.740918449629826406e-02,0.000000000000000000e+00,-3.133942641857640488e-01,-1.222005687918788358e-01,0.000000000000000000e+00,-3.935807280529565189e-01,-3.697408707231056857e-01,-3.467978699668110010e-01,-3.889523454394676616e-01,-6.389947219591676775e-02,-4.443361115774111664e-02,1.152558208777218762e-01,0.000000000000000000e+00,-2.087831717139490562e-01,-3.576400849622760614e-01,-1.599048770835402589e-01,-2.413907712149069573e-01,-2.492335749947421908e-01,0.000000000000000000e+00,-1.085074776401824814e-01,-1.924783329553446665e-01,-3.484333071136437310e-01,-1.249179036104765828e-01,0.000000000000000000e+00,0.000000000000000000e+00,-2.346468983004346143e-01,-8.647965459441753211e-02,1.060592084447186390e-01,1.283674860408219875e-01,0.000000000000000000e+00,0.000000000000000000e+00,1.371471586830802503e-01,0.000000000000000000e+00,-1.097956506413088826e-02,0.000000000000000000e+00,0.000000000000000000e+00,0.000000000000000000e+00,0.000000000000000000e+00,0.000000000000000000e+00,0.000000000000000000e+00,0.000000000000000000e+00,0.000000000000000000e+00,-2.201346171592293843e-01,0.000000000000000000e+00,0.000000000000000000e+00,0.000000000000000000e+00,0.000000000000000000e+00,0.000000000000000000e+00,0.000000000000000000e+00,-3.608823074768621186e-01,0.000000000000000000e+00,0.000000000000000000e+00,0.000000000000000000e+00,0.000000000000000000e+00,-8.368530444688623837e-02,-2.826891494416831907e-02,0.000000000000000000e+00,8.663362519994360911e-02,0.000000000000000000e+00,0.000000000000000000e+00,0.000000000000000000e+00,0.000000000000000000e+00,0.000000000000000000e+00,-1.385597839466181647e-01,0.000000000000000000e+00,0.000000000000000000e+00,0.000000000000000000e+00,0.000000000000000000e+00,0.000000000000000000e+00,0.000000000000000000e+00,0.000000000000000000e+00,0.000000000000000000e+00,0.000000000000000000e+00,0.000000000000000000e+00,0.000000000000000000e+00,0.000000000000000000e+00,0.000000000000000000e+00,0.000000000000000000e+00,0.000000000000000000e+00,0.000000000000000000e+00,0.000000000000000000e+00,0.000000000000000000e+00,0.000000000000000000e+00,0.000000000000000000e+00,0.000000000000000000e+00,0.000000000000000000e+00,0.000000000000000000e+00,0.000000000000000000e+00,0.000000000000000000e+00,0.000000000000000000e+00,0.000000000000000000e+00,0.000000000000000000e+00,0.000000000000000000e+00,0.000000000000000000e+00,0.000000000000000000e+00,0.000000000000000000e+00,0.000000000000000000e+00,0.000000000000000000e+00,0.000000000000000000e+00,0.000000000000000000e+00,0.000000000000000000e+00,0.000000000000000000e+00,0.000000000000000000e+00,0.000000000000000000e+00,0.000000000000000000e+00,-8.365496321900170451e-02,-4.528894517112748430e-02,0.000000000000000000e+00,-3.867972744861133960e-02,0.000000000000000000e+00,0.000000000000000000e+00,0.000000000000000000e+00,0.000000000000000000e+00,0.000000000000000000e+00,0.000000000000000000e+00,0.000000000000000000e+00,3.645425217834717679e-02,-3.867972744861133960e-02,0.000000000000000000e+00,0.000000000000000000e+00,0.000000000000000000e+00,0.000000000000000000e+00,-2.503715746910657458e-01,-3.805430078232922564e-01,-2.038691303982057001e-01,-3.017127530084102172e-01,-3.733176951091055629e-01,-2.271456887433248584e-01,-3.983469734212139457e-01,0.000000000000000000e+00,0.000000000000000000e+00,0.000000000000000000e+00,0.000000000000000000e+00,0.000000000000000000e+00,0.000000000000000000e+00,0.000000000000000000e+00,0.000000000000000000e+00,0.000000000000000000e+00,0.000000000000000000e+00,0.000000000000000000e+00,0.000000000000000000e+00,0.000000000000000000e+00,0.000000000000000000e+00,0.000000000000000000e+00,0.000000000000000000e+00,0.000000000000000000e+00,0.000000000000000000e+00,0.000000000000000000e+00,0.000000000000000000e+00,0.000000000000000000e+00,0.000000000000000000e+00,0.000000000000000000e+00,0.000000000000000000e+00,0.000000000000000000e+00,0.000000000000000000e+00,0.000000000000000000e+00,0.000000000000000000e+00,0.000000000000000000e+00,0.000000000000000000e+00,0.000000000000000000e+00,0.000000000000000000e+00,0.000000000000000000e+00,0.000000000000000000e+00
0.000000000000000000e+00,0.000000000000000000e+00,0.000000000000000000e+00,0.000000000000000000e+00,0.000000000000000000e+00,0.000000000000000000e+00,0.000000000000000000e+00,0.000000000000000000e+00,0.000000000000000000e+00,0.000000000000000000e+00,-1.204571618685334883e-01,-1.204571618685334883e-01,-3.162696755349043154e-01,0.000000000000000000e+00,-1.110684945682565566e-01,1.241377780621082116e-01,0.000000000000000000e+00,-1.403736713314164553e-01,0.000000000000000000e+00,-3.547905664068011777e-01,-4.682820803716213343e-01,-4.225606668714489422e-01,-4.948420907355446929e-01,0.000000000000000000e+00,-2.959963343250971990e-01,0.000000000000000000e+00,-1.200397138699160204e-01,-1.625263483370928963e-01,-4.077165269048809160e-01,-4.077165269048809160e-01,-3.940404122779551654e-01,-1.924783329553446665e-01,0.000000000000000000e+00,0.000000000000000000e+00,-5.816145506836789547e-02,0.000000000000000000e+00,0.000000000000000000e+00,0.000000000000000000e+00,-1.828268128938143888e-01,-1.778286697170676500e-01,-5.096581952722450959e-01,-4.306533173608739773e-01,-2.784411302078451667e-01,-3.047309804274035416e-01,-3.012539905428315290e-01,0.000000000000000000e+00,-2.249822495981369519e-01,-2.616431169742710061e-01,-4.362188804285130339e-01,0.000000000000000000e+00,-4.535563287798883847e-01,-4.252171910017111811e-01,0.000000000000000000e+00,-4.337888759348844103e-01,0.000000000000000000e+00,-5.228635611407076444e-01,-3.940404122779551654e-01,-2.500391639144802225e-01,-2.471110221701123544e-01,-1.771515757797324508e-01,-1.819538777936878515e-01,-3.870537629069203400e-01,-3.256544923505100275e-01,-3.616070866863829725e-01,-1.502158483190599025e-01,-2.341320455225233133e-01,-4.705015138189381219e-01,-1.197509783816337464e-01,0.000000000000000000e+00,-1.856651058361089290e-01,-3.690653197949839148e-01,0.000000000000000000e+00,0.000000000000000000e+00,-2.529947185396812515e-01,-3.892958735109250390e-01,-3.034026524825163551e-01,0.000000000000000000e+00,0.000000000000000000e+00,0.000000000000000000e+00,0.000000000000000000e+00,-4.963943654328905608e-01,0.000000000000000000e+00,-3.728228629069612610e-01,-5.228635611407076444e-01,-4.535246239007677538e-01,-5.247685805172285223e-01,-2.746521262210566694e-01,0.000000000000000000e+00,0.000000000000000000e+00,0.000000000000000000e+00,0.000000000000000000e+00,-4.391953961492639502e-01,-2.082504230493420760e-01,0.000000000000000000e+00,-4.572561423746258624e-01,-1.577418205553817732e-01,0.000000000000000000e+00,0.000000000000000000e+00,-5.167860616857379297e-01,-4.013010045985376806e-01,-2.083053030736017330e-01,0.000000000000000000e+00,0.000000000000000000e+00,0.000000000000000000e+00,0.000000000000000000e+00,0.000000000000000000e+00,0.000000000000000000e+00,0.000000000000000000e+00,0.000000000000000000e+00,0.000000000000000000e+00,0.000000000000000000e+00,0.000000000000000000e+00,0.000000000000000000e+00,0.000000000000000000e+00,0.000000000000000000e+00,0.000000000000000000e+00,0.000000000000000000e+00,0.000000000000000000e+00,0.000000000000000000e+00,0.000000000000000000e+00,0.000000000000000000e+00,0.000000000000000000e+00,0.000000000000000000e+00,0.000000000000000000e+00,0.000000000000000000e+00,0.000000000000000000e+00,0.000000000000000000e+00,0.000000000000000000e+00,0.000000000000000000e+00,0.000000000000000000e+00,0.000000000000000000e+00,0.000000000000000000e+00,0.000000000000000000e+00,0.000000000000000000e+00,0.000000000000000000e+00,0.000000000000000000e+00,0.000000000000000000e+00,0.000000000000000000e+00,0.000000000000000000e+00,0.000000000000000000e+00,0.000000000000000000e+00,0.000000000000000000e+00,0.000000000000000000e+00,0.000000000000000000e+00,0.000000000000000000e+00,0.000000000000000000e+00,0.000000000000000000e+00,0.000000000000000000e+00,0.000000000000000000e+00,0.000000000000000000e+00,0.000000000000000000e+00,0.000000000000000000e+00,0.000000000000000000e+00,0.000000000000000000e+00,0.000000000000000000e+00,0.000000000000000000e+00,0.000000000000000000e+00,0.000000000000000000e+00,0.000000000000000000e+00,0.000000000000000000e+00,0.000000000000000000e+00,0.000000000000000000e+00,0.000000000000000000e+00,0.000000000000000000e+00,0.000000000000000000e+00,0.000000000000000000e+00,0.000000000000000000e+00,0.000000000000000000e+00,0.000000000000000000e+00,0.000000000000000000e+00,0.000000000000000000e+00,0.000000000000000000e+00,0.000000000000000000e+00,0.000000000000000000e+00,0.000000000000000000e+00,0.000000000000000000e+00,0.000000000000000000e+00,0.000000000000000000e+00,0.000000000000000000e+00,0.000000000000000000e+00,0.000000000000000000e+00,0.000000000000000000e+00,0.000000000000000000e+00,0.000000000000000000e+00,0.000000000000000000e+00,0.000000000000000000e+00,0.000000000000000000e+00,0.000000000000000000e+00,0.000000000000000000e+00,0.000000000000000000e+00,0.000000000000000000e+00,0.000000000000000000e+00,0.000000000000000000e+00,0.000000000000000000e+00,0.000000000000000000e+00,0.000000000000000000e+00,0.000000000000000000e+00,0.000000000000000000e+00,0.000000000000000000e+00,0.000000000000000000e+00,-3.482542992236768997e-01,-3.884243221611591856e-01,-4.759142465403400357e-01,-4.071017145240831692e-01,-3.892958735109250390e-01,-4.320899101024580080e-01,0.000000000000000000e+00,0.000000000000000000e+00,0.000000000000000000e+00,0.000000000000000000e+00,0.000000000000000000e+00,0.000000000000000000e+00,0.000000000000000000e+00,0.000000000000000000e+00,0.000000000000000000e+00,0.000000000000000000e+00,0.000000000000000000e+00,0.000000000000000000e+00,0.000000000000000000e+00,0.000000000000000000e+00,-2.385182945031253110e-01,0.000000000000000000e+00,-2.385182945031253110e-01,0.000000000000000000e+00,0.000000000000000000e+00,0.000000000000000000e+00,0.000000000000000000e+00,0.000000000000000000e+00,0.000000000000000000e+00,0.000000000000000000e+00,0.000000000000000000e+00,0.000000000000000000e+00,0.000000000000000000e+00,0.000000000000000000e+00,0.000000000000000000e+00,0.000000000000000000e+00,0.000000000000000000e+00,0.000000000000000000e+00,0.000000000000000000e+00,0.000000000000000000e+00
0.000000000000000000e+00,0.000000000000000000e+00,0.000000000000000000e+00,0.000000000000000000e+00,0.000000000000000000e+00,0.000000000000000000e+00,0.000000000000000000e+00,0.000000000000000000e+00,0.000000000000000000e+00,0.000000000000000000e+00,-2.500391639144802225e-01,-1.204571618685334883e-01,0.000000000000000000e+00,0.000000000000000000e+00,0.000000000000000000e+00,0.000000000000000000e+00,0.000000000000000000e+00,-3.456015777908080233e-01,0.000000000000000000e+00,0.000000000000000000e+00,-5.271640052159553003e-01,-4.855957626370194791e-01,-4.061238556591743598e-01,0.000000000000000000e+00,-2.972577798781282366e-01,0.000000000000000000e+00,0.000000000000000000e+00,0.000000000000000000e+00,-3.540039262599068426e-01,-4.077165269048809160e-01,-3.940404122779551654e-01,-1.204571618685334883e-01,0.000000000000000000e+00,0.000000000000000000e+00,0.000000000000000000e+00,0.000000000000000000e+00,0.000000000000000000e+00,0.000000000000000000e+00,-2.697992312324460351e-01,0.000000000000000000e+00,-5.029734196083788245e-01,-4.226172340851938047e-01,-2.869343313733866419e-01,0.000000000000000000e+00,0.000000000000000000e+00,0.000000000000000000e+00,0.000000000000000000e+00,-2.407037955529122419e-01,-4.612172200658370413e-01,0.000000000000000000e+00,-3.610930074142162938e-01,-4.552485748968894130e-01,0.000000000000000000e+00,0.000000000000000000e+00,-4.189969745285830327e-01,-3.407319599307082059e-01,-3.940404122779551654e-01,0.000000000000000000e+00,-1.179765207592839704e-01,-2.940455859414011219e-01,-1.331914110029017995e-01,0.000000000000000000e+00,0.000000000000000000e+00,-2.181223622255794858e-01,-1.115155985491134705e-01,-2.849489827738823644e-01,-4.077165269048809160e-01,0.000000000000000000e+00,0.000000000000000000e+00,0.000000000000000000e+00,0.000000000000000000e+00,0.000000000000000000e+00,0.000000000000000000e+00,-2.998268253082135293e-01,-3.892958735109250390e-01,0.000000000000000000e+00,0.000000000000000000e+00,0.000000000000000000e+00,0.000000000000000000e+00,-3.873116416973596543e-01,-2.462766320637058415e-01,0.000000000000000000e+00,-3.987714996956358005e-01,-5.228635611407076444e-01,-4.682820803716213343e-01,-5.094601052426008803e-01,-2.999402956545215160e-01,0.000000000000000000e+00,0.000000000000000000e+00,0.000000000000000000e+00,0.000000000000000000e+00,-3.281837131404023999e-01,0.000000000000000000e+00,0.000000000000000000e+00,0.000000000000000000e+00,0.000000000000000000e+00,0.000000000000000000e+00,0.000000000000000000e+00,-5.106782846930847386e-01,-4.132321346376564564e-01,0.000000000000000000e+00,0.000000000000000000e+00,0.000000000000000000e+00,0.000000000000000000e+00,0.000000000000000000e+00,0.000000000000000000e+00,0.000000000000000000e+00,0.000000000000000000e+00,0.000000000000000000e+00,0.000000000000000000e+00,0.000000000000000000e+00,0.000000000000000000e+00,0.000000000000000000e+00,0.000000000000000000e+00,0.000000000000000000e+00,0.000000000000000000e+00,0.000000000000000000e+00,0.000000000000000000e+00,0.000000000000000000e+00,0.000000000000000000e+00,0.000000000000000000e+00,0.000000000000000000e+00,0.000000000000000000e+00,0.000000000000000000e+00,0.000000000000000000e+00,0.000000000000000000e+00,0.000000000000000000e+00,0.000000000000000000e+00,0.000000000000000000e+00,0.000000000000000000e+00,0.000000000000000000e+00,0.000000000000000000e+00,0.000000000000000000e+00,0.000000000000000000e+00,0.000000000000000000e+00,0.000000000000000000e+00,0.000000000000000000e+00,0.000000000000000000e+00,0.000000000000000000e+00,0.000000000000000000e+00,0.000000000000000000e+00,0.000000000000000000e+00,0.000000000000000000e+00,0.000000000000000000e+00,0.000000000000000000e+00,0.000000000000000000e+00,0.000000000000000000e+00,0.000000000000000000e+00,0.000000000000000000e+00,0.000000000000000000e+00,0.000000000000000000e+00,0.000000000000000000e+00,0.000000000000000000e+00,0.000000000000000000e+00,0.000000000000000000e+00,0.000000000000000000e+00,0.000000000000000000e+00,0.000000000000000000e+00,0.000000000000000000e+00,0.000000000000000000e+00,0.000000000000000000e+00,0.000000000000000000e+00,0.000000000000000000e+00,0.000000000000000000e+00,0.000000000000000000e+00,0.000000000000000000e+00,0.000000000000000000e+00,0.000000000000000000e+00,0.000000000000000000e+00,0.000000000000000000e+00,0.000000000000000000e+00,0.000000000000000000e+00,0.000000000000000000e+00,0.000000000000000000e+00,0.000000000000000000e+00,0.000000000000000000e+00,0.000000000000000000e+00,0.000000000000000000e+00,0.000000000000000000e+00,0.000000000000000000e+00,0.000000000000000000e+00,0.000000000000000000e+00,0.000000000000000000e+00,0.000000000000000000e+00,0.000000000000000000e+00,0.000000000000000000e+00,0.000000000000000000e+00,0.000000000000000000e+00,0.000000000000000000e+00,0.000000000000000000e+00,0.000000000000000000e+00,0.000000000000000000e+00,0.000000000000000000e+00,0.000000000000000000e+00,0.000000000000000000e+00,0.000000000000000000e+00,0.000000000000000000e+00,0.000000000000000000e+00,0.000000000000000000e+00,0.000000000000000000e+00,-3.283088508790512616e-01,0.000000000000000000e+00,-4.416769050828342480e-01,-3.489699569621057540e-01,-3.728228629069612610e-01,-4.599583424423647759e-01,0.000000000000000000e+00,0.000000000000000000e+00,0.000000000000000000e+00,0.000000000000000000e+00,0.000000000000000000e+00,0.000000000000000000e+00,0.000000000000000000e+00,0.000000000000000000e+00,-2.385182945031253110e-01,0.000000000000000000e+00,0.000000000000000000e+00,0.000000000000000000e+00,0.000000000000000000e+00,0.000000000000000000e+00,0.000000000000000000e+00,0.000000000000000000e+00,-2.385182945031253110e-01,0.000000000000000000e+00,0.000000000000000000e+00,0.000000000000000000e+00,0.000000000000000000e+00,0.000000000000000000e+00,0.000000000000000000e+00,0.000000000000000000e+00,0.000000000000000000e+00,0.000000000000000000e+00,0.000000000000000000e+00,0.000000000000000000e+00,0.000000000000000000e+00,0.000000000000000000e+00,0.000000000000000000e+00,0.000000000000000000e+00,0.000000000000000000e+00,0.000000000000000000e+00
0.000000000000000000e+00,0.000000000000000000e+00,0.000000000000000000e+00,0.000000000000000000e+00,0.000000000000000000e+00,0.000000000000000000e+00,0.000000000000000000e+00,0.000000000000000000e+00,0.000000000000000000e+00,0.000000000000000000e+00,-2.500391639144802225e-01,-1.204571618685334883e-01,-3.695570864357968777e-01,0.000000000000000000e+00,0.000000000000000000e+00,2.756307344128687553e-02,0.000000000000000000e+00,-1.401173102756250455e-01,0.000000000000000000e+00,0.000000000000000000e+00,-5.356301055064435213e-01,-5.271640052159553003e-01,-4.340879987740452473e-01,-2.137132938210833388e-01,-3.756010849899137916e-01,0.000000000000000000e+00,-1.791908654222125752e-01,0.000000000000000000e+00,0.000000000000000000e+00,-4.077165269048809160e-01,-3.940404122779551654e-01,-1.577418205553817732e-01,0.000000000000000000e+00,0.000000000000000000e+00,0.000000000000000000e+00,0.000000000000000000e+00,0.000000000000000000e+00,0.000000000000000000e+00,-2.759549661367890483e-01,0.000000000000000000e+00,-4.618509719280901593e-01,-4.759142465403400357e-01,-2.232311176244469730e-01,0.000000000000000000e+00,0.000000000000000000e+00,0.000000000000000000e+00,0.000000000000000000e+00,-2.959069002206735077e-01,-4.256176631537249566e-01,0.000000000000000000e+00,-2.123193777862193432e-01,0.000000000000000000e+00,0.000000000000000000e+00,0.000000000000000000e+00,0.000000000000000000e+00,0.000000000000000000e+00,-3.940404122779551654e-01,-3.505385234145053652e-01,0.000000000000000000e+00,-2.589518738588938440e-01,-2.727313490558710418e-01,-3.142913761085280311e-01,-4.063156476515229487e-01,-3.400344941123578657e-01,-1.526263633765921057e-01,-1.767066709917409217e-01,-3.728228629069612610e-01,0.000000000000000000e+00,0.000000000000000000e+00,0.000000000000000000e+00,-3.500537334334072881e-01,-5.195169377780996939e-02,0.000000000000000000e+00,-2.577164768170894793e-01,-3.669164290132859718e-01,-2.724476072784486891e-01,0.000000000000000000e+00,0.000000000000000000e+00,0.000000000000000000e+00,-1.697944166802780597e-01,-1.366348994619317192e-01,0.000000000000000000e+00,0.000000000000000000e+00,0.000000000000000000e+00,-5.209002097831287870e-01,-5.106782846930847386e-01,0.000000000000000000e+00,-3.345286615146309539e-01,0.000000000000000000e+00,0.000000000000000000e+00,0.000000000000000000e+00,-2.310523651075666041e-01,0.000000000000000000e+00,0.000000000000000000e+00,-2.389772901707284680e-01,0.000000000000000000e+00,0.000000000000000000e+00,0.000000000000000000e+00,-5.271640052159553003e-01,-3.644821833514908516e-01,0.000000000000000000e+00,0.000000000000000000e+00,0.000000000000000000e+00,0.000000000000000000e+00,0.000000000000000000e+00,0.000000000000000000e+00,0.000000000000000000e+00,0.000000000000000000e+00,0.000000000000000000e+00,0.000000000000000000e+00,0.000000000000000000e+00,0.000000000000000000e+00,0.000000000000000000e+00,0.000000000000000000e+00,0.000000000000000000e+00,0.000000000000000000e+00,0.000000000000000000e+00,0.000000000000000000e+00,0.000000000000000000e+00,0.000000000000000000e+00,0.000000000000000000e+00,0.000000000000000000e+00,0.000000000000000000e+00,0.000000000000000000e+00,0.000000000000000000e+00,0.000000000000000000e+00,0.000000000000000000e+00,0.000000000000000000e+00,0.000000000000000000e+00,0.000000000000000000e+00,0.000000000000000000e+00,0.000000000000000000e+00,1.542181865115957494e-03,0.000000000000000000e+00,0.000000000000000000e+00,0.000000000000000000e+00,0.000000000000000000e+00,0.000000000000000000e+00,0.000000000000000000e+00,0.000000000000000000e+00,0.000000000000000000e+00,0.000000000000000000e+00,0.000000000000000000e+00,0.000000000000000000e+00,0.000000000000000000e+00,0.000000000000000000e+00,0.000000000000000000e+00,0.000000000000000000e+00,0.000000000000000000e+00,0.000000000000000000e+00,0.000000000000000000e+00,0.000000000000000000e+00,0.000000000000000000e+00,0.000000000000000000e+00,0.000000000000000000e+00,0.000000000000000000e+00,0.000000000000000000e+00,0.000000000000000000e+00,0.000000000000000000e+00,0.000000000000000000e+00,0.000000000000000000e+00,0.000000000000000000e+00,0.000000000000000000e+00,0.000000000000000000e+00,0.000000000000000000e+00,0.000000000000000000e+00,0.000000000000000000e+00,0.000000000000000000e+00,0.000000000000000000e+00,0.000000000000000000e+00,0.000000000000000000e+00,0.000000000000000000e+00,0.000000000000000000e+00,0.000000000000000000e+00,0.000000000000000000e+00,0.000000000000000000e+00,0.000000000000000000e+00,0.000000000000000000e+00,0.000000000000000000e+00,0.000000000000000000e+00,0.000000000000000000e+00,0.000000000000000000e+00,0.000000000000000000e+00,0.000000000000000000e+00,0.000000000000000000e+00,0.000000000000000000e+00,0.000000000000000000e+00,0.000000000000000000e+00,0.000000000000000000e+00,0.000000000000000000e+00,0.000000000000000000e+00,0.000000000000000000e+00,0.000000000000000000e+00,0.000000000000000000e+00,0.000000000000000000e+00,0.000000000000000000e+00,0.000000000000000000e+00,0.000000000000000000e+00,0.000000000000000000e+00,0.000000000000000000e+00,-3.268304007814442080e-01,-3.361207773992827552e-01,-3.574073292327184515e-01,0.000000000000000000e+00,-2.673165996805383360e-01,-4.289429357378151675e-01,0.000000000000000000e+00,0.000000000000000000e+00,0.000000000000000000e+00,0.000000000000000000e+00,0.000000000000000000e+00,0.000000000000000000e+00,0.000000000000000000e+00,0.000000000000000000e+00,0.000000000000000000e+00,0.000000000000000000e+00,0.000000000000000000e+00,0.000000000000000000e+00,0.000000000000000000e+00,0.000000000000000000e+00,-2.385182945031253110e-01,0.000000000000000000e+00,0.000000000000000000e+00,0.000000000000000000e+00,0.000000000000000000e+00,0.000000000000000000e+00,0.000000000000000000e+00,0.000000000000000000e+00,0.000000000000000000e+00,0.000000000000000000e+00,0.000000000000000000e+00,0.000000000000000000e+00,0.000000000000000000e+00,0.000000000000000000e+00,0.000000000000000000e+00,0.000000000000000000e+00,0.000000000000000000e+00,0.000000000000000000e+00,0.000000000000000000e+00,0.000000000000000000e+00
0.000000000000000000e+00,0.000000000000000000e+00,0.000000000000000000e+00,0.000000000000000000e+00,0.000000000000000000e+00,0.000000000000000000e+00,0.000000000000000000e+00,0.000000000000000000e+00,0.000000000000000000e+00,0.000000000000000000e+00,-1.204571618685334883e-01,-1.204571618685334883e-01,-2.907100706961899816e-01,0.000000000000000000e+00,8.898153771781344701e-02,1.075201284788650513e-01,-1.405594221080206097e-01,-1.331271897692660744e-01,5.679731921954896123e-02,2.272821292327401876e-01,-4.682820803716213343e-01,-3.702675741655849784e-01,-4.066383704067417226e-01,-2.097315464936602147e-01,-2.959963343250971990e-01,0.000000000000000000e+00,-1.349360354921401439e-01,-2.376779762653581304e-02,-3.540039262599068426e-01,-4.077165269048809160e-01,-3.488236744497131836e-01,-1.489955812951079261e-01,0.000000000000000000e+00,0.000000000000000000e+00,0.000000000000000000e+00,-1.322684263455160270e-01,3.779265165504265556e-02,3.501256312129500531e-02,-3.680935480817589672e-02,-1.870382192492962142e-02,-4.494135172545656864e-01,-3.538249957647636168e-01,-1.997504515306239292e-01,-2.173560575897073854e-01,-1.627899241217595772e-01,0.000000000000000000e+00,-1.561313747987559120e-01,-1.194409460135656964e-01,-3.474846343964139717e-01,0.000000000000000000e+00,-4.511837681822415957e-01,-4.668027717095387663e-01,-4.493361603490907408e-01,-3.037366946648684674e-01,-3.728228629069612610e-01,-5.094601052426008803e-01,-4.077165269048809160e-01,-2.667953940985083872e-01,-2.574414637255502680e-01,-8.629120745308219154e-02,-3.812580910609775775e-01,-1.761171120814180868e-01,-2.456202676299457655e-01,-1.751408097429444088e-01,-2.493271700765272159e-01,-2.253201719518524160e-01,-3.940404122779551654e-01,0.000000000000000000e+00,-1.325741448708331049e-01,-2.038021732646738138e-01,-3.504035601559281066e-01,-2.168615523370216736e-02,0.000000000000000000e+00,-3.011618459619168076e-01,-2.667953940985083872e-01,-1.681479341619872003e-01,-2.168615523370216736e-02,-2.580778480876971259e-01,0.000000000000000000e+00,-4.316643123621601297e-01,-3.062661424813773459e-01,-2.547485188114766430e-01,-4.084579189595702875e-01,-5.228635611407076444e-01,-3.955028344793719008e-01,-4.910994973150090703e-01,-2.078436658537189397e-01,0.000000000000000000e+00,0.000000000000000000e+00,0.000000000000000000e+00,0.000000000000000000e+00,-4.381197845813679659e-01,0.000000000000000000e+00,0.000000000000000000e+00,-3.076440150828393394e-01,-1.489955812951079261e-01,0.000000000000000000e+00,-3.728228629069612610e-01,-4.855957626370194791e-01,-3.644821833514908516e-01,0.000000000000000000e+00,0.000000000000000000e+00,0.000000000000000000e+00,0.000000000000000000e+00,1.836859645300725208e-01,1.542181865115957494e-03,0.000000000000000000e+00,0.000000000000000000e+00,-1.371189857243830246e-01,0.000000000000000000e+00,0.000000000000000000e+00,0.000000000000000000e+00,0.000000000000000000e+00,0.000000000000000000e+00,0.000000000000000000e+00,-2.008493769505252380e-01,0.000000000000000000e+00,0.000000000000000000e+00,0.000000000000000000e+00,0.000000000000000000e+00,0.000000000000000000e+00,0.000000000000000000e+00,0.000000000000000000e+00,0.000000000000000000e+00,0.000000000000000000e+00,-7.386185223445913828e-02,-2.669546459358494994e-01,0.000000000000000000e+00,0.000000000000000000e+00,0.000000000000000000e+00,0.000000000000000000e+00,-3.488819266372011896e-02,-6.742602234039529741e-02,0.000000000000000000e+00,0.000000000000000000e+00,0.000000000000000000e+00,0.000000000000000000e+00,0.000000000000000000e+00,0.000000000000000000e+00,0.000000000000000000e+00,0.000000000000000000e+00,0.000000000000000000e+00,0.000000000000000000e+00,0.000000000000000000e+00,0.000000000000000000e+00,0.000000000000000000e+00,0.000000000000000000e+00,0.000000000000000000e+00,0.000000000000000000e+00,0.000000000000000000e+00,0.000000000000000000e+00,0.000000000000000000e+00,0.000000000000000000e+00,0.000000000000000000e+00,0.000000000000000000e+00,0.000000000000000000e+00,0.000000000000000000e+00,0.000000000000000000e+00,0.000000000000000000e+00,0.000000000000000000e+00,0.000000000000000000e+00,0.000000000000000000e+00,0.000000000000000000e+00,0.000000000000000000e+00,0.000000000000000000e+00,0.000000000000000000e+00,0.000000000000000000e+00,0.000000000000000000e+00,0.000000000000000000e+00,0.000000000000000000e+00,0.000000000000000000e+00,0.000000000000000000e+00,0.000000000000000000e+00,0.000000000000000000e+00,0.000000000000000000e+00,0.000000000000000000e+00,0.000000000000000000e+00,0.000000000000000000e+00,0.000000000000000000e+00,0.000000000000000000e+00,0.000000000000000000e+00,0.000000000000000000e+00,0.000000000000000000e+00,-1.901278343294307560e-01,0.000000000000000000e+00,0.000000000000000000e+00,0.000000000000000000e+00,0.000000000000000000e+00,0.000000000000000000e+00,0.000000000000000000e+00,0.000000000000000000e+00,0.000000000000000000e+00,0.000000000000000000e+00,-2.110353960750184499e-01,-1.114538449367266232e-01,0.000000000000000000e+00,0.000000000000000000e+00,0.000000000000000000e+00,0.000000000000000000e+00,0.000000000000000000e+00,-3.482542992236768997e-01,-4.297425958979188554e-01,-4.119780280217911761e-01,-4.434561386995958254e-01,-3.296658331697390754e-01,-4.518729532737073007e-01,-2.901704444857837184e-01,0.000000000000000000e+00,0.000000000000000000e+00,0.000000000000000000e+00,0.000000000000000000e+00,0.000000000000000000e+00,0.000000000000000000e+00,0.000000000000000000e+00,0.000000000000000000e+00,0.000000000000000000e+00,0.000000000000000000e+00,0.000000000000000000e+00,0.000000000000000000e+00,0.000000000000000000e+00,0.000000000000000000e+00,0.000000000000000000e+00,-2.385182945031253110e-01,0.000000000000000000e+00,0.000000000000000000e+00,0.000000000000000000e+00,0.000000000000000000e+00,0.000000000000000000e+00,0.000000000000000000e+00,0.000000000000000000e+00,0.000000000000000000e+00,0.000000000000000000e+00,0.000000000000000000e+00,0.000000000000000000e+00,0.000000000000000000e+00,0.000000000000000000e+00,0.000000000000000000e+00,0.000000000000000000e+00,0.000000000000000000e+00,0.000000000000000000e+00
0.000000000000000000e+00,0.000000000000000000e+00,0.000000000000000000e+00,0.000000000000000000e+00,0.000000000000000000e+00,0.000000000000000000e+00,0.000000000000000000e+00,0.000000000000000000e+00,0.000000000000000000e+00,0.000000000000000000e+00,0.000000000000000000e+00,-2.168615523370216736e-02,-8.141517227601777207e-02,0.000000000000000000e+00,3.442208121872472049e-01,2.888642979267391775e-01,1.801899090638580184e-02,2.146967269493272878e-01,1.598298337382811699e-02,2.022668075707042268e-01,-3.944287586251741806e-01,-3.325933016668770614e-01,-3.147260608517766789e-01,0.000000000000000000e+00,-1.819070594934452112e-01,-1.106699092459869083e-01,-2.836026701036814882e-02,1.360180229262717144e-01,-2.500391639144802225e-01,-2.852160474924643196e-01,-2.325804442775292191e-01,1.408026898988668507e-01,0.000000000000000000e+00,1.408026898988668507e-01,5.856316772319419828e-02,-7.427835245271265097e-02,1.801899090638580184e-02,3.779265165504265556e-02,1.068495042523400357e-01,5.547596831081993279e-02,-3.024737438423418801e-01,-3.633419450158776320e-01,-1.406316980925369775e-01,-2.638432672208705296e-02,-1.816730404172740010e-01,0.000000000000000000e+00,0.000000000000000000e+00,-2.013029678113332221e-01,-1.419340589267966135e-01,1.666612570593685796e-02,-1.472667213228033567e-01,-2.909506627693822511e-01,0.000000000000000000e+00,0.000000000000000000e+00,0.000000000000000000e+00,0.000000000000000000e+00,0.000000000000000000e+00,1.408026898988668507e-01,-2.080887019799428084e-01,-1.454308845502787738e-02,6.432883404359240886e-02,-6.086977395862757517e-02,-1.095294830808661024e-01,-2.155503056959189034e-01,1.887705192826108144e-02,-7.058668278898377890e-02,0.000000000000000000e+00,0.000000000000000000e+00,0.000000000000000000e+00,0.000000000000000000e+00,-2.345616582362894664e-01,0.000000000000000000e+00,0.000000000000000000e+00,-2.114638988255480023e-01,0.000000000000000000e+00,-7.776934264578684586e-02,0.000000000000000000e+00,0.000000000000000000e+00,0.000000000000000000e+00,2.261761002776387086e-01,-8.012799680075491371e-02,-1.164111112314962226e-01,-3.388233101950353099e-01,-4.071452652750013335e-01,-3.091884044124797448e-01,-3.927671577723367835e-01,0.000000000000000000e+00,0.000000000000000000e+00,0.000000000000000000e+00,0.000000000000000000e+00,-1.343405297592200343e-01,-2.965821748800124835e-01,0.000000000000000000e+00,0.000000000000000000e+00,6.813128013909346657e-03,0.000000000000000000e+00,0.000000000000000000e+00,-3.728228629069612610e-01,-2.897166356216860916e-01,-2.895747398985650256e-01,0.000000000000000000e+00,0.000000000000000000e+00,-5.195169377780996939e-02,0.000000000000000000e+00,1.055578510203380033e-01,2.295742225117918672e-02,0.000000000000000000e+00,0.000000000000000000e+00,-4.019167897576242376e-02,0.000000000000000000e+00,1.037815834381908414e-01,0.000000000000000000e+00,0.000000000000000000e+00,0.000000000000000000e+00,0.000000000000000000e+00,0.000000000000000000e+00,0.000000000000000000e+00,0.000000000000000000e+00,0.000000000000000000e+00,-4.439403750562397749e-02,0.000000000000000000e+00,0.000000000000000000e+00,0.000000000000000000e+00,0.000000000000000000e+00,0.000000000000000000e+00,0.000000000000000000e+00,0.000000000000000000e+00,0.000000000000000000e+00,0.000000000000000000e+00,-2.675801576217694544e-01,0.000000000000000000e+00,-1.586348655022037368e-01,2.295742225117918672e-02,0.000000000000000000e+00,0.000000000000000000e+00,0.000000000000000000e+00,0.000000000000000000e+00,0.000000000000000000e+00,0.000000000000000000e+00,0.000000000000000000e+00,0.000000000000000000e+00,-1.634457067546565279e-01,0.000000000000000000e+00,0.000000000000000000e+00,0.000000000000000000e+00,0.000000000000000000e+00,0.000000000000000000e+00,0.000000000000000000e+00,0.000000000000000000e+00,0.000000000000000000e+00,0.000000000000000000e+00,0.000000000000000000e+00,0.000000000000000000e+00,0.000000000000000000e+00,0.000000000000000000e+00,0.000000000000000000e+00,0.000000000000000000e+00,0.000000000000000000e+00,0.000000000000000000e+00,0.000000000000000000e+00,0.000000000000000000e+00,0.000000000000000000e+00,0.000000000000000000e+00,0.000000000000000000e+00,0.000000000000000000e+00,0.000000000000000000e+00,0.000000000000000000e+00,0.000000000000000000e+00,0.000000000000000000e+00,0.000000000000000000e+00,0.000000000000000000e+00,0.000000000000000000e+00,0.000000000000000000e+00,0.000000000000000000e+00,0.000000000000000000e+00,0.000000000000000000e+00,0.000000000000000000e+00,0.000000000000000000e+00,0.000000000000000000e+00,0.000000000000000000e+00,0.000000000000000000e+00,0.000000000000000000e+00,0.000000000000000000e+00,-5.708612250363666318e-02,0.000000000000000000e+00,0.000000000000000000e+00,0.000000000000000000e+00,0.000000000000000000e+00,0.000000000000000000e+00,0.000000000000000000e+00,0.000000000000000000e+00,0.000000000000000000e+00,0.000000000000000000e+00,-5.708612250363666318e-02,0.000000000000000000e+00,0.000000000000000000e+00,0.000000000000000000e+00,0.000000000000000000e+00,0.000000000000000000e+00,-2.779573969819457702e-01,-3.039551388149910882e-01,-2.678325584443665419e-01,-1.559038794835249098e-01,-2.941847860207651988e-01,-1.204571618685334883e-01,-3.655537967777732766e-01,-2.000554043723377362e-01,0.000000000000000000e+00,0.000000000000000000e+00,0.000000000000000000e+00,0.000000000000000000e+00,0.000000000000000000e+00,0.000000000000000000e+00,0.000000000000000000e+00,0.000000000000000000e+00,0.000000000000000000e+00,0.000000000000000000e+00,0.000000000000000000e+00,0.000000000000000000e+00,0.000000000000000000e+00,0.000000000000000000e+00,0.000000000000000000e+00,0.000000000000000000e+00,0.000000000000000000e+00,0.000000000000000000e+00,0.000000000000000000e+00,0.000000000000000000e+00,0.000000000000000000e+00,0.000000000000000000e+00,0.000000000000000000e+00,0.000000000000000000e+00,0.000000000000000000e+00,0.000000000000000000e+00,0.000000000000000000e+00,0.000000000000000000e+00,0.000000000000000000e+00,0.000000000000000000e+00,0.000000000000000000e+00,0.000000000000000000e+00,0.000000000000000000e+00
0.000000000000000000e+00,0.000000000000000000e+00,0.000000000000000000e+00,0.000000000000000000e+00,0.000000000000000000e+00,0.000000000000000000e+00,0.000000000000000000e+00,0.000000000000000000e+00,0.000000000000000000e+00,0.000000000000000000e+00,0.000000000000000000e+00,0.000000000000000000e+00,-5.686132295393943326e-02,-9.800351045379995796e-02,1.760152343796309860e-01,9.252100602612482738e-02,1.801899090638580184e-02,1.581927149288908374e-01,-4.685127069425313456e-03,2.022668075707042268e-01,-3.481432597588071109e-01,-3.702675741655849784e-01,-2.479205748013079691e-01,2.038429115468119168e-01,-2.145140416065783318e-01,-1.899847993375511357e-01,8.880769350337098036e-03,2.531642406181844676e-02,-1.577418205553817732e-01,-2.309621220732871183e-01,-2.785046780466934324e-01,-2.168615523370216736e-02,0.000000000000000000e+00,1.390282322765170886e-01,8.932142370560880451e-02,6.144764495517638508e-02,3.779265165504265556e-02,1.408026898988668507e-01,-4.551203097214494980e-02,6.444664532529791046e-02,-3.995106787088770761e-01,-3.535557530827294626e-01,-1.452270427128104779e-01,-2.633922265007786201e-02,1.352055343487806524e-02,0.000000000000000000e+00,2.810491470723529197e-03,-9.996235465263550446e-02,-2.942503431290373617e-01,0.000000000000000000e+00,-2.752329790129235398e-01,-2.067109575551241973e-01,0.000000000000000000e+00,-2.687180961906333043e-01,-4.373864761207394980e-01,-2.785046780466934324e-01,-3.940404122779551654e-01,0.000000000000000000e+00,-1.952044623764810083e-01,-7.667561886291172912e-02,-8.448035521615206156e-02,-1.731749215022888033e-01,-7.137517252411895718e-02,-1.217906947024818276e-01,-8.086080760450406468e-02,-1.383461547721100970e-01,-2.785046780466934324e-01,-2.367671975852815580e-01,-4.511588718963763234e-02,0.000000000000000000e+00,-2.082182498453240826e-01,0.000000000000000000e+00,0.000000000000000000e+00,-1.508266526454647427e-01,-1.085074776401824814e-01,-3.257779778992184183e-02,5.309315926958441817e-02,-1.423692233708704624e-01,0.000000000000000000e+00,-2.999800050807798768e-01,-2.846544804542809892e-01,-1.667559777842166358e-01,-3.110724295987349897e-01,-4.080230642474182989e-01,-3.467978699668110010e-01,-3.927671577723367835e-01,-4.206259083309569699e-03,3.100109565539834744e-01,3.679230170238020903e-02,0.000000000000000000e+00,0.000000000000000000e+00,-4.195543841536469865e-01,0.000000000000000000e+00,0.000000000000000000e+00,-2.362925601890193961e-01,-2.168615523370216736e-02,-2.168615523370216736e-02,-1.829305165757056650e-01,-3.723910191615624754e-01,-2.145140416065783318e-01,0.000000000000000000e+00,0.000000000000000000e+00,0.000000000000000000e+00,0.000000000000000000e+00,-1.067775985685297108e-01,5.832619217934958272e-02,0.000000000000000000e+00,0.000000000000000000e+00,0.000000000000000000e+00,-2.168615523370216736e-02,-7.224963775192218274e-02,0.000000000000000000e+00,0.000000000000000000e+00,0.000000000000000000e+00,0.000000000000000000e+00,0.000000000000000000e+00,0.000000000000000000e+00,0.000000000000000000e+00,0.000000000000000000e+00,-3.242559837802471701e-01,0.000000000000000000e+00,0.000000000000000000e+00,0.000000000000000000e+00,0.000000000000000000e+00,0.000000000000000000e+00,0.000000000000000000e+00,0.000000000000000000e+00,0.000000000000000000e+00,0.000000000000000000e+00,0.000000000000000000e+00,0.000000000000000000e+00,0.000000000000000000e+00,1.172925529213318108e-01,0.000000000000000000e+00,0.000000000000000000e+00,0.000000000000000000e+00,0.000000000000000000e+00,0.000000000000000000e+00,0.000000000000000000e+00,0.000000000000000000e+00,0.000000000000000000e+00,-3.303113801532071014e-01,0.000000000000000000e+00,0.000000000000000000e+00,0.000000000000000000e+00,0.000000000000000000e+00,0.000000000000000000e+00,0.000000000000000000e+00,0.000000000000000000e+00,0.000000000000000000e+00,0.000000000000000000e+00,0.000000000000000000e+00,0.000000000000000000e+00,0.000000000000000000e+00,0.000000000000000000e+00,0.000000000000000000e+00,0.000000000000000000e+00,0.000000000000000000e+00,0.000000000000000000e+00,0.000000000000000000e+00,0.000000000000000000e+00,0.000000000000000000e+00,0.000000000000000000e+00,0.000000000000000000e+00,0.000000000000000000e+00,0.000000000000000000e+00,0.000000000000000000e+00,0.000000000000000000e+00,0.000000000000000000e+00,0.000000000000000000e+00,0.000000000000000000e+00,0.000000000000000000e+00,0.000000000000000000e+00,0.000000000000000000e+00,0.000000000000000000e+00,0.000000000000000000e+00,0.000000000000000000e+00,0.000000000000000000e+00,0.000000000000000000e+00,0.000000000000000000e+00,0.000000000000000000e+00,0.000000000000000000e+00,0.000000000000000000e+00,7.583933981546074621e-02,0.000000000000000000e+00,0.000000000000000000e+00,0.000000000000000000e+00,0.000000000000000000e+00,0.000000000000000000e+00,0.000000000000000000e+00,0.000000000000000000e+00,0.000000000000000000e+00,0.000000000000000000e+00,-6.742602234039529741e-02,-2.168615523370216736e-02,0.000000000000000000e+00,0.000000000000000000e+00,0.000000000000000000e+00,0.000000000000000000e+00,0.000000000000000000e+00,-2.950080396084684975e-01,2.102655582123298672e-02,-3.555299284174316399e-01,-4.708398575592269708e-01,-2.819612759943468383e-01,-3.933666171448884641e-01,0.000000000000000000e+00,0.000000000000000000e+00,0.000000000000000000e+00,0.000000000000000000e+00,0.000000000000000000e+00,0.000000000000000000e+00,0.000000000000000000e+00,0.000000000000000000e+00,0.000000000000000000e+00,0.000000000000000000e+00,0.000000000000000000e+00,0.000000000000000000e+00,0.000000000000000000e+00,0.000000000000000000e+00,0.000000000000000000e+00,0.000000000000000000e+00,-2.385182945031253110e-01,0.000000000000000000e+00,0.000000000000000000e+00,0.000000000000000000e+00,0.000000000000000000e+00,0.000000000000000000e+00,0.000000000000000000e+00,0.000000000000000000e+00,0.000000000000000000e+00,0.000000000000000000e+00,0.000000000000000000e+00,0.000000000000000000e+00,0.000000000000000000e+00,0.000000000000000000e+00,0.000000000000000000e+00,0.000000000000000000e+00,0.000000000000000000e+00,0.000000000000000000e+00
0.000000000000000000e+00,0.000000000000000000e+00,0.000000000000000000e+00,0.000000000000000000e+00,0.000000000000000000e+00,0.000000000000000000e+00,0.000000000000000000e+00,0.000000000000000000e+00,0.000000000000000000e+00,0.000000000000000000e+00,0.000000000000000000e+00,0.000000000000000000e+00,0.000000000000000000e+00,1.843614541753605118e-01,2.920079433299803129e-01,3.876213196844570108e-01,0.000000000000000000e+00,4.641408077114964614e-01,1.628432868888453899e-01,1.628432868888453899e-01,0.000000000000000000e+00,-2.573626920924882988e-01,-6.876571724727872925e-02,-7.487299741406835962e-02,1.501432800585286165e-01,7.868680370557890047e-02,2.035589021766359696e-01,4.432725445228967165e-01,0.000000000000000000e+00,0.000000000000000000e+00,-2.038325121774811344e-01,4.922927468124811690e-02,1.813580560703673406e-01,0.000000000000000000e+00,4.121088388382475598e-01,3.182250909962818231e-01,1.628432868888453899e-01,1.602186092350830204e-01,3.963623054004887236e-01,1.647442076870844763e-01,-9.156131907088585486e-02,-1.082609908701996360e-01,-1.007614241394965554e-01,1.628432868888453899e-01,0.000000000000000000e+00,0.000000000000000000e+00,2.779496686427033320e-02,0.000000000000000000e+00,-1.782841144228617669e-01,0.000000000000000000e+00,0.000000000000000000e+00,1.029322387943055550e-03,0.000000000000000000e+00,0.000000000000000000e+00,0.000000000000000000e+00,0.000000000000000000e+00,0.000000000000000000e+00,0.000000000000000000e+00,5.599621042355881761e-02,-6.341724075745801270e-02,2.973629158789624083e-01,5.281122264638087732e-02,1.023882302164063757e-01,1.912280982023970843e-01,1.579234821332915761e-01,0.000000000000000000e+00,0.000000000000000000e+00,0.000000000000000000e+00,0.000000000000000000e+00,0.000000000000000000e+00,0.000000000000000000e+00,1.539258244454015656e-01,2.709634152779456517e-01,0.000000000000000000e+00,0.000000000000000000e+00,0.000000000000000000e+00,-7.587662982263995715e-02,0.000000000000000000e+00,1.272446618847441202e-01,0.000000000000000000e+00,2.000878457991996373e-01,0.000000000000000000e+00,0.000000000000000000e+00,0.000000000000000000e+00,0.000000000000000000e+00,0.000000000000000000e+00,0.000000000000000000e+00,0.000000000000000000e+00,0.000000000000000000e+00,0.000000000000000000e+00,0.000000000000000000e+00,-1.565565084737697843e-01,0.000000000000000000e+00,-4.036455028305395779e-03,-4.240993102143184035e-02,-1.362228639376236450e-01,-1.155390313411633202e-01,-3.534157580475683069e-01,-3.168760167924205007e-01,-2.011803750257420975e-01,0.000000000000000000e+00,0.000000000000000000e+00,0.000000000000000000e+00,0.000000000000000000e+00,0.000000000000000000e+00,0.000000000000000000e+00,0.000000000000000000e+00,0.000000000000000000e+00,0.000000000000000000e+00,0.000000000000000000e+00,0.000000000000000000e+00,0.000000000000000000e+00,0.000000000000000000e+00,0.000000000000000000e+00,0.000000000000000000e+00,0.000000000000000000e+00,0.000000000000000000e+00,0.000000000000000000e+00,0.000000000000000000e+00,0.000000000000000000e+00,0.000000000000000000e+00,0.000000000000000000e+00,0.000000000000000000e+00,0.000000000000000000e+00,0.000000000000000000e+00,0.000000000000000000e+00,0.000000000000000000e+00,0.000000000000000000e+00,0.000000000000000000e+00,0.000000000000000000e+00,0.000000000000000000e+00,0.000000000000000000e+00,0.000000000000000000e+00,0.000000000000000000e+00,0.000000000000000000e+00,0.000000000000000000e+00,0.000000000000000000e+00,0.000000000000000000e+00,0.000000000000000000e+00,0.000000000000000000e+00,0.000000000000000000e+00,0.000000000000000000e+00,0.000000000000000000e+00,0.000000000000000000e+00,0.000000000000000000e+00,0.000000000000000000e+00,0.000000000000000000e+00,0.000000000000000000e+00,0.000000000000000000e+00,0.000000000000000000e+00,0.000000000000000000e+00,0.000000000000000000e+00,0.000000000000000000e+00,0.000000000000000000e+00,0.000000000000000000e+00,0.000000000000000000e+00,0.000000000000000000e+00,0.000000000000000000e+00,0.000000000000000000e+00,0.000000000000000000e+00,0.000000000000000000e+00,0.000000000000000000e+00,0.000000000000000000e+00,0.000000000000000000e+00,0.000000000000000000e+00,0.000000000000000000e+00,0.000000000000000000e+00,0.000000000000000000e+00,0.000000000000000000e+00,0.000000000000000000e+00,0.000000000000000000e+00,0.000000000000000000e+00,0.000000000000000000e+00,0.000000000000000000e+00,0.000000000000000000e+00,0.000000000000000000e+00,0.000000000000000000e+00,0.000000000000000000e+00,0.000000000000000000e+00,0.000000000000000000e+00,0.000000000000000000e+00,0.000000000000000000e+00,0.000000000000000000e+00,0.000000000000000000e+00,0.000000000000000000e+00,0.000000000000000000e+00,0.000000000000000000e+00,0.000000000000000000e+00,0.000000000000000000e+00,0.000000000000000000e+00,0.000000000000000000e+00,0.000000000000000000e+00,0.000000000000000000e+00,0.000000000000000000e+00,0.000000000000000000e+00,0.000000000000000000e+00,-2.504631303283872956e-01,0.000000000000000000e+00,0.000000000000000000e+00,0.000000000000000000e+00,-9.555909348564622929e-02,0.000000000000000000e+00,-1.041514897426135955e-01,-3.273638542856797118e-01,-2.746595534462112909e-01,-2.044997017539533501e-01,0.000000000000000000e+00,0.000000000000000000e+00,0.000000000000000000e+00,0.000000000000000000e+00,0.000000000000000000e+00,0.000000000000000000e+00,0.000000000000000000e+00,0.000000000000000000e+00,0.000000000000000000e+00,0.000000000000000000e+00,0.000000000000000000e+00,0.000000000000000000e+00,0.000000000000000000e+00,0.000000000000000000e+00,0.000000000000000000e+00,0.000000000000000000e+00,0.000000000000000000e+00,0.000000000000000000e+00,0.000000000000000000e+00,0.000000000000000000e+00,0.000000000000000000e+00,0.000000000000000000e+00,0.000000000000000000e+00,0.000000000000000000e+00,0.000000000000000000e+00,0.000000000000000000e+00,0.000000000000000000e+00,0.000000000000000000e+00,0.000000000000000000e+00,0.000000000000000000e+00,0.000000000000000000e+00,0.000000000000000000e+00,0.000000000000000000e+00,0.000000000000000000e+00
0.000000000000000000e+00,0.000000000000000000e+00,0.000000000000000000e+00,0.000000000000000000e+00,0.000000000000000000e+00,0.000000000000000000e+00,0.000000000000000000e+00,0.000000000000000000e+00,0.000000000000000000e+00,0.000000000000000000e+00,0.000000000000000000e+00,0.000000000000000000e+00,0.000000000000000000e+00,0.000000000000000000e+00,3.659569292546655528e-01,3.646417193129965484e-01,3.226021056709244550e-01,3.374998200820080174e-01,1.558299699415047479e-01,3.226021056709244550e-01,0.000000000000000000e+00,0.000000000000000000e+00,1.718866868745072551e-01,2.681321716827780310e-01,-2.874494359802190133e-02,1.017397874974911576e-01,2.480711287306367474e-01,2.561044110139617525e-01,0.000000000000000000e+00,0.000000000000000000e+00,0.000000000000000000e+00,3.468844854479446460e-01,0.000000000000000000e+00,0.000000000000000000e+00,1.788499827741107662e-01,3.155472372193841579e-01,1.558299699415047479e-01,2.129234051177323617e-01,2.467147776108828405e-01,2.477363955422131614e-01,0.000000000000000000e+00,-2.490922700923412503e-01,0.000000000000000000e+00,3.955870797655521298e-01,0.000000000000000000e+00,0.000000000000000000e+00,7.665266500182232878e-02,0.000000000000000000e+00,0.000000000000000000e+00,0.000000000000000000e+00,0.000000000000000000e+00,0.000000000000000000e+00,0.000000000000000000e+00,0.000000000000000000e+00,0.000000000000000000e+00,0.000000000000000000e+00,0.000000000000000000e+00,0.000000000000000000e+00,0.000000000000000000e+00,3.632151709757981406e-01,0.000000000000000000e+00,0.000000000000000000e+00,0.000000000000000000e+00,1.122959815112429260e-01,6.941776940421541531e-02,0.000000000000000000e+00,0.000000000000000000e+00,0.000000000000000000e+00,0.000000000000000000e+00,0.000000000000000000e+00,0.000000000000000000e+00,2.129234051177323617e-01,0.000000000000000000e+00,1.286570276736909435e-01,0.000000000000000000e+00,0.000000000000000000e+00,1.951536981101697210e-01,0.000000000000000000e+00,1.862561719188774445e-01,0.000000000000000000e+00,0.000000000000000000e+00,0.000000000000000000e+00,0.000000000000000000e+00,0.000000000000000000e+00,0.000000000000000000e+00,0.000000000000000000e+00,3.359712537552173028e-02,0.000000000000000000e+00,0.000000000000000000e+00,0.000000000000000000e+00,0.000000000000000000e+00,0.000000000000000000e+00,0.000000000000000000e+00,0.000000000000000000e+00,0.000000000000000000e+00,-8.683297287031672973e-02,8.802455931482887352e-02,0.000000000000000000e+00,0.000000000000000000e+00,0.000000000000000000e+00,0.000000000000000000e+00,0.000000000000000000e+00,0.000000000000000000e+00,0.000000000000000000e+00,0.000000000000000000e+00,0.000000000000000000e+00,0.000000000000000000e+00,0.000000000000000000e+00,0.000000000000000000e+00,0.000000000000000000e+00,0.000000000000000000e+00,0.000000000000000000e+00,0.000000000000000000e+00,0.000000000000000000e+00,0.000000000000000000e+00,0.000000000000000000e+00,0.000000000000000000e+00,0.000000000000000000e+00,0.000000000000000000e+00,0.000000000000000000e+00,0.000000000000000000e+00,0.000000000000000000e+00,0.000000000000000000e+00,0.000000000000000000e+00,0.000000000000000000e+00,0.000000000000000000e+00,0.000000000000000000e+00,0.000000000000000000e+00,0.000000000000000000e+00,0.000000000000000000e+00,0.000000000000000000e+00,0.000000000000000000e+00,0.000000000000000000e+00,0.000000000000000000e+00,0.000000000000000000e+00,0.000000000000000000e+00,0.000000000000000000e+00,0.000000000000000000e+00,0.000000000000000000e+00,0.000000000000000000e+00,0.000000000000000000e+00,0.000000000000000000e+00,0.000000000000000000e+00,0.000000000000000000e+00,0.000000000000000000e+00,0.000000000000000000e+00,0.000000000000000000e+00,0.000000000000000000e+00,0.000000000000000000e+00,0.000000000000000000e+00,0.000000000000000000e+00,0.000000000000000000e+00,0.000000000000000000e+00,0.000000000000000000e+00,0.000000000000000000e+00,0.000000000000000000e+00,0.000000000000000000e+00,0.000000000000000000e+00,0.000000000000000000e+00,0.000000000000000000e+00,0.000000000000000000e+00,0.000000000000000000e+00,0.000000000000000000e+00,0.000000000000000000e+00,0.000000000000000000e+00,0.000000000000000000e+00,0.000000000000000000e+00,0.000000000000000000e+00,0.000000000000000000e+00,0.000000000000000000e+00,0.000000000000000000e+00,0.000000000000000000e+00,0.000000000000000000e+00,0.000000000000000000e+00,0.000000000000000000e+00,0.000000000000000000e+00,0.000000000000000000e+00,0.000000000000000000e+00,0.000000000000000000e+00,0.000000000000000000e+00,0.000000000000000000e+00,0.000000000000000000e+00,0.000000000000000000e+00,0.000000000000000000e+00,0.000000000000000000e+00,0.000000000000000000e+00,0.000000000000000000e+00,0.000000000000000000e+00,0.000000000000000000e+00,0.000000000000000000e+00,0.000000000000000000e+00,0.000000000000000000e+00,0.000000000000000000e+00,0.000000000000000000e+00,0.000000000000000000e+00,0.000000000000000000e+00,0.000000000000000000e+00,0.000000000000000000e+00,0.000000000000000000e+00,0.000000000000000000e+00,-1.578919442170034770e-01,0.000000000000000000e+00,0.000000000000000000e+00,0.000000000000000000e+00,0.000000000000000000e+00,0.000000000000000000e+00,0.000000000000000000e+00,0.000000000000000000e+00,0.000000000000000000e+00,0.000000000000000000e+00,0.000000000000000000e+00,0.000000000000000000e+00,0.000000000000000000e+00,0.000000000000000000e+00,0.000000000000000000e+00,0.000000000000000000e+00,0.000000000000000000e+00,0.000000000000000000e+00,0.000000000000000000e+00,0.000000000000000000e+00,0.000000000000000000e+00,0.000000000000000000e+00,0.000000000000000000e+00,0.000000000000000000e+00,0.000000000000000000e+00,0.000000000000000000e+00,0.000000000000000000e+00,0.000000000000000000e+00,0.000000000000000000e+00,0.000000000000000000e+00,0.000000000000000000e+00,0.000000000000000000e+00,0.000000000000000000e+00,0.000000000000000000e+00,0.000000000000000000e+00,0.000000000000000000e+00,0.000000000000000000e+00,0.000000000000000000e+00,0.000000000000000000e+00,0.000000000000000000e+00
0.000000000000000000e+00,0.000000000000000000e+00,0.000000000000000000e+00,0.000000000000000000e+00,0.000000000000000000e+00,0.000000000000000000e+00,0.000000000000000000e+00,0.000000000000000000e+00,0.000000000000000000e+00,0.000000000000000000e+00,0.000000000000000000e+00,0.000000000000000000e+00,0.000000000000000000e+00,0.000000000000000000e+00,0.000000000000000000e+00,3.794682649291356569e-01,3.217081190322935713e-01,3.794682649291356569e-01,3.793617918067648254e-01,3.659569292546655528e-01,0.000000000000000000e+00,4.851095755332542059e-02,1.762435854861398865e-01,1.162072606354415116e-01,2.003274909801877890e-01,2.966988232096890443e-01,2.000608902856592652e-01,4.176174629219260304e-01,0.000000000000000000e+00,-1.129296705720618799e-01,1.256664707075163812e-01,4.403943790985327955e-01,3.905633446509697015e-01,1.558299699415047479e-01,3.742438416998734585e-01,3.646417193129965484e-01,3.226021056709244550e-01,1.951536981101697210e-01,4.400525622534627312e-01,3.809068133584796456e-01,-1.880900930871379217e-01,9.697979732295414212e-02,7.067572572952710019e-02,4.391532387006590876e-01,4.680015205859168193e-01,4.522667986733781564e-01,3.068319471692084743e-01,1.986330819787686663e-01,1.217707248742344768e-02,0.000000000000000000e+00,-1.455319642600443053e-01,1.897915357680453330e-01,0.000000000000000000e+00,0.000000000000000000e+00,0.000000000000000000e+00,0.000000000000000000e+00,0.000000000000000000e+00,3.468844854479446460e-01,3.608549371020249308e-01,4.033320929268032207e-01,3.880178695966161606e-01,8.785436340914411224e-02,2.036375609669854869e-01,1.529131477272312467e-01,2.897642575288037481e-01,2.709839552198357593e-01,0.000000000000000000e+00,1.319903223560509875e-01,1.841814210097958426e-01,0.000000000000000000e+00,1.260591821295796965e-02,4.033320929268032207e-01,3.911332956703164054e-01,2.788594451306420918e-01,1.940614814934929211e-01,1.158923776385158699e-01,4.391532387006590876e-01,4.353694374249292842e-01,4.020456010249762180e-01,9.052555307336916657e-02,-1.433566947192209673e-01,0.000000000000000000e+00,0.000000000000000000e+00,0.000000000000000000e+00,0.000000000000000000e+00,0.000000000000000000e+00,2.501279148226783766e-01,-6.716867608646255421e-03,0.000000000000000000e+00,0.000000000000000000e+00,0.000000000000000000e+00,-1.379922620997553473e-01,2.395540724412035527e-01,0.000000000000000000e+00,1.733265416269366144e-01,2.355552019502817895e-01,3.674378881721348522e-01,0.000000000000000000e+00,1.879921511041635074e-01,1.307989635153688768e-01,0.000000000000000000e+00,0.000000000000000000e+00,0.000000000000000000e+00,0.000000000000000000e+00,0.000000000000000000e+00,0.000000000000000000e+00,0.000000000000000000e+00,0.000000000000000000e+00,0.000000000000000000e+00,3.929059789068861108e-01,0.000000000000000000e+00,0.000000000000000000e+00,0.000000000000000000e+00,0.000000000000000000e+00,0.000000000000000000e+00,0.000000000000000000e+00,0.000000000000000000e+00,0.000000000000000000e+00,0.000000000000000000e+00,0.000000000000000000e+00,0.000000000000000000e+00,0.000000000000000000e+00,0.000000000000000000e+00,0.000000000000000000e+00,0.000000000000000000e+00,0.000000000000000000e+00,0.000000000000000000e+00,0.000000000000000000e+00,0.000000000000000000e+00,0.000000000000000000e+00,0.000000000000000000e+00,0.000000000000000000e+00,0.000000000000000000e+00,0.000000000000000000e+00,0.000000000000000000e+00,0.000000000000000000e+00,0.000000000000000000e+00,-2.012091055703659967e-02,0.000000000000000000e+00,0.000000000000000000e+00,-2.729706412876951038e-01,0.000000000000000000e+00,0.000000000000000000e+00,0.000000000000000000e+00,0.000000000000000000e+00,0.000000000000000000e+00,0.000000000000000000e+00,0.000000000000000000e+00,0.000000000000000000e+00,0.000000000000000000e+00,0.000000000000000000e+00,0.000000000000000000e+00,0.000000000000000000e+00,0.000000000000000000e+00,0.000000000000000000e+00,0.000000000000000000e+00,0.000000000000000000e+00,0.000000000000000000e+00,0.000000000000000000e+00,0.000000000000000000e+00,0.000000000000000000e+00,0.000000000000000000e+00,0.000000000000000000e+00,0.000000000000000000e+00,0.000000000000000000e+00,0.000000000000000000e+00,0.000000000000000000e+00,0.000000000000000000e+00,0.000000000000000000e+00,0.000000000000000000e+00,0.000000000000000000e+00,0.000000000000000000e+00,0.000000000000000000e+00,0.000000000000000000e+00,0.000000000000000000e+00,0.000000000000000000e+00,0.000000000000000000e+00,0.000000000000000000e+00,0.000000000000000000e+00,0.000000000000000000e+00,0.000000000000000000e+00,0.000000000000000000e+00,1.386902607665314313e-01,1.235448211471430330e-01,0.000000000000000000e+00,7.380926740008467157e-02,0.000000000000000000e+00,0.000000000000000000e+00,0.000000000000000000e+00,0.000000000000000000e+00,0.000000000000000000e+00,0.000000000000000000e+00,0.000000000000000000e+00,0.000000000000000000e+00,3.073934286458168685e-01,0.000000000000000000e+00,0.000000000000000000e+00,0.000000000000000000e+00,0.000000000000000000e+00,-2.071214065443399976e-01,-8.690767285750485016e-02,-6.046997837356249406e-02,3.096691567543562520e-02,-1.873974484519644601e-01,-1.673385581733955463e-01,6.158226029114358124e-02,0.000000000000000000e+00,0.000000000000000000e+00,-3.005720956764372231e-01,0.000000000000000000e+00,0.000000000000000000e+00,0.000000000000000000e+00,0.000000000000000000e+00,0.000000000000000000e+00,0.000000000000000000e+00,0.000000000000000000e+00,0.000000000000000000e+00,0.000000000000000000e+00,0.000000000000000000e+00,0.000000000000000000e+00,0.000000000000000000e+00,0.000000000000000000e+00,0.000000000000000000e+00,0.000000000000000000e+00,0.000000000000000000e+00,0.000000000000000000e+00,0.000000000000000000e+00,0.000000000000000000e+00,0.000000000000000000e+00,0.000000000000000000e+00,0.000000000000000000e+00,0.000000000000000000e+00,0.000000000000000000e+00,0.000000000000000000e+00,0.000000000000000000e+00,0.000000000000000000e+00,0.000000000000000000e+00,0.000000000000000000e+00,0.000000000000000000e+00,0.000000000000000000e+00
0.000000000000000000e+00,0.000000000000000000e+00,0.000000000000000000e+00,0.000000000000000000e+00,0.000000000000000000e+00,0.000000000000000000e+00,0.000000000000000000e+00,0.000000000000000000e+00,0.000000000000000000e+00,0.000000000000000000e+00,0.000000000000000000e+00,0.000000000000000000e+00,0.000000000000000000e+00,0.000000000000000000e+00,0.000000000000000000e+00,0.000000000000000000e+00,2.980590988645612227e-01,4.683718527723290115e-01,2.700777719202675509e-01,0.000000000000000000e+00,4.522667986733781564e-01,7.660780665211655571e-02,7.695437804484364652e-02,2.552711935203014759e-01,2.441028025344955665e-01,3.063607163201644834e-01,3.016997685757087933e-01,4.206252805912457648e-01,0.000000000000000000e+00,-3.331473759048759337e-02,2.137455660964290849e-01,2.756376656839021888e-01,3.870803166149579533e-01,0.000000000000000000e+00,3.217162433403666921e-01,3.751765592038553421e-01,0.000000000000000000e+00,0.000000000000000000e+00,4.400525622534627312e-01,3.641048937439083089e-01,0.000000000000000000e+00,1.857588589895944609e-01,2.534998680758867029e-01,4.399211662785463273e-01,4.264704983076738065e-01,4.522667986733781564e-01,2.929292528364879633e-01,3.023630390462185291e-01,1.224752549526156031e-01,0.000000000000000000e+00,7.209312644191279151e-02,-6.647839559119572694e-02,0.000000000000000000e+00,0.000000000000000000e+00,0.000000000000000000e+00,0.000000000000000000e+00,1.613053128974625827e-01,3.468844854479446460e-01,2.989471123707908018e-01,4.288244130893590356e-01,3.732977971028478281e-01,2.153625383359439593e-01,2.746758560557247542e-01,2.877140056203196239e-01,3.595445158314099499e-01,3.963623054004887236e-01,0.000000000000000000e+00,0.000000000000000000e+00,2.117627048159338443e-01,1.335322246741844077e-01,1.473124113907193222e-01,4.062007083019448794e-01,3.499969540964921189e-01,4.034791723136764707e-01,2.647789641464226573e-01,2.633360832917372996e-01,3.720302267369620108e-01,4.178170430026921789e-01,4.523166960255367020e-01,0.000000000000000000e+00,2.539914147391619803e-01,2.116020901399178478e-01,0.000000000000000000e+00,0.000000000000000000e+00,0.000000000000000000e+00,0.000000000000000000e+00,2.343095083730535044e-01,9.613792945819388258e-02,0.000000000000000000e+00,0.000000000000000000e+00,0.000000000000000000e+00,7.502078391336231000e-02,2.204348779560603155e-01,0.000000000000000000e+00,8.220848133350169840e-02,2.332964201988511899e-01,3.251241829687952500e-01,8.000027539617742683e-03,8.300279023608324314e-02,8.217248259484143114e-02,0.000000000000000000e+00,0.000000000000000000e+00,0.000000000000000000e+00,0.000000000000000000e+00,0.000000000000000000e+00,0.000000000000000000e+00,0.000000000000000000e+00,0.000000000000000000e+00,0.000000000000000000e+00,3.523601358877740397e-01,0.000000000000000000e+00,0.000000000000000000e+00,0.000000000000000000e+00,2.229767609021664487e-01,0.000000000000000000e+00,2.229767609021664487e-01,0.000000000000000000e+00,0.000000000000000000e+00,0.000000000000000000e+00,0.000000000000000000e+00,0.000000000000000000e+00,0.000000000000000000e+00,0.000000000000000000e+00,0.000000000000000000e+00,0.000000000000000000e+00,0.000000000000000000e+00,0.000000000000000000e+00,0.000000000000000000e+00,0.000000000000000000e+00,0.000000000000000000e+00,0.000000000000000000e+00,3.572937312462098336e-01,2.974347931282854685e-01,0.000000000000000000e+00,0.000000000000000000e+00,0.000000000000000000e+00,0.000000000000000000e+00,0.000000000000000000e+00,0.000000000000000000e+00,0.000000000000000000e+00,1.955125215909396252e-01,9.733074550851056328e-02,0.000000000000000000e+00,0.000000000000000000e+00,0.000000000000000000e+00,0.000000000000000000e+00,0.000000000000000000e+00,0.000000000000000000e+00,0.000000000000000000e+00,0.000000000000000000e+00,0.000000000000000000e+00,0.000000000000000000e+00,0.000000000000000000e+00,0.000000000000000000e+00,0.000000000000000000e+00,0.000000000000000000e+00,0.000000000000000000e+00,0.000000000000000000e+00,0.000000000000000000e+00,0.000000000000000000e+00,0.000000000000000000e+00,0.000000000000000000e+00,0.000000000000000000e+00,0.000000000000000000e+00,0.000000000000000000e+00,3.715173416910577120e-01,0.000000000000000000e+00,0.000000000000000000e+00,0.000000000000000000e+00,0.000000000000000000e+00,0.000000000000000000e+00,0.000000000000000000e+00,0.000000000000000000e+00,0.000000000000000000e+00,0.000000000000000000e+00,0.000000000000000000e+00,0.000000000000000000e+00,0.000000000000000000e+00,0.000000000000000000e+00,0.000000000000000000e+00,0.000000000000000000e+00,0.000000000000000000e+00,3.496262437268118362e-01,3.422577580101274775e-01,0.000000000000000000e+00,1.846715322801069092e-01,0.000000000000000000e+00,0.000000000000000000e+00,0.000000000000000000e+00,0.000000000000000000e+00,0.000000000000000000e+00,0.000000000000000000e+00,0.000000000000000000e+00,0.000000000000000000e+00,2.945369943632722975e-01,0.000000000000000000e+00,0.000000000000000000e+00,0.000000000000000000e+00,0.000000000000000000e+00,0.000000000000000000e+00,-7.058237738733097455e-02,2.077155394659936094e-01,1.130002099049448733e-01,8.035762169826116130e-02,-1.783936228182662342e-01,3.809040458614828401e-02,0.000000000000000000e+00,0.000000000000000000e+00,0.000000000000000000e+00,0.000000000000000000e+00,0.000000000000000000e+00,0.000000000000000000e+00,0.000000000000000000e+00,0.000000000000000000e+00,0.000000000000000000e+00,0.000000000000000000e+00,0.000000000000000000e+00,0.000000000000000000e+00,0.000000000000000000e+00,0.000000000000000000e+00,0.000000000000000000e+00,0.000000000000000000e+00,0.000000000000000000e+00,0.000000000000000000e+00,0.000000000000000000e+00,0.000000000000000000e+00,0.000000000000000000e+00,0.000000000000000000e+00,0.000000000000000000e+00,0.000000000000000000e+00,0.000000000000000000e+00,0.000000000000000000e+00,0.000000000000000000e+00,0.000000000000000000e+00,0.000000000000000000e+00,0.000000000000000000e+00,0.000000000000000000e+00,0.000000000000000000e+00,0.000000000000000000e+00,0.000000000000000000e+00
