0.000000000000000000e+00,0.000000000000000000e+00,5.802128725095925289e-03,-1.017144352024625387e-01,-1.017144352024625387e-01,-3.986934213866658722e-02,0.000000000000000000e+00,-2.876426948930729637e-03,0.000000000000000000e+00,-2.876426948930729637e-03,-5.048423122224567072e-02,-3.986934213866658722e-02,0.000000000000000000e+00,0.000000000000000000e+00,-1.065149269233190421e-01,-1.358358995595269347e-01,0.000000000000000000e+00,-2.393934515063637081e-01,-1.121265828138256621e-01,-2.230817943797346881e-01,-2.786843230328295284e-01,-3.231470220987230357e-01,-4.293539832456277905e-01,0.000000000000000000e+00,-2.847555686254927276e-01,0.000000000000000000e+00,-5.457159804479999599e-01,-1.988597836985711853e-01,5.802128725095925289e-03,-1.257652628632963399e-01,-9.690304527688380076e-02,-1.175332563990859475e-01,0.000000000000000000e+00,0.000000000000000000e+00,0.000000000000000000e+00,-2.840420711882180593e-01,0.000000000000000000e+00,0.000000000000000000e+00,-4.924314145895603567e-01,0.000000000000000000e+00,-4.009831711270850918e-01,-4.707819835102249328e-01,-2.252225006633459536e-01,0.000000000000000000e+00,0.000000000000000000e+00,0.000000000000000000e+00,-2.535508810989685613e-01,-3.009933800459976827e-01,-5.077804677866647465e-01,0.000000000000000000e+00,-2.981109179379305418e-01,-2.365496856852702945e-01,-1.899533897987500108e-01,-2.147196050496887609e-01,0.000000000000000000e+00,-2.323405715266260163e-01,-9.690304527688380076e-02,-2.049719072600022229e-01,-2.460719254104274389e-01,-2.466166230737822096e-01,-4.446463891382875788e-01,-3.654075890793121451e-01,-4.692078437598444784e-01,-4.196800820670977261e-01,-2.301074009268515574e-01,0.000000000000000000e+00,-1.755931336531047215e-01,0.000000000000000000e+00,0.000000000000000000e+00,0.000000000000000000e+00,-4.349781821491603417e-01,-1.860657133987174972e-01,0.000000000000000000e+00,-1.638185399650007867e-01,-2.553013240725621746e-01,-2.442912270260940988e-01,0.000000000000000000e+00,0.000000000000000000e+00,0.000000000000000000e+00,0.000000000000000000e+00,0.000000000000000000e+00,0.000000000000000000e+00,-2.235426960257367590e-01,-2.120675200494272217e-01,-2.717314237984178593e-01,-2.218463639830969558e-01,-2.434728185131014577e-01,-2.977451298965829718e-01,0.000000000000000000e+00,0.000000000000000000e+00,0.000000000000000000e+00,-2.819598116055578862e-01,0.000000000000000000e+00,0.000000000000000000e+00,0.000000000000000000e+00,-1.862893068952658493e-01,0.000000000000000000e+00,0.000000000000000000e+00,-2.218463639830969558e-01,-1.548510635497569454e-01,0.000000000000000000e+00,0.000000000000000000e+00,0.000000000000000000e+00,0.000000000000000000e+00,0.000000000000000000e+00,0.000000000000000000e+00,0.000000000000000000e+00,0.000000000000000000e+00,0.000000000000000000e+00,0.000000000000000000e+00,0.000000000000000000e+00,0.000000000000000000e+00,0.000000000000000000e+00,0.000000000000000000e+00,0.000000000000000000e+00,0.000000000000000000e+00,0.000000000000000000e+00,0.000000000000000000e+00,0.000000000000000000e+00,0.000000000000000000e+00,0.000000000000000000e+00,0.000000000000000000e+00,0.000000000000000000e+00,0.000000000000000000e+00,0.000000000000000000e+00,0.000000000000000000e+00,0.000000000000000000e+00,0.000000000000000000e+00,0.000000000000000000e+00,0.000000000000000000e+00,0.000000000000000000e+00,0.000000000000000000e+00,0.000000000000000000e+00,0.000000000000000000e+00,0.000000000000000000e+00,0.000000000000000000e+00,0.000000000000000000e+00,0.000000000000000000e+00,0.000000000000000000e+00,0.000000000000000000e+00,0.000000000000000000e+00,0.000000000000000000e+00,0.000000000000000000e+00,0.000000000000000000e+00,0.000000000000000000e+00,0.000000000000000000e+00,0.000000000000000000e+00,0.000000000000000000e+00,0.000000000000000000e+00,0.000000000000000000e+00,0.000000000000000000e+00,0.000000000000000000e+00,0.000000000000000000e+00,0.000000000000000000e+00,0.000000000000000000e+00,0.000000000000000000e+00,0.000000000000000000e+00,0.000000000000000000e+00,0.000000000000000000e+00,0.000000000000000000e+00,0.000000000000000000e+00,0.000000000000000000e+00,0.000000000000000000e+00,0.000000000000000000e+00,0.000000000000000000e+00,0.000000000000000000e+00,0.000000000000000000e+00,0.000000000000000000e+00,0.000000000000000000e+00,0.000000000000000000e+00,0.000000000000000000e+00,0.000000000000000000e+00,0.000000000000000000e+00,0.000000000000000000e+00,0.000000000000000000e+00,0.000000000000000000e+00,0.000000000000000000e+00,0.000000000000000000e+00,0.000000000000000000e+00,0.000000000000000000e+00,0.000000000000000000e+00,0.000000000000000000e+00,0.000000000000000000e+00,0.000000000000000000e+00,0.000000000000000000e+00,0.000000000000000000e+00,0.000000000000000000e+00,0.000000000000000000e+00,0.000000000000000000e+00,0.000000000000000000e+00,0.000000000000000000e+00,0.000000000000000000e+00,0.000000000000000000e+00,0.000000000000000000e+00,-4.275522249375616340e-02,0.000000000000000000e+00,0.000000000000000000e+00,0.000000000000000000e+00,0.000000000000000000e+00,0.000000000000000000e+00,-2.938349515540185641e-01,-3.071469338700577034e-01,-4.045155076475064337e-01,-2.517199578856130215e-01,-9.536670996717717952e-02,-2.531111460661333856e-01,0.000000000000000000e+00,0.000000000000000000e+00,0.000000000000000000e+00,0.000000000000000000e+00,0.000000000000000000e+00,0.000000000000000000e+00,0.000000000000000000e+00,0.000000000000000000e+00,0.000000000000000000e+00,0.000000000000000000e+00,0.000000000000000000e+00,0.000000000000000000e+00,0.000000000000000000e+00,0.000000000000000000e+00,0.000000000000000000e+00,0.000000000000000000e+00,1.996921590742069264e-02,0.000000000000000000e+00,0.000000000000000000e+00,0.000000000000000000e+00,0.000000000000000000e+00,0.000000000000000000e+00,0.000000000000000000e+00,0.000000000000000000e+00,0.000000000000000000e+00,0.000000000000000000e+00,0.000000000000000000e+00,0.000000000000000000e+00,0.000000000000000000e+00,0.000000000000000000e+00,0.000000000000000000e+00,0.000000000000000000e+00,0.000000000000000000e+00,0.000000000000000000e+00
0.000000000000000000e+00,0.000000000000000000e+00,-2.876426948930729637e-03,0.000000000000000000e+00,-1.128239578792640391e-01,-6.645365409117116873e-02,-2.876426948930729637e-03,-2.876426948930729637e-03,0.000000000000000000e+00,-2.876426948930729637e-03,-4.275522249375616340e-02,7.302417247092120485e-03,0.000000000000000000e+00,0.000000000000000000e+00,0.000000000000000000e+00,0.000000000000000000e+00,0.000000000000000000e+00,0.000000000000000000e+00,0.000000000000000000e+00,2.259210471533018572e-02,-3.071644532433680519e-01,-2.683271802903574588e-01,-3.739749413158206526e-01,0.000000000000000000e+00,0.000000000000000000e+00,0.000000000000000000e+00,0.000000000000000000e+00,0.000000000000000000e+00,0.000000000000000000e+00,-1.257652628632963399e-01,-1.297596002701901785e-01,-5.048423122224567072e-02,0.000000000000000000e+00,0.000000000000000000e+00,0.000000000000000000e+00,0.000000000000000000e+00,0.000000000000000000e+00,0.000000000000000000e+00,-3.730249408495058816e-01,-2.560244504121136910e-01,-2.287344575904716737e-01,0.000000000000000000e+00,0.000000000000000000e+00,0.000000000000000000e+00,0.000000000000000000e+00,0.000000000000000000e+00,0.000000000000000000e+00,0.000000000000000000e+00,0.000000000000000000e+00,0.000000000000000000e+00,0.000000000000000000e+00,0.000000000000000000e+00,0.000000000000000000e+00,0.000000000000000000e+00,0.000000000000000000e+00,0.000000000000000000e+00,0.000000000000000000e+00,0.000000000000000000e+00,0.000000000000000000e+00,-2.737669079485429147e-01,-3.548509017797654708e-01,-3.802108947142044393e-01,0.000000000000000000e+00,0.000000000000000000e+00,0.000000000000000000e+00,0.000000000000000000e+00,0.000000000000000000e+00,0.000000000000000000e+00,-2.816656967464634120e-01,0.000000000000000000e+00,0.000000000000000000e+00,0.000000000000000000e+00,0.000000000000000000e+00,0.000000000000000000e+00,0.000000000000000000e+00,0.000000000000000000e+00,0.000000000000000000e+00,0.000000000000000000e+00,0.000000000000000000e+00,0.000000000000000000e+00,0.000000000000000000e+00,0.000000000000000000e+00,0.000000000000000000e+00,0.000000000000000000e+00,-2.598429715175016863e-01,-2.826086260652003190e-01,0.000000000000000000e+00,0.000000000000000000e+00,0.000000000000000000e+00,0.000000000000000000e+00,0.000000000000000000e+00,0.000000000000000000e+00,0.000000000000000000e+00,0.000000000000000000e+00,0.000000000000000000e+00,0.000000000000000000e+00,-4.275522249375616340e-02,-9.944450156070987201e-02,-1.036398472347395266e-01,-1.297596002701901785e-01,0.000000000000000000e+00,0.000000000000000000e+00,0.000000000000000000e+00,0.000000000000000000e+00,0.000000000000000000e+00,0.000000000000000000e+00,0.000000000000000000e+00,0.000000000000000000e+00,0.000000000000000000e+00,0.000000000000000000e+00,0.000000000000000000e+00,0.000000000000000000e+00,0.000000000000000000e+00,0.000000000000000000e+00,0.000000000000000000e+00,0.000000000000000000e+00,0.000000000000000000e+00,0.000000000000000000e+00,0.000000000000000000e+00,0.000000000000000000e+00,0.000000000000000000e+00,0.000000000000000000e+00,0.000000000000000000e+00,0.000000000000000000e+00,0.000000000000000000e+00,0.000000000000000000e+00,0.000000000000000000e+00,0.000000000000000000e+00,0.000000000000000000e+00,0.000000000000000000e+00,0.000000000000000000e+00,0.000000000000000000e+00,0.000000000000000000e+00,0.000000000000000000e+00,0.000000000000000000e+00,0.000000000000000000e+00,0.000000000000000000e+00,0.000000000000000000e+00,0.000000000000000000e+00,0.000000000000000000e+00,0.000000000000000000e+00,0.000000000000000000e+00,0.000000000000000000e+00,0.000000000000000000e+00,0.000000000000000000e+00,0.000000000000000000e+00,0.000000000000000000e+00,0.000000000000000000e+00,0.000000000000000000e+00,0.000000000000000000e+00,0.000000000000000000e+00,0.000000000000000000e+00,0.000000000000000000e+00,0.000000000000000000e+00,0.000000000000000000e+00,0.000000000000000000e+00,0.000000000000000000e+00,0.000000000000000000e+00,0.000000000000000000e+00,0.000000000000000000e+00,0.000000000000000000e+00,0.000000000000000000e+00,0.000000000000000000e+00,0.000000000000000000e+00,0.000000000000000000e+00,0.000000000000000000e+00,0.000000000000000000e+00,0.000000000000000000e+00,0.000000000000000000e+00,0.000000000000000000e+00,0.000000000000000000e+00,0.000000000000000000e+00,0.000000000000000000e+00,0.000000000000000000e+00,0.000000000000000000e+00,0.000000000000000000e+00,0.000000000000000000e+00,0.000000000000000000e+00,0.000000000000000000e+00,0.000000000000000000e+00,0.000000000000000000e+00,0.000000000000000000e+00,0.000000000000000000e+00,0.000000000000000000e+00,0.000000000000000000e+00,0.000000000000000000e+00,0.000000000000000000e+00,0.000000000000000000e+00,0.000000000000000000e+00,0.000000000000000000e+00,0.000000000000000000e+00,0.000000000000000000e+00,0.000000000000000000e+00,0.000000000000000000e+00,0.000000000000000000e+00,0.000000000000000000e+00,0.000000000000000000e+00,0.000000000000000000e+00,0.000000000000000000e+00,0.000000000000000000e+00,-2.055918466140944922e-01,0.000000000000000000e+00,-2.912870068444267657e-01,0.000000000000000000e+00,0.000000000000000000e+00,-2.229090587425578973e-01,0.000000000000000000e+00,0.000000000000000000e+00,0.000000000000000000e+00,0.000000000000000000e+00,0.000000000000000000e+00,0.000000000000000000e+00,0.000000000000000000e+00,0.000000000000000000e+00,0.000000000000000000e+00,0.000000000000000000e+00,0.000000000000000000e+00,0.000000000000000000e+00,0.000000000000000000e+00,0.000000000000000000e+00,0.000000000000000000e+00,0.000000000000000000e+00,0.000000000000000000e+00,0.000000000000000000e+00,0.000000000000000000e+00,0.000000000000000000e+00,0.000000000000000000e+00,0.000000000000000000e+00,0.000000000000000000e+00,0.000000000000000000e+00,0.000000000000000000e+00,0.000000000000000000e+00,0.000000000000000000e+00,0.000000000000000000e+00,0.000000000000000000e+00,0.000000000000000000e+00,0.000000000000000000e+00,0.000000000000000000e+00,0.000000000000000000e+00,0.000000000000000000e+00
0.000000000000000000e+00,0.000000000000000000e+00,0.000000000000000000e+00,7.302417247092120485e-03,-1.017144352024625387e-01,-5.048423122224567072e-02,-2.876426948930729637e-03,0.000000000000000000e+00,0.000000000000000000e+00,-2.876426948930729637e-03,-4.275522249375616340e-02,-4.275522249375616340e-02,0.000000000000000000e+00,0.000000000000000000e+00,-1.089934553377335663e-01,-2.447457308433708123e-01,0.000000000000000000e+00,-3.632377215707786600e-01,0.000000000000000000e+00,-2.483713146008960718e-02,-2.786843230328295284e-01,-3.019208365054548149e-01,-4.313680160366708538e-01,0.000000000000000000e+00,-2.767601817892325622e-01,-2.135657034459012005e-01,-3.356306499028964829e-01,-4.443138651845514042e-01,0.000000000000000000e+00,-1.017144352024625387e-01,-1.436411823229187534e-01,-4.275522249375616340e-02,0.000000000000000000e+00,0.000000000000000000e+00,0.000000000000000000e+00,0.000000000000000000e+00,0.000000000000000000e+00,0.000000000000000000e+00,-5.244653398002846467e-01,0.000000000000000000e+00,-3.577355373547831952e-01,-4.294310610907917658e-01,-3.436500166144101365e-01,-2.412403109452186667e-01,0.000000000000000000e+00,0.000000000000000000e+00,-2.030320760085100318e-01,-3.995965062073277840e-01,-3.999770810758048745e-01,0.000000000000000000e+00,-1.711280324000466202e-01,-1.312223936589230755e-01,0.000000000000000000e+00,-2.227878013392305401e-01,0.000000000000000000e+00,-2.572392237539078974e-01,-1.017144352024625387e-01,-6.028196883536791201e-02,-1.684206829863149624e-01,-1.239125973575520984e-01,-4.812689382918180492e-01,-2.234939331318683831e-01,-4.740389788586929498e-01,-3.523692101734808846e-01,-4.459786201347512025e-01,0.000000000000000000e+00,-2.491346012642249308e-01,0.000000000000000000e+00,0.000000000000000000e+00,-3.205447691567507862e-01,0.000000000000000000e+00,-4.275522249375616340e-02,0.000000000000000000e+00,0.000000000000000000e+00,0.000000000000000000e+00,-2.018224479625908840e-01,0.000000000000000000e+00,0.000000000000000000e+00,0.000000000000000000e+00,-2.112069597898252882e-01,0.000000000000000000e+00,0.000000000000000000e+00,-1.849507803774863290e-01,-1.849507803774863290e-01,-2.717314237984178593e-01,-3.019208365054548149e-01,0.000000000000000000e+00,0.000000000000000000e+00,0.000000000000000000e+00,0.000000000000000000e+00,0.000000000000000000e+00,-1.424870043696745414e-01,0.000000000000000000e+00,0.000000000000000000e+00,-2.986119984938425675e-01,-6.482504919537238064e-02,-4.275522249375616340e-02,-2.876426948930729637e-03,-3.231470220987230357e-01,-1.378705515923104863e-01,0.000000000000000000e+00,0.000000000000000000e+00,0.000000000000000000e+00,0.000000000000000000e+00,0.000000000000000000e+00,0.000000000000000000e+00,0.000000000000000000e+00,0.000000000000000000e+00,0.000000000000000000e+00,0.000000000000000000e+00,0.000000000000000000e+00,0.000000000000000000e+00,0.000000000000000000e+00,0.000000000000000000e+00,0.000000000000000000e+00,0.000000000000000000e+00,0.000000000000000000e+00,0.000000000000000000e+00,0.000000000000000000e+00,0.000000000000000000e+00,0.000000000000000000e+00,0.000000000000000000e+00,0.000000000000000000e+00,0.000000000000000000e+00,0.000000000000000000e+00,0.000000000000000000e+00,0.000000000000000000e+00,0.000000000000000000e+00,0.000000000000000000e+00,0.000000000000000000e+00,0.000000000000000000e+00,0.000000000000000000e+00,8.673777333794732702e-02,0.000000000000000000e+00,0.000000000000000000e+00,0.000000000000000000e+00,0.000000000000000000e+00,0.000000000000000000e+00,0.000000000000000000e+00,0.000000000000000000e+00,0.000000000000000000e+00,0.000000000000000000e+00,0.000000000000000000e+00,0.000000000000000000e+00,0.000000000000000000e+00,0.000000000000000000e+00,0.000000000000000000e+00,0.000000000000000000e+00,0.000000000000000000e+00,0.000000000000000000e+00,0.000000000000000000e+00,0.000000000000000000e+00,0.000000000000000000e+00,0.000000000000000000e+00,0.000000000000000000e+00,0.000000000000000000e+00,0.000000000000000000e+00,0.000000000000000000e+00,0.000000000000000000e+00,0.000000000000000000e+00,0.000000000000000000e+00,0.000000000000000000e+00,0.000000000000000000e+00,0.000000000000000000e+00,0.000000000000000000e+00,0.000000000000000000e+00,0.000000000000000000e+00,0.000000000000000000e+00,0.000000000000000000e+00,0.000000000000000000e+00,0.000000000000000000e+00,0.000000000000000000e+00,0.000000000000000000e+00,0.000000000000000000e+00,0.000000000000000000e+00,0.000000000000000000e+00,0.000000000000000000e+00,0.000000000000000000e+00,0.000000000000000000e+00,0.000000000000000000e+00,0.000000000000000000e+00,0.000000000000000000e+00,0.000000000000000000e+00,0.000000000000000000e+00,0.000000000000000000e+00,0.000000000000000000e+00,0.000000000000000000e+00,0.000000000000000000e+00,0.000000000000000000e+00,0.000000000000000000e+00,0.000000000000000000e+00,0.000000000000000000e+00,0.000000000000000000e+00,0.000000000000000000e+00,-5.847315205598159482e-02,0.000000000000000000e+00,0.000000000000000000e+00,0.000000000000000000e+00,0.000000000000000000e+00,0.000000000000000000e+00,-1.975897067377097305e-01,0.000000000000000000e+00,-5.561011395063231166e-01,-2.757466219855824741e-01,-2.295737770070609973e-01,-2.229090587425578973e-01,0.000000000000000000e+00,0.000000000000000000e+00,0.000000000000000000e+00,0.000000000000000000e+00,0.000000000000000000e+00,0.000000000000000000e+00,0.000000000000000000e+00,0.000000000000000000e+00,0.000000000000000000e+00,0.000000000000000000e+00,0.000000000000000000e+00,0.000000000000000000e+00,0.000000000000000000e+00,0.000000000000000000e+00,0.000000000000000000e+00,0.000000000000000000e+00,1.996921590742069264e-02,0.000000000000000000e+00,0.000000000000000000e+00,0.000000000000000000e+00,0.000000000000000000e+00,0.000000000000000000e+00,0.000000000000000000e+00,0.000000000000000000e+00,0.000000000000000000e+00,0.000000000000000000e+00,0.000000000000000000e+00,0.000000000000000000e+00,0.000000000000000000e+00,0.000000000000000000e+00,0.000000000000000000e+00,0.000000000000000000e+00,0.000000000000000000e+00,0.000000000000000000e+00
0.000000000000000000e+00,0.000000000000000000e+00,0.000000000000000000e+00,0.000000000000000000e+00,-1.033430400982613129e-01,-5.313071680156868787e-02,-8.438625121283982455e-02,-2.876426948930729637e-03,-2.876426948930729637e-03,-5.048423122224567072e-02,-5.313071680156868787e-02,-5.048423122224567072e-02,-3.415339828089763441e-01,-2.333196504134704696e-01,-2.859298225803606486e-01,-3.637005798135078405e-01,0.000000000000000000e+00,-4.159506416494199166e-01,0.000000000000000000e+00,-1.312773643355724940e-01,-2.786843230328295284e-01,-3.144322396463565816e-01,-4.914250431970522692e-01,0.000000000000000000e+00,-2.472166749615919701e-01,0.000000000000000000e+00,-4.526128960984639460e-01,-4.260016777539464283e-01,7.302417247092120485e-03,-1.257652628632963399e-01,-9.690304527688380076e-02,-4.548479330046018704e-02,0.000000000000000000e+00,0.000000000000000000e+00,-3.513194517175237674e-01,-1.433204632865356654e-01,0.000000000000000000e+00,-4.841289784908905935e-02,-6.093904111615379149e-01,0.000000000000000000e+00,-4.199646962642226700e-01,-4.787047797592445253e-01,-3.759882846203787543e-01,-1.699659732962774394e-01,0.000000000000000000e+00,0.000000000000000000e+00,-2.708962076909826600e-01,-4.253019512358504062e-01,-4.308703132054784168e-01,0.000000000000000000e+00,-3.445071433286343576e-01,-2.356503388777936581e-01,-2.984995140423629123e-01,-2.380636797286148354e-01,0.000000000000000000e+00,-2.380636797286148354e-01,-1.257652628632963399e-01,-1.554323242307935338e-01,-2.741747948350165553e-01,-2.668573902769152961e-01,-4.455226363065010187e-01,-5.846335002485077981e-01,-5.074144990350561990e-01,-5.951742792602567889e-01,-5.115375512335763597e-01,-3.963866835723888760e-01,-1.755931336531047215e-01,0.000000000000000000e+00,0.000000000000000000e+00,0.000000000000000000e+00,-3.520260860699476191e-01,-4.548479330046018704e-02,0.000000000000000000e+00,-1.772033285706540728e-01,-1.928855737380258673e-01,-4.916301376049796445e-01,-1.554323242307935338e-01,0.000000000000000000e+00,0.000000000000000000e+00,0.000000000000000000e+00,-3.211702029330325558e-01,-3.072991218914337130e-01,-2.030484445953842365e-01,-2.323405715266260163e-01,-2.553629694021872787e-01,-2.491289366833592811e-01,-2.626548066485679955e-01,-2.715436265152078033e-01,0.000000000000000000e+00,0.000000000000000000e+00,0.000000000000000000e+00,-3.345870805926507985e-01,0.000000000000000000e+00,0.000000000000000000e+00,-5.165830823604681266e-01,-1.416434247385090495e-01,-4.548479330046018704e-02,-9.944450156070987201e-02,-3.019208365054548149e-01,-1.767121890449137034e-01,0.000000000000000000e+00,0.000000000000000000e+00,0.000000000000000000e+00,0.000000000000000000e+00,0.000000000000000000e+00,0.000000000000000000e+00,0.000000000000000000e+00,0.000000000000000000e+00,0.000000000000000000e+00,0.000000000000000000e+00,0.000000000000000000e+00,0.000000000000000000e+00,0.000000000000000000e+00,0.000000000000000000e+00,0.000000000000000000e+00,0.000000000000000000e+00,0.000000000000000000e+00,0.000000000000000000e+00,0.000000000000000000e+00,0.000000000000000000e+00,0.000000000000000000e+00,0.000000000000000000e+00,0.000000000000000000e+00,0.000000000000000000e+00,0.000000000000000000e+00,0.000000000000000000e+00,0.000000000000000000e+00,0.000000000000000000e+00,0.000000000000000000e+00,0.000000000000000000e+00,0.000000000000000000e+00,0.000000000000000000e+00,8.880477289313608302e-02,0.000000000000000000e+00,0.000000000000000000e+00,0.000000000000000000e+00,0.000000000000000000e+00,0.000000000000000000e+00,0.000000000000000000e+00,0.000000000000000000e+00,0.000000000000000000e+00,0.000000000000000000e+00,0.000000000000000000e+00,0.000000000000000000e+00,0.000000000000000000e+00,0.000000000000000000e+00,0.000000000000000000e+00,0.000000000000000000e+00,0.000000000000000000e+00,0.000000000000000000e+00,0.000000000000000000e+00,0.000000000000000000e+00,0.000000000000000000e+00,0.000000000000000000e+00,0.000000000000000000e+00,0.000000000000000000e+00,0.000000000000000000e+00,0.000000000000000000e+00,0.000000000000000000e+00,0.000000000000000000e+00,0.000000000000000000e+00,0.000000000000000000e+00,0.000000000000000000e+00,0.000000000000000000e+00,0.000000000000000000e+00,0.000000000000000000e+00,0.000000000000000000e+00,0.000000000000000000e+00,0.000000000000000000e+00,0.000000000000000000e+00,0.000000000000000000e+00,0.000000000000000000e+00,0.000000000000000000e+00,0.000000000000000000e+00,0.000000000000000000e+00,0.000000000000000000e+00,0.000000000000000000e+00,0.000000000000000000e+00,0.000000000000000000e+00,0.000000000000000000e+00,0.000000000000000000e+00,0.000000000000000000e+00,0.000000000000000000e+00,0.000000000000000000e+00,0.000000000000000000e+00,0.000000000000000000e+00,0.000000000000000000e+00,0.000000000000000000e+00,0.000000000000000000e+00,0.000000000000000000e+00,0.000000000000000000e+00,0.000000000000000000e+00,0.000000000000000000e+00,0.000000000000000000e+00,0.000000000000000000e+00,0.000000000000000000e+00,0.000000000000000000e+00,0.000000000000000000e+00,0.000000000000000000e+00,0.000000000000000000e+00,-2.589064327333275850e-01,-2.442098498850005239e-01,-4.316241169690035462e-01,-2.599797855965801374e-01,-2.068077835020653565e-01,-2.970393443476649353e-01,-2.029116209577639662e-01,0.000000000000000000e+00,0.000000000000000000e+00,0.000000000000000000e+00,0.000000000000000000e+00,-6.390229483472054106e-02,0.000000000000000000e+00,0.000000000000000000e+00,0.000000000000000000e+00,0.000000000000000000e+00,0.000000000000000000e+00,0.000000000000000000e+00,0.000000000000000000e+00,0.000000000000000000e+00,0.000000000000000000e+00,0.000000000000000000e+00,5.802128725095925289e-03,0.000000000000000000e+00,0.000000000000000000e+00,0.000000000000000000e+00,0.000000000000000000e+00,0.000000000000000000e+00,0.000000000000000000e+00,0.000000000000000000e+00,0.000000000000000000e+00,0.000000000000000000e+00,0.000000000000000000e+00,0.000000000000000000e+00,0.000000000000000000e+00,0.000000000000000000e+00,0.000000000000000000e+00,0.000000000000000000e+00,0.000000000000000000e+00,0.000000000000000000e+00
0.000000000000000000e+00,0.000000000000000000e+00,0.000000000000000000e+00,0.000000000000000000e+00,0.000000000000000000e+00,-5.225372007185244416e-02,-1.506727111916902340e-01,-1.017144352024625387e-01,-9.944450156070987201e-02,-1.319737808547515601e-01,-4.734066385133568755e-02,-1.319737808547515601e-01,-3.577067373660252625e-01,0.000000000000000000e+00,-1.220486017971706832e-01,-3.585987964872004996e-01,-5.487105359997682813e-02,-4.212976845196169107e-01,-1.771021385546562299e-01,0.000000000000000000e+00,-2.786843230328295284e-01,-3.231470220987230357e-01,-4.915365987211279819e-01,-4.725255449269535890e-01,-2.561363839112007490e-01,0.000000000000000000e+00,-5.823954764173726595e-01,-4.932641055651727502e-01,-1.017144352024625387e-01,0.000000000000000000e+00,-1.279037297193147127e-01,0.000000000000000000e+00,0.000000000000000000e+00,0.000000000000000000e+00,0.000000000000000000e+00,-3.157840373391782030e-01,0.000000000000000000e+00,0.000000000000000000e+00,-5.070532195564418920e-01,-4.234618882549673335e-01,-4.698305635754815857e-01,-5.765752471796310452e-01,-4.386850012702420698e-01,-2.686318985627584310e-01,-3.366474557130685885e-01,0.000000000000000000e+00,-3.049174540600643746e-01,-5.177518696931129316e-01,-5.125555041387406252e-01,0.000000000000000000e+00,-4.089890858855285694e-01,-3.278697741693455403e-01,-3.003553845932383504e-01,-1.652109595692850819e-01,-1.756106781279973272e-01,-2.475989486368084247e-01,-1.036398472347395266e-01,-1.817530855333799045e-01,-2.967320574802495559e-01,-2.145509830996327194e-01,-5.229589916205078515e-01,-6.016969397897514726e-01,-6.127357086110666318e-01,-6.443629570398482498e-01,-5.248692006706296986e-01,-3.032302258123011907e-01,-9.690304527688380076e-02,0.000000000000000000e+00,-3.634145724576278158e-01,-3.428303477921844089e-01,-2.209358458550897408e-01,0.000000000000000000e+00,0.000000000000000000e+00,-2.801255476042693870e-01,0.000000000000000000e+00,-4.942644292086083024e-01,0.000000000000000000e+00,0.000000000000000000e+00,0.000000000000000000e+00,0.000000000000000000e+00,-2.362740248254971143e-01,0.000000000000000000e+00,-2.120675200494272217e-01,-2.598429715175016863e-01,-2.717314237984178593e-01,-2.606363366592817643e-01,-2.756290212391551142e-01,-3.819062958098484173e-01,0.000000000000000000e+00,0.000000000000000000e+00,0.000000000000000000e+00,-3.655087623678301423e-01,-3.676430374806016199e-01,0.000000000000000000e+00,-3.047078978792069903e-01,0.000000000000000000e+00,0.000000000000000000e+00,-1.061925185218962897e-01,-2.909383925305143448e-01,-2.114135602104036116e-01,0.000000000000000000e+00,0.000000000000000000e+00,0.000000000000000000e+00,1.829796226972588979e-01,0.000000000000000000e+00,0.000000000000000000e+00,0.000000000000000000e+00,0.000000000000000000e+00,0.000000000000000000e+00,0.000000000000000000e+00,0.000000000000000000e+00,0.000000000000000000e+00,0.000000000000000000e+00,0.000000000000000000e+00,0.000000000000000000e+00,0.000000000000000000e+00,0.000000000000000000e+00,0.000000000000000000e+00,0.000000000000000000e+00,0.000000000000000000e+00,0.000000000000000000e+00,0.000000000000000000e+00,0.000000000000000000e+00,0.000000000000000000e+00,0.000000000000000000e+00,0.000000000000000000e+00,0.000000000000000000e+00,0.000000000000000000e+00,0.000000000000000000e+00,0.000000000000000000e+00,0.000000000000000000e+00,2.119975167478679590e-01,1.778183728279824349e-01,0.000000000000000000e+00,0.000000000000000000e+00,0.000000000000000000e+00,0.000000000000000000e+00,0.000000000000000000e+00,0.000000000000000000e+00,0.000000000000000000e+00,0.000000000000000000e+00,0.000000000000000000e+00,0.000000000000000000e+00,0.000000000000000000e+00,0.000000000000000000e+00,0.000000000000000000e+00,0.000000000000000000e+00,0.000000000000000000e+00,0.000000000000000000e+00,0.000000000000000000e+00,0.000000000000000000e+00,0.000000000000000000e+00,0.000000000000000000e+00,0.000000000000000000e+00,0.000000000000000000e+00,0.000000000000000000e+00,0.000000000000000000e+00,0.000000000000000000e+00,0.000000000000000000e+00,0.000000000000000000e+00,0.000000000000000000e+00,0.000000000000000000e+00,0.000000000000000000e+00,0.000000000000000000e+00,0.000000000000000000e+00,0.000000000000000000e+00,0.000000000000000000e+00,0.000000000000000000e+00,0.000000000000000000e+00,0.000000000000000000e+00,0.000000000000000000e+00,0.000000000000000000e+00,0.000000000000000000e+00,0.000000000000000000e+00,0.000000000000000000e+00,0.000000000000000000e+00,0.000000000000000000e+00,0.000000000000000000e+00,0.000000000000000000e+00,0.000000000000000000e+00,0.000000000000000000e+00,0.000000000000000000e+00,-6.631689603032256408e-02,0.000000000000000000e+00,0.000000000000000000e+00,0.000000000000000000e+00,0.000000000000000000e+00,0.000000000000000000e+00,0.000000000000000000e+00,0.000000000000000000e+00,0.000000000000000000e+00,0.000000000000000000e+00,0.000000000000000000e+00,3.814428582082370761e-02,0.000000000000000000e+00,0.000000000000000000e+00,0.000000000000000000e+00,0.000000000000000000e+00,0.000000000000000000e+00,0.000000000000000000e+00,-3.018221131888273456e-01,-2.625567442066769619e-01,-5.216992178313551998e-01,-2.826009140082398341e-01,-1.791233976996419175e-01,-3.405905077773637712e-01,0.000000000000000000e+00,0.000000000000000000e+00,0.000000000000000000e+00,0.000000000000000000e+00,0.000000000000000000e+00,0.000000000000000000e+00,0.000000000000000000e+00,0.000000000000000000e+00,0.000000000000000000e+00,0.000000000000000000e+00,0.000000000000000000e+00,0.000000000000000000e+00,0.000000000000000000e+00,0.000000000000000000e+00,0.000000000000000000e+00,0.000000000000000000e+00,-8.576504378625371405e-02,0.000000000000000000e+00,0.000000000000000000e+00,0.000000000000000000e+00,0.000000000000000000e+00,0.000000000000000000e+00,0.000000000000000000e+00,0.000000000000000000e+00,0.000000000000000000e+00,0.000000000000000000e+00,0.000000000000000000e+00,0.000000000000000000e+00,0.000000000000000000e+00,0.000000000000000000e+00,0.000000000000000000e+00,0.000000000000000000e+00,0.000000000000000000e+00,0.000000000000000000e+00
0.000000000000000000e+00,0.000000000000000000e+00,0.000000000000000000e+00,0.000000000000000000e+00,0.000000000000000000e+00,0.000000000000000000e+00,-1.303901370690594419e-01,-4.275522249375616340e-02,-4.275522249375616340e-02,-1.303901370690594419e-01,-4.548479330046018704e-02,-4.548479330046018704e-02,-4.001819046044082784e-01,0.000000000000000000e+00,-2.934525830609420183e-01,-3.471102000224540740e-01,-1.427141209033863656e-01,-4.601230670691482394e-01,-1.245532931810605648e-01,-3.951200004720809011e-02,-2.936005995512530609e-01,-3.144322396463565816e-01,-5.178675160812634681e-01,-5.331238403599430908e-01,-2.390264849761920551e-01,-3.121941123829120035e-01,-5.863009598540082079e-01,-4.558276446565685536e-01,-8.438625121283982455e-02,-1.319737808547515601e-01,-1.273121003327556677e-01,-4.548479330046018704e-02,0.000000000000000000e+00,0.000000000000000000e+00,-2.883953868558463696e-01,-2.791056245053138429e-01,-1.557997867881859289e-01,0.000000000000000000e+00,-5.620033592290506474e-01,-4.090285797281896785e-01,-4.661923748256020517e-01,-5.793545671789979146e-01,-6.204637038549197792e-01,-2.996590739442431262e-01,-4.958299249386701746e-01,-2.666981160672410311e-01,-2.053976376414362037e-01,-5.645750751154841041e-01,-5.800322467703111773e-01,-3.015159843157733666e-01,-4.811573115023787817e-01,-3.840040154153973595e-01,-9.944450156070987201e-02,-2.478691197344494723e-01,-1.137605764846810474e-01,-2.410899777564003421e-01,-1.273121003327556677e-01,0.000000000000000000e+00,-2.967320574802495559e-01,-2.898043620801511455e-01,-5.248800704784570836e-01,-6.277553895223808578e-01,-6.688301821180744344e-01,-6.105088120393981077e-01,-5.602401001832384431e-01,-3.149006768604743489e-01,-1.639257321849375559e-01,0.000000000000000000e+00,-4.825129049325085351e-01,-3.621598524001237718e-01,-5.136212079287564292e-01,-1.554323242307935338e-01,0.000000000000000000e+00,-3.479483015078538299e-01,0.000000000000000000e+00,-5.199961262332862821e-01,-1.554323242307935338e-01,-2.682388007828716558e-01,0.000000000000000000e+00,-2.935925087727270233e-01,-3.313739557730708274e-01,0.000000000000000000e+00,-2.919522043212404161e-01,-2.395512099646922022e-01,-3.151700489401894623e-01,-3.049502968715381845e-01,-2.585311803674096853e-01,-3.450595977264840908e-01,-1.777333773769065040e-01,0.000000000000000000e+00,-4.558133897956548330e-01,-4.447787213240608217e-01,-5.014251121419650570e-01,-3.108298521233779921e-01,-5.566180695459418404e-01,0.000000000000000000e+00,-1.400777425495070838e-01,-1.303901370690594419e-01,-2.506920146643503156e-01,-2.573284006386615808e-01,0.000000000000000000e+00,0.000000000000000000e+00,-1.401084124351213017e-02,6.469307198290570604e-02,9.676113501787358961e-02,6.455620261699727969e-02,0.000000000000000000e+00,0.000000000000000000e+00,-4.110712674834958620e-03,0.000000000000000000e+00,-1.032410316443833770e-01,0.000000000000000000e+00,0.000000000000000000e+00,0.000000000000000000e+00,0.000000000000000000e+00,0.000000000000000000e+00,0.000000000000000000e+00,0.000000000000000000e+00,0.000000000000000000e+00,5.561309865746281167e-01,0.000000000000000000e+00,0.000000000000000000e+00,0.000000000000000000e+00,0.000000000000000000e+00,0.000000000000000000e+00,0.000000000000000000e+00,4.007502454009552184e-01,0.000000000000000000e+00,0.000000000000000000e+00,0.000000000000000000e+00,0.000000000000000000e+00,1.908819996679589071e-01,-5.222858896155768704e-02,0.000000000000000000e+00,-4.571947616111076904e-03,0.000000000000000000e+00,0.000000000000000000e+00,0.000000000000000000e+00,0.000000000000000000e+00,0.000000000000000000e+00,5.232749015735621567e-01,0.000000000000000000e+00,0.000000000000000000e+00,0.000000000000000000e+00,0.000000000000000000e+00,0.000000000000000000e+00,0.000000000000000000e+00,0.000000000000000000e+00,0.000000000000000000e+00,0.000000000000000000e+00,0.000000000000000000e+00,0.000000000000000000e+00,0.000000000000000000e+00,0.000000000000000000e+00,0.000000000000000000e+00,0.000000000000000000e+00,0.000000000000000000e+00,0.000000000000000000e+00,0.000000000000000000e+00,0.000000000000000000e+00,0.000000000000000000e+00,0.000000000000000000e+00,0.000000000000000000e+00,0.000000000000000000e+00,0.000000000000000000e+00,0.000000000000000000e+00,0.000000000000000000e+00,0.000000000000000000e+00,0.000000000000000000e+00,0.000000000000000000e+00,0.000000000000000000e+00,0.000000000000000000e+00,0.000000000000000000e+00,0.000000000000000000e+00,0.000000000000000000e+00,0.000000000000000000e+00,0.000000000000000000e+00,0.000000000000000000e+00,0.000000000000000000e+00,0.000000000000000000e+00,0.000000000000000000e+00,0.000000000000000000e+00,6.802282989440365524e-02,2.404940289084923910e-01,0.000000000000000000e+00,-1.554323242307935338e-01,0.000000000000000000e+00,0.000000000000000000e+00,0.000000000000000000e+00,0.000000000000000000e+00,0.000000000000000000e+00,0.000000000000000000e+00,0.000000000000000000e+00,1.186799735028134933e-01,-1.554323242307935338e-01,0.000000000000000000e+00,0.000000000000000000e+00,0.000000000000000000e+00,0.000000000000000000e+00,3.336792810006544707e-01,-3.716321875362721405e-01,-2.526235754772975239e-01,-5.467312431400038752e-01,-3.167436136576039507e-01,-1.253393605829331570e-01,-3.311234815759617756e-01,0.000000000000000000e+00,0.000000000000000000e+00,0.000000000000000000e+00,0.000000000000000000e+00,0.000000000000000000e+00,0.000000000000000000e+00,0.000000000000000000e+00,0.000000000000000000e+00,0.000000000000000000e+00,0.000000000000000000e+00,0.000000000000000000e+00,0.000000000000000000e+00,0.000000000000000000e+00,0.000000000000000000e+00,0.000000000000000000e+00,0.000000000000000000e+00,0.000000000000000000e+00,0.000000000000000000e+00,0.000000000000000000e+00,0.000000000000000000e+00,0.000000000000000000e+00,0.000000000000000000e+00,0.000000000000000000e+00,0.000000000000000000e+00,0.000000000000000000e+00,0.000000000000000000e+00,0.000000000000000000e+00,0.000000000000000000e+00,0.000000000000000000e+00,0.000000000000000000e+00,0.000000000000000000e+00,0.000000000000000000e+00,0.000000000000000000e+00,0.000000000000000000e+00
0.000000000000000000e+00,0.000000000000000000e+00,0.000000000000000000e+00,0.000000000000000000e+00,0.000000000000000000e+00,0.000000000000000000e+00,0.000000000000000000e+00,0.000000000000000000e+00,0.000000000000000000e+00,0.000000000000000000e+00,-4.275522249375616340e-02,-4.275522249375616340e-02,-2.572176948631260118e-01,0.000000000000000000e+00,-1.042673307964114698e-01,2.591790247222978266e-03,0.000000000000000000e+00,-2.357653164028823134e-01,0.000000000000000000e+00,-3.251848395865764574e-01,-2.786843230328295284e-01,-3.278068734626389258e-01,-4.608840206951854701e-01,0.000000000000000000e+00,-2.460719254104274389e-01,0.000000000000000000e+00,-4.436193952226108461e-01,-5.082800216753340372e-01,-1.017144352024625387e-01,-1.017144352024625387e-01,-9.690304527688380076e-02,-1.303901370690594419e-01,0.000000000000000000e+00,0.000000000000000000e+00,-1.889597577688151564e-01,0.000000000000000000e+00,0.000000000000000000e+00,0.000000000000000000e+00,-4.556872998409080000e-01,-2.174880902802655835e-01,-3.658778376218247419e-01,-4.687638215118892782e-01,-2.611654796540517354e-01,-2.861018507857462367e-01,-2.603738378209949356e-01,0.000000000000000000e+00,-1.834807556780011506e-01,-4.529647497090342201e-01,-4.001560689589950259e-01,0.000000000000000000e+00,-2.526846108388364209e-01,-2.548850552271947345e-01,0.000000000000000000e+00,-2.147196050496887609e-01,0.000000000000000000e+00,-2.323405715266260163e-01,-9.690304527688380076e-02,-5.847315205598159482e-02,-1.675004123388585953e-01,-1.843691089981677467e-01,-4.119928201988894978e-01,-3.278606986080735974e-01,-4.531355133933960277e-01,-5.652140012966436755e-01,-4.547870066404262057e-01,-1.688888085203304468e-01,-1.849507803774863290e-01,-1.051305666097027691e-01,0.000000000000000000e+00,-2.573068186985889572e-01,-2.144400399713764505e-01,0.000000000000000000e+00,0.000000000000000000e+00,-2.251963991616738880e-01,-1.648577408281103884e-01,-3.960421681789347836e-01,0.000000000000000000e+00,0.000000000000000000e+00,0.000000000000000000e+00,0.000000000000000000e+00,-4.285838633869556991e-01,0.000000000000000000e+00,-9.944450156070987201e-02,-2.323405715266260163e-01,-2.805306893157914483e-01,-2.683271802903574588e-01,-2.363605661328689878e-01,0.000000000000000000e+00,0.000000000000000000e+00,0.000000000000000000e+00,0.000000000000000000e+00,-3.300039816968494688e-01,-1.690687003326029891e-01,0.000000000000000000e+00,-4.626374416950891910e-01,2.163551757426937158e-02,0.000000000000000000e+00,0.000000000000000000e+00,-2.985441322231142669e-01,-1.839611443516887823e-01,1.065499817712677218e-02,0.000000000000000000e+00,0.000000000000000000e+00,0.000000000000000000e+00,0.000000000000000000e+00,0.000000000000000000e+00,0.000000000000000000e+00,0.000000000000000000e+00,0.000000000000000000e+00,0.000000000000000000e+00,0.000000000000000000e+00,0.000000000000000000e+00,0.000000000000000000e+00,0.000000000000000000e+00,0.000000000000000000e+00,0.000000000000000000e+00,0.000000000000000000e+00,0.000000000000000000e+00,0.000000000000000000e+00,0.000000000000000000e+00,0.000000000000000000e+00,0.000000000000000000e+00,0.000000000000000000e+00,0.000000000000000000e+00,0.000000000000000000e+00,0.000000000000000000e+00,0.000000000000000000e+00,0.000000000000000000e+00,0.000000000000000000e+00,0.000000000000000000e+00,0.000000000000000000e+00,0.000000000000000000e+00,0.000000000000000000e+00,0.000000000000000000e+00,0.000000000000000000e+00,0.000000000000000000e+00,0.000000000000000000e+00,0.000000000000000000e+00,0.000000000000000000e+00,0.000000000000000000e+00,0.000000000000000000e+00,0.000000000000000000e+00,0.000000000000000000e+00,0.000000000000000000e+00,0.000000000000000000e+00,0.000000000000000000e+00,0.000000000000000000e+00,0.000000000000000000e+00,0.000000000000000000e+00,0.000000000000000000e+00,0.000000000000000000e+00,0.000000000000000000e+00,0.000000000000000000e+00,0.000000000000000000e+00,0.000000000000000000e+00,0.000000000000000000e+00,0.000000000000000000e+00,0.000000000000000000e+00,0.000000000000000000e+00,0.000000000000000000e+00,0.000000000000000000e+00,0.000000000000000000e+00,0.000000000000000000e+00,0.000000000000000000e+00,0.000000000000000000e+00,0.000000000000000000e+00,0.000000000000000000e+00,0.000000000000000000e+00,0.000000000000000000e+00,0.000000000000000000e+00,0.000000000000000000e+00,0.000000000000000000e+00,0.000000000000000000e+00,0.000000000000000000e+00,0.000000000000000000e+00,0.000000000000000000e+00,0.000000000000000000e+00,0.000000000000000000e+00,0.000000000000000000e+00,0.000000000000000000e+00,0.000000000000000000e+00,0.000000000000000000e+00,0.000000000000000000e+00,0.000000000000000000e+00,0.000000000000000000e+00,0.000000000000000000e+00,0.000000000000000000e+00,0.000000000000000000e+00,0.000000000000000000e+00,0.000000000000000000e+00,0.000000000000000000e+00,0.000000000000000000e+00,0.000000000000000000e+00,0.000000000000000000e+00,0.000000000000000000e+00,0.000000000000000000e+00,0.000000000000000000e+00,0.000000000000000000e+00,0.000000000000000000e+00,0.000000000000000000e+00,-2.349390086605512296e-01,-1.697392788104587491e-01,-4.703436330829085521e-01,-2.709422855663385921e-01,-1.648577408281103884e-01,-2.324979787304709000e-01,0.000000000000000000e+00,0.000000000000000000e+00,0.000000000000000000e+00,0.000000000000000000e+00,0.000000000000000000e+00,0.000000000000000000e+00,0.000000000000000000e+00,0.000000000000000000e+00,0.000000000000000000e+00,0.000000000000000000e+00,0.000000000000000000e+00,0.000000000000000000e+00,0.000000000000000000e+00,0.000000000000000000e+00,1.996921590742069264e-02,0.000000000000000000e+00,1.996921590742069264e-02,0.000000000000000000e+00,0.000000000000000000e+00,0.000000000000000000e+00,0.000000000000000000e+00,0.000000000000000000e+00,0.000000000000000000e+00,0.000000000000000000e+00,0.000000000000000000e+00,0.000000000000000000e+00,0.000000000000000000e+00,0.000000000000000000e+00,0.000000000000000000e+00,0.000000000000000000e+00,0.000000000000000000e+00,0.000000000000000000e+00,0.000000000000000000e+00,0.000000000000000000e+00
0.000000000000000000e+00,0.000000000000000000e+00,0.000000000000000000e+00,0.000000000000000000e+00,0.000000000000000000e+00,0.000000000000000000e+00,0.000000000000000000e+00,0.000000000000000000e+00,0.000000000000000000e+00,0.000000000000000000e+00,-5.847315205598159482e-02,-4.275522249375616340e-02,0.000000000000000000e+00,0.000000000000000000e+00,0.000000000000000000e+00,0.000000000000000000e+00,0.000000000000000000e+00,-3.499937390935073389e-01,0.000000000000000000e+00,0.000000000000000000e+00,-2.763020832630800339e-01,-3.019208365054548149e-01,-2.484008793125305758e-01,0.000000000000000000e+00,-2.216632776100178892e-01,0.000000000000000000e+00,0.000000000000000000e+00,0.000000000000000000e+00,-2.876426948930729637e-03,-1.017144352024625387e-01,-9.690304527688380076e-02,-4.275522249375616340e-02,0.000000000000000000e+00,0.000000000000000000e+00,0.000000000000000000e+00,0.000000000000000000e+00,0.000000000000000000e+00,0.000000000000000000e+00,-4.080442128423371062e-01,0.000000000000000000e+00,-3.750009677179129697e-01,-4.511277919896411470e-01,-2.241239632325940090e-01,0.000000000000000000e+00,0.000000000000000000e+00,0.000000000000000000e+00,0.000000000000000000e+00,-2.571697671637299676e-01,-3.075533624218357298e-01,0.000000000000000000e+00,-1.368888055826341932e-01,-2.803831123536136838e-01,0.000000000000000000e+00,0.000000000000000000e+00,-1.904078536629050800e-01,-1.109680873283885733e-01,-9.690304527688380076e-02,0.000000000000000000e+00,-9.218926162567053773e-02,-2.269618455906485810e-01,-4.260346140605679732e-01,0.000000000000000000e+00,0.000000000000000000e+00,-4.556800065520872356e-01,-3.304084026228438775e-01,-1.457033383551770145e-01,-1.017144352024625387e-01,0.000000000000000000e+00,0.000000000000000000e+00,0.000000000000000000e+00,0.000000000000000000e+00,0.000000000000000000e+00,0.000000000000000000e+00,-2.149377082408735762e-01,-1.648577408281103884e-01,0.000000000000000000e+00,0.000000000000000000e+00,0.000000000000000000e+00,0.000000000000000000e+00,-3.009410249216989963e-01,-3.729481804559072189e-01,0.000000000000000000e+00,-1.791171048649667641e-01,-2.323405715266260163e-01,-2.786843230328295284e-01,-2.218463639830969558e-01,-1.736692552216039798e-01,0.000000000000000000e+00,0.000000000000000000e+00,0.000000000000000000e+00,0.000000000000000000e+00,-2.547247884026260789e-01,0.000000000000000000e+00,0.000000000000000000e+00,0.000000000000000000e+00,0.000000000000000000e+00,0.000000000000000000e+00,0.000000000000000000e+00,-2.314890294114412828e-01,-1.548510635497569454e-01,0.000000000000000000e+00,0.000000000000000000e+00,0.000000000000000000e+00,0.000000000000000000e+00,0.000000000000000000e+00,0.000000000000000000e+00,0.000000000000000000e+00,0.000000000000000000e+00,0.000000000000000000e+00,0.000000000000000000e+00,0.000000000000000000e+00,0.000000000000000000e+00,0.000000000000000000e+00,0.000000000000000000e+00,0.000000000000000000e+00,0.000000000000000000e+00,0.000000000000000000e+00,0.000000000000000000e+00,0.000000000000000000e+00,0.000000000000000000e+00,0.000000000000000000e+00,0.000000000000000000e+00,0.000000000000000000e+00,0.000000000000000000e+00,0.000000000000000000e+00,0.000000000000000000e+00,0.000000000000000000e+00,0.000000000000000000e+00,0.000000000000000000e+00,0.000000000000000000e+00,0.000000000000000000e+00,0.000000000000000000e+00,0.000000000000000000e+00,0.000000000000000000e+00,0.000000000000000000e+00,0.000000000000000000e+00,0.000000000000000000e+00,0.000000000000000000e+00,0.000000000000000000e+00,0.000000000000000000e+00,0.000000000000000000e+00,0.000000000000000000e+00,0.000000000000000000e+00,0.000000000000000000e+00,0.000000000000000000e+00,0.000000000000000000e+00,0.000000000000000000e+00,0.000000000000000000e+00,0.000000000000000000e+00,0.000000000000000000e+00,0.000000000000000000e+00,0.000000000000000000e+00,0.000000000000000000e+00,0.000000000000000000e+00,0.000000000000000000e+00,0.000000000000000000e+00,0.000000000000000000e+00,0.000000000000000000e+00,0.000000000000000000e+00,0.000000000000000000e+00,0.000000000000000000e+00,0.000000000000000000e+00,0.000000000000000000e+00,0.000000000000000000e+00,0.000000000000000000e+00,0.000000000000000000e+00,0.000000000000000000e+00,0.000000000000000000e+00,0.000000000000000000e+00,0.000000000000000000e+00,0.000000000000000000e+00,0.000000000000000000e+00,0.000000000000000000e+00,0.000000000000000000e+00,0.000000000000000000e+00,0.000000000000000000e+00,0.000000000000000000e+00,0.000000000000000000e+00,0.000000000000000000e+00,0.000000000000000000e+00,0.000000000000000000e+00,0.000000000000000000e+00,0.000000000000000000e+00,0.000000000000000000e+00,0.000000000000000000e+00,0.000000000000000000e+00,0.000000000000000000e+00,0.000000000000000000e+00,0.000000000000000000e+00,0.000000000000000000e+00,0.000000000000000000e+00,0.000000000000000000e+00,0.000000000000000000e+00,0.000000000000000000e+00,0.000000000000000000e+00,0.000000000000000000e+00,0.000000000000000000e+00,0.000000000000000000e+00,0.000000000000000000e+00,0.000000000000000000e+00,-1.874060091088190494e-01,0.000000000000000000e+00,-3.202565497834682917e-01,-1.845652085385600105e-01,-9.944450156070987201e-02,-2.401789210824767651e-01,0.000000000000000000e+00,0.000000000000000000e+00,0.000000000000000000e+00,0.000000000000000000e+00,0.000000000000000000e+00,0.000000000000000000e+00,0.000000000000000000e+00,0.000000000000000000e+00,1.996921590742069264e-02,0.000000000000000000e+00,0.000000000000000000e+00,0.000000000000000000e+00,0.000000000000000000e+00,0.000000000000000000e+00,0.000000000000000000e+00,0.000000000000000000e+00,1.996921590742069264e-02,0.000000000000000000e+00,0.000000000000000000e+00,0.000000000000000000e+00,0.000000000000000000e+00,0.000000000000000000e+00,0.000000000000000000e+00,0.000000000000000000e+00,0.000000000000000000e+00,0.000000000000000000e+00,0.000000000000000000e+00,0.000000000000000000e+00,0.000000000000000000e+00,0.000000000000000000e+00,0.000000000000000000e+00,0.000000000000000000e+00,0.000000000000000000e+00,0.000000000000000000e+00
0.000000000000000000e+00,0.000000000000000000e+00,0.000000000000000000e+00,0.000000000000000000e+00,0.000000000000000000e+00,0.000000000000000000e+00,0.000000000000000000e+00,0.000000000000000000e+00,0.000000000000000000e+00,0.000000000000000000e+00,-5.847315205598159482e-02,-4.275522249375616340e-02,-3.078420893585591123e-01,0.000000000000000000e+00,0.000000000000000000e+00,-1.107602730289040244e-01,0.000000000000000000e+00,-2.623371828317739851e-01,0.000000000000000000e+00,0.000000000000000000e+00,-2.863341655855253243e-01,-2.763020832630800339e-01,-4.007463815632983373e-01,-3.498357510584225727e-01,-1.660038187916369756e-01,0.000000000000000000e+00,-3.203951301223944559e-01,0.000000000000000000e+00,0.000000000000000000e+00,-1.017144352024625387e-01,-9.690304527688380076e-02,2.163551757426937158e-02,0.000000000000000000e+00,0.000000000000000000e+00,0.000000000000000000e+00,0.000000000000000000e+00,0.000000000000000000e+00,0.000000000000000000e+00,-4.435443908850195682e-01,0.000000000000000000e+00,-3.748866696585719249e-01,-4.703436330829085521e-01,-2.745792453691132118e-01,0.000000000000000000e+00,0.000000000000000000e+00,0.000000000000000000e+00,0.000000000000000000e+00,-3.760956481680762797e-01,-4.385308349208374423e-01,0.000000000000000000e+00,-1.515714566739945202e-01,0.000000000000000000e+00,0.000000000000000000e+00,0.000000000000000000e+00,0.000000000000000000e+00,0.000000000000000000e+00,-9.690304527688380076e-02,-1.829543320517988403e-01,0.000000000000000000e+00,-2.504519635322394189e-01,-3.795315725049785427e-01,-4.509234236833108977e-01,-5.309953790311757738e-01,-3.574458796683131490e-01,-2.183406762388807321e-01,-2.223431326483614190e-01,-9.944450156070987201e-02,0.000000000000000000e+00,0.000000000000000000e+00,0.000000000000000000e+00,-3.372664711213164690e-01,-4.734066385133568755e-02,0.000000000000000000e+00,-2.559886105691214775e-01,-2.311693595587696604e-01,-3.407171525955985936e-01,0.000000000000000000e+00,0.000000000000000000e+00,0.000000000000000000e+00,-1.859388510756874446e-01,-1.162402365034973239e-01,0.000000000000000000e+00,0.000000000000000000e+00,0.000000000000000000e+00,-2.408125583656555435e-01,-2.314890294114412828e-01,0.000000000000000000e+00,-3.308005254628161862e-01,0.000000000000000000e+00,0.000000000000000000e+00,0.000000000000000000e+00,-1.947031171840296615e-01,0.000000000000000000e+00,0.000000000000000000e+00,-3.247557674388589777e-01,0.000000000000000000e+00,0.000000000000000000e+00,0.000000000000000000e+00,-2.763020832630800339e-01,-2.223335322351779886e-01,0.000000000000000000e+00,0.000000000000000000e+00,0.000000000000000000e+00,0.000000000000000000e+00,0.000000000000000000e+00,0.000000000000000000e+00,0.000000000000000000e+00,0.000000000000000000e+00,0.000000000000000000e+00,0.000000000000000000e+00,0.000000000000000000e+00,0.000000000000000000e+00,0.000000000000000000e+00,0.000000000000000000e+00,0.000000000000000000e+00,0.000000000000000000e+00,0.000000000000000000e+00,0.000000000000000000e+00,0.000000000000000000e+00,0.000000000000000000e+00,0.000000000000000000e+00,0.000000000000000000e+00,0.000000000000000000e+00,0.000000000000000000e+00,0.000000000000000000e+00,0.000000000000000000e+00,0.000000000000000000e+00,0.000000000000000000e+00,0.000000000000000000e+00,0.000000000000000000e+00,0.000000000000000000e+00,0.000000000000000000e+00,9.648126882098760626e-02,0.000000000000000000e+00,0.000000000000000000e+00,0.000000000000000000e+00,0.000000000000000000e+00,0.000000000000000000e+00,0.000000000000000000e+00,0.000000000000000000e+00,0.000000000000000000e+00,0.000000000000000000e+00,0.000000000000000000e+00,0.000000000000000000e+00,0.000000000000000000e+00,0.000000000000000000e+00,0.000000000000000000e+00,0.000000000000000000e+00,0.000000000000000000e+00,0.000000000000000000e+00,0.000000000000000000e+00,0.000000000000000000e+00,0.000000000000000000e+00,0.000000000000000000e+00,0.000000000000000000e+00,0.000000000000000000e+00,0.000000000000000000e+00,0.000000000000000000e+00,0.000000000000000000e+00,0.000000000000000000e+00,0.000000000000000000e+00,0.000000000000000000e+00,0.000000000000000000e+00,0.000000000000000000e+00,0.000000000000000000e+00,0.000000000000000000e+00,0.000000000000000000e+00,0.000000000000000000e+00,0.000000000000000000e+00,0.000000000000000000e+00,0.000000000000000000e+00,0.000000000000000000e+00,0.000000000000000000e+00,0.000000000000000000e+00,0.000000000000000000e+00,0.000000000000000000e+00,0.000000000000000000e+00,0.000000000000000000e+00,0.000000000000000000e+00,0.000000000000000000e+00,0.000000000000000000e+00,0.000000000000000000e+00,0.000000000000000000e+00,0.000000000000000000e+00,0.000000000000000000e+00,0.000000000000000000e+00,0.000000000000000000e+00,0.000000000000000000e+00,0.000000000000000000e+00,0.000000000000000000e+00,0.000000000000000000e+00,0.000000000000000000e+00,0.000000000000000000e+00,0.000000000000000000e+00,0.000000000000000000e+00,0.000000000000000000e+00,0.000000000000000000e+00,0.000000000000000000e+00,0.000000000000000000e+00,0.000000000000000000e+00,-2.216919656474817812e-01,-2.376572547866438456e-01,-4.846865685234914012e-01,0.000000000000000000e+00,4.173700400027353062e-03,-2.456908692809293138e-01,0.000000000000000000e+00,0.000000000000000000e+00,0.000000000000000000e+00,0.000000000000000000e+00,0.000000000000000000e+00,0.000000000000000000e+00,0.000000000000000000e+00,0.000000000000000000e+00,0.000000000000000000e+00,0.000000000000000000e+00,0.000000000000000000e+00,0.000000000000000000e+00,0.000000000000000000e+00,0.000000000000000000e+00,1.996921590742069264e-02,0.000000000000000000e+00,0.000000000000000000e+00,0.000000000000000000e+00,0.000000000000000000e+00,0.000000000000000000e+00,0.000000000000000000e+00,0.000000000000000000e+00,0.000000000000000000e+00,0.000000000000000000e+00,0.000000000000000000e+00,0.000000000000000000e+00,0.000000000000000000e+00,0.000000000000000000e+00,0.000000000000000000e+00,0.000000000000000000e+00,0.000000000000000000e+00,0.000000000000000000e+00,0.000000000000000000e+00,0.000000000000000000e+00
0.000000000000000000e+00,0.000000000000000000e+00,0.000000000000000000e+00,0.000000000000000000e+00,0.000000000000000000e+00,0.000000000000000000e+00,0.000000000000000000e+00,0.000000000000000000e+00,0.000000000000000000e+00,0.000000000000000000e+00,-4.275522249375616340e-02,-4.275522249375616340e-02,-3.158650476277041208e-01,0.000000000000000000e+00,-1.626967394815847234e-01,-2.541906824990227687e-01,-1.527374825833126282e-01,-3.520367904526751079e-01,-1.040367848283764579e-01,-5.009641628475502984e-02,-2.786843230328295284e-01,-3.144322396463565816e-01,-4.737210428803155238e-01,-5.252831176657953849e-01,-2.460719254104274389e-01,0.000000000000000000e+00,-5.564405467716491138e-01,-3.582887249107742367e-01,-2.876426948930729637e-03,-1.017144352024625387e-01,-1.436411823229187534e-01,-1.979552579563960968e-01,0.000000000000000000e+00,0.000000000000000000e+00,0.000000000000000000e+00,-2.467225555606964160e-01,-1.427141209033863656e-01,2.056328357651597202e-02,-5.248275430128339636e-01,-4.272771800441676482e-01,-4.604644100385021366e-01,-5.918110537597439658e-01,-4.616641729809681793e-01,-2.922659734273857501e-01,-3.365512275461386427e-01,0.000000000000000000e+00,-2.960292507478111124e-01,-4.718270353830555930e-01,-5.698298734181680425e-01,0.000000000000000000e+00,-3.234099447568613006e-01,-3.322890369186179971e-01,-1.599167036981569701e-01,-8.114489702284238826e-02,-9.944450156070987201e-02,-2.218463639830969558e-01,-1.017144352024625387e-01,-2.252908748767712133e-01,-2.615228850678495420e-01,-1.370204288166868012e-01,-4.829718189650969440e-01,-5.990767258535778517e-01,-5.052490746804260136e-01,-5.855419172025301267e-01,-4.925637663604866545e-01,-2.774633833599402521e-01,-9.690304527688380076e-02,0.000000000000000000e+00,-3.031671768954705692e-01,-1.930321464701522660e-01,-3.922644914941021965e-01,-4.548479330046018704e-02,0.000000000000000000e+00,-2.450363143256945320e-01,-2.252908748767712133e-01,-3.770981947219225749e-01,-4.548479330046018704e-02,-2.557845616452190662e-01,0.000000000000000000e+00,-1.876121576665196744e-01,-2.536598397188208898e-01,2.092147340120077866e-03,-2.246981019974482463e-01,-2.323405715266260163e-01,-3.137628663747769608e-01,-3.090910880848685705e-01,-2.474971557739396588e-01,0.000000000000000000e+00,0.000000000000000000e+00,0.000000000000000000e+00,0.000000000000000000e+00,-3.693969436865633948e-01,0.000000000000000000e+00,0.000000000000000000e+00,-5.219191277322101641e-01,-1.979552579563960968e-01,0.000000000000000000e+00,-9.944450156070987201e-02,-3.019208365054548149e-01,-2.223335322351779886e-01,0.000000000000000000e+00,0.000000000000000000e+00,0.000000000000000000e+00,0.000000000000000000e+00,2.015918607698506115e-01,9.648126882098760626e-02,0.000000000000000000e+00,0.000000000000000000e+00,2.282586966161156278e-02,0.000000000000000000e+00,0.000000000000000000e+00,0.000000000000000000e+00,0.000000000000000000e+00,0.000000000000000000e+00,0.000000000000000000e+00,3.125150962010453393e-01,0.000000000000000000e+00,0.000000000000000000e+00,0.000000000000000000e+00,0.000000000000000000e+00,0.000000000000000000e+00,0.000000000000000000e+00,0.000000000000000000e+00,0.000000000000000000e+00,0.000000000000000000e+00,2.290598829189909036e-01,1.710846710635189338e-01,0.000000000000000000e+00,0.000000000000000000e+00,0.000000000000000000e+00,0.000000000000000000e+00,2.290721856920018562e-01,1.062230485819651710e-01,0.000000000000000000e+00,0.000000000000000000e+00,0.000000000000000000e+00,0.000000000000000000e+00,0.000000000000000000e+00,0.000000000000000000e+00,0.000000000000000000e+00,0.000000000000000000e+00,0.000000000000000000e+00,0.000000000000000000e+00,0.000000000000000000e+00,0.000000000000000000e+00,0.000000000000000000e+00,0.000000000000000000e+00,0.000000000000000000e+00,0.000000000000000000e+00,0.000000000000000000e+00,0.000000000000000000e+00,0.000000000000000000e+00,0.000000000000000000e+00,0.000000000000000000e+00,0.000000000000000000e+00,0.000000000000000000e+00,0.000000000000000000e+00,0.000000000000000000e+00,0.000000000000000000e+00,0.000000000000000000e+00,0.000000000000000000e+00,0.000000000000000000e+00,0.000000000000000000e+00,0.000000000000000000e+00,0.000000000000000000e+00,0.000000000000000000e+00,0.000000000000000000e+00,0.000000000000000000e+00,0.000000000000000000e+00,0.000000000000000000e+00,0.000000000000000000e+00,0.000000000000000000e+00,0.000000000000000000e+00,0.000000000000000000e+00,0.000000000000000000e+00,0.000000000000000000e+00,0.000000000000000000e+00,0.000000000000000000e+00,0.000000000000000000e+00,0.000000000000000000e+00,0.000000000000000000e+00,0.000000000000000000e+00,0.000000000000000000e+00,3.140829625259946023e-01,0.000000000000000000e+00,0.000000000000000000e+00,0.000000000000000000e+00,0.000000000000000000e+00,0.000000000000000000e+00,0.000000000000000000e+00,0.000000000000000000e+00,0.000000000000000000e+00,0.000000000000000000e+00,7.849200490986973922e-02,-1.570443582075699285e-02,0.000000000000000000e+00,0.000000000000000000e+00,0.000000000000000000e+00,0.000000000000000000e+00,0.000000000000000000e+00,-2.349390086605512296e-01,-3.946263743984800287e-01,-5.486222376258624855e-01,-2.947284461931430899e-01,-9.536670996717717952e-02,-3.068993323113488048e-01,-1.472380208457609863e-01,0.000000000000000000e+00,0.000000000000000000e+00,0.000000000000000000e+00,0.000000000000000000e+00,0.000000000000000000e+00,0.000000000000000000e+00,0.000000000000000000e+00,0.000000000000000000e+00,0.000000000000000000e+00,0.000000000000000000e+00,0.000000000000000000e+00,0.000000000000000000e+00,0.000000000000000000e+00,0.000000000000000000e+00,0.000000000000000000e+00,1.996921590742069264e-02,0.000000000000000000e+00,0.000000000000000000e+00,0.000000000000000000e+00,0.000000000000000000e+00,0.000000000000000000e+00,0.000000000000000000e+00,0.000000000000000000e+00,0.000000000000000000e+00,0.000000000000000000e+00,0.000000000000000000e+00,0.000000000000000000e+00,0.000000000000000000e+00,0.000000000000000000e+00,0.000000000000000000e+00,0.000000000000000000e+00,0.000000000000000000e+00,0.000000000000000000e+00
0.000000000000000000e+00,0.000000000000000000e+00,0.000000000000000000e+00,0.000000000000000000e+00,0.000000000000000000e+00,0.000000000000000000e+00,0.000000000000000000e+00,0.000000000000000000e+00,0.000000000000000000e+00,0.000000000000000000e+00,0.000000000000000000e+00,-4.548479330046018704e-02,-3.054745327434778002e-01,0.000000000000000000e+00,-2.112733991342219952e-01,-2.274482736020922435e-01,-8.938424735381733655e-02,-3.418883274442661158e-01,-2.957773330728570849e-01,-2.572435872660264536e-02,-3.312766246605717280e-01,-3.247672603865698338e-01,-5.122162492444956028e-01,0.000000000000000000e+00,-2.779021910277200691e-01,-3.737572855856288179e-01,-5.885560248077922330e-01,-3.800236733047201998e-01,-5.847315205598159482e-02,-1.621475692511233635e-01,-1.657439519972777608e-01,-4.841289784908905935e-02,0.000000000000000000e+00,-4.841289784908905935e-02,-3.299985849509586289e-01,-1.694929169840683203e-01,-8.938424735381733655e-02,-1.427141209033863656e-01,-4.938987614971819817e-01,-4.186196500036863388e-01,-4.292838248653260136e-01,-5.073473184822171467e-01,-4.793061683782215976e-01,-2.272404523028173362e-01,-4.405844308413920940e-01,0.000000000000000000e+00,0.000000000000000000e+00,-4.921896190330075083e-01,-5.381057522466978771e-01,-2.159659924232012196e-01,-2.709773118787134338e-01,-3.640945200411733751e-01,0.000000000000000000e+00,0.000000000000000000e+00,0.000000000000000000e+00,0.000000000000000000e+00,0.000000000000000000e+00,-4.841289784908905935e-02,-2.723901046124930225e-01,-2.003781378503256272e-01,-4.405030685572839388e-01,-6.229350930489243598e-01,-5.688311816006729194e-01,-5.445728510338448958e-01,-4.651148309337561071e-01,-4.194017627016302652e-01,0.000000000000000000e+00,0.000000000000000000e+00,0.000000000000000000e+00,0.000000000000000000e+00,-4.631053452271068349e-01,0.000000000000000000e+00,0.000000000000000000e+00,-2.799063473169580707e-01,0.000000000000000000e+00,-4.253967039301586595e-01,0.000000000000000000e+00,0.000000000000000000e+00,0.000000000000000000e+00,-2.588313313551842687e-01,-4.625025644327488417e-01,-3.009048116249509741e-01,-2.216116226976254933e-01,-3.169177789093315378e-01,-3.043334241929943063e-01,-2.829954414095710025e-01,0.000000000000000000e+00,0.000000000000000000e+00,0.000000000000000000e+00,0.000000000000000000e+00,-3.201930450416049512e-01,-2.399905737502590897e-01,0.000000000000000000e+00,0.000000000000000000e+00,-3.923859818019018730e-01,0.000000000000000000e+00,0.000000000000000000e+00,-9.944450156070987201e-02,-2.563022838010108884e-01,-2.120077046478566485e-01,0.000000000000000000e+00,0.000000000000000000e+00,-4.734066385133568755e-02,0.000000000000000000e+00,1.456378241135039033e-02,2.463366857540903732e-02,0.000000000000000000e+00,0.000000000000000000e+00,2.735311858787931039e-02,0.000000000000000000e+00,-2.179680649788395212e-03,0.000000000000000000e+00,0.000000000000000000e+00,0.000000000000000000e+00,0.000000000000000000e+00,0.000000000000000000e+00,0.000000000000000000e+00,0.000000000000000000e+00,0.000000000000000000e+00,4.672186528918670367e-01,0.000000000000000000e+00,0.000000000000000000e+00,0.000000000000000000e+00,0.000000000000000000e+00,0.000000000000000000e+00,0.000000000000000000e+00,0.000000000000000000e+00,0.000000000000000000e+00,0.000000000000000000e+00,5.208575800192303262e-01,0.000000000000000000e+00,2.119975167478679590e-01,2.463366857540903732e-02,0.000000000000000000e+00,0.000000000000000000e+00,0.000000000000000000e+00,0.000000000000000000e+00,0.000000000000000000e+00,0.000000000000000000e+00,0.000000000000000000e+00,0.000000000000000000e+00,3.768783351376773227e-01,0.000000000000000000e+00,0.000000000000000000e+00,0.000000000000000000e+00,0.000000000000000000e+00,0.000000000000000000e+00,0.000000000000000000e+00,0.000000000000000000e+00,0.000000000000000000e+00,0.000000000000000000e+00,0.000000000000000000e+00,0.000000000000000000e+00,0.000000000000000000e+00,0.000000000000000000e+00,0.000000000000000000e+00,0.000000000000000000e+00,0.000000000000000000e+00,0.000000000000000000e+00,0.000000000000000000e+00,0.000000000000000000e+00,0.000000000000000000e+00,0.000000000000000000e+00,0.000000000000000000e+00,0.000000000000000000e+00,0.000000000000000000e+00,0.000000000000000000e+00,0.000000000000000000e+00,0.000000000000000000e+00,0.000000000000000000e+00,0.000000000000000000e+00,0.000000000000000000e+00,0.000000000000000000e+00,0.000000000000000000e+00,0.000000000000000000e+00,0.000000000000000000e+00,0.000000000000000000e+00,0.000000000000000000e+00,0.000000000000000000e+00,0.000000000000000000e+00,0.000000000000000000e+00,0.000000000000000000e+00,0.000000000000000000e+00,1.182287604198748732e-01,0.000000000000000000e+00,0.000000000000000000e+00,0.000000000000000000e+00,0.000000000000000000e+00,0.000000000000000000e+00,0.000000000000000000e+00,0.000000000000000000e+00,0.000000000000000000e+00,0.000000000000000000e+00,1.182287604198748732e-01,0.000000000000000000e+00,0.000000000000000000e+00,0.000000000000000000e+00,0.000000000000000000e+00,0.000000000000000000e+00,4.719250052014055674e-01,-2.568996268677449790e-01,-2.533026890670111997e-01,-6.067047819258335473e-01,-2.448573082103333021e-01,-4.275522249375616340e-02,-3.888823915881577387e-01,-4.088352539525502150e-01,0.000000000000000000e+00,0.000000000000000000e+00,0.000000000000000000e+00,0.000000000000000000e+00,0.000000000000000000e+00,0.000000000000000000e+00,0.000000000000000000e+00,0.000000000000000000e+00,0.000000000000000000e+00,0.000000000000000000e+00,0.000000000000000000e+00,0.000000000000000000e+00,0.000000000000000000e+00,0.000000000000000000e+00,0.000000000000000000e+00,0.000000000000000000e+00,0.000000000000000000e+00,0.000000000000000000e+00,0.000000000000000000e+00,0.000000000000000000e+00,0.000000000000000000e+00,0.000000000000000000e+00,0.000000000000000000e+00,0.000000000000000000e+00,0.000000000000000000e+00,0.000000000000000000e+00,0.000000000000000000e+00,0.000000000000000000e+00,0.000000000000000000e+00,0.000000000000000000e+00,0.000000000000000000e+00,0.000000000000000000e+00,0.000000000000000000e+00
0.000000000000000000e+00,0.000000000000000000e+00,0.000000000000000000e+00,0.000000000000000000e+00,0.000000000000000000e+00,0.000000000000000000e+00,0.000000000000000000e+00,0.000000000000000000e+00,0.000000000000000000e+00,0.000000000000000000e+00,0.000000000000000000e+00,0.000000000000000000e+00,-2.957763582829968096e-01,-2.841849727361974720e-01,-2.251340791332512026e-01,-3.171196527829159839e-01,-8.938424735381733655e-02,-2.915900124773813107e-01,-2.253196237241276989e-01,-2.572435872660264536e-02,-2.936005995512530609e-01,-3.144322396463565816e-01,-5.325029916036065902e-01,-2.963970362753317600e-01,-2.306158889183059502e-01,-2.277558760546445349e-01,-5.768428020646557686e-01,-4.983860895065852503e-01,2.163551757426937158e-02,-1.033430400982613129e-01,-8.438625121283982455e-02,-4.548479330046018704e-02,0.000000000000000000e+00,-6.135420283312131157e-02,-3.557637762437408924e-01,-1.109669996331800051e-01,-1.427141209033863656e-01,-4.841289784908905935e-02,-4.539311110024354945e-01,-3.561255794196270252e-01,-4.359593807906056995e-01,-5.377111650057738723e-01,-5.069248581843466273e-01,-2.996590739442431262e-01,-3.721696047241570549e-01,0.000000000000000000e+00,-2.215996814644528301e-01,-5.267019007293403110e-01,-5.123289257786906026e-01,0.000000000000000000e+00,-2.922054163678947658e-01,-2.253444182513660021e-01,0.000000000000000000e+00,-2.068077835020653565e-01,-2.572392237539078974e-01,-8.438625121283982455e-02,-9.690304527688380076e-02,0.000000000000000000e+00,-1.821290584356426989e-01,-1.868927332137712838e-01,-5.275989516519251632e-01,-5.505217009986569376e-01,-6.197519644146004536e-01,-5.650958808280581724e-01,-5.441343490843215669e-01,-4.385714446720982984e-01,-8.438625121283982455e-02,-1.665648124354394688e-01,-4.168778514902974353e-01,0.000000000000000000e+00,-5.134945302039187753e-01,0.000000000000000000e+00,0.000000000000000000e+00,-3.037806093778880334e-01,-1.400777425495070838e-01,-3.506156170020530150e-01,-4.372063013375800805e-02,-2.329629546413397589e-01,0.000000000000000000e+00,-3.840926624421092117e-01,-2.176825167707981956e-01,-2.963111321255441077e-01,-2.430063542594392278e-01,-2.108569799535527645e-01,-3.151700489401894623e-01,-2.829954414095710025e-01,-2.000381601132439624e-01,-1.366010279484347889e-01,-2.681910076067268167e-01,0.000000000000000000e+00,0.000000000000000000e+00,-2.754406602745858024e-01,0.000000000000000000e+00,0.000000000000000000e+00,-5.007564042280919780e-01,-4.548479330046018704e-02,-4.548479330046018704e-02,-5.025151622248634486e-02,-2.928383307944567582e-01,-2.306158889183059502e-01,0.000000000000000000e+00,0.000000000000000000e+00,0.000000000000000000e+00,0.000000000000000000e+00,5.556842313663860194e-02,-3.898298833487394248e-03,0.000000000000000000e+00,0.000000000000000000e+00,0.000000000000000000e+00,-4.548479330046018704e-02,-5.646531269760278471e-02,0.000000000000000000e+00,0.000000000000000000e+00,0.000000000000000000e+00,0.000000000000000000e+00,0.000000000000000000e+00,0.000000000000000000e+00,0.000000000000000000e+00,0.000000000000000000e+00,4.674219372361459457e-01,0.000000000000000000e+00,0.000000000000000000e+00,0.000000000000000000e+00,0.000000000000000000e+00,0.000000000000000000e+00,0.000000000000000000e+00,0.000000000000000000e+00,0.000000000000000000e+00,0.000000000000000000e+00,0.000000000000000000e+00,0.000000000000000000e+00,0.000000000000000000e+00,3.172996550130635640e-02,0.000000000000000000e+00,0.000000000000000000e+00,0.000000000000000000e+00,0.000000000000000000e+00,0.000000000000000000e+00,0.000000000000000000e+00,0.000000000000000000e+00,0.000000000000000000e+00,2.846608254828349449e-01,0.000000000000000000e+00,0.000000000000000000e+00,0.000000000000000000e+00,0.000000000000000000e+00,0.000000000000000000e+00,0.000000000000000000e+00,0.000000000000000000e+00,0.000000000000000000e+00,0.000000000000000000e+00,0.000000000000000000e+00,0.000000000000000000e+00,0.000000000000000000e+00,0.000000000000000000e+00,0.000000000000000000e+00,0.000000000000000000e+00,0.000000000000000000e+00,0.000000000000000000e+00,0.000000000000000000e+00,0.000000000000000000e+00,0.000000000000000000e+00,0.000000000000000000e+00,0.000000000000000000e+00,0.000000000000000000e+00,0.000000000000000000e+00,0.000000000000000000e+00,0.000000000000000000e+00,0.000000000000000000e+00,0.000000000000000000e+00,0.000000000000000000e+00,0.000000000000000000e+00,0.000000000000000000e+00,0.000000000000000000e+00,0.000000000000000000e+00,0.000000000000000000e+00,0.000000000000000000e+00,0.000000000000000000e+00,0.000000000000000000e+00,0.000000000000000000e+00,0.000000000000000000e+00,0.000000000000000000e+00,0.000000000000000000e+00,1.295905331735093258e-01,0.000000000000000000e+00,0.000000000000000000e+00,0.000000000000000000e+00,0.000000000000000000e+00,0.000000000000000000e+00,0.000000000000000000e+00,0.000000000000000000e+00,0.000000000000000000e+00,0.000000000000000000e+00,1.062230485819651710e-01,-4.548479330046018704e-02,0.000000000000000000e+00,0.000000000000000000e+00,0.000000000000000000e+00,0.000000000000000000e+00,0.000000000000000000e+00,-2.920780775004221397e-01,-7.558599112539253484e-02,-5.021799137919651379e-01,-3.570199899707273694e-01,-1.382033814059009935e-01,-4.419282847036511974e-01,0.000000000000000000e+00,0.000000000000000000e+00,0.000000000000000000e+00,0.000000000000000000e+00,0.000000000000000000e+00,0.000000000000000000e+00,0.000000000000000000e+00,0.000000000000000000e+00,0.000000000000000000e+00,0.000000000000000000e+00,0.000000000000000000e+00,0.000000000000000000e+00,0.000000000000000000e+00,0.000000000000000000e+00,0.000000000000000000e+00,0.000000000000000000e+00,1.996921590742069264e-02,0.000000000000000000e+00,0.000000000000000000e+00,0.000000000000000000e+00,0.000000000000000000e+00,0.000000000000000000e+00,0.000000000000000000e+00,0.000000000000000000e+00,0.000000000000000000e+00,0.000000000000000000e+00,0.000000000000000000e+00,0.000000000000000000e+00,0.000000000000000000e+00,0.000000000000000000e+00,0.000000000000000000e+00,0.000000000000000000e+00,0.000000000000000000e+00,0.000000000000000000e+00
0.000000000000000000e+00,0.000000000000000000e+00,0.000000000000000000e+00,0.000000000000000000e+00,0.000000000000000000e+00,0.000000000000000000e+00,0.000000000000000000e+00,0.000000000000000000e+00,0.000000000000000000e+00,0.000000000000000000e+00,0.000000000000000000e+00,0.000000000000000000e+00,0.000000000000000000e+00,-1.208333405245483744e-01,-3.200713199666672670e-01,-2.183060665470215045e-01,0.000000000000000000e+00,5.812612934185317631e-02,-1.793845699566037066e-01,-1.793845699566037066e-01,0.000000000000000000e+00,-3.161584988785121064e-01,-6.202917792835609401e-01,-6.307579158370124617e-01,-4.482130315323661907e-01,-4.703774005927519042e-01,-5.073502115758307118e-01,-2.429024318259972726e-01,0.000000000000000000e+00,0.000000000000000000e+00,-3.807930802759225131e-01,-3.477980601820442330e-01,-1.361561493664110167e-01,0.000000000000000000e+00,-2.841740564116656542e-01,-1.134253287062073901e-01,-1.793845699566037066e-01,-1.484820774766711926e-01,-2.661405349426538836e-01,-4.981732413651846492e-01,-2.348904788842703095e-01,-4.479648472947778681e-01,-5.992853564265772093e-01,-1.793845699566037066e-01,0.000000000000000000e+00,0.000000000000000000e+00,-3.256553484332462278e-01,0.000000000000000000e+00,-4.351913431336762450e-01,0.000000000000000000e+00,0.000000000000000000e+00,-2.214980128719014063e-01,0.000000000000000000e+00,0.000000000000000000e+00,0.000000000000000000e+00,0.000000000000000000e+00,0.000000000000000000e+00,0.000000000000000000e+00,-2.597573508527148967e-01,-3.146517794240885069e-01,-1.016164434751345852e-01,-3.673016869977859256e-01,-5.123322013229800742e-01,-4.827875951985779457e-01,-4.402287773484418465e-01,0.000000000000000000e+00,0.000000000000000000e+00,0.000000000000000000e+00,0.000000000000000000e+00,0.000000000000000000e+00,0.000000000000000000e+00,-2.134016689189682792e-01,-1.735084716106518599e-01,0.000000000000000000e+00,0.000000000000000000e+00,0.000000000000000000e+00,-3.266559813035009308e-01,0.000000000000000000e+00,-1.934451627098785487e-01,0.000000000000000000e+00,-1.449266151059744046e-01,0.000000000000000000e+00,0.000000000000000000e+00,0.000000000000000000e+00,0.000000000000000000e+00,0.000000000000000000e+00,0.000000000000000000e+00,0.000000000000000000e+00,0.000000000000000000e+00,0.000000000000000000e+00,0.000000000000000000e+00,-4.268998124177013631e-01,0.000000000000000000e+00,-3.305139039026808168e-01,-4.922116674547164505e-01,-4.063148181519203317e-01,-3.706390714750384952e-01,-3.196655872962522738e-01,-3.507110803156719414e-01,-3.035138961874639940e-01,0.000000000000000000e+00,0.000000000000000000e+00,0.000000000000000000e+00,0.000000000000000000e+00,0.000000000000000000e+00,0.000000000000000000e+00,0.000000000000000000e+00,0.000000000000000000e+00,0.000000000000000000e+00,0.000000000000000000e+00,0.000000000000000000e+00,0.000000000000000000e+00,0.000000000000000000e+00,0.000000000000000000e+00,0.000000000000000000e+00,0.000000000000000000e+00,0.000000000000000000e+00,0.000000000000000000e+00,0.000000000000000000e+00,0.000000000000000000e+00,0.000000000000000000e+00,0.000000000000000000e+00,0.000000000000000000e+00,0.000000000000000000e+00,0.000000000000000000e+00,0.000000000000000000e+00,0.000000000000000000e+00,0.000000000000000000e+00,0.000000000000000000e+00,0.000000000000000000e+00,0.000000000000000000e+00,0.000000000000000000e+00,0.000000000000000000e+00,0.000000000000000000e+00,0.000000000000000000e+00,0.000000000000000000e+00,0.000000000000000000e+00,0.000000000000000000e+00,0.000000000000000000e+00,0.000000000000000000e+00,0.000000000000000000e+00,0.000000000000000000e+00,0.000000000000000000e+00,0.000000000000000000e+00,0.000000000000000000e+00,0.000000000000000000e+00,0.000000000000000000e+00,0.000000000000000000e+00,0.000000000000000000e+00,0.000000000000000000e+00,0.000000000000000000e+00,0.000000000000000000e+00,0.000000000000000000e+00,0.000000000000000000e+00,0.000000000000000000e+00,0.000000000000000000e+00,0.000000000000000000e+00,0.000000000000000000e+00,0.000000000000000000e+00,0.000000000000000000e+00,0.000000000000000000e+00,0.000000000000000000e+00,0.000000000000000000e+00,0.000000000000000000e+00,0.000000000000000000e+00,0.000000000000000000e+00,0.000000000000000000e+00,0.000000000000000000e+00,0.000000000000000000e+00,0.000000000000000000e+00,0.000000000000000000e+00,0.000000000000000000e+00,0.000000000000000000e+00,0.000000000000000000e+00,0.000000000000000000e+00,0.000000000000000000e+00,0.000000000000000000e+00,0.000000000000000000e+00,0.000000000000000000e+00,0.000000000000000000e+00,0.000000000000000000e+00,0.000000000000000000e+00,0.000000000000000000e+00,0.000000000000000000e+00,0.000000000000000000e+00,0.000000000000000000e+00,0.000000000000000000e+00,0.000000000000000000e+00,0.000000000000000000e+00,0.000000000000000000e+00,0.000000000000000000e+00,0.000000000000000000e+00,0.000000000000000000e+00,0.000000000000000000e+00,0.000000000000000000e+00,0.000000000000000000e+00,1.162939197350348203e-02,0.000000000000000000e+00,0.000000000000000000e+00,0.000000000000000000e+00,-5.477462200999254627e-01,0.000000000000000000e+00,-6.533219926060730431e-01,-3.849643470301859494e-01,-5.788263222087388638e-01,-2.886708704314766005e-01,0.000000000000000000e+00,0.000000000000000000e+00,0.000000000000000000e+00,0.000000000000000000e+00,0.000000000000000000e+00,0.000000000000000000e+00,0.000000000000000000e+00,0.000000000000000000e+00,0.000000000000000000e+00,0.000000000000000000e+00,0.000000000000000000e+00,0.000000000000000000e+00,0.000000000000000000e+00,0.000000000000000000e+00,0.000000000000000000e+00,0.000000000000000000e+00,0.000000000000000000e+00,0.000000000000000000e+00,0.000000000000000000e+00,0.000000000000000000e+00,0.000000000000000000e+00,0.000000000000000000e+00,0.000000000000000000e+00,0.000000000000000000e+00,0.000000000000000000e+00,0.000000000000000000e+00,0.000000000000000000e+00,0.000000000000000000e+00,0.000000000000000000e+00,0.000000000000000000e+00,0.000000000000000000e+00,0.000000000000000000e+00,0.000000000000000000e+00,0.000000000000000000e+00
0.000000000000000000e+00,0.000000000000000000e+00,0.000000000000000000e+00,0.000000000000000000e+00,0.000000000000000000e+00,0.000000000000000000e+00,0.000000000000000000e+00,0.000000000000000000e+00,0.000000000000000000e+00,0.000000000000000000e+00,0.000000000000000000e+00,0.000000000000000000e+00,0.000000000000000000e+00,0.000000000000000000e+00,-7.944614774085777265e-02,-1.544990256567382869e-01,-6.192913750628664671e-02,-1.239401141469869683e-01,-1.961994204193105440e-01,-6.192913750628664671e-02,0.000000000000000000e+00,0.000000000000000000e+00,-3.217612874669040779e-01,-3.096643338681818736e-01,-3.958110792568204084e-01,-4.040002433811382687e-01,-3.438753680620798558e-01,-3.130771563106764521e-01,0.000000000000000000e+00,0.000000000000000000e+00,0.000000000000000000e+00,-1.177387498728643817e-01,0.000000000000000000e+00,0.000000000000000000e+00,-3.349248167292820932e-01,-2.228949090233312280e-01,-1.961994204193105440e-01,-1.794196032920692407e-01,-3.152545739724451623e-01,-3.789778958070088022e-01,0.000000000000000000e+00,-3.283093910450931019e-01,0.000000000000000000e+00,-1.189253267297887134e-01,0.000000000000000000e+00,0.000000000000000000e+00,-3.069560272325443928e-01,0.000000000000000000e+00,0.000000000000000000e+00,0.000000000000000000e+00,0.000000000000000000e+00,0.000000000000000000e+00,0.000000000000000000e+00,0.000000000000000000e+00,0.000000000000000000e+00,0.000000000000000000e+00,0.000000000000000000e+00,0.000000000000000000e+00,0.000000000000000000e+00,-5.945736793056062564e-02,0.000000000000000000e+00,0.000000000000000000e+00,0.000000000000000000e+00,-3.387289868850918984e-01,-3.586232081335370414e-01,0.000000000000000000e+00,0.000000000000000000e+00,0.000000000000000000e+00,0.000000000000000000e+00,0.000000000000000000e+00,0.000000000000000000e+00,-1.794196032920692407e-01,0.000000000000000000e+00,-2.818866915102203330e-01,0.000000000000000000e+00,0.000000000000000000e+00,-2.428366031077965614e-01,0.000000000000000000e+00,-1.654114153982504942e-01,0.000000000000000000e+00,0.000000000000000000e+00,0.000000000000000000e+00,0.000000000000000000e+00,0.000000000000000000e+00,0.000000000000000000e+00,0.000000000000000000e+00,-2.639573462930651093e-01,0.000000000000000000e+00,0.000000000000000000e+00,0.000000000000000000e+00,0.000000000000000000e+00,0.000000000000000000e+00,0.000000000000000000e+00,0.000000000000000000e+00,0.000000000000000000e+00,-3.094365843152424578e-01,-6.560400028986193566e-02,0.000000000000000000e+00,0.000000000000000000e+00,0.000000000000000000e+00,0.000000000000000000e+00,0.000000000000000000e+00,0.000000000000000000e+00,0.000000000000000000e+00,0.000000000000000000e+00,0.000000000000000000e+00,0.000000000000000000e+00,0.000000000000000000e+00,0.000000000000000000e+00,0.000000000000000000e+00,0.000000000000000000e+00,0.000000000000000000e+00,0.000000000000000000e+00,0.000000000000000000e+00,0.000000000000000000e+00,0.000000000000000000e+00,0.000000000000000000e+00,0.000000000000000000e+00,0.000000000000000000e+00,0.000000000000000000e+00,0.000000000000000000e+00,0.000000000000000000e+00,0.000000000000000000e+00,0.000000000000000000e+00,0.000000000000000000e+00,0.000000000000000000e+00,0.000000000000000000e+00,0.000000000000000000e+00,0.000000000000000000e+00,0.000000000000000000e+00,0.000000000000000000e+00,0.000000000000000000e+00,0.000000000000000000e+00,0.000000000000000000e+00,0.000000000000000000e+00,0.000000000000000000e+00,0.000000000000000000e+00,0.000000000000000000e+00,0.000000000000000000e+00,0.000000000000000000e+00,0.000000000000000000e+00,0.000000000000000000e+00,0.000000000000000000e+00,0.000000000000000000e+00,0.000000000000000000e+00,0.000000000000000000e+00,0.000000000000000000e+00,0.000000000000000000e+00,0.000000000000000000e+00,0.000000000000000000e+00,0.000000000000000000e+00,0.000000000000000000e+00,0.000000000000000000e+00,0.000000000000000000e+00,0.000000000000000000e+00,0.000000000000000000e+00,0.000000000000000000e+00,0.000000000000000000e+00,0.000000000000000000e+00,0.000000000000000000e+00,0.000000000000000000e+00,0.000000000000000000e+00,0.000000000000000000e+00,0.000000000000000000e+00,0.000000000000000000e+00,0.000000000000000000e+00,0.000000000000000000e+00,0.000000000000000000e+00,0.000000000000000000e+00,0.000000000000000000e+00,0.000000000000000000e+00,0.000000000000000000e+00,0.000000000000000000e+00,0.000000000000000000e+00,0.000000000000000000e+00,0.000000000000000000e+00,0.000000000000000000e+00,0.000000000000000000e+00,0.000000000000000000e+00,0.000000000000000000e+00,0.000000000000000000e+00,0.000000000000000000e+00,0.000000000000000000e+00,0.000000000000000000e+00,0.000000000000000000e+00,0.000000000000000000e+00,0.000000000000000000e+00,0.000000000000000000e+00,0.000000000000000000e+00,0.000000000000000000e+00,0.000000000000000000e+00,0.000000000000000000e+00,0.000000000000000000e+00,0.000000000000000000e+00,0.000000000000000000e+00,0.000000000000000000e+00,0.000000000000000000e+00,0.000000000000000000e+00,0.000000000000000000e+00,0.000000000000000000e+00,-2.741953945882068533e-01,0.000000000000000000e+00,0.000000000000000000e+00,0.000000000000000000e+00,0.000000000000000000e+00,0.000000000000000000e+00,0.000000000000000000e+00,0.000000000000000000e+00,0.000000000000000000e+00,0.000000000000000000e+00,0.000000000000000000e+00,0.000000000000000000e+00,0.000000000000000000e+00,0.000000000000000000e+00,0.000000000000000000e+00,0.000000000000000000e+00,0.000000000000000000e+00,0.000000000000000000e+00,0.000000000000000000e+00,0.000000000000000000e+00,0.000000000000000000e+00,0.000000000000000000e+00,0.000000000000000000e+00,0.000000000000000000e+00,0.000000000000000000e+00,0.000000000000000000e+00,0.000000000000000000e+00,0.000000000000000000e+00,0.000000000000000000e+00,0.000000000000000000e+00,0.000000000000000000e+00,0.000000000000000000e+00,0.000000000000000000e+00,0.000000000000000000e+00,0.000000000000000000e+00,0.000000000000000000e+00,0.000000000000000000e+00,0.000000000000000000e+00,0.000000000000000000e+00,0.000000000000000000e+00
0.000000000000000000e+00,0.000000000000000000e+00,0.000000000000000000e+00,0.000000000000000000e+00,0.000000000000000000e+00,0.000000000000000000e+00,0.000000000000000000e+00,0.000000000000000000e+00,0.000000000000000000e+00,0.000000000000000000e+00,0.000000000000000000e+00,0.000000000000000000e+00,0.000000000000000000e+00,0.000000000000000000e+00,0.000000000000000000e+00,-2.043677457814550291e-01,-1.432144926617132663e-01,-2.043677457814550291e-01,-1.365326110117351388e-01,-7.944614774085777265e-02,0.000000000000000000e+00,-2.681189180511334147e-01,-4.910878893996641348e-01,-4.883277603056746519e-01,-2.985152210403988482e-01,-3.448820983494300108e-01,-4.828729813052521913e-01,-2.544914375085324809e-01,0.000000000000000000e+00,-3.206140275980354781e-01,-2.825195892167313705e-01,-9.666755669610779811e-02,-5.955210135199501958e-02,-1.961994204193105440e-01,-2.735172830077692296e-01,-1.544990256567382869e-01,-6.192913750628664671e-02,-2.428366031077965614e-01,-2.382886967218197649e-01,-3.395534214965254538e-01,-3.558010679577744417e-01,-4.486320180328436935e-01,-5.667995906017909702e-01,-1.637159515407356492e-01,-1.376958849410296615e-01,3.017131368552357015e-02,-2.341165034699571601e-01,-4.209727840497320406e-01,-5.979925556572244227e-01,0.000000000000000000e+00,-5.595204079421045584e-01,-4.800361245799307230e-01,0.000000000000000000e+00,0.000000000000000000e+00,0.000000000000000000e+00,0.000000000000000000e+00,0.000000000000000000e+00,-1.177387498728643817e-01,-1.957365706043337206e-01,-7.642567915462360195e-02,-1.513308912180463539e-01,-6.385768647141532028e-01,-5.371982029027800865e-01,-5.295009508358275996e-01,-3.576698164044309070e-01,-2.005204800482518757e-01,0.000000000000000000e+00,-2.694327649355790499e-01,-3.918410993571689316e-01,0.000000000000000000e+00,-5.782059014386136120e-01,-7.642567915462360195e-02,-5.397040495200886717e-02,-2.512927848644530560e-01,-1.310092452834813737e-01,-4.821104860264088798e-01,-1.637159515407356492e-01,-2.019715467463606418e-01,-1.477537551840096830e-01,-3.363702916307876323e-01,-5.481251909547762979e-01,0.000000000000000000e+00,0.000000000000000000e+00,0.000000000000000000e+00,0.000000000000000000e+00,0.000000000000000000e+00,-1.251537831856368577e-01,-3.152857241084466300e-01,0.000000000000000000e+00,0.000000000000000000e+00,0.000000000000000000e+00,-4.668543927144245265e-01,-3.256144208910449200e-01,0.000000000000000000e+00,-4.036257702481850229e-01,-2.503358373983629037e-01,-1.858647027736248514e-01,0.000000000000000000e+00,-2.816509876419674985e-01,-1.684938691633598440e-01,0.000000000000000000e+00,0.000000000000000000e+00,0.000000000000000000e+00,0.000000000000000000e+00,0.000000000000000000e+00,0.000000000000000000e+00,0.000000000000000000e+00,0.000000000000000000e+00,0.000000000000000000e+00,3.542096051394237610e-02,0.000000000000000000e+00,0.000000000000000000e+00,0.000000000000000000e+00,0.000000000000000000e+00,0.000000000000000000e+00,0.000000000000000000e+00,0.000000000000000000e+00,0.000000000000000000e+00,0.000000000000000000e+00,0.000000000000000000e+00,0.000000000000000000e+00,0.000000000000000000e+00,0.000000000000000000e+00,0.000000000000000000e+00,0.000000000000000000e+00,0.000000000000000000e+00,0.000000000000000000e+00,0.000000000000000000e+00,0.000000000000000000e+00,0.000000000000000000e+00,0.000000000000000000e+00,0.000000000000000000e+00,0.000000000000000000e+00,0.000000000000000000e+00,0.000000000000000000e+00,0.000000000000000000e+00,0.000000000000000000e+00,-9.165173428051592852e-02,0.000000000000000000e+00,0.000000000000000000e+00,3.018609922415856905e-01,0.000000000000000000e+00,0.000000000000000000e+00,0.000000000000000000e+00,0.000000000000000000e+00,0.000000000000000000e+00,0.000000000000000000e+00,0.000000000000000000e+00,0.000000000000000000e+00,0.000000000000000000e+00,0.000000000000000000e+00,0.000000000000000000e+00,0.000000000000000000e+00,0.000000000000000000e+00,0.000000000000000000e+00,0.000000000000000000e+00,0.000000000000000000e+00,0.000000000000000000e+00,0.000000000000000000e+00,0.000000000000000000e+00,0.000000000000000000e+00,0.000000000000000000e+00,0.000000000000000000e+00,0.000000000000000000e+00,0.000000000000000000e+00,0.000000000000000000e+00,0.000000000000000000e+00,0.000000000000000000e+00,0.000000000000000000e+00,0.000000000000000000e+00,0.000000000000000000e+00,0.000000000000000000e+00,0.000000000000000000e+00,0.000000000000000000e+00,0.000000000000000000e+00,0.000000000000000000e+00,0.000000000000000000e+00,0.000000000000000000e+00,0.000000000000000000e+00,0.000000000000000000e+00,0.000000000000000000e+00,0.000000000000000000e+00,-3.049670922076838653e-01,-2.344169006975162506e-01,0.000000000000000000e+00,-3.741572211399677578e-03,0.000000000000000000e+00,0.000000000000000000e+00,0.000000000000000000e+00,0.000000000000000000e+00,0.000000000000000000e+00,0.000000000000000000e+00,0.000000000000000000e+00,0.000000000000000000e+00,-1.138579293495838723e-01,0.000000000000000000e+00,0.000000000000000000e+00,0.000000000000000000e+00,0.000000000000000000e+00,2.041354315956613319e-01,-3.920351830052283826e-01,-5.267360839369618075e-01,-6.622937832877325848e-01,-5.504052437055543257e-01,-4.354452991909268378e-01,-2.309806820877466360e-01,0.000000000000000000e+00,0.000000000000000000e+00,-1.050614498038397321e-01,0.000000000000000000e+00,0.000000000000000000e+00,0.000000000000000000e+00,0.000000000000000000e+00,0.000000000000000000e+00,0.000000000000000000e+00,0.000000000000000000e+00,0.000000000000000000e+00,0.000000000000000000e+00,0.000000000000000000e+00,0.000000000000000000e+00,0.000000000000000000e+00,0.000000000000000000e+00,0.000000000000000000e+00,0.000000000000000000e+00,0.000000000000000000e+00,0.000000000000000000e+00,0.000000000000000000e+00,0.000000000000000000e+00,0.000000000000000000e+00,0.000000000000000000e+00,0.000000000000000000e+00,0.000000000000000000e+00,0.000000000000000000e+00,0.000000000000000000e+00,0.000000000000000000e+00,0.000000000000000000e+00,0.000000000000000000e+00,0.000000000000000000e+00,0.000000000000000000e+00,0.000000000000000000e+00
0.000000000000000000e+00,0.000000000000000000e+00,0.000000000000000000e+00,0.000000000000000000e+00,0.000000000000000000e+00,0.000000000000000000e+00,0.000000000000000000e+00,0.000000000000000000e+00,0.000000000000000000e+00,0.000000000000000000e+00,0.000000000000000000e+00,0.000000000000000000e+00,0.000000000000000000e+00,0.000000000000000000e+00,0.000000000000000000e+00,0.000000000000000000e+00,-7.118187859272909201e-02,-8.944886085557386679e-02,-1.413466922715288510e-01,0.000000000000000000e+00,3.017131368552357015e-02,-1.829911727477755712e-01,-5.614906824174006328e-01,-3.739333140084928897e-01,-3.850625373095235005e-01,-2.884188653234145416e-01,-4.385403849733064963e-01,-2.224187054818542175e-01,0.000000000000000000e+00,-2.235531013838708628e-02,-1.923827798281056156e-01,-1.882072718537524114e-01,-2.976293739648913639e-02,0.000000000000000000e+00,-3.156146538544404301e-01,-2.385987986339168643e-01,0.000000000000000000e+00,0.000000000000000000e+00,-2.382886967218197649e-01,-3.369901485860609114e-01,0.000000000000000000e+00,-4.511650835825729011e-01,-4.188734175714484143e-01,-1.309145802002159575e-01,-1.623192996738031246e-01,3.017131368552357015e-02,-3.209944986634309938e-01,-3.956974548818899540e-01,-5.272053061734759405e-01,0.000000000000000000e+00,-4.271064029959162345e-01,-4.273558346401712393e-01,0.000000000000000000e+00,0.000000000000000000e+00,0.000000000000000000e+00,0.000000000000000000e+00,-6.801941094967116352e-02,-1.177387498728643817e-01,-9.367625877649300714e-02,-7.651398394374711587e-02,-1.692973058630495298e-01,-4.911461684036738662e-01,-4.352846570528013381e-01,-4.607854428020394799e-01,-3.328936559003993767e-01,-2.661405349426538836e-01,0.000000000000000000e+00,0.000000000000000000e+00,-1.942211005502998411e-01,-3.226508009144771760e-01,-3.890514016844339729e-01,-1.604750821647764614e-01,-3.420853236783402695e-02,-2.044509189920430126e-01,-6.723260518566072375e-02,-3.903172692341612127e-01,-2.453230813374888408e-01,-1.532815472935532275e-01,-1.476494455802059569e-01,0.000000000000000000e+00,-1.820690734879994999e-01,-2.168993950088970446e-01,0.000000000000000000e+00,0.000000000000000000e+00,0.000000000000000000e+00,0.000000000000000000e+00,-1.896839018685329004e-01,-2.284991697360959917e-01,0.000000000000000000e+00,0.000000000000000000e+00,0.000000000000000000e+00,-4.779112725087725777e-01,-2.849622009537088330e-01,0.000000000000000000e+00,-4.620120993748498828e-01,-2.577297902484206316e-01,-1.976328602451180860e-01,-3.272662334852357024e-01,-2.205530601231368293e-01,-1.187900115090779751e-01,0.000000000000000000e+00,0.000000000000000000e+00,0.000000000000000000e+00,0.000000000000000000e+00,0.000000000000000000e+00,0.000000000000000000e+00,0.000000000000000000e+00,0.000000000000000000e+00,0.000000000000000000e+00,-6.203221861331318504e-02,0.000000000000000000e+00,0.000000000000000000e+00,0.000000000000000000e+00,1.907980809644655995e-01,0.000000000000000000e+00,1.907980809644655995e-01,0.000000000000000000e+00,0.000000000000000000e+00,0.000000000000000000e+00,0.000000000000000000e+00,0.000000000000000000e+00,0.000000000000000000e+00,0.000000000000000000e+00,0.000000000000000000e+00,0.000000000000000000e+00,0.000000000000000000e+00,0.000000000000000000e+00,0.000000000000000000e+00,0.000000000000000000e+00,0.000000000000000000e+00,0.000000000000000000e+00,-2.224665155425776392e-02,3.767867169282488465e-02,0.000000000000000000e+00,0.000000000000000000e+00,0.000000000000000000e+00,0.000000000000000000e+00,0.000000000000000000e+00,0.000000000000000000e+00,0.000000000000000000e+00,2.530157746399914753e-01,6.961558604823982199e-02,0.000000000000000000e+00,0.000000000000000000e+00,0.000000000000000000e+00,0.000000000000000000e+00,0.000000000000000000e+00,0.000000000000000000e+00,0.000000000000000000e+00,0.000000000000000000e+00,0.000000000000000000e+00,0.000000000000000000e+00,0.000000000000000000e+00,0.000000000000000000e+00,0.000000000000000000e+00,0.000000000000000000e+00,0.000000000000000000e+00,0.000000000000000000e+00,0.000000000000000000e+00,0.000000000000000000e+00,0.000000000000000000e+00,0.000000000000000000e+00,0.000000000000000000e+00,0.000000000000000000e+00,0.000000000000000000e+00,2.118128804190520798e-01,0.000000000000000000e+00,0.000000000000000000e+00,0.000000000000000000e+00,0.000000000000000000e+00,0.000000000000000000e+00,0.000000000000000000e+00,0.000000000000000000e+00,0.000000000000000000e+00,0.000000000000000000e+00,0.000000000000000000e+00,0.000000000000000000e+00,0.000000000000000000e+00,0.000000000000000000e+00,0.000000000000000000e+00,0.000000000000000000e+00,0.000000000000000000e+00,-1.377275296831615148e-01,6.513553106552110068e-03,0.000000000000000000e+00,-1.603130368913418813e-01,0.000000000000000000e+00,0.000000000000000000e+00,0.000000000000000000e+00,0.000000000000000000e+00,0.000000000000000000e+00,0.000000000000000000e+00,0.000000000000000000e+00,0.000000000000000000e+00,-6.733568629268725514e-02,0.000000000000000000e+00,0.000000000000000000e+00,0.000000000000000000e+00,0.000000000000000000e+00,0.000000000000000000e+00,-4.374714936166708146e-01,-4.214608863957432505e-01,-5.912953804562171012e-01,-5.092920810719809843e-01,-3.431083305928111504e-01,-3.103376671163441403e-01,0.000000000000000000e+00,0.000000000000000000e+00,0.000000000000000000e+00,0.000000000000000000e+00,0.000000000000000000e+00,0.000000000000000000e+00,0.000000000000000000e+00,0.000000000000000000e+00,0.000000000000000000e+00,0.000000000000000000e+00,0.000000000000000000e+00,0.000000000000000000e+00,0.000000000000000000e+00,0.000000000000000000e+00,0.000000000000000000e+00,0.000000000000000000e+00,0.000000000000000000e+00,0.000000000000000000e+00,0.000000000000000000e+00,0.000000000000000000e+00,0.000000000000000000e+00,0.000000000000000000e+00,0.000000000000000000e+00,0.000000000000000000e+00,0.000000000000000000e+00,0.000000000000000000e+00,0.000000000000000000e+00,0.000000000000000000e+00,0.000000000000000000e+00,0.000000000000000000e+00,0.000000000000000000e+00,0.000000000000000000e+00,0.000000000000000000e+00,0.000000000000000000e+00
